-0.05423465
-0.01081686
0.03527892
-0.04377482
0.00921229
0.02198298
-0.06577253
-0.00383163
-0.06149516
0.06439729
-0.06398301
-0.06366370
0.06285170
-0.04099312
0.05533357
0.07063351
-0.02933973
0.08253640
-0.01103843
0.01058196
0.01999126
0.03850982
0.01329991
-0.03226971
-0.00115241
0.02685692
-0.00909352
0.05464253
0.05068920
0.06197321
-0.03446000
0.07123165
-0.02269948
0.02604351
0.06564747
-0.07450975
-0.03316220
-0.02025143
-0.01985341
-0.05446200
-0.05340526
0.08484645
0.07180525
-0.05874277
0.05819670
-0.05584130
0.07070232
0.03293264
0.02692474
0.04296665
0.08755279
0.00253446
0.02215383
0.07161755
0.01859100
-0.01706627
0.03746032
-0.05355133
0.05281005
-0.04814373
0.01629197
0.00466922
0.06323191
-0.05545948
-0.07167841
-0.00957878
0.07924693
0.01735177
0.01537325
-0.03428857
-0.06109568
0.06387419
-0.06615641
-0.00884875
0.00104672
0.03045387
-0.07599621
0.01907114
-0.04706025
-0.07499339
0.06797305
0.08109834
-0.06511132
-0.04392440
0.04547566
0.07972075
0.00025800
0.01028084
0.01609013
0.06531230
0.08649915
0.05992479
-0.06818223
0.04680934
0.03113693
-0.00650265
-0.00130653
0.04509708
0.05747265
0.01361407
0.04874007
0.02728765
-0.07864764
0.06238943
0.04782701
0.01759914
0.02798960
0.02793198
0.00745996
-0.02691319
0.02848333
0.00922390
0.01742214
-0.04775134
-0.01212372
0.04882593
0.03591081
-0.06216623
0.03904914
0.02013728
0.06235629
-0.00513558
-0.06006275
0.01374980
-0.05430911
-0.04698612
0.03425253
-0.05673272
0.05678472
0.00431261
-0.05363600
-0.05314875
0.00805992
-0.06738189
0.06713323
-0.06113297
-0.02954512
0.06231282
0.03749989
-0.00362692
0.07493796
-0.02178940
0.05877116
0.01423643
-0.03701805
0.00591902
0.02273137
0.06624871
0.02220974
0.02632689
-0.04571482
0.07592832
0.04341932
-0.00783783
0.07090583
0.02920643
-0.07380965
0.06100800
-0.03017912
0.01661167
-0.05037335
0.03347417
0.02013411
-0.02102868
-0.07517762
-0.04561244
0.02588850
0.03792377
0.05384595
-0.03694038
-0.04566915
-0.00468400
0.04033246
0.00557536
0.00950948
0.01085119
-0.03246303
-0.03804883
0.06275889
0.03183436
-0.02629779
-0.01542011
0.01260671
-0.02863494
-0.01697103
0.03196560
-0.06613199
-0.06573835
0.00563341
-0.01254162
-0.00202095
0.01753718
0.08398800
-0.03466472
-0.03879788
0.04991044
0.06598505
0.06816930
0.06738578
0.03725702
-0.00635965
-0.00888864
-0.03184990
0.06395528
0.06547899
-0.06377757
0.03873225
-0.01407233
-0.04294811
-0.06511159
-0.05698980
0.02695429
0.06258977
0.06917980
0.00279285
0.07313441
-0.02372946
0.01655945
0.03566540
0.03946142
0.01469304
0.03278429
0.07798251
0.04586860
-0.00791939
-0.00852226
-0.06931499
-0.06625216
0.06551091
-0.02052781
-0.05037843
0.06003681
-0.00125943
0.05698460
-0.00160198
-0.03763774
0.07546805
-0.04495551
0.01280111
0.06614882
-0.07370886
-0.03354789
-0.03208611
-0.05376707
0.04882935
0.07291838
-0.03214888
-0.07569476
-0.04271953
0.02352121
0.03808770
-0.04723582
-0.01293815
-0.05028825
-0.03518506
-0.06062099
0.01179031
-0.07735571
0.04455202
0.05241449
-0.01292335
-0.05801566
-0.01227369
0.03333467
0.07350115
0.04031761
0.05317307
0.05943005
-0.01995998
0.07967692
-0.02266878
0.05590332
-0.01671448
-0.01000062
-0.00216476
-0.03028190
-0.00524732
-0.01659962
-0.03939619
0.01176487
-0.05251348
-0.03660980
-0.05360679
-0.04036032
0.03922433
0.06432849
-0.00404473
0.04387345
0.05230979
0.05524617
0.00000115
-0.01760573
-0.06899891
0.03841519
0.01315058
-0.02246984
0.02682717
0.02830786
0.02046002
0.03400461
0.03418855
-0.04229014
-0.01292772
-0.06196717
-0.02837813
-0.02413795
0.05622225
-0.00589301
-0.01968350
0.04844884
-0.05067448
0.05754339
-0.00792986
-0.01684349
-0.04667945
0.06452008
0.04824803
0.02445396
-0.05717820
-0.03512155
-0.05399803
0.00442602
0.02892741
-0.03771490
-0.07371800
-0.04988554
-0.05151813
0.02583349
0.02630873
-0.03339266
0.05725830
0.01682005
0.01218849
-0.02278204
0.05061827
-0.04572412
-0.05013578
0.06541904
0.06885330
-0.04116856
0.02208308
0.01356300
-0.02229845
-0.07290482
0.00712291
0.02093523
-0.03742671
-0.00414774
-0.05125577
0.00972316
-0.03152773
0.08257860
-0.01448626
0.07179967
0.05915686
-0.05612324
-0.03654292
0.03796401
-0.01763424
-0.06180946
-0.02484790
-0.03576374
0.07476370
-0.07387753
0.03938759
0.06091388
-0.04766031
-0.03438316
0.04821718
0.07405547
-0.05429585
-0.05770598
-0.01554648
-0.00760851
-0.05846160
-0.03413513
0.02179881
-0.07078708
0.00602395
0.04504157
0.07849715
0.03445309
-0.05514208
-0.07638303
0.06051688
-0.02488651
-0.04935208
-0.03417846
-0.06549019
0.02974829
-0.05906785
-0.00727133
0.04482493
-0.04078727
-0.00571184
0.01364049
0.03377445
0.07621314
-0.04293042
-0.03349943
-0.04332508
-0.06378588
0.02544306
0.04930780
-0.05513550
0.05604588
0.06505568
0.01522635
0.00217022
0.02943942
-0.05190504
0.03212301
-0.07589446
0.00265404
0.07500169
-0.04816489
-0.00124543
-0.07033119
0.03607075
0.00307019
0.06591173
-0.02966686
-0.01089329
-0.06802738
-0.04443483
0.03679590
-0.01352440
0.02018263
0.02198351
0.03556828
-0.01376120
0.05556537
-0.04291453
-0.01143063
-0.05521217
-0.06072643
-0.05747176
0.04826625
0.00715780
-0.04038596
0.04952615
-0.02282880
0.05888070
-0.04130333
-0.02048575
0.06546115
0.00304000
0.08723401
-0.00226373
-0.05318682
0.00179323
0.05789331
-0.03369135
-0.04559602
0.05313766
0.02386733
0.02147717
0.03379533
0.01044124
-0.02188446
-0.01597908
0.06734151
0.00431081
0.05404808
0.04874420
-0.02073318
0.06001376
-0.04932736
-0.01165085
-0.01747133
-0.00714402
-0.00183636
0.06985013
-0.04173450
-0.03063674
0.01670859
-0.01196120
-0.04098538
-0.00213131
0.01445300
-0.06274585
0.00517181
0.00893184
0.00291549
0.01109393
-0.05102250
-0.01097652
0.06001353
-0.01551182
-0.03336582
0.04578282
0.07178091
0.02880768
-0.00450725
-0.02664592
-0.05645667
0.03398370
0.00150908
0.01677393
-0.04800619
