0.08708788
0.05396464
-0.03701038
-0.09349096
-0.12698090
-0.09734795
-0.04540116
0.08705765
-0.03554885
0.07237301
0.05364642
-0.00033649
-0.06938531
-0.04654647
0.03755075
0.05890652
-0.14022125
0.00932450
0.01008045
0.01808733
-0.03952809
0.06547337
-0.08472689
-0.02454204
-0.00123419
-0.08786587
-0.06663547
0.02586474
-0.03980320
-0.05920320
-0.09117685
0.08336911
-0.06829620
0.05257832
0.00320680
0.03227994
-0.06291471
0.08489065
-0.05166940
0.09262187
0.08546552
0.00343659
-0.08906972
0.09787155
-0.03026278
-0.02467116
-0.07979149
0.03729181
-0.06757503
-0.02323853
0.03703703
-0.06919733
0.02940605
-0.08627615
0.02296389
-0.04127716
-0.01207516
0.03588400
-0.08095212
-0.07141303
0.12983863
0.02954102
0.14837268
-0.05763735
-0.08712915
-0.03612139
0.01918183
0.11704915
-0.09965847
-0.01139540
0.10392993
0.02213436
0.01775321
-0.07336731
0.04131151
-0.07100961
-0.09364586
-0.07528234
-0.09174673
0.04885178
-0.02886947
-0.04481093
0.02667697
0.07222911
0.05255682
0.10144039
0.00823371
-0.06796630
-0.06413345
-0.08245072
-0.09133771
0.04823372
0.09927893
0.05978377
0.07485697
-0.00385930
-0.26255479
0.06875379
-0.04829448
0.07067772
-0.09002830
0.09633694
0.03551869
-0.14655133
0.13867962
0.13114631
0.03910694
0.04292747
0.01842605
-0.19445030
-0.05043842
-0.01946038
-0.09288134
0.09589526
-0.06398838
-0.09214257
-0.01950305
0.03852648
-0.02584951
-0.01491541
0.10037493
0.07345387
-0.11589230
-0.07420771
-0.11571357
-0.07207263
-0.13818319
0.05299884
0.10512038
-0.03629474
-0.05938829
0.05854367
0.03225499
0.00346544
-0.06751502
0.09720589
0.00353096
-0.01985175
0.09910213
0.03515172
0.06454200
0.07573304
-0.05568548
0.11113665
-0.03807860
-0.01025263
-0.04005011
-0.07427913
-0.08033374
-0.09171075
0.05886486
0.05487498
0.15822838
0.12867728
-0.06320711
-0.16625358
-0.15681753
-0.01983735
0.10864902
-0.00294709
-0.01737465
-0.09404977
-0.04876030
0.02457800
-0.06280021
-0.06863197
-0.07035156
-0.01903757
-0.04539796
0.00750240
-0.11543992
0.06619681
-0.14315794
0.03409224
-0.07767943
0.16262646
-0.09527604
0.09687028
-0.05869830
0.08395367
-0.15522066
0.11708631
0.05578943
-0.02735602
0.05938698
0.18395041
0.15484712
0.05731721
0.02953854
-0.14909193
0.02185502
-0.07414424
-0.05403207
0.13512655
-0.10328194
-0.01175204
-0.01968919
-0.09816740
0.16052890
0.02816214
-0.02547559
0.05236414
0.10277612
-0.01970578
0.07384109
-0.10809601
0.03842471
0.06564618
-0.03686143
0.08413132
0.04486203
-0.00529771
0.06804302
-0.03887579
0.03870098
-0.07638252
-0.04196792
0.04281350
-0.09081614
-0.00880233
-0.03780895
0.00338737
0.08292433
0.01584789
0.03029701
0.03419765
-0.07337050
-0.00593732
-0.03102749
0.05068172
-0.01269094
-0.02021406
-0.06797869
0.12592669
0.03298618
0.09336783
-0.09288633
0.06333653
-0.08925276
0.03047279
-0.05283037
-0.04624682
0.11870150
0.12691171
-0.16692482
0.05341965
-0.11705306
0.09798951
-0.13261940
-0.01265100
0.09899584
-0.00700129
0.00516082
-0.01432072
0.10341884
0.03629617
0.07384735
0.07271728
-0.10452148
0.00852539
-0.05476371
0.00310361
0.15862739
0.09036534
0.12004738
0.08957037
-0.03726782
-0.13478668
-0.06091150
-0.09439722
-0.10920353
0.10978897
0.06998862
-0.03345244
-0.05762327
0.12025918
0.13741109
-0.12639016
-0.05241919
-0.10083805
-0.09905937
0.09160450
-0.10723563
-0.02041738
-0.08464289
0.02386307
0.10187517
0.03905498
0.03158582
-0.09190654
-0.03723965
0.07033180
0.02127472
-0.02850110
0.08734971
-0.11342178
-0.06834235
-0.02805856
-0.13864398
-0.05799042
-0.04693107
-0.13044704
-0.03019510
0.03156345
0.14956528
0.03164684
0.02452721
0.06137626
-0.10893944
-0.09991439
0.03173432
0.02864538
0.08167943
-0.01454471
0.09507918
0.04578834
0.07309737
0.04005220
0.06985781
0.06791946
-0.07739411
-0.08674642
0.05372680
0.17941472
-0.12938315
-0.04458768
0.08873010
-0.12777179
-0.01495733
-0.16749261
0.08301125
0.16488659
-0.09141148
-0.07840297
-0.19749138
-0.04754224
0.04961935
0.02672737
0.02964218
-0.03220596
-0.05842536
-0.10266064
-0.07622696
0.13913144
0.02437129
-0.04745987
0.00497416
-0.03948227
0.18377550
0.06841098
0.00101545
0.06498643
0.03861482
-0.00038089
-0.04504256
0.09145818
0.01698871
-0.08176402
-0.12379900
-0.03991321
-0.06841689
-0.13022611
0.00917110
-0.14839280
-0.08711758
0.09528278
0.03982225
-0.09673584
0.10887656
0.08810683
0.10159756
-0.03408331
0.13006435
0.08170680
-0.00815810
0.06790403
-0.04077956
0.06976765
-0.17617555
0.06240191
-0.11973523
-0.08247305
0.03993416
0.08744238
0.09623939
0.07913628
-0.03278246
-0.17510451
-0.06516878
0.08862247
0.06829254
-0.05723225
0.09931506
-0.08795747
0.00317157
0.08908409
-0.02730191
-0.03377643
0.05549772
0.02870061
0.14331611
0.00093126
0.02895920
-0.04053441
0.05509110
0.07995219
0.07985518
-0.06986812
0.05314527
0.00035760
0.08623514
0.06170441
0.04827039
-0.11348252
-0.01828239
-0.07344361
0.06943683
-0.09939046
0.03468821
-0.15204811
-0.09918008
0.05615036
-0.12935810
0.12719174
-0.10287786
0.14465620
0.12767588
-0.03764032
0.17002077
-0.00844695
0.01393787
0.07346148
0.06140209
0.00938659
-0.07099862
-0.13455516
0.01699069
0.06474537
0.02822246
-0.07959722
-0.04832093
-0.02852273
0.15592298
-0.10609090
-0.10574763
0.05417649
0.10211527
-0.10678925
0.10257991
-0.05731228
0.00007472
-0.08785298
-0.09885721
0.00366396
0.00122052
-0.07276867
-0.10947436
-0.05222473
0.02916856
0.14512539
-0.04017783
0.03432003
-0.13538773
-0.10300852
0.02779927
0.07147660
0.02835511
-0.01501074
-0.02708755
-0.13152397
0.06402408
0.04156947
0.08834594
0.03334521
-0.05400313
-0.12606560
0.02277416
0.05150238
-0.06781242
0.01257528
-0.01331250
0.07513580
0.06162985
0.03261836
0.02940816
-0.07703689
0.06513603
0.10083187
-0.06119432
-0.06842333
-0.01802408
0.01297254
-0.10202648
0.00760413
0.07434290
0.04262155
0.05489542
0.03310325
-0.07274942
-0.10368472
-0.13272566
0.03671252
0.07476536
0.16779894
0.06875325
0.09277616
-0.11785717
-0.14646757
0.02802909
0.05157045
-0.11379170
-0.01461287
0.00000195
0.03053573
-0.02151752
0.07824960
-0.12143329
-0.08538005
0.09485061
-0.00675705
0.09774529
0.15365794
-0.18428548
0.03062681
-0.03519515
-0.01399565
0.18471296
-0.10239454
0.06713950
-0.18248764
0.03217273
0.01626943
-0.08087125
0.11464345
-0.01334059
-0.05144324
0.02487645
0.06919237
0.14713269
-0.02564982
-0.01066838
-0.05223397
-0.08029012
-0.06687056
-0.02866953
-0.08363484
0.10216419
0.02055934
0.00850799
0.10106187
-0.13917415
-0.04697875
-0.03342754
-0.00276978
0.17558511
-0.04416199
0.03670253
0.11665421
-0.05091790
0.09453622
-0.06322051
-0.04200020
-0.03995175
0.09425354
-0.03357469
0.01455595
-0.04305998
0.06213432
0.09880418
-0.01228630
-0.04388249
-0.01995851
0.07590079
0.04854365
0.18577281
-0.07691709
0.00133168
-0.05187192
-0.02153206
-0.10372401
-0.07388321
-0.05120363
-0.02765742
0.12137182
0.08896555
-0.03776034
-0.11956452
0.04585436
-0.06456618
0.07616365
-0.06743817
-0.02247994
-0.05872165
-0.11324380
-0.02287472
0.01703300
-0.06241849
-0.05622361
0.10040198
0.10722668
-0.05815783
0.06084117
-0.07074272
-0.03114040
0.07760265
-0.09857218
-0.00646580
0.04050713
0.01765710
-0.12296947
-0.13166817
-0.00718615
0.04852579
-0.02835403
0.10386447
0.01725998
-0.01716476
0.03563871
-0.03774698
-0.08211977
-0.03555752
-0.13425151
0.12046732
0.04844707
-0.08420490
-0.14112851
-0.13397916
0.03268791
0.08091671
0.10256373
-0.07946944
0.14779928
0.01954315
-0.02103476
0.04598568
0.12647967
0.05171098
-0.03705460
-0.13011502
0.02830282
0.15708198
0.07995693
-0.00310206
0.03182593
-0.12905997
0.07054237
0.03109837
-0.08049238
-0.01564149
0.06177035
0.03459124
-0.17467187
-0.12195475
-0.06397584
-0.15809795
0.19089174
0.00991555
-0.08291014
0.00978410
-0.00422447
0.01517367
0.02973051
-0.17377475
-0.10711226
-0.03342136
0.02532714
0.04549993
0.19052514
-0.08365560
0.02078952
-0.06694826
-0.09402859
0.01903285
0.04309927
0.09298848
-0.02764326
0.00102383
-0.01010330
0.01039025
0.11139299
-0.05305538
-0.09270636
0.05567176
0.17198433
-0.15549868
0.03257284
0.03717685
-0.04105572
0.06986054
0.10411561
0.13921979
-0.08660661
-0.04574372
0.01355761
-0.06711547
0.05811454
0.08830903
0.11250775
-0.04241607
-0.01597061
-0.03799962
-0.02264435
-0.09809259
-0.05256804
0.00442229
0.11409895
0.03598342
-0.03119830
0.07490194
0.06524760
0.12067152
0.07229645
0.04260136
0.06538530
-0.04419045
0.03448924
-0.05831387
0.01544635
-0.07582516
0.03639736
0.02341453
0.02488235
-0.06726717
0.07704841
0.10960456
0.05046412
0.00905778
0.05829951
0.08965106
-0.04664235
-0.10117415
-0.06736156
-0.00283784
0.11838606
-0.09301537
0.01941254
0.03443073
-0.07200936
0.02811634
0.03574837
-0.02058824
-0.01509166
0.08358047
0.16743539
-0.11163031
-0.08791161
-0.14999810
-0.04851328
0.06036128
0.03240409
-0.08527009
0.07844903
-0.13874835
-0.07102194
0.04850395
-0.05008915
-0.10587500
0.17129780
-0.10998831
0.06606536
-0.07157857
0.02281098
0.07247776
0.00278499
-0.07431371
-0.03376711
0.08326857
0.00928479
0.08482670
0.08652929
-0.07667841
-0.05123483
0.10327340
0.09294886
-0.05597675
0.02514001
-0.03238696
0.08875372
-0.00700802
0.04959666
-0.05018033
-0.09916370
-0.12202055
0.04709116
0.15811959
0.07082582
0.07411027
-0.10827278
0.03289535
0.12856235
0.03467645
0.03983859
-0.00766521
-0.11194775
-0.02893869
-0.07081968
-0.05843397
0.06985554
0.00935610
0.05019393
-0.01224597
-0.01987572
-0.09111910
0.07435749
-0.14078000
-0.07749064
-0.08647130
-0.05018529
-0.04488423
-0.01327441
-0.09720613
0.08789859
-0.13698912
-0.08649688
0.12473749
0.03338058
-0.04164870
-0.19505766
0.11709343
0.10558394
0.10343244
0.13176917
-0.12695833
-0.11178657
-0.01593002
-0.12742020
-0.06446487
-0.06547974
-0.01636549
-0.00936442
-0.03012253
-0.08991072
-0.11702939
-0.01946064
-0.01765275
0.16610157
-0.04836251
0.16362496
-0.04378548
-0.03497103
-0.01536903
-0.05563498
-0.00841351
0.04451855
0.01480939
0.11159325
-0.06138797
-0.02969548
-0.03225739
0.01258126
-0.03041440
-0.15154684
-0.14429972
-0.00569294
0.02211343
0.12363204
0.04731799
-0.10789472
-0.06615666
-0.00393508
0.09833472
-0.03194576
-0.00205420
-0.10903529
-0.00656186
0.06442408
0.15262769
-0.07767572
0.04463561
0.05806871
0.07230353
0.00098719
0.08363220
0.10819014
-0.12819527
-0.09234612
0.01313627
-0.13021167
0.09257196
-0.07427737
0.06891622
0.02487707
0.00281071
-0.12491665
0.03713961
0.09603909
0.02403586
-0.06575704
-0.06513426
-0.06358881
-0.06793860
0.04648010
-0.09333673
0.06692810
-0.02243644
-0.07101367
-0.09257140
0.08917905
0.09196309
0.00163470
0.05097981
0.03740733
-0.03399596
0.04972250
0.00497234
0.10229268
-0.17813608
0.08998053
-0.00789444
0.15983777
-0.08989193
-0.06461160
-0.05072606
0.03126293
0.06511381
0.06113672
0.08434747
-0.00622866
-0.04180378
-0.09048042
-0.01618524
0.08286203
-0.12395173
0.07316981
-0.04795541
-0.08745050
-0.06175627
-0.01780906
0.01444070
0.09550835
-0.06059669
-0.11155206
0.06259290
0.00135418
0.07838725
-0.08690071
-0.10402647
-0.04896998
-0.00057372
0.02051376
-0.06884910
-0.08195596
-0.06427512
-0.05750908
0.06255298
-0.01631667
0.05502983
-0.11238623
0.01863354
-0.00381280
0.00439291
0.00917321
-0.04751993
0.01516693
0.06025806
-0.04084143
-0.06712378
0.04276348
0.03855092
0.00920244
-0.00517875
0.00327682
-0.02672457
-0.07450984
0.07977951
-0.14912125
0.05783889
0.08924443
0.12938264
0.09401616
-0.11239825
-0.03651706
0.01327881
-0.03128140
-0.03329050
-0.03140958
0.07516311
-0.01486920
0.08094399
0.11776718
0.06218296
0.01585406
-0.11411109
-0.04354684
0.03191917
0.05121072
0.02136670
-0.05782936
-0.12841141
0.17805730
-0.07282811
0.08479633
0.10693288
0.08556917
0.05915079
-0.03612036
0.00040181
-0.09319526
0.03789135
0.08241367
-0.01790570
-0.01220680
-0.00700340
0.11420357
-0.02833243
0.17601977
0.03669133
-0.09822258
-0.09499171
-0.10736325
0.01138430
-0.04851269
0.03082182
-0.05165702
-0.06864852
0.07663061
-0.07149769
-0.04573485
-0.10226284
-0.04528327
-0.03224310
0.11251053
-0.02201871
-0.09406979
0.21445070
-0.09171465
0.10343697
0.03907573
0.03164415
0.06600039
-0.01793447
0.05619514
-0.00934205
-0.04341780
0.10849332
-0.01619750
-0.09218419
0.09762163
-0.12236463
0.06525950
-0.09380437
-0.08976515
0.04328553
0.05493854
0.05102869
-0.09412234
-0.00205803
-0.02189370
-0.00525083
-0.05240974
0.10535198
0.04061860
-0.07858879
0.01286811
-0.15382381
0.11657861
-0.06374509
0.12896639
-0.08956891
-0.07657494
0.06151126
-0.09788201
0.12098915
0.03473320
-0.08851743
-0.04886888
-0.00485822
-0.05826508
0.06985901
0.03339543
0.08501620
0.04169162
-0.00525492
0.02756825
0.02808582
-0.07930420
0.02949455
-0.01584667
-0.05128614
-0.04798079
-0.02546269
-0.06579109
-0.04572673
-0.09020628
0.07357240
-0.10261422
0.07568003
0.07444089
-0.04990534
-0.02495061
0.07449149
0.05367680
0.00442204
-0.02415965
0.04614322
-0.05960453
-0.06370489
0.07399187
-0.05778099
0.05893268
-0.06753734
-0.01177890
-0.00089103
-0.07585933
0.05027512
-0.01255265
0.10341346
0.03007183
0.09398352
0.05600410
0.03799464
0.14534578
-0.04372043
-0.02063709
-0.04676692
-0.08385526
-0.07532054
-0.01628304
-0.10155398
-0.04573406
0.02977659
0.08279331
0.14163494
0.11691239
-0.04128172
-0.09248222
-0.17006613
-0.07356334
-0.06843662
0.05424634
0.06994386
0.04773400
0.01569672
0.04362158
-0.05705100
0.01370891
-0.10877262
-0.03480514
0.11334553
-0.10327077
0.09822500
0.00939819
0.06140494
-0.10383741
-0.09214929
-0.07379195
-0.00596701
0.04428866
0.03705646
0.08457852
0.04236474
0.06986549
-0.01721368
-0.10144974
0.12716652
-0.10146642
0.18017882
0.06181303
-0.00979840
0.04416713
0.02878211
0.05000290
-0.07508831
0.06409557
-0.07740161
0.08619275
0.03068800
-0.12077112
0.08494761
0.18561247
0.03740837
0.08011252
-0.11308026
-0.07380190
0.14731994
0.07573707
-0.01786162
0.08886408
-0.09995800
0.04568308
-0.14954327
0.02217006
-0.09214222
0.09660117
0.05262401
-0.09015917
-0.00254293
0.02644743
0.09398652
-0.04955913
-0.05353177
0.03059501
-0.14129317
-0.13809183
0.20910914
-0.08038837
0.11905051
-0.00317276
0.07963983
-0.06588227
0.04705218
-0.01718007
-0.06714972
0.10682376
-0.05855897
0.04243558
-0.02331523
0.05193536
-0.04296604
-0.01120834
-0.05641762
-0.04641308
-0.00894918
0.03284773
-0.09116927
0.02774463
0.01101227
-0.02298547
-0.08528742
0.07941908
0.07426130
0.12929790
-0.11049926
0.03518037
0.04102779
-0.10013095
0.00382741
0.12849542
0.02810455
-0.07271492
-0.05723847
-0.02690725
-0.04543123
-0.12958905
0.13383162
0.11064835
-0.02978013
-0.10993833
0.00259147
0.04217837
-0.01560253
0.04483489
0.04087927
0.03001920
-0.01705054
-0.09789463
0.03817470
-0.07179700
0.07689411
0.10646562
-0.03020007
0.00416357
-0.15721010
-0.05716654
0.09205215
0.13821031
0.10291823
0.09539662
0.12373781
-0.07324292
0.03139129
-0.04602035
-0.02940860
0.01708129
0.05839779
-0.10414974
0.00713611
-0.06220671
0.09673291
0.06592371
-0.00573052
0.01397697
0.03197574
0.01806157
0.02000130
0.08703125
-0.03120431
0.00167494
-0.05101224
0.00408789
-0.09798806
0.09607932
0.10660548
-0.02741857
-0.09717197
0.00179236
-0.00689232
0.00494888
0.08707303
0.05744817
0.03274969
-0.02870847
-0.13996759
0.06059618
0.12622793
-0.04628756
-0.09627245
0.07179295
-0.06049608
0.10574700
-0.02892805
-0.01413530
-0.06080821
-0.06671967
-0.11374830
0.02292717
0.04095072
0.03739086
0.04638227
-0.07578509
0.02297661
0.08146277
-0.01993090
-0.03883221
0.01286031
0.08340040
-0.02377664
0.20474030
-0.04018149
0.08005855
0.02259277
-0.02664725
0.04212339
0.06408506
-0.02638423
0.02108559
-0.08317060
-0.05016902
0.04289889
-0.05507388
-0.08355042
0.04234710
0.08656425
-0.12540071
-0.00650265
0.08524014
-0.11553941
0.04070449
-0.07643954
0.04719826
-0.00685976
0.06252252
0.02970014
0.05883957
-0.17617412
0.05986615
-0.10908050
-0.10435043
0.06013425
0.08209836
0.00509740
0.08627799
0.10591806
-0.09467942
-0.13156481
-0.02953176
0.09311238
0.03672037
0.06910449
-0.13742720
-0.14881292
-0.08406438
-0.10215296
0.01522409
0.06728715
0.07163785
0.01696317
0.01516297
0.01718222
-0.00682331
0.06423242
-0.02193399
-0.14167379
-0.03401949
0.02107220
-0.07862017
0.01261172
0.06207061
-0.11708663
0.03864089
-0.02191104
0.04846188
0.08656637
-0.16056223
0.08045640
-0.13369499
-0.06957978
0.05898432
0.04593958
-0.04837907
-0.06124222
-0.13168599
-0.01904259
-0.18017974
0.14643258
0.05035793
-0.09813172
0.05325764
0.02310652
0.13860784
-0.05036943
0.03463881
-0.11031452
-0.01070162
0.08085301
-0.11766127
-0.01565140
-0.11553378
0.15712604
0.15700257
-0.06214228
-0.05911250
0.08132770
-0.03215444
-0.04350066
0.07302140
0.08664901
-0.04074930
0.06864742
-0.00528467
0.04986172
-0.09417664
0.00508423
-0.08378637
-0.04812733
-0.08943259
-0.00499355
0.08270109
0.06814378
-0.05736546
0.06274438
0.02742925
0.07208425
0.13389756
-0.01587052
-0.09853201
-0.06469225
0.08126584
-0.01801470
-0.13270712
-0.07221851
0.04567152
-0.06535754
0.04452312
-0.02150133
0.03402604
-0.06096663
-0.08706751
0.08555692
0.00206593
-0.09309495
0.08311143
0.07776607
-0.11775236
0.01391041
-0.03731279
-0.10265981
0.02470679
0.11071017
-0.12988861
0.01891123
0.07167863
0.08423682
-0.07058953
0.03054920
0.03533420
0.11278468
0.16821966
-0.06547751
-0.12187897
0.12070131
0.14806364
0.02324489
0.03438025
-0.09534454
0.06303981
-0.07110255
-0.04476443
-0.09625531
-0.02348310
-0.02740698
0.00151946
0.12851095
0.07433337
-0.02156795
-0.20660447
0.01724527
0.04117700
-0.14017041
0.04954422
-0.00694207
-0.07064933
0.17149676
0.03778998
-0.10765094
-0.13783135
-0.07192975
0.13274607
-0.00846237
-0.07428722
-0.00895409
0.09745801
-0.03557174
0.07514916
0.04776946
0.11251050
-0.04888303
-0.10522952
-0.07898413
0.00200403
0.07260979
-0.12889090
0.14959241
0.07916810
-0.09460808
0.11333613
0.04518706
0.10508054
0.00914380
0.11747281
0.11222874
0.07105346
0.17659038
-0.13822794
0.08323325
0.12778437
0.00716417
-0.06570899
0.00050097
-0.09742089
-0.05880545
0.10627005
0.10304710
-0.10299113
-0.04690542
0.09461244
0.08863916
0.07402231
-0.03880288
0.10726575
0.00020920
-0.13410918
0.02664952
0.11632191
-0.01607086
0.06634136
-0.12798712
0.04284451
-0.03899380
0.11532521
0.07035618
0.04703378
-0.07355360
-0.01715116
0.09909835
0.09394606
0.09866503
-0.05638003
0.05141687
0.10159315
0.01052287
-0.08864992
-0.07688864
0.03750528
-0.11379387
-0.06560959
-0.03236685
-0.02579912
0.03128098
-0.03131850
0.09883703
0.01034148
0.01223644
0.09224268
0.01323074
0.02552251
-0.07901381
-0.09749561
0.12079062
-0.09659233
-0.04096204
-0.03942697
0.09929530
0.11010578
-0.04881890
-0.07865949
-0.00637125
0.05903282
0.14402235
0.03397488
0.05260050
-0.02079050
0.12520115
0.09616294
-0.11926681
-0.09864721
0.04728767
0.10771426
0.14209716
-0.15234786
-0.05251973
-0.00083338
0.17296493
-0.07968920
0.05586899
-0.23414166
0.08278278
0.07583138
0.04946122
-0.15255459
0.03927418
0.06739143
0.01183462
0.07773588
-0.02776645
-0.00907167
0.05615255
0.03963684
0.15495652
-0.05305262
0.04409603
0.10433567
-0.00715106
0.12762769
0.01558880
0.11477110
-0.05241608
0.02049421
0.14967513
-0.07827438
-0.00426285
-0.08420160
0.06305832
0.00217048
-0.12811366
0.11408518
-0.07784329
-0.02159016
0.03035027
-0.07397994
-0.04063780
0.09422304
-0.05429214
-0.00381056
-0.11437363
0.02088811
0.02433216
-0.01246009
-0.13173650
-0.06329720
0.09791615
-0.00024520
0.05503281
0.06628386
-0.04702645
-0.08200959
-0.06834986
0.09752372
0.08564035
-0.10468525
-0.15382171
-0.00216471
-0.05980067
-0.10565125
0.09141199
-0.13429742
-0.11733835
0.02939348
0.03981593
0.09871057
-0.00978929
0.00806532
0.00781524
0.02365838
0.09447259
-0.07626534
-0.03460547
-0.03850684
0.07738852
-0.07409976
0.01690904
0.05363416
-0.19694252
-0.13123588
0.18322541
0.02062752
-0.04380552
-0.01689298
-0.04844273
-0.01338397
-0.01377602
-0.13263015
-0.01045787
0.03519894
0.13506290
0.01413159
-0.15911888
0.00506001
0.18581231
0.09622215
-0.02803894
0.10621453
-0.05708083
-0.12306672
-0.00140911
-0.10243189
-0.10585159
0.09836508
0.09239045
-0.03498727
0.20715295
0.06211783
-0.09198499
-0.16843547
-0.06290477
-0.09484221
-0.00536880
0.15707389
0.08809039
0.00902940
0.03724331
-0.04369878
0.02705229
-0.05589626
-0.05593286
0.09836615
0.07104210
0.08510115
0.00364975
-0.07511663
-0.10345885
-0.01034746
0.14588812
0.07776653
0.00044129
-0.12925300
-0.09410062
-0.00719811
0.05534445
-0.07551592
-0.02012866
-0.01416392
0.07745248
0.00404492
0.01090113
0.07864240
-0.00171141
0.02503520
0.04850858
-0.04275245
0.13734078
-0.00236878
0.11486656
0.10360205
-0.12799723
0.06959592
0.16669662
0.04664216
0.06217982
-0.16138926
0.04641188
-0.07159653
0.10808127
-0.06369935
0.12117811
0.09076605
-0.06182812
-0.10592701
-0.05116160
-0.06158027
0.07790192
-0.02659363
-0.10779411
0.03835318
0.05591734
0.06501202
0.10751285
0.01028853
0.00700682
0.07212169
0.05501859
0.10538145
0.00092169
0.10808904
0.07830715
-0.10332733
0.03904752
-0.08873802
0.08264336
-0.05739439
-0.03912491
-0.10110259
0.02996052
0.12487303
0.10020239
0.09941655
0.06637198
0.10038984
-0.00110992
-0.07300156
-0.03532349
-0.07522853
-0.01749970
-0.02855328
-0.01876433
0.05978218
-0.00683655
0.02922055
0.11372973
-0.12410619
0.09106377
0.12465955
0.15994485
-0.09878903
-0.05879507
-0.07721310
0.12522201
-0.13717245
-0.01180730
-0.00369179
-0.04587834
0.08861879
-0.01402839
0.12992880
-0.10945028
0.05742110
0.00159428
-0.03080468
0.07483704
-0.12510769
0.10399196
-0.02171811
-0.03179634
0.04812543
-0.10399293
-0.08807218
0.03848050
0.01376126
0.08319233
0.07843886
-0.16136675
0.08146870
0.10594086
-0.03472176
0.08767183
0.06678648
-0.03307090
-0.01094652
0.05384895
-0.19890878
-0.03940040
0.02252788
-0.03722300
-0.06448435
-0.02564498
-0.15014401
-0.04775257
-0.12221198
-0.09397814
0.09498338
-0.13353369
0.06637516
0.02983884
0.06713951
-0.06594348
0.05163368
-0.09114628
0.02797662
0.03927707
-0.10032779
-0.00929365
0.02106360
0.03103151
0.02078952
0.00720585
0.01363406
0.03814004
-0.05355889
0.14648220
-0.03026776
0.09762715
0.07037564
0.15602645
-0.02251328
-0.03298628
-0.00004916
-0.09787134
0.07309304
0.04636100
0.07508573
0.02994256
0.17620982
-0.09190346
-0.13832660
0.03699011
-0.02946047
-0.08836522
0.02826829
0.05793625
-0.07237510
-0.03526030
-0.04364435
0.08832348
-0.13970871
-0.11106607
-0.15050109
-0.09788128
0.05771220
-0.03260718
-0.08798751
-0.04159702
-0.06206167
0.01824990
-0.09903615
0.10910395
-0.06008390
-0.09027553
-0.04658828
0.07318921
-0.08412949
0.10896872
0.01971367
0.10405699
0.00053732
0.04548464
0.08378683
-0.13725178
0.07572234
0.06685307
0.12889852
-0.03540092
-0.00986987
-0.07428392
0.00082069
0.13915063
-0.15448788
0.06455268
0.10404354
0.09771070
0.08616779
0.11184380
-0.01335228
0.04872178
-0.08667537
0.15417452
0.04271021
-0.03679742
-0.09880717
-0.14433885
0.03798352
0.05093303
-0.05823949
-0.14252459
-0.14164853
0.06848126
0.00919077
-0.03007971
-0.03911679
-0.00265826
0.04719863
-0.03436223
-0.06967343
-0.05373513
-0.08127169
0.04974128
0.08347677
-0.08467098
0.10607515
-0.03045291
0.06414901
-0.09568922
-0.01436067
-0.07223962
-0.02841639
-0.07325583
-0.09615231
0.10049948
-0.02916284
-0.10977002
0.04872279
-0.05564264
-0.02457203
-0.06214242
0.05420644
0.06583742
-0.04270363
0.01091106
-0.06986101
-0.05514009
-0.01845982
-0.06117660
-0.06999826
0.12662484
0.04426342
-0.12834090
0.04229803
-0.04294540
-0.06399678
0.15364042
-0.03501058
-0.09599224
-0.04113024
-0.00250109
0.01082938
-0.08495205
0.04519960
0.08844685
0.01295821
0.08062854
-0.03088857
-0.03268280
-0.05223314
-0.00274458
0.07770268
0.07171665
-0.09702263
-0.10044347
-0.04948797
-0.09334335
-0.08959331
0.08752536
-0.04542458
-0.01024656
-0.13370322
0.02519793
0.03617166
-0.02120075
0.01130446
-0.06393957
-0.14434825
0.07919321
-0.12334584
-0.10822422
0.04332691
0.03878273
-0.01666594
-0.02398462
-0.00021987
0.02501876
-0.05910289
0.05560797
-0.16894826
0.04036704
-0.04912313
-0.09464211
-0.04483577
-0.07638775
-0.11402880
-0.03953138
0.08674286
0.06685878
-0.13262607
-0.04788281
0.10042556
-0.04239367
0.00478838
-0.10562190
0.09460672
-0.10482409
0.05783445
-0.00241071
0.11517915
0.00973047
-0.13643083
0.07905185
0.00118983
-0.05170928
0.10069548
-0.13557895
-0.01644123
-0.05633865
-0.03976895
0.10557181
-0.10528913
0.01408255
-0.10437004
-0.04526183
0.10246065
0.01001934
0.06155550
-0.05778957
-0.05066070
0.00442714
-0.15320300
0.03147342
0.12977961
0.11445886
0.11549680
0.08109003
-0.03606154
-0.10959852
-0.10133771
0.01967816
0.08510538
-0.05507933
0.11907546
0.06985462
0.15830833
0.03009910
-0.09990780
0.00835529
-0.07452674
-0.04809253
-0.08769143
0.04012173
-0.08782464
-0.00960412
-0.08619656
-0.01089297
-0.10524118
-0.04752425
0.02576673
0.17197888
-0.03770626
0.00237813
-0.14224888
-0.00034435
0.10924598
-0.21189655
0.04888365
0.13371988
-0.01598186
0.15490365
0.02101866
-0.02794155
-0.19651499
-0.03460946
-0.07427084
-0.04699957
0.04877254
0.01465732
-0.12971094
0.03472269
-0.04221375
-0.09563399
-0.10713492
0.17117013
0.01621887
0.08730827
0.05258093
0.10523691
0.04531350
-0.09873509
-0.11058857
0.00547182
-0.07054678
-0.00683383
-0.02601289
-0.04141909
-0.08024319
0.09161095
0.15824090
0.02282913
-0.08674192
0.09256957
-0.08263957
-0.03608170
0.05981185
-0.12698357
-0.05768757
0.00723653
0.08406983
0.05767634
-0.07006182
0.04286874
0.09502350
0.04243271
0.10427561
-0.02764671
-0.06807739
-0.01999246
0.00588192
0.03005562
0.04230820
0.07760010
-0.00561482
0.06363895
0.08997378
-0.08533448
0.13807654
0.05454539
0.00099693
-0.00729574
0.04078830
-0.06326457
-0.10639773
0.02280112
-0.09751254
-0.10705090
0.08291788
-0.01117943
0.00450359
0.09217627
0.06085958
0.08681232
-0.00820727
-0.04389552
0.07850378
-0.07855756
0.00755536
-0.17336546
0.09633289
0.00977599
0.11433906
0.04957573
0.07392725
-0.12344284
-0.05519246
0.00493148
0.03473937
0.10628414
-0.05472605
-0.06540427
0.08154695
0.06023968
0.09551399
-0.03244087
-0.05107644
-0.06676958
-0.01769705
-0.03874246
-0.01732583
0.04754243
-0.13996899
0.06982297
0.12881286
0.10973600
-0.02872028
-0.07960960
0.01721105
0.00485859
0.11951592
-0.07121324
-0.05763076
0.02674958
-0.07573856
-0.15501814
0.12378392
-0.07753627
0.13841334
-0.00948973
0.01110625
0.06674097
0.08518527
-0.09599715
-0.16574150
-0.04340990
-0.00870476
-0.07465211
0.05523521
-0.01903174
-0.09301635
0.03706674
-0.08846546
0.05117701
0.13192864
0.05673071
-0.10821512
0.03398308
-0.01493707
0.17803185
-0.06845367
0.05209855
-0.10455025
0.08048286
-0.04763117
-0.06047813
0.01848739
-0.11686555
-0.12719433
0.00103832
0.01502625
0.03984166
-0.10101520
0.14685906
-0.07915124
0.02093214
-0.01188123
-0.11714398
0.08736392
-0.09193049
-0.07244451
0.08790892
0.01548511
-0.01422917
0.06192617
-0.01493909
-0.18520640
-0.01990478
-0.04261267
0.19640738
-0.12091938
-0.09124439
-0.11170212
-0.08712327
0.05431905
0.06816749
0.15984489
0.05810770
-0.08389171
0.03089121
0.15321416
0.01923204
-0.08703883
-0.08976146
0.06721534
0.10631392
0.10383193
0.09809887
-0.11098368
0.07200289
0.00002687
0.07227679
-0.01066051
0.01461766
0.07373929
-0.07172634
-0.05412658
-0.02315587
0.07531903
-0.07398194
-0.00809966
0.10587458
-0.00456180
0.00351130
0.04128445
-0.01550615
-0.07888544
-0.03138272
0.06359379
0.08959179
-0.02296197
-0.10912167
-0.12565556
0.06080490
-0.08433595
-0.01873908
0.03194465
-0.00080652
0.02232044
-0.01453823
0.13069782
0.04148587
0.09117986
-0.04662854
-0.04037968
0.03989908
-0.05378719
0.02748176
0.06968103
0.01680835
0.03187675
0.04623756
-0.00644106
-0.12562853
-0.07439572
-0.00564609
-0.00693708
-0.07144494
0.07060160
-0.02858973
-0.06122329
0.05989828
0.02007265
-0.00328822
-0.04397247
-0.04611120
0.00316571
-0.12181871
-0.13330150
0.08067386
0.11081023
-0.00030048
-0.18040563
-0.10152784
0.14182745
0.04709752
0.03409983
-0.03281453
0.04321693
0.09989134
0.09292976
-0.10459718
-0.04468970
-0.08916418
0.01629501
0.09203076
-0.01348136
-0.04178977
-0.08537237
-0.09434783
-0.17822346
-0.08479363
0.12842518
-0.08284328
0.03531084
-0.00257660
-0.09194081
-0.00742013
0.01261142
-0.01408258
0.04297042
-0.07584073
-0.01236995
0.00233534
0.01572012
-0.03911471
-0.06061241
0.05170616
0.07095640
-0.08259485
0.07135819
0.03100736
-0.05105322
-0.10789618
0.04917776
0.05380053
-0.05876521
-0.02396804
-0.04982597
0.01084469
-0.02803770
0.06937816
0.07209373
-0.03118989
-0.01756876
-0.01189046
-0.12036922
0.06740073
-0.01298329
0.04460026
-0.01656473
0.03443656
-0.11327575
0.06883136
0.02865261
0.04692556
-0.01197313
-0.08854592
0.12223934
-0.03808066
0.12266018
-0.07423574
-0.15747403
0.07783788
-0.03204380
0.11259285
-0.02011194
0.11159585
-0.12205327
-0.05308313
-0.06481747
-0.01681484
0.04622779
-0.05325985
0.04412992
0.06896720
0.08591552
0.07241947
0.07439416
0.15317042
-0.03694078
0.05250824
0.06880680
-0.12162153
0.03320125
-0.18113722
0.16040707
0.07811790
0.12049000
-0.09537461
0.10149600
-0.05009348
-0.08679909
0.05946033
0.03993696
0.05852773
0.03797542
-0.11564543
0.06965037
0.00313882
0.09336720
-0.02322028
-0.05692835
-0.12025853
-0.00517769
0.03851012
-0.09918204
-0.06648567
-0.04162068
0.06405434
0.02378212
0.11435492
-0.10267527
-0.08582176
0.09274203
-0.02453143
0.07444956
-0.09939987
-0.00937800
0.08255756
0.05552205
-0.01058658
-0.11728063
0.00528035
-0.06798495
-0.06777511
-0.08408815
-0.01907738
-0.10506766
-0.07535630
0.05278542
0.03656465
-0.08989205
0.09251998
0.09155940
-0.06568541
-0.00677654
0.07751852
0.00838519
-0.02527014
0.02118250
0.11338952
-0.18700026
0.03094594
-0.10237087
0.08993804
-0.03657541
0.01165580
-0.10703850
-0.04166087
0.08892006
0.06801510
0.05338195
-0.06296490
0.03821322
-0.15346745
0.09326828
-0.04747898
-0.05194396
-0.08087688
0.01570896
-0.11022465
0.06441945
0.02867382
0.12124954
-0.04541861
0.04931709
-0.00242992
-0.00221965
-0.11856686
0.07234616
0.04751049
0.02716964
-0.09157832
0.09667143
0.08159330
-0.02552135
0.07029586
0.00699429
-0.01504504
-0.08277280
-0.15516476
-0.09654498
-0.01318732
0.17146121
0.04793251
0.06426439
-0.01538183
0.02256715
0.09775900
-0.07411330
0.04686200
0.03938600
0.01716050
-0.11160761
0.09043945
0.05393338
-0.03312093
0.04048035
-0.02726953
-0.06787997
0.04540955
0.05467930
0.05790800
-0.06040875
-0.07021989
0.00351708
0.04052212
0.06487986
-0.05282733
-0.05649297
0.14061573
0.12028088
0.05001974
-0.10639089
0.01438826
0.03755448
-0.21029425
-0.08228721
0.09417054
0.11050767
0.02522171
-0.05124107
0.00665379
-0.03033632
0.02543259
0.03341706
-0.09129207
-0.00555201
-0.02823489
0.03864583
-0.02895390
-0.09007383
0.10231290
-0.09543013
0.06053579
0.01690385
-0.06561746
0.03020946
0.07147547
-0.05041926
-0.02600378
0.11115006
0.10766707
-0.05998738
0.03453162
-0.04335283
-0.12354428
-0.03740444
0.06477795
-0.02385632
-0.08047168
-0.10439683
0.09619437
0.05581040
0.04892744
-0.03208970
-0.05921542
0.11222469
-0.02695742
0.14051218
0.15116537
-0.05176092
0.07151774
-0.12962659
-0.06554511
-0.06909479
-0.04754911
-0.02273704
-0.03406123
-0.02816771
0.12831646
0.01134543
-0.13891838
0.04990203
-0.02406645
0.06844659
0.09848980
-0.03469588
0.08586791
-0.02316292
-0.00120048
-0.03889256
0.10008990
-0.03328444
0.15999033
-0.15239014
-0.08608223
0.03796344
-0.05700532
0.09639876
-0.04713736
-0.00542458
-0.06788934
0.00726714
-0.09373382
-0.13509555
0.12295285
-0.00773581
-0.02184530
0.06669713
0.16146566
0.02826171
0.11670362
0.02693638
-0.03746436
0.09336158
0.07498143
-0.08754176
0.07924971
0.01852792
-0.19039236
0.04363080
-0.13679196
0.13321531
0.09586495
-0.11732799
0.08983197
-0.07109848
0.16438240
0.13650355
0.04722744
-0.06398595
-0.08991687
0.02194244
-0.10763055
-0.04052776
-0.17983104
0.05651833
-0.08894290
-0.06438832
0.02760121
-0.08408208
-0.01453965
0.09595737
0.03485067
-0.05012544
0.03151140
-0.02978636
-0.05084731
-0.07351382
-0.12736584
-0.03041116
0.02676620
-0.16047996
-0.02465232
-0.04442530
-0.08595430
-0.07892197
-0.11911304
0.04337565
0.01406533
-0.08485989
-0.04358843
-0.15427521
0.05817396
0.07275373
0.20383666
0.08877125
-0.02896971
0.04455085
-0.04843506
0.00233032
-0.03206873
-0.09769797
0.08350160
0.13818510
-0.07782938
-0.03548832
0.04842321
-0.00877618
-0.06615644
-0.07467842
0.09090764
-0.08084244
-0.05303345
-0.00467372
0.08306812
-0.06926336
-0.03394346
-0.01023217
-0.12215377
0.07985163
0.02260960
0.08524422
-0.00497365
-0.10188362
-0.11052503
0.06496657
-0.05638082
0.08729641
0.08931352
-0.06566463
-0.04486638
0.09849229
0.05780636
-0.02785489
-0.06181000
0.01396418
0.02163317
-0.07294948
0.06691542
-0.05417675
-0.09086893
-0.07435846
0.01863907
0.00500809
-0.07405093
0.03095509
0.07320046
-0.04196585
0.03429557
-0.04564729
-0.06029409
-0.07874353
-0.03326171
-0.05363030
0.19084515
-0.05234408
0.07611702
0.06502493
-0.02971409
0.04533235
-0.02153093
0.05815523
0.06626781
-0.04257591
-0.07087369
-0.09102844
0.08493909
0.00086441
-0.08732301
-0.05594741
-0.02321628
0.04436307
-0.04210809
-0.00481584
-0.07989410
-0.00390564
-0.04602189
0.10200509
-0.00953708
-0.09594885
0.05259959
-0.16220441
0.10704433
0.04900210
0.15974624
0.10008060
0.14163564
-0.07264703
-0.06301112
0.05704335
-0.10890754
-0.12603202
0.18189655
-0.06776273
-0.00240591
-0.07769345
-0.05656910
-0.04265868
-0.09020437
0.12200605
-0.11668329
-0.08556002
-0.11011545
0.09864143
0.14388998
-0.04793011
0.19984181
0.03988004
0.16193293
0.05951667
-0.13427526
-0.00301858
-0.08731477
0.11253703
-0.04124767
-0.13682377
-0.16100495
0.05025113
-0.01370827
-0.02588748
0.03702386
0.08470375
0.00106636
-0.04052436
-0.06453501
-0.08207930
-0.11138383
-0.08784630
-0.09862880
0.00037345
0.04447848
0.07222611
0.02860715
-0.06502186
-0.08543904
0.00524664
0.07938112
0.01965889
0.08651144
0.06553371
-0.10076337
0.04355020
0.10582587
-0.03729909
0.03636516
-0.04297678
-0.05615820
0.08928183
0.07824093
-0.02196360
0.04243798
0.07775297
-0.01897299
0.09640431
-0.12300530
-0.09449137
0.03207929
0.09686726
0.01457393
-0.09504616
0.07792248
0.08401894
0.03523398
-0.06717670
0.01732773
-0.00292184
0.04072107
-0.10369607
0.00260022
-0.08303141
0.08789788
-0.06601472
0.08590187
0.05395304
0.04337711
0.09556857
0.03948738
0.07840878
-0.07583797
-0.07856662
0.06988642
-0.02840527
-0.10434122
-0.03585348
-0.06348275
0.09564535
0.04168227
0.10060105
-0.03395190
-0.16140029
-0.13331318
0.00692926
-0.00028199
0.07521207
-0.11062940
0.14665233
0.04134309
0.07977443
-0.07147639
-0.10153886
0.06385904
-0.06145434
0.09526120
0.05583351
0.06991567
-0.00230851
0.07010227
0.07397778
-0.08606627
0.02880665
0.05070795
-0.00780878
-0.08065070
-0.00364955
-0.12198735
0.05363777
-0.03159129
0.10343611
0.02729764
0.04980628
0.00641255
-0.00886809
0.07958338
0.10189642
-0.02660938
-0.03973669
-0.03278778
0.01921569
0.01132021
0.10818902
0.10778237
-0.00836050
0.03612826
0.00337638
-0.06732080
0.07620960
-0.02166174
0.01933393
-0.02284425
0.02095824
0.08989807
-0.17213199
-0.08448106
0.04794733
0.07423281
0.10289851
-0.08255165
-0.10378674
-0.05741424
-0.08847490
0.01148792
0.05735523
-0.13111012
0.01935528
0.00201706
-0.07891188
0.06182090
-0.04198900
-0.15700060
-0.09839459
-0.04896069
0.17597531
0.08303472
-0.00314762
0.10433592
-0.01177436
-0.07148055
-0.02501521
-0.01787036
0.09670012
-0.02575485
-0.06850065
-0.13532406
-0.04870350
0.09706045
0.15566652
-0.06912296
0.05338439
-0.11808666
0.03609452
0.02783829
0.06265874
0.08378386
-0.03576127
-0.01909067
-0.17321113
-0.15316823
0.07053270
0.07333140
-0.00514240
0.12982948
0.07646410
-0.07821053
-0.14489338
-0.07274038
0.14038715
0.11349945
0.10856116
0.03666222
0.05036776
0.06090313
-0.01243330
0.03825705
-0.06563761
0.09127888
0.00945930
0.07390960
-0.04540147
-0.01514543
0.10837705
-0.08887106
0.14703986
-0.07363244
-0.10556190
-0.03138293
0.05062626
0.02247507
0.07827110
-0.02754572
0.16557980
-0.00767355
-0.17166683
-0.07452956
0.10649673
0.06380887
0.19733752
0.12055621
-0.12080346
0.00306207
0.01504259
-0.09397119
0.11113834
-0.06741643
-0.07423458
-0.00961694
0.11123444
-0.13996103
-0.02671086
-0.12441750
0.09468866
0.02282611
0.18673606
-0.12518625
0.03356321
-0.00939798
0.09653323
0.05106502
-0.09973835
-0.02689337
0.14268711
0.05201060
0.11464962
-0.11179278
-0.07696407
-0.00461850
0.06766526
-0.06740873
0.07943838
-0.02521892
-0.02850421
-0.08718753
-0.02066541
-0.08840035
-0.04660840
-0.01161388
0.05191947
0.07948452
0.04056901
-0.09309226
0.09571844
0.13105240
-0.06590077
-0.12669910
0.07736424
-0.10840161
0.04969170
0.00291424
-0.05052087
-0.04255992
-0.08974487
0.07542684
-0.09742333
0.03990870
0.06412867
0.07197086
-0.08733801
0.00610834
-0.07413262
-0.07309084
0.05114474
0.00974501
-0.09262662
0.09947521
-0.09771714
-0.06934439
-0.02021899
0.13487422
0.01467595
-0.14170951
-0.01720582
0.02738474
0.08170550
-0.01893756
0.06135425
-0.13383172
-0.11437933
0.05289368
0.08293663
-0.06135628
-0.05532094
0.09523947
-0.11661437
0.09935975
0.02947297
-0.12266583
0.01986097
0.05102976
0.00745081
-0.07763709
0.01999906
0.00909528
0.02931026
0.00783210
-0.06345816
-0.16723482
0.05465459
-0.16948165
0.13668498
-0.02164793
-0.07835940
0.00865710
0.03176868
-0.05302425
0.06732771
0.08742940
-0.17114303
-0.02252590
-0.03736825
0.07089911
-0.05014660
-0.04323881
0.13269316
0.06254458
-0.04344532
-0.03584759
-0.13125692
-0.08286237
-0.03649819
0.09673573
-0.04845775
-0.11714078
-0.05208267
-0.05271904
-0.02791838
0.09359437
-0.11730108
0.01322743
0.02060273
0.01554768
0.01450313
-0.02119944
0.06609356
0.04407122
0.10563742
0.02023796
-0.02661061
-0.00784769
0.04362743
0.14410664
0.13277084
0.04771836
0.03292339
-0.17316814
-0.09199664
0.12243348
-0.10770769
-0.02634796
-0.06826343
-0.01312960
-0.02168641
0.01820000
0.00917830
0.01852908
-0.00849759
0.05141307
-0.10425272
0.10059556
0.04285078
-0.05238349
0.02245896
-0.13019538
0.11132199
0.01754135
0.10029636
0.02247699
-0.07895516
-0.03920181
0.01594372
0.01846197
0.11598401
0.08875591
0.09969362
0.00137458
-0.08704731
0.10388514
-0.11107919
-0.12195822
0.11464692
0.09879448
-0.05668740
0.09859239
0.06891782
-0.06018225
0.01256895
-0.05153810
0.06898221
0.00062728
0.00079391
0.06817473
-0.01046044
0.02945782
-0.05796301
-0.02344099
-0.07690420
0.01610315
-0.09448621
0.09858013
-0.05747649
0.04196707
0.09349386
-0.00537970
0.05761224
0.10455554
0.00423647
-0.00339851
-0.04543628
0.08187710
-0.08979416
-0.02723224
0.09529497
0.06758482
0.01834671
0.10249344
-0.16758561
0.06329885
0.01194840
0.01055173
0.15773450
0.18075773
-0.04762694
0.12724119
-0.12521604
-0.05208956
-0.01607532
0.05825186
-0.15208121
-0.10716499
0.09648313
-0.13058469
0.14065111
0.02318882
-0.03978233
-0.11953276
0.04506759
-0.09122910
0.05996283
-0.00915287
0.00553241
-0.09566607
-0.01453407
-0.02748788
0.07403205
0.05203300
0.10857274
-0.04004607
-0.01475378
0.08751254
0.02875001
-0.08316904
0.08729891
0.06891463
0.08959986
0.06967177
0.04298959
-0.00457881
0.01481219
0.14696801
-0.25699589
0.10815615
-0.03351109
-0.14812915
0.08378801
0.16582407
-0.14827210
0.13256899
0.12963155
0.10725930
-0.13196182
-0.02654366
-0.09274599
-0.00164186
0.09043510
0.05274688
0.08806352
0.13515119
-0.02448106
-0.06538852
-0.04038759
0.03791820
-0.02939040
-0.00070723
-0.01993618
-0.07220460
-0.05875051
-0.01911675
0.08878506
0.09222772
-0.04648698
-0.06710341
-0.05497558
0.08601715
-0.08631497
-0.08236824
-0.12984124
0.10115980
0.12265023
-0.01079615
-0.04161811
0.07264009
-0.09472214
-0.08091253
-0.01157010
0.06343141
-0.03734887
0.05240186
-0.00094153
0.00350037
-0.03257664
0.08399011
-0.12464603
0.04794735
0.13107973
-0.10475146
0.00479147
0.01225763
-0.03268925
-0.03169253
0.02653125
-0.03141880
0.08852318
0.06272239
-0.12196614
0.00227690
0.01424543
-0.01996430
0.09764238
0.07646036
-0.02145358
-0.08170143
0.01483434
-0.08420675
-0.07050361
0.04353207
-0.01056237
-0.05555433
0.10696997
0.08416778
-0.09734129
-0.11610973
-0.05877284
0.05711566
0.08622574
-0.09038176
-0.08482161
-0.05478805
-0.00970200
0.04601038
-0.02218052
0.12521790
0.01467202
-0.13183199
0.00109282
0.00428371
0.05850244
0.06123369
-0.03852532
-0.03431186
0.10141083
0.03958039
-0.02448480
-0.00351118
0.09085529
0.01037762
-0.03747912
-0.07675226
-0.06285568
-0.12220523
0.08951026
0.01993650
0.05107952
-0.11699228
0.11132430
0.13797504
-0.16788363
0.11124325
-0.01300894
0.09097557
0.09173603
0.11272513
-0.07037347
-0.04513950
-0.04316507
0.00164082
0.02438669
-0.07659457
0.06868520
0.02583358
0.09268112
-0.06481663
0.00025895
-0.06604271
-0.07689929
0.05227112
0.07629620
-0.05805752
-0.09738179
0.06627916
0.08498486
0.03637841
-0.16043457
0.09387339
-0.10050060
-0.00728196
0.01298583
-0.03064599
-0.11139674
0.07291336
-0.02839806
0.05192480
-0.05782954
-0.03569485
-0.07174808
-0.11497797
0.12599920
-0.03774716
0.00325002
-0.07994960
0.02665782
-0.01102646
0.02302138
-0.00603728
-0.04857901
0.05447993
-0.04788996
-0.07388806
-0.01164968
-0.06141622
-0.10423270
-0.15828456
0.06771059
-0.07120167
0.14524749
0.12734425
0.08649127
0.05386438
-0.06686712
-0.13114700
0.02412080
-0.13228559
-0.08394121
0.06548293
-0.11901981
0.13513768
-0.03304885
0.05352442
0.10432902
-0.05703036
0.05199005
-0.03375373
-0.01380386
-0.12092292
0.07190412
-0.08343107
0.06472296
-0.02216166
0.06239429
-0.00886344
-0.08498334
0.09420452
0.01007785
0.04151730
0.08921333
-0.10043937
0.01481314
0.08783372
0.05517644
0.06365241
-0.03988187
0.17736065
0.05402721
-0.03567180
-0.05766208
-0.18970133
0.00962371
-0.00318021
0.00868175
-0.01373419
0.15447170
-0.06674749
0.07652664
-0.00793274
0.05235108
0.01890915
-0.03555620
0.04478089
0.07263003
-0.03934802
-0.02989610
0.12700792
0.05513784
0.00793405
0.07670922
0.04486463
-0.04704171
0.00427295
0.00967229
0.03769835
0.05388035
-0.11291186
-0.09866761
-0.08437855
-0.07458004
-0.00449925
0.01724967
0.10445031
-0.01716639
0.07802690
-0.04610545
0.01329699
-0.09567969
-0.03086266
0.14057089
0.03861453
0.06726994
-0.14145179
0.13523102
-0.07082505
-0.11582505
-0.10416564
0.00711296
-0.01695286
-0.01803673
-0.21765411
0.03118289
-0.04781633
0.07635584
-0.09729949
-0.02630823
0.04698744
0.11821351
-0.15480247
0.15704176
0.01172458
0.10494095
-0.04329532
-0.05790688
0.01966802
-0.10267695
0.02043649
0.04809261
-0.03560515
-0.07456146
0.11645212
0.08681606
-0.00988468
-0.00444904
0.01767785
-0.09041061
0.18231945
-0.01185782
0.03592549
0.09046282
-0.11147486
-0.11717530
0.00046062
-0.05182690
-0.02326806
-0.02964299
0.10703939
0.00729761
-0.03807095
0.05357337
-0.03928457
-0.01552701
-0.08443003
0.09262829
0.02210666
-0.06672011
-0.02595300
0.03393114
-0.07669420
-0.00007554
0.14454898
0.02344871
-0.07210047
0.12699604
-0.01449399
-0.00347739
0.06658227
-0.03070525
0.01665237
-0.00924312
0.05943757
0.13615486
-0.03250269
-0.16359518
0.08829999
0.05485377
-0.13069837
0.10771032
-0.06072837
-0.01293014
0.11888184
0.12751523
-0.07363225
0.03228439
-0.05075144
-0.12566100
0.09262996
0.08677378
0.10170304
-0.11265153
0.01459217
0.00063866
0.04867128
0.08909901
0.02840661
-0.08545914
-0.01559751
0.09964282
-0.07420955
-0.00998945
-0.11702385
-0.03962735
0.08438037
-0.00210196
-0.08416621
0.00231538
-0.13977061
-0.10341804
0.01763312
0.07871912
0.11867897
0.06342410
0.14914452
0.02916730
0.11298234
-0.02487771
0.04619304
-0.06860688
0.02870229
-0.01993372
0.11847798
-0.19612721
0.08298916
-0.07619256
-0.09588611
0.03984993
-0.09647272
-0.09625293
-0.08071042
0.09702479
0.05381658
0.03610701
0.00340801
-0.01835118
-0.02233096
0.05762483
-0.07853823
-0.04679361
-0.01331214
0.06008162
0.09169609
0.09939031
-0.04359457
-0.07009835
-0.00948924
0.09273068
-0.07396864
-0.10580906
-0.01104769
0.07543887
0.05983240
0.01425986
-0.00924199
-0.00763778
-0.02323448
0.05767808
0.12600325
0.05185473
-0.05304155
0.03204979
-0.04187662
0.00617317
-0.00405761
0.02747165
-0.08106507
0.04181291
-0.05373481
-0.08182964
-0.03253403
-0.08386678
0.01125511
-0.00299055
-0.09349222
0.08449379
0.06222610
0.02635364
-0.10689066
-0.02693937
-0.10030036
0.09192964
-0.06876222
0.02956646
-0.07035219
0.00545230
-0.08215415
-0.11482655
-0.00742507
-0.02832662
0.11612743
-0.09840140
-0.04947594
0.02897057
0.13288091
0.04276389
-0.07581390
0.11166796
0.03869439
0.12852310
0.14927551
-0.01125370
-0.00827609
0.10001048
-0.18684581
0.14500614
-0.07649579
-0.07710867
-0.10077468
0.04404232
0.03260385
-0.08935917
0.11005320
0.09430500
-0.06516362
0.11703610
-0.15677686
0.18497032
-0.06010238
0.00116369
-0.07853592
-0.05867973
0.01178703
0.05964865
-0.05360841
-0.16882418
0.05194368
0.04957133
-0.02706706
0.14043675
0.07099280
0.16922110
-0.06274857
-0.09840488
-0.05222285
0.06385624
-0.02782131
-0.02644096
0.09777199
0.00441835
0.02199917
0.09427561
0.00228107
0.02696727
0.07054089
-0.08995216
0.12514052
-0.16727133
0.09294071
-0.04879446
-0.00487204
-0.03360166
0.03383893
0.02682537
0.03714957
0.21501753
0.13132504
0.07867172
-0.09365318
-0.11426455
0.01412718
0.02439821
0.03176457
-0.01859434
0.00789717
-0.09708180
0.01518997
-0.09143439
-0.05671770
0.10411353
-0.06345514
-0.00486194
-0.07814883
-0.10375885
0.03913466
0.07644982
-0.07064220
0.10508275
0.04896893
-0.06565043
-0.09028680
-0.08219226
0.04984434
-0.05808577
-0.06817582
0.01152116
0.00765336
0.10009629
0.00315778
-0.09018673
-0.01314333
-0.04254376
-0.07889704
0.04990363
0.15695967
-0.11552227
-0.05587466
0.10907152
0.08504514
0.01804183
0.12904932
0.11249854
-0.06302892
-0.07058138
-0.03705780
-0.12012359
-0.18405049
0.13262665
0.12709773
-0.07865611
-0.03535191
0.05572990
0.00314571
0.14957885
0.01937683
-0.03571910
0.09888104
0.00375714
-0.10738320
0.10369128
-0.13719355
0.06363561
-0.10272340
-0.10318159
0.04915586
0.04325746
0.00297134
-0.09735041
0.03853992
-0.06931727
0.03411542
0.07604263
-0.10392658
-0.08463408
0.05318608
0.03169467
-0.04612387
-0.07325312
0.04906074
0.06150420
-0.09544992
-0.02522836
-0.09026401
-0.02290664
0.14496703
0.12454429
-0.09855550
0.08700773
-0.06789298
-0.02753563
0.08499575
0.03316295
-0.08262660
0.10052084
0.01077587
0.09688539
-0.01614647
-0.14302085
-0.04650250
0.01170171
0.04736442
-0.00176305
0.04910951
-0.07352144
0.13935873
0.02182530
0.13792391
0.02134890
-0.02666376
0.10414384
-0.09900307
0.09560769
0.12384371
-0.14485067
-0.07398391
0.07369635
0.00320431
-0.06334870
0.11805438
0.01569186
-0.02432352
-0.17363505
-0.09983933
0.08403034
0.04481218
0.06207689
0.09651654
0.03053584
0.14348459
-0.08520827
0.02715070
0.03761542
-0.12321617
0.04280898
-0.14909434
0.17313816
0.07224244
-0.08617397
-0.12369190
-0.13063820
0.11011607
-0.14218235
-0.03048380
-0.03360059
-0.03966667
0.11337111
-0.10118511
0.02595588
0.08297418
-0.05170531
0.04770216
0.09223579
0.05752923
-0.03133360
-0.04027629
-0.09564470
-0.06126335
0.06445866
-0.07207081
0.06565203
0.05827370
-0.01664526
0.06919701
0.02014238
0.09303298
-0.04295965
-0.12134525
0.09136499
0.06658013
-0.17048709
-0.01537954
0.12269893
-0.09507514
0.05707035
0.05046733
-0.03945484
-0.02116279
0.08853484
-0.05490282
-0.02967332
0.07789454
-0.06416134
-0.03600612
-0.06382896
0.09455926
-0.01034522
0.12641688
-0.07751647
0.09267510
-0.14464015
0.05464215
-0.08340417
0.10501473
-0.09474651
-0.06744478
0.05233371
0.06120404
0.09103932
0.01894105
-0.08617254
-0.03350662
-0.00791314
-0.09306808
0.02128232
-0.07717337
-0.14261571
-0.10511065
0.13626996
-0.12613407
0.05477659
0.04000513
-0.05400831
0.04148796
-0.06883178
0.01155311
0.06937062
0.04176521
-0.02671587
0.05302063
0.04539140
-0.06989846
0.03437175
0.00573744
0.09295069
-0.09026495
-0.02628081
0.11319285
-0.03011443
-0.02655261
0.01299420
0.04392239
0.08999499
0.08394907
-0.02654310
0.03588627
-0.03879972
-0.00723634
0.16807924
-0.12008277
-0.06636050
-0.07673476
-0.10193480
0.04278718
0.06919808
-0.14526337
0.03230605
0.08780742
0.07435942
-0.02612746
-0.02300023
-0.00128290
0.02814878
-0.10272715
-0.02384924
-0.00307292
0.08342187
0.08689981
0.07850710
0.04625726
-0.08334018
-0.02158751
-0.06586637
-0.02781194
0.01992363
-0.04588673
-0.08064072
-0.07069790
-0.06585471
-0.01442543
0.08461194
-0.14588040
-0.00998042
0.04208501
0.01534148
-0.05982486
0.09203535
-0.04293193
-0.05456233
0.02621832
-0.00273112
-0.07311593
-0.09562687
0.04282478
-0.04932571
-0.02785892
-0.01409285
-0.06384841
-0.01913965
0.03057627
0.05333611
0.03081463
-0.00325258
0.02743452
0.06681417
-0.03972026
-0.09283312
0.05897993
-0.02174972
-0.09742512
-0.07754818
0.07731354
0.02262597
0.01395217
-0.00459931
0.08703404
0.02078722
0.08949871
-0.06492727
0.13595560
0.02763021
0.08571783
-0.07580645
-0.04459985
0.11382469
0.01630024
-0.14352237
0.06686974
0.07276472
-0.06117283
0.03612052
0.03725746
0.12337027
0.13417302
-0.01841785
0.02140401
0.08393204
-0.08246574
0.08048576
0.06421318
-0.11314945
0.07280821
-0.01201241
-0.04496353
-0.12436593
0.03172342
-0.03055318
-0.09190943
-0.01690015
-0.10776794
-0.06273977
0.05400852
0.03856706
-0.06010573
-0.05508151
-0.05146823
-0.05594664
0.06628098
0.02909799
-0.04449379
-0.06199522
-0.07871749
0.00810270
-0.06833319
0.08142445
0.09977403
-0.09353346
0.05392194
0.09910281
0.10598463
-0.00778699
0.07596770
-0.07993711
-0.06277493
-0.09632517
0.01672743
0.07062239
-0.09857477
-0.03203723
-0.02379036
0.12177332
0.03045597
-0.13367835
-0.04191846
0.09516896
-0.15192369
-0.01364081
-0.00584574
-0.04196127
0.05635877
0.05020125
-0.00174769
0.08476219
0.10145095
0.09489530
-0.16205727
-0.14260980
0.04608851
0.13880485
-0.04445468
0.05735860
-0.00042632
0.06601177
0.04245644
0.10058550
-0.10541616
0.09716608
-0.09925801
-0.02459857
-0.12218234
0.06728583
-0.00295550
0.08142960
-0.03152565
0.05218215
-0.06937461
-0.02879055
0.01561510
0.07495459
0.06794886
-0.13025114
0.06352004
0.02002955
-0.02141864
0.01761630
-0.06429272
-0.09560066
-0.06356066
0.06667860
0.00058017
0.04692798
0.01428906
-0.09971323
0.02589952
-0.06614076
0.01326438
0.03170323
-0.16013739
-0.07279555
-0.14441705
0.02553749
0.13949385
0.05762701
0.02146487
-0.03960731
0.04865500
-0.00442246
-0.09031229
-0.08637952
0.02895175
0.03288133
0.05922098
-0.05918920
0.03377973
0.03577768
0.06824496
-0.07025796
-0.02012195
-0.04988259
-0.15119644
-0.17189440
0.07247029
0.12663116
0.12350634
-0.07212391
0.05931930
0.08771963
0.00747079
0.07470778
0.09901114
-0.05368079
0.01178907
-0.00877918
-0.07799830
-0.02201031
-0.10365677
-0.07129535
-0.00822416
-0.03403606
0.00490345
0.10388575
0.02308647
0.09036739
-0.05329592
0.01939316
-0.10237800
-0.05449825
0.09640186
0.06688218
0.13904080
0.08763748
0.09527369
0.00740737
0.09503040
-0.13628459
0.00483100
0.03433308
0.05926502
0.07119244
0.08322793
0.01630461
-0.20509848
0.13063109
0.07597636
0.03526529
-0.04928302
-0.16716366
0.11725518
0.05262280
0.08239847
0.03521074
-0.05894375
-0.08407260
0.11989589
0.13089484
-0.03469124
-0.21137068
-0.09889220
-0.09791782
0.03759744
0.00578951
-0.08495744
0.05389945
-0.01646269
0.00260258
-0.00418287
-0.01434192
-0.07396848
-0.07324411
0.10083595
0.00318163
-0.08133570
-0.01059739
-0.04027164
-0.04012250
0.09932549
-0.07089716
-0.07558554
-0.04562635
0.09055622
-0.04702368
0.03482438
0.03798890
-0.06704213
0.00298064
0.04951382
0.06406410
0.04018350
0.07850542
0.13843620
-0.06151387
-0.10093497
-0.03870657
-0.09909480
-0.05241469
0.06614746
-0.09029764
-0.00277328
0.05207387
0.11670665
-0.08885529
-0.01270928
-0.00646907
-0.08375501
-0.01635611
0.02575266
0.14388402
0.05772974
-0.01754904
-0.07250313
0.04083484
0.03414313
0.03833546
0.01872262
0.08084904
-0.09048761
0.05086219
-0.12785614
0.08960406
-0.01870112
-0.06395301
-0.07068899
-0.08257656
-0.11999837
-0.01309673
-0.00019915
-0.09393518
-0.01449698
0.01927342
0.18888161
-0.01340952
0.16185889
-0.01885990
0.00756614
-0.07678985
-0.08764746
0.05069700
-0.00046216
0.11249179
0.09536239
0.00624355
-0.00810357
0.02872216
-0.02147221
0.12444018
-0.18441010
0.03198299
-0.13736413
0.00410220
0.09786689
-0.00216312
0.10436156
-0.04967232
-0.16210997
0.15786920
-0.11019779
0.02918204
-0.13171093
-0.00088575
0.07549662
-0.03083773
-0.13359408
-0.00358461
-0.08653378
-0.20160280
0.03556923
0.15616503
0.05931069
0.04573940
0.09822845
-0.10901754
-0.08119146
-0.08653431
0.05163168
-0.08319163
0.10105606
0.09238707
-0.05033216
-0.07727946
-0.15224484
0.10554413
-0.10232160
0.09252450
-0.16976404
0.07287329
0.12256429
0.14041537
-0.03536342
-0.02728881
0.09051307
0.06739023
-0.02699060
0.08398520
0.00428002
-0.08695252
0.05046469
0.04000494
-0.06564747
-0.09120888
-0.04063222
-0.06224242
0.15935850
-0.04180798
-0.07926058
-0.06543056
0.01406549
0.10498272
0.18174186
-0.01248149
-0.04531132
-0.09233831
-0.08015838
-0.02673510
0.08129121
0.02922049
-0.08783880
0.22008376
-0.09694104
-0.05459775
-0.09087405
0.08886320
-0.00598596
-0.06119836
0.05704024
0.11000904
-0.01499717
0.08895849
-0.06250178
-0.01554347
0.03506020
0.04593668
-0.05896797
-0.07854844
-0.05309724
-0.08775932
-0.05154805
-0.02636020
0.01629816
0.10842993
0.02114144
0.03373498
-0.11047500
-0.07277504
-0.06992158
-0.14697880
0.05331261
-0.13955986
-0.08809789
0.11675034
-0.06343494
-0.02991726
-0.08912806
-0.10585518
-0.02312516
-0.02426798
-0.01072979
0.04237874
-0.07558518
0.05513321
-0.07842116
-0.02204494
0.14329274
0.07358814
0.02056076
0.03736695
0.00434270
0.06593639
0.05047036
-0.07290644
0.04139560
0.10395960
-0.04661278
-0.08309096
0.05780672
-0.07356592
0.07850879
0.01430740
-0.10689752
0.05703935
0.09855411
-0.13737521
-0.03740484
-0.01010193
0.05816543
-0.06899114
0.14980119
0.06193255
-0.06971332
-0.03312184
-0.01385885
0.02376926
-0.02497510
-0.09099679
-0.10223733
0.00198391
-0.10293599
0.07676981
-0.08301733
-0.09121075
0.03492164
0.16592067
-0.01498875
-0.04070709
-0.08647888
0.10376222
-0.01757141
-0.13034678
-0.03654179
0.00924867
0.05810960
0.07181282
0.05881921
-0.03775591
-0.02836834
0.01709598
0.08974416
-0.08344586
0.11021432
-0.09955066
-0.10215306
0.07679710
-0.09367928
-0.07042871
0.17044513
-0.13432945
0.13567792
-0.06216185
0.08945372
-0.01972480
-0.07608895
0.08884186
-0.01294450
-0.07063006
-0.02971121
-0.01133604
-0.03886705
-0.04242648
-0.01259446
0.10169592
-0.08765929
0.12900271
-0.09867724
-0.13312031
0.03885243
0.09457044
-0.04208853
-0.04027515
0.04206285
-0.03217609
-0.08864798
-0.00260055
0.08918703
0.06176217
0.03191662
-0.15550320
-0.10740136
0.11256728
0.15341529
0.04597825
0.09276777
-0.13309377
-0.00732858
-0.01689882
-0.04368486
0.07157502
0.03187976
-0.08751099
0.09022041
-0.11434554
-0.09000561
-0.08994683
0.09025517
-0.11556832
0.10069472
-0.10836434
-0.03607662
0.04452786
0.07200088
-0.09933820
-0.01401442
-0.00159531
0.02196503
-0.01657015
0.15404063
-0.11110558
-0.01894899
-0.11418571
0.11700198
0.00109039
0.12509663
-0.12204020
0.11566161
-0.03544702
-0.01805767
0.05586951
0.09467620
0.19883907
0.05682303
-0.07747829
0.06116737
-0.05449526
-0.13358554
-0.01855448
0.11698988
0.04687671
0.06559178
-0.11188997
0.03898767
0.00371603
0.11519687
0.05693979
0.05085947
-0.01068775
-0.05351975
-0.02807762
0.02820948
-0.08872443
-0.12696643
-0.06703905
0.01984342
-0.06677569
0.04687133
0.04253857
0.01632246
0.00112338
-0.04643334
-0.05468978
0.10778590
0.00803359
-0.07486165
-0.05182263
-0.03153903
0.13545658
-0.05318396
0.02033831
-0.12525322
0.04271466
-0.05172114
0.11746468
0.03814853
-0.10673361
-0.06795716
0.10428375
-0.01858401
-0.09899043
0.03272623
0.04868609
0.06288466
0.06034645
-0.02163050
-0.07758430
-0.07872193
-0.01977789
-0.02944571
0.03587191
-0.07939745
-0.07909214
-0.07090203
0.03635817
0.05281492
-0.08861465
-0.11852524
-0.02570327
-0.06484339
0.00745484
-0.13062359
0.09063646
0.09941766
-0.10022226
-0.02017553
0.05433536
-0.06190003
0.01150868
0.05461896
-0.01569527
-0.01433370
-0.00336803
-0.04247168
0.03440814
-0.11241786
-0.17543130
-0.05477766
0.14643711
-0.04724567
0.01294726
-0.11175419
-0.05408198
0.07425655
0.09962640
-0.05460351
-0.08536244
-0.08675180
-0.03884915
0.06954744
0.06435069
0.09549927
0.09464741
0.00476073
0.13283056
0.06683696
-0.04249542
-0.14037678
0.02988819
-0.08721071
-0.07111563
-0.02892317
-0.00238838
0.03582668
0.06553981
0.05784766
-0.07040931
0.00619349
0.10341094
0.05858419
-0.07605019
0.01189802
-0.07408227
0.02841279
-0.04416792
-0.02022850
-0.07600969
-0.07928506
0.06126422
-0.06228139
0.05831600
0.08851639
0.09437338
-0.01808134
-0.07415258
0.08586024
0.05030491
-0.06336501
0.04743020
-0.05350632
-0.06006430
-0.03461390
-0.10615607
0.03179879
-0.12007953
0.09837102
-0.07058484
-0.05140072
-0.02318817
-0.05358884
0.03965559
0.07166921
0.10312489
0.05154555
0.04786181
0.01775239
-0.01143978
-0.10297693
0.06728660
0.08640449
0.07808954
0.04539315
0.09703281
-0.01375759
-0.09996604
0.10107622
-0.08130819
-0.01474269
0.00595433
-0.02726762
0.06649701
-0.11351142
0.04224183
-0.02703543
0.00764868
-0.10500383
0.05335543
-0.01308604
0.00562495
-0.04209140
0.06404164
-0.12186090
0.03715746
0.11783282
0.02963057
0.05556826
-0.06231273
0.11551499
0.00287549
-0.07491365
-0.02745683
0.08804402
0.01258910
0.03257216
-0.00462529
0.09619289
-0.04021030
-0.07582310
0.09160030
-0.13304563
-0.05310031
0.05173281
-0.06898976
0.04941313
0.08069997
-0.04827498
-0.07288539
0.05505197
-0.02390716
0.09510458
-0.02412564
-0.00694455
0.05817245
-0.11476013
-0.06538502
-0.15389493
0.14956746
0.06774330
0.10511239
0.04479649
-0.05951617
0.00663117
-0.02342378
-0.09125651
0.10010827
-0.10399668
-0.07023371
0.00147051
0.02983632
0.09553057
-0.03332026
-0.00028123
-0.09189819
0.00958285
0.11028457
0.06839953
-0.03667821
0.07936003
-0.08383495
0.11080469
0.03008038
0.07025752
0.00316737
0.11566209
-0.09652366
-0.10107563
0.05122930
0.10528530
-0.02618680
0.02864039
0.01471321
0.02978976
-0.02747109
-0.04990357
0.13131437
-0.01444449
0.08777786
-0.08655763
-0.04992335
-0.07488378
0.05738532
-0.04861845
-0.06574599
0.04338060
0.05983480
-0.01164679
0.17431456
0.00258001
0.13890503
0.13934743
-0.12499809
-0.03389246
-0.07614046
-0.03038602
0.10221775
0.04018214
0.07812134
0.03870596
-0.13185310
0.11881153
0.06761078
-0.12259430
-0.09258866
-0.00100090
-0.03585118
-0.07315841
0.14150047
0.02397558
-0.06577186
-0.04661916
0.03207327
0.08716983
0.08680740
-0.00599827
0.07001259
-0.11618822
0.13772960
0.02292369
-0.13482656
-0.06277674
-0.04083088
-0.10804153
-0.01483878
-0.01676854
0.04321999
-0.09377510
-0.15174982
0.13389792
-0.08712918
-0.13649854
-0.05863909
0.07351688
0.14001575
