0.01824604
0.05504968
-0.04444890
-0.04342571
-0.03363058
-0.01395652
0.03834789
0.01493059
-0.00574999
0.01374508
0.00792963
0.04137494
-0.04498705
0.04787330
0.03566929
-0.03241410
0.03121283
-0.00242045
-0.02828158
-0.04416003
-0.03181801
-0.04169487
0.02945774
0.04246287
-0.04155206
-0.02905115
0.01224831
0.03607577
0.02512527
-0.04031309
0.01605327
0.00908583
-0.02891149
0.02640508
-0.00600077
0.01211897
0.00427600
-0.02271592
-0.00083685
0.04093076
0.03923835
-0.02282511
0.04401035
-0.04694332
-0.01908386
0.04811236
0.01836607
-0.06287927
0.00298471
-0.01953004
0.00210094
0.06728324
-0.03736018
-0.01760807
0.02775077
-0.04171309
-0.00407398
0.06677225
0.07217281
-0.01754788
0.01395441
-0.00191329
0.01874611
0.04574611
-0.04833458
0.03266163
0.02159433
-0.00777941
-0.05069418
-0.00658054
0.01764866
-0.03375003
0.00156435
-0.03377474
-0.01431695
0.03640903
0.00972831
-0.00168018
-0.03628250
0.01651690
-0.04108590
0.03294576
-0.05998664
-0.03883788
-0.02084702
-0.05060944
0.02143071
-0.02729895
-0.02315186
-0.05964760
0.01698342
-0.04872843
0.04829721
-0.01540296
0.01802868
0.03198547
-0.02335436
0.03078287
-0.04726866
0.03661571
-0.03566836
-0.03809261
0.04410599
0.03565297
0.04386195
-0.05402859
-0.04165756
-0.00314624
-0.00393712
0.05488887
-0.06796553
-0.05334611
-0.06783436
-0.03503744
-0.05962222
-0.05141676
0.00923786
0.01985637
0.00955671
0.04513679
0.02191839
0.04633376
-0.00218336
0.05053018
0.05414746
0.01100549
0.02049265
-0.02968244
-0.03333310
-0.04184256
-0.01156462
0.01971749
0.01993072
-0.02116415
-0.01248619
-0.03442546
0.00399061
0.01566556
-0.04989894
-0.03561226
-0.04935266
0.01538629
-0.02719296
0.03243798
-0.01902013
-0.00996124
0.02334241
0.04431713
-0.01622339
0.01738511
0.02342721
-0.04149972
-0.00632406
-0.00531616
0.01796477
-0.02357191
-0.03180249
-0.04758848
-0.00650402
0.03877477
0.00970872
-0.04034702
0.00707231
0.00927921
0.00764323
-0.06527155
-0.00214106
-0.04887687
0.03090597
-0.02464182
0.01561806
0.04540111
-0.05529897
-0.04974734
-0.01888139
0.02652807
-0.03447361
0.00794633
-0.05805238
-0.04221757
-0.02723821
-0.01055963
-0.01023400
0.04317555
0.03504569
0.02960994
0.04277655
-0.01598494
-0.03686833
-0.05073296
-0.04130219
-0.02990384
0.05003791
0.02964015
-0.01239332
-0.00483840
0.02140437
0.02278827
0.02738150
0.03635560
-0.04411298
-0.04608716
-0.01538830
0.02638628
0.03891071
-0.05410494
0.00950831
0.00050900
-0.00289854
-0.05002698
0.02181887
-0.01113519
-0.00861926
-0.02512178
0.01537010
-0.01167995
-0.04978323
0.02458783
-0.01648247
-0.03512603
0.00410764
0.02557955
0.04774041
0.03617284
0.05834173
0.07742631
0.05715939
-0.02559427
-0.05080276
0.00235980
0.01783267
0.04894808
-0.00180113
0.06748311
0.06427614
0.01422187
-0.04649205
-0.00496202
0.03291483
-0.02029270
-0.03787195
-0.02212616
-0.08723876
-0.02566400
0.01618994
-0.03653085
-0.06382992
0.00205564
-0.05801169
-0.06456982
0.03033854
0.00850189
0.01131264
0.04981231
-0.05380093
0.01559170
-0.00228107
0.05640459
0.02814749
-0.03258611
-0.01659800
-0.00722405
-0.00935905
-0.05531671
-0.00233180
-0.04052499
-0.03672134
0.03461092
0.03564583
0.01759829
-0.03033996
-0.05770304
0.05197899
-0.05290739
0.04353785
0.02600143
0.02875243
-0.04523434
-0.03723091
-0.03120968
-0.02855238
0.00796270
0.02183817
-0.03143933
0.04441557
-0.01076810
-0.06040457
-0.00413039
0.05150827
0.01908905
0.02844401
-0.02494015
-0.02870718
-0.06667221
0.04803395
0.03319852
-0.05181767
-0.04251010
0.02963165
-0.04159217
-0.02100609
-0.01853284
-0.00130665
0.03985568
-0.04449774
0.03501920
-0.03378125
0.03316542
0.01098468
0.02859680
-0.00265499
0.03534819
-0.01866761
-0.03804398
-0.03430361
0.03846565
0.06065690
-0.05364386
-0.00640990
-0.00451343
-0.00270589
-0.01267323
-0.05226648
-0.00767918
-0.00745717
0.03280536
-0.05192307
-0.05458463
-0.03621724
-0.02020109
0.05397486
-0.01614556
0.02242216
0.04554809
0.02667574
-0.01795957
0.02840370
0.01729450
-0.01269070
-0.02702506
0.04450643
-0.04654799
-0.03856695
0.04660093
-0.03056242
-0.03780236
0.03759630
-0.03943782
-0.03109558
0.04993411
-0.02273126
0.01387290
0.04499103
-0.03173297
-0.00184763
-0.01198362
0.01336399
0.01799714
0.00413215
0.01413449
-0.02817225
-0.04085212
0.04199035
-0.02237215
0.02853651
0.00566276
-0.00908922
0.03893594
-0.02356653
-0.01393079
-0.02820859
-0.03445962
-0.05531834
-0.02264026
-0.02379741
0.01907513
0.04490251
0.04872024
0.05166445
-0.01602691
0.06152888
-0.03934071
0.01231637
-0.02241755
0.01560009
-0.03755795
0.01429719
-0.05376719
-0.00435056
-0.05496726
-0.01697883
0.01232826
0.00760183
-0.05646928
-0.05607936
0.00400777
-0.00817611
-0.00333036
-0.06257402
0.01167310
0.03050279
-0.02165673
-0.01490054
-0.02026485
-0.01622602
-0.01314950
0.03905110
-0.05725149
0.02296233
0.01500337
0.01180157
-0.02040659
-0.05521219
0.00805807
-0.05070817
0.02504751
0.02624891
-0.03993183
-0.02802620
-0.02196763
-0.00716482
-0.00631674
0.01743824
-0.00496674
0.00791584
-0.04735044
0.02719629
-0.02926891
0.02185069
0.02211526
0.04306820
-0.00660225
-0.00719574
0.01972838
-0.04042378
-0.03521419
-0.01953116
-0.02989478
0.05127649
0.02018765
-0.04212528
-0.00057684
-0.03853334
-0.01412408
-0.01430529
-0.02965618
-0.05831387
-0.00722298
0.02321790
0.04024934
-0.00853142
0.01599637
0.04648703
-0.05788524
0.00746014
0.04764340
0.01291790
-0.05001578
0.00138213
0.03286467
-0.05270098
-0.00056807
-0.02731564
-0.01481451
-0.00828131
0.01150944
-0.01918357
-0.04135023
0.03004620
0.02793990
-0.03564101
0.03095305
0.05165448
-0.03357857
-0.06229625
-0.01384391
-0.04886147
0.01502629
0.03278408
0.01992118
0.04222295
0.00252797
0.05670369
0.02242202
0.05602699
0.03206730
0.01981673
-0.02685040
-0.02976393
-0.00858278
-0.01953890
-0.02269757
0.01187029
-0.01933128
-0.06156664
0.01044682
-0.06929331
-0.04592185
-0.00935911
-0.06546476
-0.01454766
-0.02476930
-0.03291066
0.02253077
0.01144089
-0.02107406
0.02571740
0.02398100
0.03596066
-0.00869947
0.04108166
0.00684091
0.05234196
-0.04125495
-0.03490070
0.05758965
0.01213497
0.02147276
0.02585777
-0.02192603
0.03919510
-0.00861796
0.04565402
-0.01039597
0.05408338
-0.01127320
-0.04920577
0.04312642
0.05101684
-0.00426428
0.03524299
-0.01051569
0.04108504
-0.00278435
-0.01309805
0.03833703
-0.04238078
0.02331778
-0.01174409
-0.04258905
-0.00835802
-0.04951011
-0.04002370
-0.00118769
0.03796709
0.04618870
-0.03383476
-0.03890029
0.02012814
0.04944581
-0.02976212
-0.04309889
0.04717148
-0.05276852
0.05251437
0.00587372
-0.03302915
-0.03081469
-0.00741357
-0.03153564
0.00586750
0.00409796
0.01887007
-0.03297791
0.01551427
0.00940365
-0.04476671
0.00952516
0.02247186
0.00478965
-0.00498271
0.00267302
-0.00653232
0.00315702
-0.03265860
-0.02374521
0.05124666
-0.04485990
-0.01929407
0.00711350
0.01084412
-0.00668935
-0.05619710
0.00581913
0.00249120
-0.05058441
-0.03589037
0.04508999
-0.01246447
-0.03189432
0.05659378
0.04110169
-0.04330660
0.02752733
-0.04568597
-0.04622623
0.03904356
0.04207488
0.00004419
-0.01038089
0.00567172
-0.02738659
0.04376106
0.04652055
-0.03552686
0.03332604
-0.01058545
-0.02645966
0.05213751
0.03645140
-0.03817424
0.01577424
-0.03895716
-0.05608160
0.04223293
-0.01885171
-0.02431334
-0.00171929
0.01909144
-0.01188236
0.04074731
0.03343018
0.05303015
-0.06132723
-0.00119519
-0.05765637
0.00266746
-0.02764564
-0.00379131
0.05217504
-0.01967568
0.04389431
-0.02606199
0.00026283
0.05526135
0.03745971
0.02567158
-0.05204866
-0.03653385
-0.01117180
-0.03007531
-0.00133562
0.04959800
0.02450760
-0.03869876
0.02215480
0.00966307
-0.05372182
-0.05845050
-0.02139983
0.03234579
0.04866357
0.01074162
-0.05996040
-0.02427909
-0.00181970
0.02515867
0.00228355
0.04711915
-0.05950288
-0.02414302
-0.02196995
0.01424953
0.01498805
0.03716156
-0.04518098
-0.00059962
0.03467859
0.04998313
-0.06053730
0.00207160
0.02645122
0.01696738
0.01283597
0.02919753
-0.00558032
0.05663806
-0.00990788
-0.05785717
-0.03523337
-0.02553106
-0.01515339
0.00766737
-0.04254944
0.05066612
-0.02442219
-0.02034326
-0.05399810
-0.00368133
0.04102546
0.03590354
-0.01255927
0.03595090
0.00474187
0.03716938
0.03489476
-0.02742908
0.05578281
0.03636735
0.01737509
-0.01383476
0.02460601
-0.02686352
0.05480070
0.03907725
0.01908930
-0.05852110
0.00277863
-0.01068725
0.01512688
0.01476224
0.05552712
0.02327807
-0.02829683
-0.03568809
0.05692713
-0.00043361
-0.01824936
0.04820525
-0.02800436
-0.05280991
0.03794136
0.01002636
0.02236321
-0.03862356
0.01375477
-0.06272601
0.02363039
0.04407996
-0.00961063
0.02940681
0.03513265
0.03000297
-0.03271088
0.02481697
0.02539670
-0.02462333
0.02849772
-0.05212163
0.04218247
-0.00109682
-0.01290007
-0.04487662
0.01849269
-0.01160172
-0.03381325
-0.02217374
0.04261052
-0.02736539
-0.01992654
-0.00801504
0.01560031
-0.02913575
0.05314981
0.03582129
-0.05033998
0.04132006
0.00016290
0.04206273
-0.04181740
-0.05061292
0.01181198
-0.02806642
0.05823864
0.02347193
0.03148718
0.04575941
0.00178920
0.05188771
0.00620662
0.03439550
-0.00863369
0.01929278
0.00875655
-0.02887774
0.00551125
-0.02831741
0.01649408
-0.03705800
0.00654869
0.01511005
0.02815199
0.01152097
-0.01928621
-0.03901114
0.02860580
-0.02128129
-0.04957387
0.00232870
-0.01374285
0.02553369
0.02173785
-0.00107833
-0.01237809
0.03676923
0.01112888
0.02341809
-0.04847943
-0.04603936
-0.01605632
0.05051054
-0.01490828
0.02914055
-0.05004352
-0.05394157
0.04539602
0.02665782
-0.01851961
0.01179323
-0.04210220
-0.04552172
-0.04192259
-0.03271279
-0.03592153
-0.00160456
0.00553801
0.00161703
-0.04197390
-0.01711163
-0.01040451
-0.04308846
-0.02218046
-0.00500429
-0.01175280
-0.01183629
0.01557488
0.01684178
0.03976220
-0.03192842
0.00612048
0.03592217
-0.00774460
0.03074940
0.04287438
-0.02446271
0.00447227
-0.05372327
-0.00416176
-0.04973537
-0.00915613
0.00882562
-0.03095099
0.04239769
0.02507517
0.02329114
-0.00640078
0.05826511
0.00322360
-0.00032226
-0.02937227
-0.04690601
-0.01214526
-0.02159842
0.00181351
0.04312399
-0.00489257
0.02237647
-0.04298981
-0.05260923
-0.00556349
-0.05175182
0.02831736
-0.03150552
-0.02703230
-0.02968133
-0.02755171
-0.05057601
-0.04644809
0.00725760
-0.00370218
-0.00722356
0.00336467
0.00054719
-0.04623487
-0.03639395
0.02338607
-0.01331980
-0.04855073
0.00830549
-0.04068627
-0.03257073
-0.03836931
0.02846306
-0.03991513
0.03943744
0.03458227
0.00787576
-0.00724209
0.03194532
-0.01318225
0.04014189
0.00571058
-0.05280423
-0.03445436
0.02592713
-0.02766105
-0.04840283
-0.02124559
0.02161998
-0.03506215
-0.01349452
-0.02395789
0.03085231
-0.03256408
-0.03083046
-0.02732449
0.01406696
-0.04025476
0.04426394
0.03790006
0.04708911
0.01523184
0.03394723
0.02019773
-0.03920071
0.05283706
0.03585433
0.04658483
-0.00391309
0.04267013
0.03082808
-0.02318727
0.01496598
0.02298999
-0.05033251
-0.00407750
0.01257503
0.04884147
0.03572105
0.04327355
-0.05707875
-0.01905143
0.04105483
0.04243204
-0.01806796
0.05512936
-0.00229218
0.02592882
0.05499339
-0.03558378
0.04812048
0.05652022
0.02407149
-0.04508859
-0.02781979
0.03062081
-0.03816281
0.05753560
0.05606888
0.02646720
0.04119516
-0.03459119
0.04993924
-0.04977825
-0.01750762
-0.04136626
0.00503563
0.00772464
0.01147847
-0.01956231
-0.01157648
0.00721476
-0.05955615
-0.05523355
0.05363528
0.05157237
-0.04020598
0.05376619
-0.05944239
0.00370259
0.02819415
0.00009776
-0.00101550
0.05403467
0.00515938
0.04866138
0.02387665
0.04099695
-0.01357599
0.01458435
0.00145219
0.03034853
0.02057622
-0.03065843
-0.00632734
-0.04027768
0.03360008
-0.02016309
0.05019747
-0.06012172
-0.05277357
-0.03839365
0.03539331
0.02838162
0.03984575
-0.05049923
0.01233018
-0.00241502
-0.04502688
0.05184747
0.05527382
0.05826418
0.03860953
-0.00979996
0.03674070
0.01964821
-0.02443372
0.04600047
-0.00890311
-0.02793051
-0.03368254
-0.03987635
-0.04606007
0.00435184
0.02970848
-0.04302078
-0.03791160
-0.00883657
0.02912780
0.02310850
-0.03403212
-0.03185320
-0.05663076
0.04129707
0.03026551
-0.04226201
-0.02226968
-0.03432957
0.04152178
-0.04475652
0.05522439
-0.02097411
-0.02266818
-0.03208352
-0.02840353
-0.00236554
0.01371520
0.01704029
0.03750169
0.03727069
-0.01214790
0.01872426
-0.04461500
-0.03416928
-0.00983710
0.03908201
0.02377981
0.02963099
-0.05839875
-0.04017617
-0.03529523
0.03340023
-0.02865533
0.02794772
0.01393852
0.02985121
-0.01878157
-0.01458338
0.02966734
0.01174421
0.00275034
0.05010609
0.02021683
-0.05593874
-0.03671681
0.02072932
0.04677768
0.04654801
-0.00070444
-0.03764006
-0.04684968
-0.04436766
0.00964682
-0.05384702
0.02031542
0.00820717
-0.02894512
-0.00961297
0.00053073
0.00728332
0.01793819
-0.03036843
-0.00786307
0.02467474
0.04561329
-0.03661105
-0.01675568
-0.03798611
-0.05334369
-0.05879743
-0.02519934
-0.00035578
-0.03543373
0.03558146
-0.00898390
-0.04501601
0.04193729
0.04238569
0.03827235
0.01900307
-0.00965802
0.01543835
-0.02977110
0.02769189
-0.02004129
-0.03151513
-0.02538585
-0.04136397
0.00431348
0.01661745
-0.00462072
-0.04693490
0.05158692
-0.02702119
-0.01928025
-0.02295177
-0.05887746
0.01871933
-0.05163942
0.02450062
0.00605548
-0.00484319
-0.05369934
-0.02737476
0.04648701
0.05192091
-0.03776240
-0.03996169
0.04757961
0.01973691
0.03155569
-0.02340864
0.04703700
-0.01258116
-0.00087363
-0.03780412
-0.05361888
-0.03902851
0.05846654
0.04631041
0.01570030
-0.00107535
-0.01770136
-0.02105657
-0.00778016
-0.01005216
-0.03443219
-0.01652959
0.04908665
0.03291326
0.01506567
-0.04700462
-0.00130484
-0.04975426
0.00356397
-0.00193370
0.02322569
-0.02840220
-0.00682345
-0.04180559
0.05446608
-0.00706034
-0.02779534
0.02405539
-0.03475804
-0.00569555
0.04069655
0.03001704
0.05503720
-0.01140937
-0.00436940
-0.02476828
0.04631168
0.05265669
-0.03038448
0.04944938
-0.01887341
0.03873032
-0.02054112
0.00144835
0.01628666
-0.00309281
-0.01506076
0.04611367
-0.04532387
-0.00823259
-0.02195200
-0.01526795
0.03722215
-0.04575288
0.00743769
-0.01220517
-0.01569166
0.05236513
-0.00251923
0.01493033
0.05621674
0.04627750
0.05476783
0.00269126
0.01741544
0.05235609
0.02627643
0.05753893
0.05519656
-0.01154001
-0.02361066
-0.05768033
0.02050674
-0.03039093
0.03801456
0.02950712
-0.00773404
-0.04227403
0.03775283
-0.00319127
0.01029735
0.00474729
-0.02417712
-0.03605814
-0.04412440
-0.04787928
0.04481783
-0.04420757
0.02283546
-0.01423835
0.01065894
-0.02543956
0.00579420
-0.05571617
-0.04015473
-0.04374240
-0.04535905
0.01357864
-0.02451774
-0.02266926
0.00981550
-0.05715100
-0.05570579
0.02936641
0.00087534
0.00376968
-0.06054033
0.02474316
0.02217276
0.04610429
-0.00724876
0.04149719
-0.02499127
0.01754138
-0.05132017
0.03754317
0.03851166
-0.04508783
-0.04042107
0.05636897
0.02718715
-0.03648724
0.02587966
0.02237300
0.05124850
-0.05646325
0.00804473
-0.02074063
0.00244775
0.02971548
0.00882067
-0.05120398
-0.03410592
-0.00630713
-0.03935695
0.01303550
-0.03148210
0.05344616
0.05216279
0.03550478
-0.04289307
0.05619263
-0.01408561
0.00175866
0.03724655
-0.04347863
0.05552977
0.05211105
0.03200819
-0.04010845
0.05368095
-0.01668208
0.03599530
-0.01285113
0.02850882
0.01810514
0.04601569
-0.02903526
0.00722987
-0.02791278
-0.02556754
0.05149641
0.02343670
-0.03824996
-0.03655986
0.04769212
0.00425897
-0.05853048
0.01034379
0.04109690
-0.02833845
0.02727070
-0.02247231
-0.01753323
0.02691832
0.04738439
0.02529560
0.01059825
0.04333761
-0.02555490
-0.04484918
0.04932596
-0.02614339
-0.05764601
0.01931038
-0.01517468
0.03169135
0.02802257
-0.03991577
0.03163200
0.05546824
-0.01464679
0.05159279
-0.04288192
-0.03117412
-0.05161015
0.02745697
0.05157788
0.01862014
0.04269357
0.04533936
-0.03826129
-0.04819419
0.00624520
-0.02981255
-0.02217465
-0.02892047
0.03614084
-0.04060294
0.05248030
0.00623288
-0.05459554
-0.05164583
0.00510582
-0.02407004
0.04807793
-0.01347389
-0.04436035
0.05769046
-0.02027251
0.03913695
0.00834626
0.00747634
0.01169023
-0.04384325
-0.01806878
0.04005804
0.03061335
-0.01019469
0.03104538
-0.00786017
0.04173877
0.02866807
0.04031621
-0.00356046
-0.00495292
0.02007400
0.04693438
0.02935675
-0.01545191
-0.03929222
-0.00548715
-0.01158289
0.02056184
-0.04726147
0.05462317
-0.01547131
-0.03457597
-0.05561336
0.03717065
0.00891910
-0.04932585
0.02612350
-0.00842141
0.00322211
0.05118498
0.02721957
-0.02772048
-0.04128146
0.00210194
-0.05403191
-0.01055482
-0.03242313
-0.04134257
0.00844412
-0.05755818
0.01648817
0.03423813
-0.05837140
-0.00766016
-0.04453631
-0.01954494
0.01132139
-0.05639043
0.01847889
-0.03038212
-0.02775994
0.01562041
-0.00081757
0.04864782
-0.04569754
0.05691664
0.02870355
-0.00984823
0.00867426
-0.04611200
-0.04171122
0.02719364
-0.03913158
-0.02057516
-0.03630800
0.01626352
-0.05505067
-0.03590439
-0.05535806
-0.00045216
0.00264245
0.01560907
-0.03629799
-0.03258429
0.03868354
0.04842183
0.03802152
-0.02932246
-0.05702618
0.04311970
0.03944302
-0.01406054
0.00498405
0.00036458
-0.03719646
0.02519170
0.03602250
0.04561003
0.01284062
0.00297602
-0.01987186
-0.02450968
-0.01515348
-0.00655547
0.04479740
0.03327238
0.05732759
-0.05812034
-0.01619343
-0.00676945
-0.01780531
-0.04291536
-0.05129715
0.03819075
-0.00412494
-0.02517141
0.05365686
0.00504479
0.02457499
0.01791264
0.02934976
0.01374642
0.05246356
-0.03183779
-0.02570114
-0.01142579
-0.00688276
0.00317457
-0.00611346
-0.05784379
0.04685209
-0.01005750
0.00716171
-0.03233169
-0.02744960
0.00604409
0.05217816
-0.04099090
-0.03692395
-0.02009122
-0.00764857
-0.03981374
-0.00823399
-0.04345761
0.02405220
-0.00216953
0.03684241
-0.00017967
0.02457948
-0.04254310
0.03547053
-0.02942031
0.02272522
-0.02071771
-0.00863746
0.03492874
0.05303620
-0.05351947
0.01494322
0.02310698
0.04892416
0.02254167
0.03824452
-0.05143192
-0.03087820
0.02199850
-0.05725605
-0.00154881
0.05495745
0.00675568
0.01515315
-0.05411579
0.03094358
-0.05757584
0.01822310
0.04954610
-0.01022568
0.02942433
-0.02631317
-0.05219578
0.03302293
0.03295510
0.02305155
0.04301337
-0.01453702
-0.01337616
0.00486492
-0.04695378
-0.03895004
-0.00318297
-0.04174159
0.01183841
-0.02921719
-0.01237603
-0.01829338
-0.02615825
-0.00985205
-0.05389928
-0.02871531
-0.02890059
0.00902247
-0.03978906
0.04036441
0.01302383
-0.03229307
0.04111515
0.04599298
-0.02884289
-0.00903514
-0.05144274
0.01382425
-0.06193432
0.02551174
0.03917829
-0.00543258
-0.03255277
0.03279476
0.05639555
-0.01599860
-0.01584794
0.03980492
0.00510839
-0.04781814
-0.03936918
-0.05050988
-0.01908289
0.00559829
-0.01010624
0.02044922
-0.04974813
0.05953408
0.04586321
0.02987691
0.01307613
0.02623448
-0.04201709
-0.01444390
-0.01199368
-0.03347912
0.02331071
0.03240910
0.01646405
0.05455124
-0.05447379
-0.03831322
0.01861120
0.05277022
-0.05016542
0.02995885
-0.03442735
-0.04181249
-0.00454789
0.00961850
-0.04317929
0.05933278
-0.00563564
-0.03655992
-0.05004577
0.07219884
0.03496362
0.02454207
0.02429203
0.02298295
-0.00537899
-0.03090758
0.03039774
-0.02284250
0.02808283
0.01509048
-0.05223681
-0.05352544
0.00410652
-0.02819857
-0.03341783
-0.01937994
-0.00797455
0.00460624
-0.05058720
0.01943696
-0.01162214
0.00437902
-0.00769061
-0.03636933
-0.04105014
-0.02873854
0.01806486
-0.00210048
-0.00477668
-0.04222091
-0.01594994
0.01668793
-0.03699507
-0.05843971
0.05335272
-0.03643194
0.04637592
0.04718675
0.00709143
-0.04481481
0.03129217
-0.00873558
-0.00599618
-0.04705808
0.00989042
0.03724144
0.03754009
-0.03378105
0.01435149
0.02365746
0.01457489
-0.02394919
-0.01494279
-0.05808785
0.01352061
-0.02712117
-0.00502355
-0.02037202
-0.03758671
0.05937739
0.04470505
-0.01455195
0.04393853
0.04293963
0.03009945
-0.04356244
-0.05531105
-0.00639648
0.01888683
0.05574147
-0.05160960
-0.03889679
-0.03034027
0.00735709
0.01161116
0.00667478
-0.02268856
-0.05287059
-0.01630113
-0.03924439
0.02375880
-0.00855843
0.04852273
0.05518600
0.02509400
0.01069813
0.03354385
0.05437297
0.05155119
0.05189771
0.01047103
-0.05299372
-0.00466222
-0.05334796
-0.04164967
0.02873244
0.01841095
-0.01882438
-0.01642992
-0.02697922
-0.00490806
-0.02179822
-0.00367742
0.05986473
-0.02930796
0.05880655
0.05941590
0.05418388
0.02671056
-0.04713250
0.03809273
0.03057531
0.04570739
0.04293035
0.01972207
-0.02039937
-0.03026897
0.06206774
-0.00874584
-0.05323469
0.02748839
0.04490323
0.04382405
0.03853010
0.04427615
0.01764062
0.02074911
-0.05475811
-0.06263690
0.01508457
-0.02646460
-0.00934135
0.01169437
-0.02687553
-0.03578972
-0.04587302
-0.03648881
-0.03729004
0.03232952
0.01267640
0.05580951
-0.04122411
-0.03204545
0.01866502
-0.01176566
-0.00883839
-0.03342972
0.00191417
0.05555407
0.02522844
0.00267391
0.01229398
-0.05407950
0.04952080
0.05782830
-0.02552070
0.05049770
-0.00246749
-0.05403681
-0.00823601
0.02760269
0.05649413
0.05605165
-0.04535243
0.03311059
0.01342056
0.03460043
-0.04905351
-0.03608362
-0.02439308
0.05204267
-0.02911187
-0.04012655
-0.03926349
0.04845252
0.04515031
0.05043553
0.02349653
-0.04633231
-0.00830189
-0.03175876
-0.05886118
-0.06375956
0.04783009
-0.00640595
0.03905622
-0.04710459
-0.01555117
-0.00246420
-0.04821261
0.03211053
0.00458859
-0.03294973
0.00688675
-0.03919599
-0.00039980
-0.03359009
0.05837952
0.04730485
-0.01022509
-0.03773768
-0.00816293
0.02622212
0.00285223
0.04974009
0.05385723
0.01929280
0.01928097
0.05867242
-0.00619213
-0.00167626
0.03449161
-0.00358627
0.02220260
-0.03668619
0.01251667
0.02810975
0.00218965
0.03793548
-0.03597555
-0.04342933
-0.02763680
-0.00734752
-0.03143610
0.04193703
0.01377350
-0.03130949
-0.01502876
0.04579667
-0.04973911
-0.04575140
-0.04702155
0.01900033
-0.03412575
-0.03775947
-0.02475120
-0.00022577
-0.02222493
-0.02202969
-0.02279334
0.02657497
-0.03356691
-0.02327121
0.05074830
0.00925902
0.01784155
0.00520992
0.02455531
-0.04806370
0.00797012
-0.00252785
0.03388212
0.01693166
0.04616301
-0.00009144
0.05927999
-0.02960077
-0.01079354
0.03053949
0.02788348
-0.04480101
-0.01596313
0.00744282
0.04931112
0.04267139
0.03248302
-0.01138509
-0.00554111
0.01869998
-0.03304483
-0.01998662
0.02151193
-0.06000138
-0.04257413
-0.04750580
0.01403344
-0.03312688
-0.05172243
0.04209361
0.03987504
0.03892139
-0.00894271
-0.00142528
0.02172051
-0.04647860
-0.04112568
-0.06697273
-0.05133744
-0.04689572
0.02035939
0.03878349
0.00818724
-0.04430369
0.00045600
-0.01021745
-0.02245844
-0.04280988
0.01122477
0.02367084
-0.00452055
0.02527683
0.02433698
0.05273460
-0.02841188
-0.05680731
0.03436110
0.00811337
0.03293319
-0.03507270
0.02593766
0.04992062
-0.04767213
-0.03408453
-0.02978011
-0.00224156
-0.02587905
-0.02634220
0.02194248
0.02510146
0.04360891
0.01377763
0.04323009
-0.01576659
-0.05089450
0.03238354
0.00367938
-0.01834348
0.03971927
-0.02095601
-0.02186283
-0.04585719
-0.00308971
0.04658545
-0.03989595
0.00164235
-0.03684656
-0.03378927
-0.03386332
-0.04333654
-0.03916474
0.03183648
0.05954877
0.03999431
-0.00777666
0.05885381
-0.03306438
0.02274673
-0.05236911
0.04097298
-0.01315912
-0.00610971
-0.02980744
0.03311745
-0.00115905
-0.04217409
0.00582016
0.02718484
0.03982011
-0.02325465
-0.03835512
0.01341717
-0.03291652
-0.05178289
0.03381529
0.00893274
-0.02828996
0.05661674
-0.01505056
-0.05294015
-0.06289802
-0.00877026
0.05198982
-0.02650851
-0.04034151
-0.05212877
0.04945469
-0.02557565
0.01568580
-0.05577395
-0.01091380
-0.00426527
-0.04952956
0.00969558
-0.03277438
-0.00889937
0.03604503
-0.05498617
0.01335204
0.04610396
-0.01207837
0.04237235
-0.00761862
-0.04723848
-0.02448427
0.04851058
-0.03486408
-0.03547611
-0.04147762
0.03918390
-0.01362964
0.01805569
-0.02434541
0.02005839
-0.00225287
0.01471488
0.05334387
0.00870804
-0.02165484
0.01105566
-0.05126122
0.04474275
0.04247633
0.02866687
-0.04619586
0.00912096
0.01409605
-0.04051734
0.00891751
-0.00174469
0.00043992
0.02921772
-0.02182930
0.00338234
-0.00518525
-0.02116556
0.00778319
0.03511256
0.03731513
-0.03071800
0.04958192
-0.03768163
0.00088286
-0.03353299
0.03618477
-0.04628072
-0.02117273
-0.03399310
0.00519803
0.02553161
-0.00138242
0.03146551
-0.05184253
0.01040897
0.00843651
-0.02359127
-0.05215101
-0.00143681
0.05017710
-0.01254664
-0.01298824
-0.01246231
-0.02570322
-0.05253303
0.01448762
0.03531290
-0.00114577
0.05419324
0.03772788
-0.00493267
0.01670043
0.02747141
0.04915773
0.01476001
0.03105474
-0.00506054
-0.04805800
-0.04950351
-0.03101638
-0.05253125
0.01862500
-0.01851730
-0.01607212
-0.00676079
-0.00032183
0.04895060
-0.04586967
0.04878834
0.05688316
0.04296340
0.03875743
-0.05498892
-0.01708587
-0.00008121
0.00167571
-0.00198259
-0.04753386
0.03739875
-0.03954558
0.00032709
-0.02492306
-0.02654518
-0.03671377
-0.00711744
-0.00220051
0.02553632
-0.04974614
-0.00952823
-0.05519760
0.01249849
-0.02413931
0.04150579
0.04748409
-0.05896603
-0.05014234
0.02769024
-0.04497645
0.03700322
-0.05138725
0.05559699
0.00568333
0.04329474
-0.04927117
-0.02972462
0.00619659
-0.05021664
0.01145935
-0.05145428
-0.03282067
-0.04288413
-0.02352775
0.02097175
-0.04192492
0.02232451
0.02080795
0.00038591
0.02730129
0.02383214
-0.01476142
-0.05299813
-0.02077105
0.01748237
0.02877165
0.01823635
0.02773188
0.05190057
0.00303882
-0.03779849
0.00026957
0.05761458
-0.04529513
-0.05705321
0.02983664
0.04128011
0.03340853
-0.01145057
-0.05542854
-0.05763571
-0.01016780
0.03258852
-0.01309083
-0.04721271
0.00062254
-0.02709790
-0.05759890
0.03308251
-0.03084629
-0.03674832
-0.04010028
0.02597209
0.03181538
-0.05699588
-0.02090144
-0.03133389
0.05781375
0.01051163
-0.05215676
-0.04719001
-0.00630189
-0.02734310
-0.02700585
0.05690988
0.02311377
-0.01910061
0.04936598
-0.01677801
0.03731864
0.05095116
-0.02314725
-0.02415561
-0.05770027
-0.00674283
-0.00082107
0.01525212
-0.04596329
-0.01754509
0.01263396
0.05043216
0.00673197
0.02550536
0.01359490
-0.03692883
-0.02246753
-0.03322165
-0.03716602
0.03482642
-0.04199640
-0.02308919
-0.02720216
0.01125939
0.05768953
0.00489406
0.02009217
0.04961308
-0.02818706
0.02450894
0.01549763
-0.03767758
-0.01858987
0.04862775
0.04879709
0.04036782
-0.00536220
0.00249067
0.00123409
0.00739065
0.00309553
0.02536793
0.01862687
-0.01435978
-0.03681523
0.01233829
0.01033017
0.04296231
-0.00678927
0.03891523
-0.01866247
0.03831327
-0.03461694
-0.05547151
0.02234910
-0.00312031
0.04611885
0.04925643
0.00964746
-0.04983088
0.01292638
-0.00535449
-0.03922691
0.00555720
0.00106155
-0.01146365
-0.03426562
-0.05625711
-0.01525619
-0.00301788
-0.02182309
-0.04859186
-0.01341414
0.04569058
-0.04642799
-0.05851876
-0.01181583
-0.02404678
-0.05243343
0.00039357
-0.02648038
0.03198334
0.01041904
-0.02171065
-0.00675475
0.04523631
0.01205694
0.02952595
-0.01756055
0.03939288
0.03811413
-0.05760575
-0.01154804
-0.00873588
-0.00618090
0.02412060
0.01085742
-0.04362968
-0.04544134
-0.01923320
-0.02924109
0.01135114
-0.05320586
0.00049333
-0.00710966
-0.03558085
-0.02748172
-0.03237112
-0.02614130
0.05569761
0.01204520
0.03996997
-0.04691354
0.03439499
0.04051423
0.03546250
-0.04782555
-0.04740103
0.00838095
0.01564598
0.00253332
-0.02702836
0.04829990
0.02773532
0.04488250
-0.02282047
-0.04022452
0.01423221
-0.00067324
-0.02877639
0.02352336
-0.02998051
-0.05314958
-0.03931040
-0.03294187
0.03379745
0.02387024
0.01782046
-0.04637342
-0.00433841
0.02335299
0.05682809
-0.01025693
0.03266254
-0.05529080
0.04972297
-0.05138882
-0.04921361
0.02095406
-0.03331354
-0.00569351
-0.03551915
-0.03564999
-0.04238514
0.00034412
0.02046201
-0.02012496
0.01408436
-0.01507536
-0.01759331
-0.01862890
-0.05381389
-0.05529264
-0.05437361
-0.05502097
0.03579215
-0.05872719
0.04216574
-0.00356071
-0.03998138
-0.04269717
0.02013531
0.04235618
0.03664711
0.02707837
0.03014961
-0.05501932
0.05088643
0.01784607
0.02020873
0.04819665
0.00004427
-0.05695530
-0.00650013
-0.02785802
-0.03702076
0.01095073
0.01984481
-0.04001639
0.05420093
-0.00723346
-0.05405327
0.03207980
0.01211816
0.03532625
-0.04796959
0.04777010
-0.01324015
-0.02716915
-0.00011000
0.01315893
0.00803471
-0.05068218
0.02450724
-0.01817920
-0.02407305
0.04183071
-0.02745355
-0.03486094
-0.00618044
-0.02098529
-0.00963111
0.02160613
-0.04350281
0.02854999
-0.05636961
0.02030386
-0.03042248
0.00412207
0.04913903
0.02517374
0.04225879
-0.01624369
-0.04003154
0.03346257
0.02946908
-0.05394280
0.02539014
0.01830018
-0.02896276
-0.00015045
-0.04208151
-0.04005544
0.04505050
0.02447378
0.03937369
-0.04894046
-0.02645088
0.05029740
-0.05377212
0.00514134
-0.03989157
-0.02818791
0.05697985
0.05151125
0.03675821
-0.05118958
-0.05606437
-0.01078264
-0.03604141
0.01276153
0.04090201
-0.02309250
0.04310802
-0.01295096
-0.04010941
-0.05495812
0.04576524
0.04598013
0.03720120
0.01866287
0.03081791
-0.05204567
0.02967673
0.01331876
-0.05347326
-0.05308157
0.02423543
0.02877060
-0.01716942
0.02108238
-0.01767097
0.02899554
-0.05841092
-0.03902487
0.04158207
-0.00905567
-0.04633231
0.03124720
0.02978261
0.03836099
0.04171288
0.00578862
0.03606843
-0.00724895
0.04873919
-0.04567628
-0.03818010
-0.03143688
0.04695318
0.02317321
-0.05976553
-0.01324610
-0.00798045
-0.02225511
0.03135103
0.03510471
-0.02999912
-0.00146360
-0.00314676
-0.04210760
0.00280183
0.03425236
-0.04059577
0.01600009
0.01362061
0.04578707
-0.00399415
0.05309358
-0.02173082
0.00781545
0.00701131
-0.01698253
0.02114300
0.03710674
-0.01313130
0.03013155
-0.00197447
0.04094502
-0.00815036
-0.05076580
0.05403974
-0.00880329
0.02772679
0.00280206
-0.00617460
-0.02519549
0.04057227
0.01029529
-0.05285585
-0.00353455
-0.00274384
0.05121162
0.03118980
-0.03809977
0.04468294
0.04138597
-0.01247924
0.02040480
-0.02757772
0.03412212
0.09022728
-0.02525508
-0.06001149
0.06745087
0.08935025
0.07099722
0.02141594
0.05651882
0.01236638
0.05951057
-0.03680438
-0.00592941
-0.01449435
0.08133311
0.01169283
-0.04436031
0.02168499
0.04163902
-0.02519948
0.01929887
-0.03053829
0.08603629
-0.00585384
-0.00005804
-0.02643750
0.05919697
0.01459561
-0.00604867
-0.00791816
-0.02489383
-0.08266217
-0.00872601
0.02179189
-0.03116577
-0.02076135
-0.02284203
-0.06325411
0.01459587
-0.02600699
0.01457499
-0.05472722
-0.05441293
-0.07216169
-0.02808061
0.00635886
-0.01042848
-0.00353479
0.04188731
0.00426446
0.05475595
0.01719636
0.03000405
-0.03909132
-0.00918632
0.00417633
0.06530527
-0.02548703
0.05295009
0.00177209
0.02388238
-0.02824033
-0.04729543
0.02192356
-0.02005999
0.04294584
-0.01007644
-0.04071228
0.00037119
-0.00797643
0.04644733
0.04362946
0.02087939
0.03584386
0.05695444
0.11439370
0.04022515
-0.07119052
-0.03727616
0.06882692
-0.01143365
-0.10128725
-0.03551377
0.03681270
-0.07317206
-0.08731056
-0.00485181
0.02845733
0.00972987
-0.00513189
-0.06062654
-0.00901882
0.04418447
-0.04478591
0.05133914
0.02514791
0.01873599
-0.05141420
-0.03070773
0.04257020
-0.02638876
0.02862810
0.05497942
0.04982005
-0.03205160
0.05203324
-0.03449861
0.05236786
0.05520172
-0.05623107
0.00942979
0.02458767
-0.03442681
0.05444784
0.05181190
0.02937461
-0.02245764
-0.03880686
0.05557441
0.05423493
-0.02542853
0.04479155
-0.03819290
0.01649995
-0.03200684
0.04090274
0.01087014
-0.00296638
0.02413501
0.01277447
-0.01278507
0.03043940
0.02592697
-0.04242468
-0.01749520
0.06651208
-0.04052279
-0.04594880
0.01086644
-0.00527718
-0.05847152
-0.07782926
-0.03981827
0.07826678
-0.02091664
-0.03217591
-0.03230730
0.07059016
-0.00014329
-0.03471304
-0.00539696
-0.01950674
-0.05102034
0.03625358
-0.04727018
0.03574397
0.04420471
-0.01429985
-0.04360102
0.05134522
0.01871262
0.01534709
0.01226521
0.05796418
0.05316990
0.04473053
0.02436649
0.05112628
-0.04762674
-0.03625881
0.00005406
-0.03278278
-0.03487934
0.00238905
0.06995924
-0.03800179
-0.01606123
-0.06316137
-0.01629134
0.02166894
0.05292801
-0.00836462
-0.03156822
0.02867341
-0.02457980
0.04169613
0.00021410
0.01713211
-0.00957052
0.07161123
0.08288746
0.06549256
0.00840665
0.00968461
0.05073586
-0.01076140
0.02462567
0.05642089
-0.04475567
0.00424871
0.08890342
0.07262573
-0.01415924
-0.00555950
0.10388497
0.11897424
-0.03639133
-0.05065488
-0.03194524
0.01672662
-0.02202045
-0.10096487
0.03086496
0.13404249
-0.05922741
-0.13468391
-0.08175404
0.09334321
0.01094034
-0.13247284
-0.04929222
-0.04676200
0.07297988
0.01099257
0.03348876
0.03989938
0.04328981
0.03479165
-0.03769884
0.01509376
-0.00673465
-0.02794645
0.04814905
-0.01905828
0.04378273
0.00381614
0.04279092
-0.02275277
-0.05818781
0.02404039
0.00208765
-0.01186363
-0.04069758
-0.02599872
0.05409677
0.05535273
0.03788370
0.01531442
0.00295098
-0.09252272
0.02968062
0.03308200
-0.04299928
0.01836782
0.06075723
0.01700770
0.03460334
0.02602720
-0.05535407
0.08728827
0.02044551
-0.06368652
-0.09307852
0.02744441
0.03003646
-0.05478788
-0.12636703
-0.03608175
0.07094698
-0.08533577
-0.01603257
-0.01517818
-0.00257951
0.03504415
-0.05196830
-0.03694149
0.02525431
0.01320580
0.03142259
-0.03338594
-0.06929883
-0.02356081
-0.05092175
-0.00016735
-0.03210600
-0.03992667
0.06145870
0.03542540
-0.02264297
-0.02287866
0.02271896
-0.01738850
-0.01795902
-0.05005385
0.01388524
-0.05202897
-0.02137409
-0.00705807
0.05628156
-0.00130406
0.01189783
0.05563358
0.04356745
0.05333672
-0.04463396
-0.00678467
0.02861625
-0.00146407
-0.04043848
0.04608520
-0.04133411
0.04041671
-0.00936313
0.04021493
0.01175222
-0.00456871
0.02366107
-0.01017250
0.02802423
-0.04499548
-0.02134024
-0.00418487
-0.02471101
-0.04064875
-0.01773077
-0.03550436
-0.01830503
-0.00947872
0.02056528
-0.00982068
0.02186797
0.06961124
-0.00349600
-0.01680722
0.04513653
0.02869874
-0.07066931
-0.04056509
-0.03178767
0.06166032
0.00704805
-0.06507721
0.02749848
0.02525743
0.01393367
-0.03457198
0.04317382
-0.00664806
-0.02628242
0.06919874
0.09961088
0.09494045
0.02170588
-0.06471451
0.08126435
0.07102752
-0.05450900
-0.04467765
0.01751766
-0.03583031
-0.04813265
-0.10676244
-0.06187045
0.00183544
-0.01775630
-0.10466341
-0.06320652
-0.00897327
0.04608055
-0.01129096
-0.10340873
-0.11116420
0.06080946
0.05059420
0.05067003
-0.02042045
-0.04161055
0.00038658
-0.05288890
0.00320601
-0.02407883
-0.04199577
0.03733994
0.05702895
-0.00331589
0.05693598
0.00703127
0.05750692
0.00149950
0.01562176
-0.02241427
0.02037438
0.02231952
0.03101198
0.04191651
0.05348078
-0.01287650
-0.00666810
-0.04996742
-0.00098585
0.02885389
0.05262579
0.01323689
0.03981498
0.01696331
0.05161570
0.02550990
0.02019347
0.01297167
-0.04149216
-0.04150303
-0.03779487
0.05065460
-0.03395820
-0.02252735
-0.02116795
-0.00136027
-0.03265153
-0.02334220
-0.02406116
0.05714988
0.00936571
0.03640026
0.00570986
0.03551177
0.02263645
-0.00078736
-0.00189690
-0.06329314
-0.01820800
0.06937618
0.05397100
0.00197058
-0.04611504
0.07891681
-0.04764146
-0.00692688
-0.02284622
-0.03743758
0.01686453
0.01584896
-0.01319971
-0.00886979
-0.05265378
0.04651476
-0.05288528
0.05542993
0.04932654
0.01405082
-0.04030786
-0.01069319
0.07985406
0.05232082
-0.08576787
0.02112248
0.14061449
0.02457056
-0.05917053
-0.02061216
0.03339989
0.05923752
-0.12706070
-0.05066331
0.09160036
-0.06670766
-0.10973371
-0.08004174
0.09585423
0.09441978
-0.05745095
-0.07574640
-0.04789299
0.00442656
-0.04215689
0.04869730
-0.04934624
-0.00031726
-0.00871660
0.02465040
0.02572114
-0.00593391
-0.00923354
0.05566374
0.05215325
-0.04274123
0.00277478
0.00531061
0.01162077
0.02940248
-0.04118087
0.02312989
0.02717279
0.01970037
-0.04736850
0.05494263
0.03965496
0.05465424
-0.00281495
0.00710766
0.03189429
0.03021636
0.05072450
0.04282341
0.00838488
-0.03917079
0.05597660
-0.00546534
0.06100976
0.02411021
-0.06801549
-0.05836450
0.04944353
0.04277943
0.03012574
-0.06115326
-0.00271381
-0.02084162
0.06627598
0.02579224
0.03790569
-0.00603734
0.05083606
-0.01213171
-0.02511781
0.03218330
0.04710618
-0.03138665
-0.02918968
-0.05266564
0.02930796
-0.00831329
-0.01463707
-0.02714900
0.01126041
0.04349626
-0.04031171
-0.05852412
-0.01072067
-0.05827600
-0.04081681
-0.03321967
-0.00059756
-0.00577462
-0.07768311
0.01846845
-0.04371205
0.00712149
0.00644987
-0.03813008
-0.02315352
0.03492500
0.00446576
0.05500656
0.04909389
0.03181481
-0.02474938
-0.01809784
-0.00243082
-0.03067131
-0.00672824
-0.00031403
0.05701466
0.02539527
-0.01169417
-0.01161323
0.05120240
0.03816327
-0.00125759
-0.03110581
0.04431137
0.02661417
-0.00721143
0.02447767
0.01539980
-0.03313265
-0.03229347
-0.02896275
-0.03667944
-0.05204232
-0.00267182
0.02202916
0.04809583
-0.05834025
-0.04544279
0.05499566
0.03722768
-0.03126946
-0.01589433
0.00886182
0.04874692
-0.00967033
0.01808348
-0.07843447
-0.01854326
0.05917151
0.07988476
0.00625011
-0.03151657
-0.00150122
0.05324625
0.02875130
-0.00052147
0.00715401
0.00972358
-0.02243235
0.05838405
0.02755618
0.00746079
0.01334319
-0.01675916
-0.04740624
-0.01427970
0.05465988
-0.00068498
-0.05007451
0.01303708
-0.04378020
-0.05697372
0.04082707
0.04423934
0.05812543
0.04626885
0.00067746
-0.01800111
0.05536830
-0.03163128
-0.00894533
0.02530230
-0.06468853
0.02135051
0.00676702
-0.01403033
-0.00778843
0.01713900
-0.01198133
0.07096661
0.03458324
0.03702578
0.02136744
0.01099175
0.01199067
0.00211606
-0.06098296
-0.08500824
-0.03228686
-0.04987273
0.07696348
-0.05811298
0.03571687
-0.05561235
0.05411758
-0.01771081
0.00631706
0.05377812
-0.00433392
-0.05093518
-0.02043761
0.04655294
-0.01569462
0.03295518
-0.04929841
-0.04133963
-0.02017131
0.03943691
0.01197028
-0.04975476
-0.04332710
-0.00043417
0.00027726
0.04131364
-0.00263151
-0.01690711
-0.03078647
0.04418024
-0.03962430
-0.04985900
0.03478924
0.01730666
-0.03188231
0.03015345
-0.04870317
-0.05302403
0.02287846
0.01011527
-0.01828671
-0.05518989
0.05194780
0.02770441
-0.02749581
0.03031010
-0.01048100
0.00683188
-0.01813169
0.03812312
0.01837532
0.01469459
-0.05422913
-0.00915002
-0.01713858
-0.01671805
-0.02629298
-0.05435249
-0.08538862
-0.07732631
0.00809534
0.01389450
-0.04469987
-0.01109004
-0.04381581
0.01883182
0.00246232
0.00151774
-0.02054067
-0.09767576
-0.01481269
0.01141954
0.04352375
-0.05445957
-0.06286782
0.04646052
-0.00485140
0.08422275
-0.00564993
-0.02961606
-0.04975064
0.01568063
-0.04686991
-0.01925015
0.01376376
-0.03632133
-0.01946686
0.03981459
0.02807521
-0.02855344
0.01980426
0.00148018
-0.04524911
-0.03996199
0.02010762
0.03015278
-0.01674170
-0.03619763
0.02901359
-0.00715457
0.01780980
0.05446754
0.01909920
0.04685507
0.01241754
0.06598127
-0.04491030
0.01635867
-0.00742560
-0.00210839
-0.03126860
0.04428778
0.04697675
0.01447819
-0.08388340
0.02494786
0.05552358
-0.00916526
0.01178716
-0.05467712
-0.01010690
0.05065487
0.05486860
-0.01012678
-0.02865159
0.01881990
-0.02319966
0.00271655
0.03091700
-0.03848618
-0.04150711
0.00388611
0.04615453
0.02278212
0.04633975
-0.01650921
0.04078816
0.00866074
-0.03562840
-0.00980807
-0.00393798
-0.05979449
-0.03825459
-0.01549218
-0.03326261
-0.05284974
-0.05856689
-0.05846674
0.01935529
-0.00680219
0.03319569
-0.05024292
0.01369453
-0.02473117
0.01896432
-0.05333064
-0.01918052
0.02412955
0.02069484
-0.03575350
-0.01910305
0.00447078
0.03300161
-0.03991095
0.01472483
-0.01568880
0.02926489
-0.05120559
-0.01431690
0.04735373
0.02207423
-0.02668109
0.01074107
0.04764749
0.04809454
-0.02342147
-0.01239702
0.00269773
-0.01933484
-0.03171838
0.01776831
0.02840765
-0.03767353
0.04029514
0.00804920
-0.00397510
0.00615316
0.02362760
-0.04213897
0.02585778
0.00666441
0.00241587
0.00989804
0.03150464
-0.01202526
-0.04506890
-0.02901199
0.03355008
-0.01634403
-0.04122419
0.03351926
-0.04259841
0.05174054
-0.01015089
-0.06392888
0.01482173
0.04822515
0.00538840
-0.06985993
-0.02404002
0.06291091
-0.00905164
0.02664269
-0.07845964
-0.05822814
0.03370821
0.01189851
0.01769962
-0.03330579
-0.08071847
-0.02269428
0.03267154
0.09753799
0.01882743
0.00246492
0.01053150
0.02119222
0.08248665
-0.02897595
-0.04845314
-0.01702054
-0.03097781
0.02087082
-0.01434680
0.04638701
0.01057372
0.05507414
-0.03275773
-0.03459776
0.04798799
-0.02433288
0.02052299
0.02226524
-0.04948628
0.04263159
0.04276759
-0.02304673
0.00681585
0.05011090
-0.04870666
0.04966435
-0.02536887
0.01117078
-0.01797362
-0.01923033
-0.00103917
0.00554045
-0.02367925
0.02263590
-0.00603567
0.01100504
-0.02874018
-0.00815446
-0.02413604
0.05201087
0.04582273
-0.03833199
0.04858543
0.01688904
0.03647817
-0.03818606
0.00039971
-0.01499164
0.04027474
-0.02674976
0.03237545
0.02721160
0.03583672
-0.00226171
0.02757068
0.00537992
-0.04391133
-0.04943666
-0.02339111
-0.01774233
0.00582512
-0.05275804
0.04106128
-0.02104280
0.02177854
0.01828160
-0.02770528
0.01273133
-0.06132782
0.00692442
-0.00249566
-0.02546346
0.04598015
-0.05504930
0.04323659
-0.01603946
-0.03724754
-0.04208706
-0.05093942
0.03468094
-0.03589123
-0.05361092
-0.03647152
0.04332368
-0.00990730
-0.00824121
-0.01331441
0.02225728
-0.05580460
-0.02636107
0.01637109
-0.01980973
0.00367490
-0.05090891
-0.08716112
-0.05609270
0.03649660
0.01763143
0.02540050
-0.07035932
0.02400329
0.00552451
0.02230608
-0.04433233
-0.05871974
0.01928193
-0.04807903
0.02771221
-0.04004005
-0.05835756
0.02006860
0.00467157
0.03378047
0.00947092
0.05781542
-0.00463520
-0.05415611
-0.03496237
0.01550874
0.04796333
0.00690344
0.05706709
-0.03895173
-0.04481645
0.03014487
-0.05344564
0.01159884
0.01424999
0.04524650
-0.04186788
-0.04680656
-0.05003585
-0.05595640
-0.02600016
-0.04783123
-0.04924802
-0.03703871
0.02287860
0.02365583
-0.06279517
-0.09238601
-0.04855563
-0.00117658
0.07029103
-0.00600253
-0.04761048
-0.06084999
-0.09628367
-0.03183901
-0.01475267
-0.05282334
-0.05131430
-0.05013973
-0.04632084
0.02318861
0.06420618
0.07946256
-0.00499008
-0.05545308
0.00133085
-0.01294440
0.17824264
0.19998765
0.03263475
-0.04311797
-0.09273732
0.00332098
0.10443219
0.10592401
0.06456520
-0.10220430
-0.13758579
-0.05074927
-0.04258230
-0.01607395
0.05427248
0.09353922
0.01885310
-0.08817209
-0.00575757
-0.06502421
-0.04973124
-0.01757862
-0.00952665
-0.06246895
-0.06528480
-0.05298311
0.01318274
0.03460750
0.05669498
0.04281731
-0.05451713
-0.04879061
-0.03655233
-0.01307323
0.00375529
0.07998341
0.05207439
0.00913142
-0.01583536
0.01991921
0.05990899
-0.00292461
-0.02231758
-0.03603046
0.04066597
0.08516262
0.04169780
-0.02645662
0.01961799
-0.05635743
0.02007542
0.09768417
0.05807333
0.04181962
-0.11041526
-0.00784373
0.00627087
0.04113409
0.01485236
0.02178613
-0.06339477
-0.00468042
-0.02011792
-0.01683711
0.13832797
0.15462132
0.13964872
0.04053972
0.04110612
-0.01576647
0.00723623
-0.04052731
0.00193648
0.01890004
0.04302542
-0.01549867
0.01551616
-0.03003088
-0.02197519
0.02924300
-0.02730127
0.01013739
-0.05720118
0.00003176
0.04208848
0.04580246
-0.02126385
-0.03669723
0.05076149
0.05783698
-0.03131710
-0.04371503
-0.03435251
-0.05264524
0.04559492
-0.04584014
-0.10654979
-0.07550795
-0.07316927
0.05910270
0.11021706
0.05462672
-0.03987509
-0.04699750
-0.01051117
0.10881755
0.08886876
0.12853426
0.03114521
-0.09013071
-0.06392822
-0.04902185
0.00558379
0.00234951
-0.02072214
-0.01404360
-0.10407989
-0.09881250
0.04819870
-0.02749107
0.02147732
0.01165311
-0.00709563
0.00313893
0.03622409
-0.01150830
0.00565598
-0.03917928
0.02627937
-0.05671565
0.00728875
0.01514804
-0.01323601
-0.02856071
-0.03660699
-0.00369409
-0.03139413
-0.01643120
0.00055108
0.02558630
0.01530393
-0.02831280
-0.05476233
0.02256380
-0.01930589
0.02220767
0.02177276
-0.01194096
-0.05808059
-0.06592888
-0.08331868
-0.07989546
-0.03177133
0.03951028
-0.03460151
-0.07622930
-0.03703507
0.01461475
-0.05231385
-0.01036217
-0.01209761
0.05624501
-0.02815372
0.04335787
0.10145396
0.08744786
0.09267987
-0.01178455
0.01714467
0.01006575
-0.03255745
-0.08168835
-0.16724271
-0.05521652
0.05526995
0.12013294
0.10656347
-0.00796674
-0.10683072
-0.07763446
0.10941482
0.19265680
0.16984022
0.01767174
-0.19771367
-0.14161338
-0.10306535
0.07268330
0.00959209
-0.00112899
-0.03875083
-0.14933890
-0.00646549
-0.03447442
-0.02011101
-0.00394298
0.03333363
-0.01522669
0.02331113
-0.04602161
-0.05653485
-0.01831824
-0.03535897
-0.02651212
-0.05659743
-0.03295976
0.05581753
0.03776764
-0.02549694
-0.05457640
-0.00786929
-0.01883340
-0.04361222
0.04514199
-0.04734252
0.01257380
0.03287761
0.04791939
-0.01306449
0.04878879
-0.08899633
-0.13539007
-0.03165476
0.00573569
0.01079458
0.01523395
-0.03173092
-0.02929013
0.01580522
0.00706877
0.00613071
0.16387664
0.13746494
-0.04014812
-0.13334294
-0.09101588
-0.05188751
0.11019576
0.10993540
-0.06424955
-0.00656463
-0.03558452
-0.00406841
-0.02077247
0.01691041
-0.01394834
-0.05004900
0.04636147
0.03796970
0.02185327
-0.01393073
-0.02193208
-0.03034959
0.01032616
0.05672180
0.01009496
-0.06693399
-0.04222669
-0.02863467
0.10506158
0.08038875
0.01661834
-0.03981274
-0.04151536
0.06432900
0.03820741
0.01784742
0.03210382
0.02393076
-0.04615410
0.01776740
-0.02952123
0.05176634
0.00960728
-0.02571569
0.01641164
-0.05351188
0.03495365
-0.00435767
0.03807537
0.00110883
0.01955621
0.04490416
0.04208372
-0.05802566
0.04094614
-0.02132463
0.01525008
0.04816261
-0.00814909
0.03216143
-0.03935197
-0.02344213
-0.01406300
-0.05421920
0.01798540
-0.06393000
-0.04536191
-0.04568906
0.02767037
0.02175861
0.02310324
-0.05680541
-0.01851519
0.07468272
0.05493850
0.02344473
-0.01195715
-0.02743675
-0.04168615
-0.02818453
0.07443583
0.02675274
-0.01901441
-0.02832601
-0.04192632
-0.07870575
-0.06140770
-0.04316611
0.13554657
0.07711500
-0.06411337
-0.16571510
-0.05669784
0.10793635
0.19140753
0.24012549
0.09297347
-0.06942829
-0.10556849
-0.01511358
0.22140515
0.25383499
0.10618670
-0.19018805
-0.17024440
-0.15352167
0.02350206
-0.01545312
0.04774988
-0.03301761
-0.16759253
-0.16027333
-0.07355603
-0.04179104
-0.05291487
-0.05691598
0.04995852
0.05259808
-0.00850669
0.00697231
0.01999224
0.00866835
0.05462937
-0.01911625
0.00366388
-0.01680642
-0.01781848
0.04156647
0.03063620
-0.03761123
0.00303461
0.00930856
0.02158305
-0.02573342
-0.00102832
-0.00392599
0.02342839
-0.04011100
-0.04545867
-0.01778835
-0.04747346
0.03476438
0.00912135
-0.01767921
0.04241243
0.04907657
-0.03163315
0.03068232
-0.02401334
-0.05420412
0.01390243
-0.01522193
-0.03411846
-0.04734103
-0.02224828
0.03219639
0.03659591
-0.01905080
-0.05347462
-0.01307723
-0.04183877
0.05842363
-0.04424980
0.01958042
0.04837088
-0.02148844
0.00855831
-0.00398228
-0.05418647
-0.02228179
-0.01673659
0.02417728
0.04299011
-0.03835451
-0.00951581
-0.06787883
-0.06088513
-0.06629919
0.02582080
-0.02547758
-0.02371896
0.00273593
0.02329953
0.00635608
-0.03960249
0.03866234
0.05132811
-0.05437302
-0.00984455
-0.01316984
-0.01861101
-0.08589215
0.01960130
0.05245384
-0.00306473
-0.01314803
0.05307512
-0.03621950
-0.02686246
0.03599252
0.00876359
0.01964189
0.02515272
-0.15531674
-0.04042722
0.00017543
0.02555290
-0.02683179
-0.05932407
0.03916344
-0.06282861
-0.08164392
-0.06090045
0.04988014
-0.00380158
-0.00231635
0.03684917
-0.00712471
0.05050853
0.01214066
-0.03700258
0.00528401
-0.03836675
-0.02618745
0.03015926
0.05201673
-0.03874780
0.03486608
0.03973661
0.00542264
-0.02413704
-0.03280079
0.05519848
0.03859769
0.02046438
0.05369408
0.00570721
0.03945177
-0.01798492
-0.03031729
-0.02770217
-0.03014368
-0.03611983
-0.04593939
-0.05077866
-0.00894955
-0.03893756
-0.01846158
0.05291529
-0.05515601
-0.05559894
0.03806326
-0.07712918
0.00437370
-0.00215932
-0.04620035
0.04409507
-0.04798292
-0.06247361
0.01013066
-0.07100814
-0.00028515
-0.02779424
-0.07486174
-0.05733349
-0.04436708
0.01761274
0.00989100
0.04790918
0.00052687
-0.01107577
-0.01833239
0.04934142
0.08032262
0.01015183
0.05931300
0.00882015
0.04477933
-0.00965268
0.02147490
0.07066768
-0.00995982
0.02930163
-0.00823316
0.03162614
-0.02301069
0.01826136
-0.02935438
0.05276220
0.05434192
-0.05160563
-0.02384933
-0.04279587
-0.01122450
0.00659449
0.02025192
-0.01003854
0.05626113
0.04316628
-0.00407043
-0.00709895
0.06873488
0.02236335
-0.04987807
0.00812736
-0.04555777
0.05184269
0.04518673
0.03344362
-0.03339425
-0.01373632
-0.03721202
0.03781752
0.02716938
-0.02867216
0.00428749
-0.01863643
0.02405880
-0.03824974
-0.05297734
-0.07051309
-0.00416743
0.00517919
-0.05625038
0.00112713
0.07172330
-0.00352144
0.05306874
0.00590130
0.03478065
0.05470094
0.06648277
0.00975743
0.03095120
-0.06169742
-0.08170827
-0.09030557
-0.03713320
-0.05615743
0.03696651
0.03133048
0.03891763
-0.05815404
0.04046421
-0.03692654
-0.02694404
0.04346306
-0.02655733
-0.05330646
0.01729057
0.01502368
-0.04078122
0.03416944
-0.05546935
0.00448482
-0.01658994
-0.01713731
0.02688010
0.03639349
-0.04157843
-0.03578863
0.00634244
0.01472688
-0.09988134
0.02511486
0.06211361
0.01215763
-0.03974001
0.00906924
0.01435399
0.01656025
-0.05173847
-0.05389294
0.02641693
0.00653935
-0.01504394
-0.05728727
-0.03664888
0.03800204
0.08213698
0.06523979
0.06240690
-0.00333251
-0.03875758
-0.03204849
-0.03067439
0.02715519
0.04320054
-0.00822086
0.01742837
0.00143235
-0.02929587
-0.01279410
0.03423011
-0.00961943
-0.00677035
0.00412924
0.03142647
0.00304270
0.01253347
0.03232360
0.03379847
-0.05638259
0.04754817
0.01099264
-0.03347361
-0.00699806
0.00981877
-0.00193177
-0.02818317
-0.02959855
-0.00440984
0.02400424
0.05247699
-0.01281189
-0.03316666
-0.04662120
-0.06520686
-0.02285266
0.02022144
-0.05871490
-0.01112787
-0.00398792
0.04210180
-0.05438658
-0.01714166
-0.01521965
-0.03936643
-0.04717494
0.00513123
0.01609458
-0.01579915
0.04781441
-0.02499150
-0.04998677
-0.04958021
0.03572906
0.05296503
-0.00463753
-0.07614998
0.06280947
-0.00406013
0.05225141
0.00366073
-0.04561533
-0.09788234
-0.11319070
-0.01482052
0.07569222
0.01547128
-0.04522783
-0.03822875
0.02152629
0.07136194
0.06713609
0.03409633
0.02064766
0.06659434
0.06603638
0.05836194
0.06167379
0.04003371
0.01260575
-0.03883080
-0.03322053
0.02019909
-0.03879511
-0.00705357
-0.01857558
-0.02718775
-0.05531788
0.04590977
-0.01382481
0.04635058
-0.00613212
-0.01925894
0.04298288
0.02591613
0.00155528
0.03457529
-0.02818932
-0.03765060
0.01887804
0.03853600
0.01140221
-0.04721967
0.01494634
-0.05351078
-0.03609981
-0.03363630
0.03061551
0.06654342
0.01708858
0.02970691
-0.05190002
-0.01371294
0.03221048
-0.03803667
0.02379449
-0.01679663
-0.07887445
-0.07762374
-0.04582372
0.02402672
-0.03059808
-0.03225542
-0.00854690
0.03624165
-0.05449828
0.02304621
-0.00052469
0.10523836
-0.01962078
-0.03574704
0.01379247
0.05376364
0.03773938
0.03346208
-0.02902744
0.01716604
0.03599032
-0.01690503
0.00131409
0.00110402
-0.04724504
0.00015219
-0.02576561
0.05095119
0.01549979
0.00280690
-0.04830607
-0.06476706
-0.04650623
-0.04283888
-0.06532323
0.03202590
-0.03861490
0.00592471
-0.05683338
0.04424504
-0.03806613
-0.00044379
-0.01626502
-0.01273414
-0.04236247
0.01370275
0.04958472
-0.03922979
0.05360943
-0.00756702
0.01016935
-0.04059061
0.04971994
-0.01082632
-0.03220920
-0.02145394
-0.05633187
0.03643543
-0.04964290
-0.03796335
-0.00224536
0.01352641
0.02001626
-0.00195027
-0.06042247
-0.00163614
0.01302421
0.01840775
-0.04710937
-0.01668958
-0.04565108
-0.04699389
0.01465932
0.03872610
-0.07087009
0.02121323
-0.06343482
-0.01768186
0.05132809
-0.03583776
0.02339869
-0.01726881
-0.01770273
0.04554584
0.08892389
0.05880624
-0.03585762
-0.05287375
-0.07324485
-0.06776559
-0.01293642
0.03465730
0.03482410
-0.00270806
-0.01462150
-0.01924001
-0.05020596
-0.02525922
0.07920041
0.09435010
-0.00613037
-0.02833137
-0.05039827
0.11897572
0.12151609
0.12559702
0.10248584
-0.01983102
-0.04530041
-0.00236436
-0.03495142
-0.01998905
-0.02025403
-0.02222798
0.01047849
0.05528661
-0.01797194
0.00266615
0.02355495
-0.03195248
-0.01951599
-0.04513595
0.02710761
-0.05409994
-0.03833739
0.00438878
-0.03460154
-0.03881712
-0.05390148
-0.04659861
-0.03525229
-0.05350679
-0.04932958
-0.00637823
0.00355358
0.01926600
0.01532140
0.03298089
0.00170360
-0.00727874
-0.01898587
-0.00092751
-0.04950245
-0.05191274
0.04268629
-0.02514736
-0.04945143
-0.05597142
-0.04247584
0.05061532
0.04032945
0.03107862
0.02023102
-0.03765407
-0.04575770
-0.05751132
-0.03389808
-0.03923896
-0.04708202
0.02263093
0.04147154
-0.01772772
0.05139067
0.05195403
0.02681182
0.01645199
0.03695757
-0.05692214
-0.04716342
0.04130462
0.01503380
-0.03542481
-0.05669216
0.02053980
0.03611147
-0.06415618
0.01337383
0.02357586
-0.04595966
0.03282469
0.05077170
0.05510406
0.00141740
0.06818550
0.05686393
0.00998136
-0.03645665
-0.06502375
-0.07087455
-0.06555600
0.02880228
0.02331663
0.03329002
0.01840330
-0.02554079
-0.06978405
-0.06475475
-0.08708824
0.03658369
-0.06131275
-0.08626980
-0.05898089
-0.01621785
0.02607202
0.01335931
-0.00575361
0.04377532
0.05136634
-0.04068550
0.08144195
0.07894517
0.02209802
0.02376414
-0.00060917
-0.05361410
0.00056403
0.03108415
0.01667545
-0.00820305
-0.03718544
0.01880946
-0.01037836
-0.04987374
0.01015605
-0.01364297
0.04817097
0.00164660
-0.01416921
0.03242565
-0.04515962
0.00854560
-0.03531171
-0.00141948
-0.03483380
-0.02119736
0.01537670
-0.01347384
0.02728215
-0.01093312
-0.00080039
0.02141243
0.01603650
0.03849687
0.00631395
-0.04820615
-0.05569510
-0.01047245
0.00451168
-0.01671008
-0.03431491
-0.00462702
0.02183544
-0.02541134
0.02614111
-0.00728312
0.01989022
-0.01212460
0.03764482
0.00022544
0.03952292
-0.01052445
-0.03320314
0.05498067
0.00858604
-0.00795842
0.05070938
-0.04499048
0.01869543
0.03283190
0.00612958
-0.02894983
-0.00000553
0.02486783
0.01880898
0.05622721
-0.01528258
0.04865297
-0.04608233
0.05589388
-0.02428808
-0.02636450
-0.04670555
0.00204588
-0.04465755
-0.03254630
0.03073367
0.00288256
0.03728874
-0.00001742
0.03117241
0.00464514
0.01635080
0.01834159
0.03540473
-0.04363248
-0.00959751
0.03740946
-0.00949198
0.04078913
-0.03952246
-0.00873807
-0.03719456
-0.02334411
-0.02157380
0.05714643
0.00432544
-0.04651150
-0.05497651
0.02651927
0.03104885
0.03963328
-0.02971959
0.04268682
-0.01627379
-0.01055086
0.05505577
-0.02982729
-0.04041215
0.03902449
-0.00509059
0.04897787
-0.02040637
0.04579716
-0.03462089
-0.05052565
-0.02235870
0.01754822
-0.00519872
0.01233108
0.01370949
-0.01845219
-0.05804690
-0.05596559
-0.00851550
0.00254775
-0.01479208
-0.05039135
-0.02136287
-0.05336275
-0.01349291
0.02356991
0.01416734
-0.04024465
-0.00356038
0.05346641
-0.00744495
0.05412600
-0.05053850
-0.04805019
-0.02464744
0.03507574
0.03439655
0.03036683
-0.00713581
-0.03081562
-0.04709237
0.01124715
-0.01840344
0.00934452
-0.01573424
0.00580098
-0.05464953
-0.03355423
0.03663734
0.03060383
0.02099675
-0.00484227
0.03829351
0.04470339
0.03555385
-0.01917977
-0.04247092
-0.03335057
0.01530487
0.00401525
0.01198270
-0.05375137
-0.05234111
-0.02982269
0.01414173
0.05147023
-0.03195666
-0.04095824
0.01700376
-0.03295872
0.04109752
0.00262229
0.04471899
-0.05636790
-0.05700824
0.00253706
-0.02976108
0.02965162
0.00523064
0.05204068
-0.04658703
-0.01379662
-0.04754870
-0.04837708
0.02132193
0.00902474
-0.02660090
0.03946659
-0.03590847
0.01162377
-0.05120089
0.01911267
0.02966950
0.05850917
-0.04729298
0.00883048
0.02134193
-0.00973636
0.03013630
0.02179715
0.03694168
-0.04916155
0.02793648
-0.01165233
0.05206588
-0.02203356
-0.03485832
0.04219555
-0.02820763
-0.03578543
0.02126184
-0.00358568
-0.00649932
0.02677693
0.04783284
-0.01512849
-0.05066692
0.01637437
-0.02585210
0.03674422
-0.02444538
-0.05068372
0.02723024
-0.02157640
-0.02813669
0.04121285
-0.01243924
-0.04354587
-0.00517212
-0.01359978
-0.00519043
0.00389222
0.05542837
0.01700264
0.01835655
0.00115236
-0.04932788
0.02335858
0.03156867
-0.05451943
-0.03932158
-0.04625348
0.00223024
-0.01373613
0.00375794
-0.03739492
-0.01248736
-0.02650805
-0.00071857
-0.04737668
-0.01034103
0.00973470
0.03855255
0.01072233
-0.01087878
0.01735411
-0.00102060
0.05333291
0.05397008
0.00734116
0.00758618
-0.02445449
0.04938627
-0.04421276
-0.02941182
0.01592971
-0.03645132
0.03383004
0.05672223
0.05580000
-0.04098686
-0.03591796
-0.02206035
-0.00514437
-0.04538364
-0.04294549
0.01875397
0.01246538
-0.00209522
0.02553661
-0.02000751
0.01833162
-0.03917966
-0.02117052
-0.01634727
0.05325314
-0.01678146
0.02502759
0.02274868
-0.05705332
-0.05167795
-0.03560720
0.04780249
0.04032482
-0.03335156
0.04405513
0.01581494
-0.00437367
0.04133090
-0.03051731
-0.02700645
0.03930549
-0.04286994
0.05164886
-0.05206910
-0.03546510
-0.00527879
-0.00136780
0.05501461
-0.01871524
-0.03964973
-0.05331127
-0.05720206
-0.01321367
0.02505092
0.03927238
-0.04953170
-0.03866166
0.05731835
0.05486682
-0.03519753
-0.01449576
0.02390229
-0.00486517
0.02723005
0.04764905
-0.01295060
-0.04434111
0.02200798
0.02175982
-0.04080082
0.00160970
-0.05539992
-0.03146948
0.04968461
-0.02950288
0.01995028
-0.01375803
-0.02804931
-0.04329677
0.03688304
0.02413308
-0.05078778
0.03606792
-0.00324590
0.00083472
0.05072428
-0.01826503
-0.01604544
-0.05651883
-0.04310060
0.02056026
-0.02434139
-0.01049283
0.01576209
-0.00675186
-0.02974701
-0.05110983
-0.01894703
0.01530763
-0.00183595
-0.02380783
-0.01963148
-0.00355383
0.01064982
0.00494018
-0.00939742
0.04791066
-0.01095030
0.02448383
-0.03839116
0.00440719
0.04059720
-0.05137587
0.05312226
0.05173482
-0.01558748
-0.05646669
-0.05513936
-0.01044409
-0.01233243
0.03805692
0.03960700
0.02949113
-0.04601515
0.05095053
0.02525037
-0.03948277
-0.05763887
0.00436287
0.02903255
0.01693815
-0.02635260
-0.00163297
-0.02240977
0.01407873
0.01134391
-0.01206244
-0.02645009
-0.00774650
0.01341442
0.05391068
0.00543575
0.03569313
0.05600110
0.02436772
0.02129729
0.01677622
0.04088559
0.03128133
0.05225408
0.04255258
0.03206099
0.00605835
0.00395120
-0.00725574
-0.04313808
-0.01709759
-0.04142460
0.04320154
0.02426567
-0.05739726
0.02453170
-0.03413374
0.05496781
0.05611237
-0.02105385
0.04830572
0.01596587
0.03028968
0.01791010
-0.00038861
0.03725612
-0.04983251
-0.04508013
-0.04706370
-0.03762696
-0.00701718
-0.02546624
-0.00695613
-0.05212781
0.01947687
0.04530059
-0.02836588
0.03580831
-0.05494240
-0.01174295
0.04053800
0.04235111
-0.04373589
0.05535320
-0.03937582
-0.03670800
-0.01220445
-0.03351542
0.03698732
-0.04778307
0.05468033
-0.00539282
-0.05308533
-0.04047500
-0.03510693
-0.02272134
-0.01100544
0.04783031
-0.04700854
-0.03567092
0.00778685
0.03482351
-0.04950105
0.02515255
0.02596608
0.02385416
-0.03970027
-0.03977995
0.04126020
-0.05690422
-0.01639821
-0.02926262
-0.04338676
0.03639892
0.03251898
0.00785165
0.05405037
-0.04607676
0.04416006
-0.01966193
0.00338053
0.00855787
-0.04661314
0.02244614
-0.00311021
0.02750566
0.01572380
-0.00398979
-0.02899411
-0.03220057
-0.05487556
-0.04465319
0.05793643
0.02336142
0.01037132
0.01150489
-0.00910564
0.04460355
-0.03265547
-0.04109247
0.00918164
0.00888716
-0.05603893
-0.01369322
-0.02084571
0.00585146
-0.01383717
0.04059521
-0.02260216
0.01090808
0.04516932
0.01322881
0.00579733
-0.03514438
0.01046768
-0.05253996
0.08540659
-0.05098204
0.04296172
0.11929252
-0.00198328
0.01531679
-0.04892771
0.00648598
0.12676470
0.04347755
-0.04920942
0.02090496
0.11076244
0.09486726
-0.06479617
0.05685121
0.01199467
0.00398031
-0.04975460
0.01993744
0.05340612
0.04881137
0.04315468
-0.01724844
0.02604277
-0.09531396
-0.00758293
-0.02369407
-0.03675165
-0.03196606
-0.03500414
-0.00852081
-0.08105060
0.03296177
0.01403776
0.03435533
-0.01460100
-0.00080093
0.04949673
-0.01556541
0.05754888
-0.04482496
0.04826384
0.06136639
0.01928989
0.01088163
-0.05882557
-0.01268840
-0.03154352
0.00584099
0.00830751
0.00338387
-0.01204360
0.00975122
0.00320095
0.01471391
-0.06149297
-0.05547125
-0.05347801
0.05161956
-0.02645982
0.03662775
-0.03993651
-0.04004823
-0.00755580
-0.03833006
-0.04636998
-0.04061372
-0.01530189
-0.02657995
-0.04635553
-0.06413036
0.01075603
0.05542025
0.04584856
-0.05844957
-0.01515027
0.07047831
-0.02131226
-0.11655654
-0.04385286
0.03925739
0.07147086
-0.11231344
-0.09262141
0.02054512
0.06176765
0.03066628
-0.07642736
0.05792356
-0.02652758
-0.02983817
-0.05505128
-0.01085073
0.01693176
-0.03329039
0.06429414
0.03783325
-0.05887565
-0.04405359
0.00076624
-0.02768157
-0.01451614
0.02445957
-0.03335297
-0.03025158
-0.02041531
0.02367891
-0.02535925
0.02336952
-0.05378094
0.01359061
-0.02210527
-0.02019373
-0.00609793
-0.03444643
-0.00353418
-0.00830409
-0.04863358
0.04647469
-0.01103495
-0.02907405
0.03117343
-0.02292875
0.02038295
0.01326543
-0.08227564
-0.03980000
0.00995249
0.01688001
-0.03669172
0.00578478
-0.02605713
0.09159708
-0.05780056
-0.09731569
-0.00136905
0.13831890
0.05281818
-0.06952430
-0.05276097
-0.00940729
0.11312117
0.02480871
-0.04846784
-0.02126791
-0.01760061
0.07651502
-0.04308692
-0.04285541
-0.05021670
-0.00629966
-0.00774824
0.04170279
-0.03922275
-0.03569874
-0.05633048
0.02535094
-0.05233234
0.04303604
-0.02599219
-0.00919812
-0.02163301
0.02469392
0.01891345
-0.02025185
0.03209287
-0.04471396
0.00795600
-0.05124036
-0.04305177
0.04207613
-0.00718861
0.03336989
-0.00662369
-0.04109971
0.05652499
-0.00130708
0.02342613
-0.00737981
-0.00358154
0.03202826
-0.06945255
-0.01918816
0.01487029
0.01031535
-0.03458152
-0.01955713
0.00179544
0.06457178
-0.05835460
-0.01258003
-0.00251021
-0.00368519
0.00114264
-0.04586095
-0.06375874
-0.03859225
0.04778442
-0.05319013
0.01004708
-0.13455963
0.05887724
0.09108265
0.03275490
-0.11029942
-0.07283057
0.22245045
0.06296009
-0.17104867
-0.12675458
0.01914898
0.15581404
-0.08416590
-0.17267677
-0.01451368
0.12368838
0.01038489
-0.06423083
-0.07093551
0.05307155
0.03008630
0.02791024
-0.09906172
0.02260942
-0.05323040
-0.01968915
-0.02878057
-0.01446877
0.02631090
-0.00543186
0.01512789
-0.00375446
-0.02173857
0.00112446
-0.00753332
0.05350386
0.03643215
-0.03458835
0.01436428
0.03027461
0.01137621
-0.05052336
0.01365564
-0.01645757
0.04569128
0.05080348
0.04745810
0.03000500
0.05212121
0.01367162
0.01223707
0.00731580
0.03580933
0.04174871
-0.02279102
-0.08579246
0.04688843
0.15458386
0.03997953
-0.09808043
-0.03036126
0.11913475
0.10699093
-0.05307662
-0.04693226
-0.00477488
0.09393471
0.01025554
-0.04018274
0.07045510
-0.00493839
0.01479824
-0.00877638
-0.00624085
0.02760500
0.02502163
0.06347092
-0.08388772
-0.05368797
0.01230448
-0.01211116
-0.07421128
-0.06969082
0.01376615
-0.04727305
0.02041470
-0.00638918
0.01452993
-0.04070026
-0.03138749
0.03983368
-0.02752794
-0.05137782
-0.05694133
0.02855065
-0.04728214
0.02806985
-0.02641240
0.04281260
-0.04359622
0.04381546
-0.03153457
0.04188802
-0.04923139
-0.04147269
0.04002211
-0.00835336
-0.04140804
0.01533816
-0.05699797
-0.00706799
0.03212968
0.03381478
-0.04200108
-0.00387615
0.04765540
-0.03421387
-0.05161589
0.00969572
0.02741184
-0.03346255
-0.01653020
0.05539342
0.04542307
-0.01928724
-0.07242783
0.02334427
0.07904891
-0.01105413
-0.02688116
-0.01817498
0.04566348
0.10343690
-0.01241606
-0.07423595
-0.00364356
0.01991433
-0.00882103
-0.10567914
-0.00227596
-0.02734987
0.01134677
-0.04421845
-0.05127960
-0.02984795
0.03566841
0.00355699
-0.08171871
-0.03074339
-0.06656674
-0.11208893
-0.00932990
0.01014133
-0.02640714
-0.08341671
-0.06628118
-0.01183055
0.04371142
-0.06903581
-0.07394289
-0.08292702
0.06434463
-0.04047680
-0.08722677
-0.06323130
-0.05241539
0.06957699
0.00074031
-0.09706008
-0.03479904
0.03403673
-0.00647301
0.00197357
0.02765911
-0.02187157
0.01200627
0.05118896
-0.00385638
0.03047042
0.00958950
0.04737942
0.05742696
0.01438688
0.05565427
0.04763918
0.00881695
0.04892218
-0.02043637
-0.05304033
-0.00954182
0.02706103
-0.03687669
0.03863084
0.02158998
0.01083876
-0.03844246
-0.04589229
0.03189388
-0.04237704
0.02019363
0.04908010
0.03209122
0.01849525
-0.00289328
0.02462881
-0.00757862
0.02681109
0.02200001
-0.03724736
0.04543762
-0.05507683
-0.02613401
-0.00491116
0.00937596
-0.00150057
-0.04147949
0.04126846
0.03368750
-0.01494095
0.05094640
0.04536546
-0.04171795
0.03476350
-0.04261838
0.02020903
0.01113722
0.02696710
0.10303368
0.05141363
-0.05014876
-0.00583432
0.04944075
0.01358114
0.02403256
-0.03804568
-0.01524123
0.09153350
-0.05619097
-0.05966784
0.03139708
-0.02412491
-0.05454804
-0.04075879
0.03050622
0.04275241
-0.02676539
-0.05089697
0.00013179
-0.05331315
0.01225496
-0.07224298
0.01848132
0.14602652
0.05966664
-0.00307177
-0.14520989
0.11486460
0.16051820
-0.04380267
-0.05854639
0.00570376
0.12754510
0.02738542
-0.06239671
0.07268169
0.03936398
0.10641258
-0.08819568
-0.05701490
0.06584626
0.04355550
0.03313842
-0.01133484
-0.02383965
0.02387426
0.02305348
0.01331848
-0.05684428
-0.01038644
-0.03236756
-0.04980624
0.02939541
-0.02269167
0.02625102
0.02163835
-0.04625161
0.04484431
-0.02458912
-0.04581163
-0.00229155
-0.00730523
-0.02301058
-0.04501623
0.03384003
-0.00812793
0.04636382
-0.00889960
0.04819271
-0.02378484
-0.02682518
-0.06023821
-0.03738326
0.00572784
-0.01061681
-0.05163304
0.05018963
0.03912298
0.07702485
-0.02615520
-0.01702486
0.03395709
0.07651109
0.00864400
0.02133037
0.08087877
0.07629506
-0.02479835
0.03070232
-0.04127371
0.06872480
-0.01387192
-0.05962922
-0.02871128
-0.00001407
-0.00576561
-0.06482224
0.00986313
0.06227354
0.03299179
0.02744411
0.02582906
-0.01584812
-0.05898900
0.03017689
0.06968588
-0.02083187
-0.06652348
0.01183778
-0.05897375
-0.09089556
-0.02702183
-0.01396475
-0.03362948
0.00672264
0.05734115
0.06870496
-0.06493387
0.01208331
-0.02245280
0.01540947
-0.05052217
0.00977013
-0.00440779
-0.00005813
0.03231948
-0.03665261
-0.01612464
-0.04228848
-0.02276660
-0.05986676
0.01388686
-0.05835372
0.04804015
0.02081793
-0.01765285
-0.06265401
0.03935080
0.04497664
0.00059016
-0.03294946
-0.07858781
0.03628241
0.05268329
0.02574679
-0.03226452
-0.00298211
0.05075248
0.01050302
-0.06635072
0.07960165
0.15303770
0.05482106
-0.08088972
-0.08335555
0.14021428
-0.01799853
-0.04529683
0.01214686
-0.00679081
-0.00804695
-0.14029770
0.02162354
-0.01169136
0.02487711
-0.00422086
-0.03423434
-0.01592313
-0.05777179
-0.02559130
-0.03854353
0.01297867
-0.02891547
0.05743031
-0.00511311
0.03690575
-0.01982165
-0.03925587
-0.05553304
0.00308556
0.01657899
-0.04432842
-0.04763709
-0.01003208
-0.05471100
0.05738998
0.03200697
0.03956581
0.03041738
0.02260349
-0.02056367
-0.03874420
-0.03514426
0.05690488
-0.05648939
0.00976493
-0.01900623
0.05861383
0.05767799
0.03670520
0.00538787
-0.02936768
0.06494139
0.06067707
-0.03292210
-0.10903443
-0.01445807
0.06112707
0.06681689
0.01467786
0.09861160
0.04914838
0.04836014
0.03246922
-0.05252315
0.04103343
-0.04625029
0.00804464
-0.04120766
0.01015883
-0.05590475
0.05819637
-0.00294804
-0.01353219
0.04146606
-0.00712249
0.01225462
-0.04953063
0.00363768
-0.03611762
-0.02635792
0.02141059
0.03279752
-0.05087294
-0.00636973
0.03199518
0.04784308
-0.00675615
-0.05682036
-0.00760191
0.00429233
0.03650169
0.02009539
0.03769174
0.05348368
0.00055748
0.00051812
-0.05954910
0.02749980
0.01712183
0.02815880
0.02038055
-0.00063428
-0.06942786
-0.04116355
-0.01215500
0.01879968
0.00211910
0.01514963
-0.00099532
-0.09077821
-0.02760970
-0.01752566
-0.01823248
0.03122000
-0.08981679
-0.01325992
0.03476933
0.04653228
0.03588250
-0.07400455
-0.01026411
-0.03027023
0.06696737
-0.05786961
-0.11342815
0.10490111
0.10230750
-0.00077297
-0.01042641
0.08176011
0.08236655
0.07755268
-0.06964702
-0.12997906
0.09065528
0.02515599
-0.11999498
-0.09186949
-0.03087475
0.08367694
-0.09107561
-0.10941118
0.01582834
-0.05201747
0.03427992
-0.01657309
-0.05672850
0.03921116
-0.00587874
0.00796411
-0.05640136
0.02512741
-0.04042970
0.04152157
-0.02874573
0.03967768
0.01491508
-0.02963662
-0.05650368
-0.05574962
-0.04140371
0.00838363
-0.03341693
-0.04201946
-0.01783228
-0.04821504
-0.05631165
-0.04267626
-0.01889557
0.00265384
0.03192198
0.01103570
0.01258380
-0.04279286
-0.05183644
-0.05115123
0.02775062
-0.01350378
-0.01385943
-0.08106174
0.05424700
0.03402584
0.00769199
-0.04700441
0.10291667
0.08699671
-0.05945018
-0.08878187
-0.02505320
0.01768684
0.02330089
-0.05642864
-0.06941164
-0.04386521
0.03827018
-0.03142569
-0.01075613
0.01117590
-0.02949107
-0.02902250
-0.01577787
-0.05804185
0.02182313
-0.00455898
-0.06799835
-0.09054702
-0.08581519
-0.05270549
0.02607619
-0.05495937
-0.05463016
-0.02664968
-0.03983772
-0.02644442
-0.06287974
-0.06360061
-0.05219014
-0.02755455
-0.01334713
-0.03259257
0.05308617
0.04018978
-0.02147797
0.04196900
0.02153841
0.00173513
-0.05218190
-0.01871646
-0.04338265
0.00260179
-0.03850838
-0.03966587
-0.01637883
-0.02818040
0.04419697
0.01648613
0.03351601
-0.00212277
0.05841431
0.04835255
0.03821882
-0.04547975
0.02944443
0.02915841
-0.01795585
0.03642439
0.02973200
-0.02617195
-0.01152548
-0.01668304
0.04298688
-0.00891147
-0.01723493
-0.04583195
-0.01510767
0.05545346
0.08424647
-0.04177653
-0.04166979
0.02112556
0.03051177
0.00873080
0.00770977
-0.04847002
0.04027700
-0.07132318
-0.08382211
-0.03934374
-0.04966140
-0.04252243
-0.05298554
0.06606691
-0.01551231
-0.05558982
-0.06689248
-0.02233686
0.03945861
0.02782335
-0.00967904
-0.08374974
-0.03911834
0.05673838
-0.02369737
-0.09756120
0.05452839
0.04102430
-0.03880145
-0.00171302
0.02978626
0.10872723
0.08363665
-0.03415123
0.03753456
-0.00117627
0.00469602
-0.00593065
-0.01126758
-0.03415627
0.04113027
-0.00136055
-0.00029355
0.03412646
0.00713398
-0.01469396
-0.04719362
-0.00948462
-0.03777562
0.03035474
0.01806113
-0.05112793
-0.01327791
0.03948512
0.05852366
0.02948358
0.02565562
0.03128822
0.02458360
-0.04599616
0.04967534
0.05072104
-0.04828955
0.01655288
-0.04660424
-0.02683867
0.00659292
0.05079177
-0.01149030
-0.01305147
-0.04480126
-0.05665361
-0.02570161
0.02500896
0.00375510
0.02307716
-0.05107443
0.00498745
-0.01915490
-0.01639890
-0.01305503
-0.00761080
0.04917623
0.05583243
0.01194518
-0.02364809
-0.01765967
-0.03207846
0.02825936
-0.00662948
0.01144784
0.01173811
0.08923447
0.07573403
-0.03988130
-0.02146550
0.05342977
0.07045254
0.00022582
-0.03962878
0.00376772
0.01017352
0.02360087
-0.06707430
0.04988677
-0.01104946
-0.03881402
0.00209024
-0.05863344
-0.03542972
-0.02117337
0.00595736
-0.07178773
-0.04092786
0.06420372
0.05583732
-0.10201307
-0.05032422
0.11281247
0.06682956
0.02703005
0.06847712
0.18420161
0.13890633
-0.01362270
-0.02235329
0.11108875
0.10604917
-0.13576432
-0.04289423
-0.00180266
0.03351389
-0.06225591
-0.04903758
-0.00918005
-0.06156525
0.00880738
0.00634489
-0.04645116
-0.00665010
-0.04931687
-0.04494996
-0.02275113
0.02125634
0.01532912
-0.03204517
0.00275391
0.02305942
-0.04086161
0.00927931
0.00060666
0.04630480
0.03716337
-0.03822637
-0.00622953
-0.04756301
0.05177236
0.00328346
-0.02706993
0.01956831
0.00711960
-0.00845448
-0.01566581
0.05640376
0.03976770
-0.04357061
-0.05379332
-0.00090811
0.06999412
0.10388854
-0.08159775
-0.02773496
-0.03746694
0.10063299
0.07817516
-0.08757528
0.01958897
-0.03557739
0.03708702
0.13022588
-0.05395357
0.01429823
-0.06774339
0.07564895
0.08146633
0.02054920
-0.02249711
0.05222357
0.07677365
-0.04143017
-0.03775435
0.02071065
0.04245536
0.01796115
-0.02560356
-0.03669339
-0.06278472
0.01743570
0.04419359
0.06588909
0.00567399
-0.10029075
-0.09948565
0.00886325
0.11611693
-0.04201796
0.00099204
0.02414731
-0.05111389
0.07569301
-0.04972526
-0.04860108
-0.05125870
-0.06217191
0.00210057
0.02701399
0.04176699
-0.04957104
-0.07334871
-0.01426952
0.03458694
-0.04351716
0.01199880
0.01230868
0.05350811
0.03426946
0.03962150
-0.04270726
-0.04122448
0.02876635
0.02006046
0.01880794
-0.04111509
-0.01803414
0.02796806
0.04772580
0.02437176
0.05974338
0.01616428
-0.05142774
-0.04415655
0.02465453
0.02861553
-0.00393347
-0.14059320
-0.04003472
-0.09426344
-0.03392530
-0.02958338
-0.11904031
-0.03159305
0.02991260
0.04310819
0.00199726
-0.00284485
0.06877393
0.04964795
-0.00988896
0.02093872
-0.05151379
-0.04113881
0.03173057
0.01209650
0.01448318
0.04038188
-0.02921174
0.01548513
-0.01096258
0.04354953
-0.01732576
0.03842717
-0.01777439
-0.01672667
-0.00067669
-0.03226335
-0.02130964
-0.00797377
0.04066076
0.05442721
0.00267782
0.05541760
0.05130485
-0.04418277
-0.01690104
-0.02885251
0.02357857
-0.06411021
0.03479163
-0.02909120
-0.09011201
0.02893660
-0.04594686
0.09258447
0.04438498
0.03625119
-0.04331649
-0.02136569
0.01082743
0.14389713
-0.02697183
-0.12959747
-0.06658592
0.01840449
0.16056511
0.08777332
-0.10459367
-0.10047697
-0.04756482
0.03849475
0.01435671
-0.07830143
0.01915539
0.01309168
-0.03956268
-0.05688268
-0.02002376
0.02721186
-0.00085103
0.01226059
0.01383183
0.05012062
-0.01973000
0.05304182
0.01474784
-0.04848002
0.02403580
0.03696087
-0.00144391
-0.03471242
-0.05463780
-0.05854078
0.03240013
0.01516589
-0.02728155
-0.02708942
0.03344794
0.03119824
-0.01490791
-0.06793328
0.00527422
0.01772256
0.00240141
-0.07115837
0.00506305
0.04629653
0.07789315
0.01470003
0.00503369
-0.02630711
0.01652346
-0.02847752
0.03142339
0.02326713
-0.06264562
-0.03037548
-0.03030558
-0.05073893
-0.05330558
-0.06414416
-0.02767320
0.01178759
-0.02273667
0.07722425
0.06181045
-0.09657999
-0.02898985
-0.00253132
0.09541360
0.11701681
-0.07826485
-0.10868489
-0.08107292
0.02758168
0.18190466
-0.08197948
-0.16606119
-0.18652235
0.05243625
0.21348871
0.01593344
-0.08948762
-0.04834538
0.04235047
0.14454862
0.00156984
-0.06369829
0.00320277
0.05829224
0.00026202
-0.01977646
-0.04002354
0.01098629
0.03526214
-0.01686469
0.00677064
0.01533423
-0.01099620
-0.02250200
-0.00823756
0.05598301
0.04139556
0.01392085
0.01790591
-0.02997358
0.05282490
-0.02996554
0.00084884
-0.00306042
-0.03513167
0.02088352
-0.02249560
-0.07077088
-0.07412000
-0.07477619
-0.06035743
0.02196581
-0.02279422
-0.08267093
0.02416862
-0.00615201
-0.05673749
-0.09192707
-0.01691797
0.05068977
-0.01357820
-0.16574307
-0.09831210
-0.08826073
0.09064113
0.06201771
-0.06477764
-0.12432044
-0.08826625
0.04765626
0.06071379
-0.03451463
-0.06860847
-0.04864415
-0.00803278
0.04128629
0.00344910
0.01159680
-0.00329372
-0.04748440
0.02915613
-0.01004864
0.01968257
-0.04212931
-0.00810991
-0.06749304
-0.02521195
0.00542522
-0.04615604
-0.09662943
-0.03002522
-0.01224735
0.02239975
-0.04984123
-0.07002117
0.02408489
0.02742990
-0.05135970
-0.02105936
0.04854141
-0.01428867
-0.02448878
-0.05352656
-0.03158767
-0.05681470
0.00697744
-0.05726146
0.05222138
0.05684325
-0.02109721
0.00643386
0.05035106
-0.03043119
0.04093999
-0.00997568
-0.04714797
-0.01397774
-0.02085557
0.04071619
-0.01395376
-0.01253645
-0.02062561
0.02540582
-0.07612803
-0.05439861
0.03386442
-0.00708835
0.00146717
0.03183311
0.08290759
-0.04545494
-0.04223075
-0.03167877
-0.00531314
0.07919572
-0.04443078
-0.10624548
-0.05547817
-0.00562211
0.05958611
0.00128905
-0.00191192
-0.01123311
-0.02546716
-0.01569585
-0.02036023
-0.04470589
0.03088702
0.09835683
0.00195576
-0.05181189
-0.04908419
-0.05227481
0.12961073
0.15968351
-0.05063809
-0.08555920
-0.10844517
0.04174340
0.21244910
0.05343204
-0.17134912
-0.13276726
-0.05074845
0.16110753
0.15105602
-0.12560283
-0.15025519
-0.10477518
0.14720906
0.09223803
0.03135519
-0.03867420
0.03482164
0.01276016
0.04252903
0.04582743
-0.01396440
-0.02033201
-0.03640952
0.01270845
-0.05014086
-0.05681942
0.04879439
-0.02184893
-0.03501862
0.02792130
0.02731333
0.05307570
-0.05298625
-0.02846681
0.03703361
0.02071793
-0.04132347
0.03229120
-0.00926270
0.00635749
0.03463492
-0.04458122
-0.04819623
0.00143645
0.05534175
0.04300918
0.00615172
0.01739388
0.03035635
-0.03276109
-0.04506871
-0.01050482
0.01243991
-0.01911479
-0.04751634
-0.04914640
0.05064728
0.02121411
0.01027103
0.01646135
0.02499028
0.03535273
0.03669568
-0.00873353
0.02397822
-0.04405998
-0.04844587
-0.00175132
0.03068951
-0.05120943
-0.02034727
-0.04102141
0.03701828
-0.00115473
0.00929676
-0.06128825
-0.00342856
-0.04443086
0.01459043
0.00623348
-0.03287942
0.00584739
-0.00917033
-0.05700797
0.00317764
-0.02340955
-0.01931268
0.04149764
-0.07423298
0.03587551
-0.10196448
-0.05629516
0.00322500
0.03780916
-0.02670929
-0.05519152
-0.05653979
0.10574997
0.09514688
-0.10832326
-0.01168791
-0.06197184
0.09094790
0.10113873
-0.09663241
-0.07344361
-0.03899510
0.13320366
0.01351998
-0.06312243
-0.11948536
-0.02673126
0.07072680
0.04867771
0.01336398
0.03408987
0.00500229
0.03450760
0.04643485
-0.05783538
0.02912733
0.01292401
0.01297240
0.00752531
0.01361532
0.01387631
0.03477254
0.04747400
0.05802410
-0.02679891
0.03212811
0.01879940
0.04527974
-0.00838758
0.01801731
-0.04455461
-0.03669731
0.01516594
-0.04923418
0.03964661
-0.03389418
-0.03132677
0.05739317
0.01817453
-0.02324963
0.00551216
-0.03251624
0.04727289
0.00259747
-0.00121163
0.01858082
0.04341011
0.00538246
0.02941582
-0.03348715
0.01650278
-0.05878824
-0.02793439
-0.02390727
0.04361485
0.00255136
-0.04117334
0.01705511
0.00932429
-0.05208703
-0.01899889
-0.03293267
-0.00104792
0.03950398
-0.01314795
-0.05565442
-0.04225817
0.03799281
-0.05310803
-0.04298489
0.01700696
0.02355427
0.03986680
-0.05730361
0.03546222
-0.02095347
-0.05966805
-0.03416456
0.04431582
0.01925956
0.04956868
-0.03948802
0.04281693
-0.05146078
0.02729062
-0.01421226
0.02860912
0.03629420
-0.01319801
-0.01293299
0.05228888
0.05519494
-0.01487685
-0.04750121
0.05541794
-0.04023154
0.00369101
0.05058404
0.00849427
-0.02168564
0.01500776
0.02032970
0.04748907
-0.04565173
0.02644579
0.03480468
0.04010179
-0.02420518
0.04348841
0.00356774
-0.03269938
0.02616188
-0.01702049
0.02539570
-0.04222388
0.00797200
0.02839264
0.04707282
-0.02621355
-0.04393741
-0.03772552
0.01004225
0.05724455
0.01393921
-0.01964646
0.05076268
-0.02925490
-0.03603661
-0.04582763
-0.00590825
-0.04489055
0.03603080
0.01325859
0.01057868
-0.01914941
-0.01916103
-0.05195981
-0.02102156
0.03086071
-0.02218345
-0.02264526
0.02213100
0.01387819
-0.04925250
-0.04227286
0.03716519
0.03601642
0.00481139
0.03960844
0.05045067
0.01598974
-0.01158125
0.01863578
0.01914402
0.02359357
-0.03843614
0.05466018
-0.02808088
0.05327503
-0.05579926
0.03925849
0.01060826
-0.05786609
0.03118994
0.01372940
-0.05247214
-0.00679822
-0.00915529
-0.02249435
0.00686216
-0.05332449
-0.05395922
-0.01674296
-0.04488128
0.01349951
-0.02029425
0.00987903
-0.00846977
0.04353682
-0.05251748
-0.00375474
0.02102629
-0.00649209
-0.00563597
-0.03457471
0.04728093
-0.01425050
-0.02187465
0.05438677
-0.05166539
-0.01453149
0.02173647
0.00871461
0.05500778
0.04417006
-0.05319617
0.03836324
-0.00651755
-0.02794052
-0.05183990
0.02819896
0.04557955
-0.04173647
-0.03495869
0.02193103
0.04265712
-0.03744476
0.03351828
0.00440884
0.00804553
-0.04384603
0.05837495
-0.03658945
0.05052467
-0.01789243
0.03948688
-0.02709651
0.00931330
-0.00724231
-0.03131087
-0.04836703
-0.01219147
-0.03684404
-0.04386367
0.03052881
0.02966087
0.03610743
0.02433318
-0.02474065
0.00786593
-0.04846516
0.01803689
0.03937020
0.00963026
0.03658487
0.03483548
-0.00073498
-0.02626122
-0.04526605
-0.03728513
0.04737517
-0.03144165
-0.01161173
-0.03199882
-0.05080745
-0.04107644
0.05444196
-0.04720844
0.00259624
-0.05337361
-0.05753278
0.00443778
-0.02261784
-0.03316185
-0.05779677
-0.04952290
0.04866743
-0.02143336
0.00610272
0.02830259
-0.03920253
-0.04956521
0.01199849
-0.02791093
0.00536132
-0.01923756
-0.01972961
0.03448844
0.02565969
-0.04809194
-0.01175306
-0.00245642
-0.00177044
0.04179698
-0.01568642
0.05304219
-0.00203024
0.05069477
-0.05170541
0.02727915
0.01418686
0.03187424
-0.03629687
0.00884895
0.00220131
0.03523172
0.01000403
0.01525781
0.04758162
-0.01461403
-0.04940728
0.03739489
-0.02995346
0.05096926
-0.00625951
0.00600480
-0.05477202
-0.00683810
-0.00087312
0.00115800
-0.05809559
0.05585442
0.05500052
0.04110903
0.04224342
-0.00269384
-0.04904476
0.05075385
-0.01737516
-0.04829275
0.04774044
-0.04508981
0.02730273
-0.01951708
-0.03404969
0.02445610
0.01446055
-0.02595289
0.01376673
0.02689832
0.05130506
0.00900849
0.00018514
-0.03490617
0.00624346
-0.02500213
-0.02226314
-0.04233128
0.04639303
-0.04658151
-0.04150394
-0.01452369
-0.04589638
-0.04984990
-0.00636926
0.03914939
-0.00512764
0.03388578
-0.02233437
-0.04769275
-0.05041993
0.02022577
-0.04183597
-0.00839664
0.03909629
-0.00856761
-0.04218047
-0.05335207
-0.00720013
0.01031933
-0.03048305
-0.00365195
0.00539785
-0.01327868
0.05670277
-0.01468153
0.05136795
-0.01666778
-0.01640081
-0.00711443
0.04852667
-0.02504767
-0.05232117
0.04778045
-0.02398405
-0.04199831
0.01912334
-0.00250781
-0.00719292
-0.03653251
0.03010111
0.02731590
0.01537057
0.01388790
-0.05696384
-0.01119748
-0.01917778
0.01211603
0.01582710
-0.05487717
0.02550781
0.00741796
0.05568984
-0.02862514
0.03531366
-0.01227264
0.04207757
-0.04664160
-0.03170659
0.02998477
-0.00553516
-0.00410660
0.03571913
-0.05745239
0.05443724
0.02653549
0.01511260
0.00956738
0.04905220
0.04350140
-0.04161655
-0.05613494
0.04410865
0.01246943
-0.02243308
-0.01109614
0.03728348
0.03034192
0.01214371
0.01985540
0.05672129
0.00055873
-0.04451836
0.01187098
-0.01774129
-0.05560302
0.01984992
-0.05596225
-0.04754594
-0.00535114
-0.03887754
-0.03251042
-0.03259535
0.02577245
-0.04816366
0.04891520
0.00064434
0.02239505
0.02805689
0.03247725
0.00496914
0.05544114
0.02385644
-0.05830976
-0.03739925
0.01855588
0.01449056
0.02328633
-0.03157412
0.01022952
-0.00173410
-0.02534371
-0.00763481
-0.04457753
-0.00659761
-0.02813763
-0.03841096
0.00456025
0.00855090
0.01599265
-0.00485347
-0.02044880
0.00012456
-0.03822252
0.01280406
0.05053495
-0.02935434
0.03816630
0.05355590
0.05575501
0.00463716
-0.02450107
-0.01212519
0.01486138
0.04405484
0.02847471
0.01292723
0.01414364
-0.00295375
0.00246537
-0.05376238
0.04065455
0.04803035
-0.03972004
0.03888152
-0.02635601
0.05585594
0.04181415
-0.05744715
0.04707620
0.00108444
-0.05627171
0.02718909
-0.05457521
-0.04304082
-0.03506779
-0.02066503
-0.03053479
-0.01790094
0.00186753
-0.04255775
0.04125595
-0.04089126
-0.04008363
-0.04796720
-0.02612478
0.01591421
0.05996766
-0.02491974
0.04139184
0.00122138
0.02943572
0.00453975
-0.01817349
-0.00310895
0.02017657
0.00786027
-0.04012673
-0.02216818
0.02037681
0.02728945
-0.04964805
-0.03881038
-0.05804893
-0.05039558
-0.04016899
0.02501720
-0.02361257
-0.02259060
-0.00152078
-0.01941440
-0.04196164
-0.05763441
-0.04834599
-0.01552395
-0.00393047
-0.00188631
0.05775712
-0.02341165
0.02500229
0.03840719
0.05226329
0.02934216
0.01693455
0.00680240
-0.02316891
-0.02752562
-0.04408133
-0.04842875
-0.01544087
-0.00141161
-0.03758451
0.02734277
-0.01555301
0.01214391
0.02935694
0.03745087
-0.04493099
0.04515506
0.00697378
0.03890873
-0.04975080
-0.05628539
-0.00569578
0.02059424
-0.01657274
0.01175252
-0.02651506
0.01899654
-0.04628304
0.04484011
-0.00793924
0.01223285
-0.03313160
-0.00257607
0.04089132
0.00283818
-0.04031267
0.02737030
0.01260315
0.04397573
0.02244914
-0.02407276
0.03723281
-0.05173532
0.01517556
-0.04515475
0.00853722
-0.00879950
-0.02277182
0.00826820
-0.03698824
0.05213344
0.03219735
-0.00918148
0.03904803
0.04901134
0.00593983
0.00318238
-0.01892140
0.02180404
0.02134437
0.03350059
-0.04460459
0.00877570
-0.00255282
0.00239918
-0.04482936
-0.04242736
-0.05629429
-0.01831466
-0.00612345
-0.05555232
-0.00075403
0.02701641
0.01014675
0.02526247
-0.02210300
0.05455453
0.05610862
-0.00948321
-0.03376678
0.04908583
0.03615296
0.01491193
0.03577258
0.00899272
-0.00974096
0.01565827
-0.06047752
-0.02129369
0.04691982
0.01910958
-0.04717153
-0.05234060
0.04021933
-0.00772452
0.00171976
0.03619514
-0.02707500
-0.00578902
-0.00000975
0.02350179
-0.00728878
0.03079329
0.00039707
-0.03411699
0.05496531
0.02578229
0.04099473
-0.03472919
0.04523132
0.03446867
-0.00974058
-0.03953096
0.00531728
-0.03468854
0.00298940
0.00701459
-0.00586469
-0.05374671
0.02012671
0.01621189
-0.01528202
-0.02004048
-0.03120152
0.00711208
0.05805150
-0.00006363
0.03633860
-0.04646642
-0.01809579
0.02435035
0.02767060
-0.03678264
-0.01398465
-0.00164649
0.00096141
-0.00035455
-0.01930128
-0.06039565
0.01885250
-0.00986411
0.00524836
0.03932838
-0.04609282
0.05154799
-0.03568585
-0.06069022
-0.00854453
-0.04868833
-0.05203995
-0.03357163
0.00368149
0.01835310
-0.05344055
0.03833266
-0.00542543
0.03125038
0.04590303
-0.05600095
-0.01372799
-0.00132659
-0.00789354
0.02288282
0.00419372
-0.02920063
-0.00243401
-0.00948141
-0.04627629
0.00334260
0.01233039
-0.03977361
0.00888300
0.01067692
0.02847069
0.05562999
-0.03846863
-0.04040897
-0.03495397
-0.00572146
-0.04779543
-0.05028972
0.02588864
0.02127423
0.00874078
0.00978529
0.02190478
0.03982751
-0.04049657
-0.02371356
-0.01280712
-0.02139501
0.03099586
0.02446051
0.00847565
-0.01226680
-0.01879392
-0.03272865
0.01620623
0.02603946
-0.01605558
-0.05787836
-0.00473594
-0.05893346
0.03502655
0.05946102
-0.01536397
-0.01502647
0.05591096
-0.00969272
0.04128358
-0.03790431
-0.03290056
0.03821559
-0.05606155
-0.04156554
-0.03236381
0.03460243
0.01359086
-0.05689140
-0.06464954
0.00138647
-0.04814000
-0.03570383
0.02441610
-0.03408544
-0.01881096
0.01101148
0.02088517
-0.03670376
-0.02073367
-0.04858340
-0.05786067
-0.04219224
0.03431041
-0.00940556
-0.02535526
-0.04067357
-0.02554034
0.03932627
-0.03299596
0.02340625
0.00782397
-0.05067118
-0.05052148
0.01189410
-0.01805658
0.04566300
-0.00439978
0.03458447
-0.03499658
-0.00461692
0.05329591
0.04151960
-0.04168751
0.05379375
0.05031757
0.01952501
0.03032386
0.01564706
0.03347393
0.05142447
0.02466173
-0.05033967
0.04591050
0.00170399
0.04190010
0.04404702
0.00369503
0.04534515
-0.05570800
0.01106356
-0.02312512
-0.01196096
-0.04082845
-0.01765874
0.01613110
-0.03392089
0.03230211
0.04850899
-0.04747071
-0.01933279
-0.05097682
-0.03340375
-0.03505251
0.01864593
0.02680399
0.02437286
0.04686153
-0.02243680
0.00774347
-0.00286840
-0.01773577
-0.01491344
-0.04641933
0.03329743
-0.00061409
0.05113994
-0.02016047
0.03380846
-0.02267617
0.05387507
-0.04001439
-0.03163394
0.01901583
-0.01665721
0.00906901
0.01397529
-0.03753304
0.03629829
-0.00374086
0.00556371
0.01616965
0.02620759
-0.05618798
0.01798952
0.01409337
-0.04250129
0.03496784
-0.00568550
-0.01045921
0.02967795
0.02170271
0.00289884
-0.05333513
-0.01745087
0.00869673
0.04457918
0.04376990
-0.03174096
0.02992435
0.04736938
0.05150984
0.01518504
-0.04155971
0.04234232
-0.03793143
0.03461818
-0.04280732
-0.04226586
-0.04192617
-0.00190578
0.03828258
0.05165684
-0.05060519
0.03097264
-0.05790423
0.04935689
0.05118560
-0.05782242
0.02261466
-0.02388490
0.00753202
-0.00865721
0.05051543
0.01799442
0.04607513
0.05543363
-0.01468313
0.04278431
0.03706512
-0.05606142
-0.04258500
-0.01075226
0.00282470
0.03523526
-0.06072194
-0.02416281
0.00658808
-0.05323634
0.03309658
0.00836577
0.04690214
-0.03781106
-0.02840855
0.04447718
0.00054330
-0.02426427
-0.05094986
0.04955789
0.02227208
0.00455784
-0.05689162
0.05403947
-0.02258431
-0.04332184
0.04885954
0.04169057
0.04093109
0.05386744
0.00552434
-0.01096170
-0.02784459
0.01611696
-0.02835587
-0.05632707
0.02274864
-0.01106144
0.00722408
0.00633730
0.01747791
0.01431405
-0.02959112
0.02840299
0.04149129
-0.04174620
0.03361993
-0.00857196
0.01376488
0.05551059
0.03974615
-0.05280516
-0.04097500
0.01343423
-0.04026756
0.05560141
-0.01590674
-0.04673275
0.01855557
0.01810563
0.05485639
-0.02722007
-0.04433482
0.00249106
-0.02541250
-0.01797159
-0.00487059
-0.01393011
0.05595760
-0.02058152
-0.04160073
-0.03828351
-0.01695148
-0.01963681
-0.03951101
-0.02469000
0.00832181
-0.05274773
-0.02894013
-0.05299529
-0.01532120
0.02297566
-0.02164819
-0.04513494
0.00764083
0.04737815
-0.02196176
-0.01662404
0.04515878
-0.02483336
0.02321474
-0.04703012
0.01668288
-0.00857020
-0.03263646
-0.00289216
-0.00984815
0.03234628
-0.00521510
-0.03935856
-0.04523283
0.03288286
0.01353035
0.02412253
-0.01638871
0.01528071
-0.01863884
0.01017020
-0.02082201
-0.04949361
-0.03575509
0.04270747
-0.05222921
0.00687895
0.02963256
-0.04741434
-0.00245021
-0.02438091
-0.05996795
0.05258887
-0.03228717
-0.03059971
0.00246095
0.02138049
-0.05295334
-0.04489592
-0.00069755
0.04051732
-0.02945854
-0.05631496
-0.00407615
-0.04313076
-0.04447053
-0.01378741
-0.00271046
0.04862881
0.04585501
0.03479833
-0.01294465
0.04093250
-0.04928960
-0.01049542
-0.00081851
0.02060167
-0.05290065
0.04566118
-0.02927822
0.02514797
-0.02357096
-0.00443240
0.03086306
-0.03598937
0.02895802
-0.00596063
0.02109301
-0.01823699
0.01329265
0.02240811
-0.02435455
-0.01522484
-0.05599213
-0.04898385
-0.03679727
-0.01209771
0.05617716
0.04928437
-0.02716656
0.01919426
0.03670500
0.03068463
-0.05596305
-0.05900318
-0.00016474
-0.01940889
-0.05026432
0.05260005
-0.05145190
-0.00993183
0.02060564
0.00569464
-0.02005382
-0.05480649
0.05686501
0.05269603
0.04492159
0.02478837
0.02440600
0.03057355
0.00126561
-0.01181762
0.03815830
0.02631283
-0.04294498
0.04606178
0.02982957
0.06012357
0.04717969
0.02556850
0.02976801
0.04734172
-0.03651403
0.00581315
-0.01291381
0.00764926
0.01763651
0.00691339
-0.03366442
-0.02681339
0.00496603
-0.01215434
-0.03086605
0.00489747
-0.02744280
0.00151925
0.00681674
-0.05509243
0.02438470
0.00041000
-0.03285062
-0.05411045
-0.02297438
0.04342269
-0.00730820
-0.04955424
0.00786967
-0.01660661
0.03536722
0.03463861
-0.02687909
0.04509646
0.03005668
-0.00403925
0.02503635
0.05950300
-0.03463082
-0.01940410
0.03542091
-0.04828352
0.00804076
0.04378114
0.02439371
-0.00113152
-0.01638151
-0.03816655
0.04052625
0.03300495
-0.05359128
0.00732091
0.05434874
-0.03924298
0.04363727
-0.02351287
0.02943419
-0.02393495
-0.01360559
0.05373094
-0.02594369
0.01077155
0.03116599
-0.04839629
0.04723364
-0.04987182
0.02525723
-0.01190428
-0.04295340
0.05013017
-0.01434103
0.03806024
-0.05478041
0.00580096
0.04868170
-0.00087112
0.04523827
-0.06971954
0.04140836
0.02235762
-0.05503837
0.03396229
0.00059049
0.00379798
-0.03822577
0.01654478
-0.02587676
0.01438354
-0.01775917
-0.01094809
-0.01501058
-0.03549619
0.02313260
-0.05866589
-0.02185864
0.02234833
-0.03336005
-0.02185003
0.02486744
0.04992386
0.05445306
-0.00516671
-0.03865127
-0.01775742
0.03160556
0.00661195
-0.00615242
0.04505115
0.01617297
-0.00089319
0.05303077
0.01689208
0.01528583
0.05037070
-0.00375015
0.03851413
0.02313551
0.00057998
0.01803216
0.02354754
0.05315129
-0.05151131
0.05161845
0.03768631
0.05424573
-0.05083916
0.01162523
0.01533726
-0.02830132
-0.04409795
0.02090454
-0.02755729
0.02822105
0.04217845
0.01667655
-0.02063786
-0.01629709
-0.03348681
-0.02677391
0.04603137
-0.03355419
-0.01853446
0.01532128
-0.00265807
-0.02042089
-0.03316766
-0.05510595
0.02268060
-0.03753628
-0.00318034
0.07324658
0.04085749
-0.04178609
0.00463026
-0.01897952
0.00104841
0.00004567
-0.07556476
-0.04526186
-0.00088248
-0.02285350
0.03569956
-0.00569859
-0.04492791
0.02109930
-0.03907438
0.03055923
-0.00975903
-0.03471031
-0.06200095
0.02642632
0.05850009
-0.04465130
0.01488027
-0.02663472
0.01664886
-0.00346075
-0.02361617
-0.03576194
0.05819278
-0.00037185
-0.05321985
-0.04796698
0.04561109
-0.00173340
-0.02000290
-0.04451654
-0.04790038
-0.02891854
-0.05180391
-0.00017308
-0.02357926
-0.02407065
-0.01200531
-0.04696079
0.01021241
-0.05325850
0.00825616
-0.02095387
0.01988194
0.06375564
-0.00921785
-0.04922544
-0.02468385
-0.03240853
-0.03577529
0.02634901
0.04210019
0.04334471
-0.03220221
0.01946443
-0.04029285
-0.06463120
-0.04378219
-0.03391529
0.04203645
0.06466385
0.01552087
-0.01517925
-0.05933393
-0.02954040
0.01913347
0.04433248
-0.05240731
0.03390358
-0.02758388
0.01879304
0.01508256
0.04685908
0.01688456
0.04971476
0.01342562
0.02989906
-0.01053389
0.01546815
0.01259313
-0.04724069
0.04765809
0.04819692
0.00827055
-0.05471251
-0.00594848
0.00842520
0.03543895
0.04695527
0.05298445
0.01352972
0.05692140
-0.05732498
-0.02073641
-0.04797081
-0.03723146
-0.03412394
0.04849411
0.00242882
-0.04472250
-0.02457229
0.00114049
0.03853505
0.05265364
-0.00246932
0.02096058
-0.04715725
0.03525402
-0.01887609
0.01914380
0.02235065
0.05185642
0.05636368
0.01426568
0.01109065
0.00339644
-0.02151568
0.04961129
0.01092452
-0.02190722
0.04085647
-0.04580573
-0.02440289
0.04880411
-0.05438325
-0.04519773
-0.01926463
0.04372458
0.01409159
-0.03281910
-0.05803922
-0.02529634
0.04874752
-0.03060211
0.04207513
0.06329855
0.05391720
-0.02429927
0.01290030
-0.00018303
-0.03679850
0.02426898
-0.05423357
0.01062209
0.06007190
0.06864488
-0.01294070
0.01704748
-0.04865834
-0.01438090
0.02835680
-0.02439465
-0.04463455
-0.00912949
0.01569091
0.06071426
0.01577455
-0.01728849
0.00365986
0.02535826
0.03208786
0.00990762
0.05017984
-0.03240493
-0.05243775
0.04724863
-0.05483936
0.02119878
-0.03664735
-0.01660902
-0.01822257
0.03415774
0.01191029
-0.02458868
0.05515103
-0.01630944
0.00811857
-0.02763155
0.04828859
0.03435656
-0.04260562
0.04018665
0.01303845
-0.03309119
0.00504057
0.01145570
0.02609972
-0.05187804
0.03543368
-0.03543898
0.00018172
0.01194603
0.02808068
-0.05722118
0.01083775
-0.03103849
-0.00012739
0.03039164
-0.05639076
-0.04982321
-0.00121069
0.05765663
-0.00853598
0.04464762
-0.03095923
-0.03536036
-0.03510537
-0.02976796
0.03570473
-0.04428019
-0.05243117
-0.00244143
0.04845725
-0.01013803
0.04342216
-0.04235578
-0.04775858
0.00225608
0.02485752
0.01460966
0.02779994
-0.04712279
0.01669820
0.01287636
-0.01593837
-0.03183016
-0.01694151
0.00314375
0.03903617
0.01749468
-0.05607060
-0.04154189
0.03145296
-0.02180854
-0.04680996
-0.02523807
-0.02726131
-0.03451822
0.05286954
-0.05066522
0.03627766
-0.00206030
-0.04550182
0.02638273
0.03417569
0.06296223
-0.06572131
-0.02576637
0.01601228
-0.02372213
0.05785885
-0.00499787
-0.01690353
-0.01880902
0.02186643
-0.03529069
-0.00972744
-0.03858142
-0.02520390
-0.01583738
-0.00976751
-0.02373520
-0.04480904
0.05155912
0.00738643
-0.02087920
-0.04503914
-0.04541168
-0.03903434
0.02914407
0.05216059
0.04077711
0.02239266
0.00609689
0.04986115
-0.05008965
-0.04913372
-0.03488782
0.02680335
0.03991740
0.01119290
-0.01897579
-0.01397408
-0.05543413
-0.03886266
-0.05385477
-0.01669888
-0.05451051
0.05090977
0.05052943
0.05534502
-0.01930203
-0.05508613
0.05179852
-0.00010349
0.00609402
-0.07415295
0.03394303
-0.07040156
0.06117741
0.05907828
-0.01128411
-0.00275230
0.03931276
0.01483374
0.07195663
-0.02592327
0.03852907
-0.02109070
-0.06887096
0.04503230
0.01219943
-0.01061962
0.03260382
0.01194359
0.02770295
0.03993268
0.00833162
-0.04760868
0.02875041
-0.07367924
-0.06860197
0.03926910
0.04151847
0.06388412
-0.02667811
0.02098782
-0.02041791
-0.02562823
0.05118310
-0.00759912
0.02874847
0.04453028
0.04135619
0.05918770
-0.01756683
0.02027632
0.01164605
0.02503255
-0.01233644
-0.07225525
-0.04310519
-0.02601565
0.02050296
-0.04095742
0.04964501
0.02215857
-0.04739780
0.03298042
0.00164927
0.02298207
-0.02641790
-0.01617039
-0.00367734
0.03964562
0.00144572
-0.02417935
-0.05544311
-0.04815233
0.04726765
-0.00401443
-0.03518766
-0.03872982
0.03824335
0.04958501
0.05853493
0.01510614
0.02792392
-0.01920402
0.00529979
-0.01345755
-0.06980160
0.03820813
0.03358811
-0.00514273
0.02802352
0.01744488
0.05455003
-0.01499199
0.02329139
-0.06040220
-0.04430271
-0.02380333
0.02564688
0.00187199
0.03464333
0.00626880
-0.02363596
0.01382128
0.00969070
-0.05281880
-0.00266782
0.02114547
0.04429101
-0.02725061
-0.03912836
-0.01414443
-0.00764894
0.01569639
0.05475787
-0.00310351
0.05133813
0.00882824
0.02393791
0.05623693
0.01570046
0.05169866
-0.04750833
0.00317833
0.01357597
-0.03081382
-0.03669324
0.01314452
-0.00717228
0.01869974
-0.04801270
0.03612192
-0.03803631
-0.03661333
-0.00729768
-0.04946993
-0.00610389
0.05203063
0.04752771
0.01959822
-0.08283594
0.00668357
0.03386228
-0.05896499
0.06927847
0.01112349
0.03058254
0.00695373
-0.05112748
0.05953562
0.08787078
0.07754588
0.00375912
0.02545684
0.03591117
0.02256095
0.02081916
0.01231494
0.03748221
-0.04265855
-0.01224621
-0.04403405
-0.00816137
-0.02315312
-0.04122284
0.01118130
-0.04707036
-0.01414286
-0.02096700
-0.03643397
0.00671116
0.01863203
0.02342378
-0.04470426
-0.00116380
-0.05462379
-0.01908776
-0.04791537
-0.02653704
-0.02363755
0.01647835
0.01200961
0.01139363
0.00436341
0.00208158
0.04502235
0.02773783
0.05008269
-0.01895339
-0.01986008
-0.01372251
-0.01307329
0.03927688
-0.00102815
0.04347518
0.01537877
0.04924642
0.01418259
0.03493365
-0.03176040
0.02324572
0.04887492
-0.04504177
-0.01904558
-0.04233161
0.03821925
-0.03760435
-0.07600497
0.00726158
-0.09923693
-0.07629496
-0.05139354
0.02673400
-0.03475864
-0.00867322
-0.06598573
-0.10981501
0.00959929
0.00552428
0.03746612
0.04953017
-0.03126458
0.06614196
-0.02666492
0.07054072
0.04044389
0.06252990
-0.01830842
-0.02739424
0.01214419
-0.02472858
-0.04337494
-0.00458444
-0.03004451
-0.02924872
0.03660745
-0.00023480
0.03421627
0.04890257
0.01209651
0.04990901
-0.02276620
0.01400721
0.02290062
-0.03419851
-0.00516059
-0.02359491
-0.04082954
0.01485599
0.01965730
-0.02440507
0.01729802
0.01233916
0.01181650
-0.01650828
-0.05096116
0.03666176
-0.05913063
-0.00582337
-0.03821700
0.00032108
-0.01343840
0.04564872
-0.04151629
0.03046338
-0.05203901
-0.09910739
-0.02934046
-0.01192650
0.04482273
0.01309367
-0.07543886
0.06000715
-0.02552318
0.03136045
0.05687590
-0.03163232
0.05069087
0.05267528
0.04385835
-0.02410351
0.02467918
-0.03982188
-0.01964601
0.06386717
0.06436869
0.03591745
-0.03040205
-0.00763379
-0.04474133
-0.03253812
0.02402789
0.01695627
0.00124531
0.00074046
-0.01952235
-0.05167931
0.02762891
-0.04504538
-0.02877611
-0.03641827
0.00224853
0.04151336
-0.04968436
-0.00715192
0.04671799
0.04306095
0.01624406
0.05080758
0.03320686
-0.03774611
0.02433738
0.05301457
-0.02524269
0.00866664
0.01698643
0.03762033
-0.01568614
-0.03332394
0.01005362
-0.00748647
0.03864596
-0.00571955
-0.03792148
0.04100604
0.03774416
0.05074153
0.05433104
0.03793499
0.05362139
0.02042579
0.02097575
-0.08090725
0.00639323
0.04376239
0.00919094
-0.01902737
0.03864724
-0.00494072
-0.06619408
-0.07769214
-0.05540407
0.03517013
-0.01648423
0.03734282
0.02225882
-0.06721409
0.05511328
-0.00300976
-0.01540481
0.04895627
0.05162877
0.01834092
0.04211230
0.01506147
0.00217625
0.00920219
-0.02100347
-0.05461108
-0.00301075
-0.08878288
-0.09021005
-0.00651122
0.04367001
0.09755734
-0.00910650
-0.01247183
0.06004534
-0.05822396
0.09730511
0.12552337
0.03091357
0.03815798
0.05147205
0.03063567
0.02044168
0.08907608
-0.01953089
0.00166936
-0.07152341
-0.01489438
-0.04429169
0.01886176
0.03779865
0.05179184
0.05163620
-0.05234604
-0.00732313
0.05292780
0.00497964
-0.03010301
0.03794179
-0.00801280
-0.00729918
-0.03859600
-0.00023229
-0.01367882
0.04091321
-0.03861097
-0.03478901
0.04104733
-0.02677184
-0.05314678
0.04037079
-0.05100671
0.03010154
0.05360751
0.03805870
0.04242280
-0.04626626
-0.04501883
-0.04970646
0.01069352
0.03975093
0.01176621
-0.02219708
-0.00819325
-0.04396124
0.01026413
0.00183668
0.02114946
-0.00147146
0.04494310
0.04510075
0.05423464
0.05286465
0.04940033
-0.05547773
0.03958172
-0.02551334
0.01922118
0.00484485
-0.05548276
-0.00317480
-0.04800035
-0.00817552
-0.06120325
0.00347662
-0.06408460
-0.01739258
0.03459944
-0.00501269
0.03893097
0.03319899
0.04141831
-0.02068711
0.01048072
-0.03115239
0.02232062
-0.02151520
0.02214802
0.05058930
-0.05453180
-0.04988878
0.01407170
0.02813080
0.00988642
-0.01710353
-0.01363071
-0.07300498
-0.06036904
-0.05851327
0.06646767
-0.01754760
-0.00554989
-0.06910419
-0.03663967
0.00007027
0.01476009
0.03028277
-0.01889404
-0.02933419
0.06884675
0.04056375
0.00308190
-0.00315603
0.06420784
0.02466199
-0.03711170
-0.02676619
0.07313450
0.04235125
0.01782664
0.03590533
0.04326917
-0.03599838
-0.01174107
-0.02517477
-0.00969305
0.00336031
-0.00901185
-0.03550825
-0.03699455
-0.02438922
0.01345099
0.05581006
0.01420207
0.05500453
0.05299678
0.04398293
0.04904846
-0.02905412
0.02679441
0.05461365
-0.04965071
0.05532188
0.02162030
-0.00629832
0.01200935
0.00522026
-0.01396120
0.02936735
0.02287772
0.04526824
-0.04838361
-0.04611540
-0.01507945
-0.02422510
-0.08495500
0.03181148
-0.03492277
0.03689371
0.00647181
-0.02773269
-0.03635628
0.00719731
-0.04365482
0.02787119
-0.00392181
-0.05957641
-0.04645013
-0.00725293
0.00695951
-0.05651798
-0.00564672
-0.05985299
-0.04209141
0.02689518
0.02955428
0.05748127
0.03482432
-0.02329906
0.01140172
-0.00534454
0.05378021
0.02875677
0.02106844
0.03489356
0.06325325
-0.00996606
0.01394953
0.02347675
0.00158264
0.02740378
-0.03128088
-0.01220823
0.01557617
-0.00702056
-0.04869725
0.05330358
0.03006240
-0.04578723
0.02319954
-0.03757965
0.00137931
-0.01639708
0.01906006
0.05686515
0.02073121
-0.05308947
0.00108214
-0.01484378
0.05015917
0.00404383
0.02967261
0.01895995
-0.05228045
-0.03176513
-0.02131555
0.02456667
-0.02644046
0.02975462
0.03448923
0.01881296
0.00077807
0.02338002
-0.01457456
0.00726244
-0.03942477
-0.00868945
0.06228275
0.04641770
0.00324716
0.07185692
0.03288071
0.05650111
0.00842557
0.07526640
0.09508491
-0.03588832
-0.06124246
0.00233208
0.00587603
-0.04483475
-0.06674296
0.00196638
-0.05028379
0.04638300
-0.01266047
-0.00311052
-0.02894026
-0.01037266
0.01190550
-0.02467208
0.03252223
0.02995900
-0.01300084
0.00275552
-0.02999331
0.04089181
-0.03424697
-0.01990924
0.05212991
0.01695853
0.03774931
-0.00433845
-0.01977519
0.04455120
0.00491450
0.01681372
0.05793416
-0.01173271
0.04842349
0.05104373
-0.02164266
-0.00642058
0.03758600
-0.05293234
0.05286812
0.01159468
-0.03111848
-0.04797081
-0.05649697
0.03507252
0.03865546
0.03722359
-0.02772538
0.03577426
-0.02212841
0.06211085
0.03022889
0.02961041
0.03004032
0.00748187
0.00615169
-0.01513883
0.00091263
-0.04778861
-0.04878448
0.02375853
-0.03386447
0.01403229
0.02109742
-0.02015372
