0.05299019
-0.04760473
0.00733320
0.09746014
0.04675144
0.03945374
0.07535251
-0.00891992
-0.02465834
0.10294300
-0.08405214
0.00278181
-0.02852835
-0.00991612
0.00135938
-0.04861508
-0.02356755
-0.09098805
-0.08845969
0.04306301
-0.00381188
0.01653606
-0.06689272
-0.06251120
0.01533362
0.06377988
0.09393246
0.10239743
0.03590489
-0.13333869
0.13757746
0.19767047
0.07800053
-0.02769884
-0.11694092
0.16323358
0.29562685
0.03854001
-0.15315472
-0.24442549
0.17777561
0.21556462
0.08897975
-0.21346928
-0.16993172
0.22921492
0.20045732
0.03422524
-0.15082736
-0.16450140
0.10365877
0.06627192
-0.08898980
-0.17948845
-0.08744370
0.12664732
0.03167985
-0.14599369
-0.24442495
-0.14840779
0.20481238
0.11871845
-0.06113958
0.00589436
0.08256776
0.24975404
0.15729900
0.20333874
0.26737994
0.21799748
0.20210785
0.27527964
0.26089725
0.17557080
0.28889689
-0.13824834
-0.03808763
-0.07180136
-0.03594409
0.07601608
-0.03342560
-0.00437320
-0.10080224
-0.03214895
0.06384189
-0.10954619
-0.07207138
-0.01810108
-0.03685818
-0.12376247
0.05400446
0.01618712
-0.07561045
-0.12460808
-0.07177547
0.01288668
-0.01266364
-0.08966783
-0.02581542
-0.04033016
-0.01118838
-0.15428264
-0.07796128
-0.11500472
-0.09127632
-0.19716075
-0.23032641
-0.25817913
0.00568993
0.03434014
-0.16847947
-0.02704251
-0.01704820
0.07350718
0.12994131
-0.01313597
0.01607598
0.26322964
0.41699976
0.24222115
0.27102718
0.41998005
0.32748020
0.36281624
0.01736747
-0.06314478
-0.04179360
-0.09065881
0.03671197
-0.10073280
0.05876184
0.06283321
-0.07864774
-0.01406842
-0.05079981
-0.01518245
-0.07794233
0.10442615
0.00763593
0.07245494
0.01519817
-0.09032393
-0.10187676
-0.06126481
0.09281235
-0.08631790
-0.01246540
-0.03649586
-0.07135748
-0.10030460
0.17833814
0.24703838
0.23784375
0.09966777
-0.14571553
0.09949502
0.29646352
0.11807251
-0.07065267
-0.11084776
0.01336157
0.30223545
0.27984843
0.04271490
-0.09136694
-0.03350806
0.24904531
0.15621126
0.10499637
0.15136063
-0.02724317
-0.01130424
0.09964088
0.18447940
-0.00612343
0.07952873
-0.09900818
0.04775193
0.03912839
0.00019067
-0.01604883
-0.01206194
-0.05843683
-0.04114194
0.05212513
-0.08640991
-0.01230304
-0.00872867
-0.04106135
0.05379315
-0.07040823
0.05237506
0.08374067
0.00071001
0.01850487
0.00190748
-0.02066594
-0.08704679
0.07886974
0.00490470
-0.09128667
-0.08722194
0.04047634
-0.08342183
0.05234656
-0.00447183
0.00029477
0.04243260
-0.10939953
-0.14020281
-0.13120106
-0.07145745
-0.11820623
-0.11572579
-0.08805549
-0.02362952
0.00536172
-0.10480062
-0.12737419
0.13124615
-0.09716408
-0.06248721
-0.04093150
0.02789777
0.19618700
-0.03392905
0.17022482
0.17093539
0.25369975
-0.03535393
0.11229888
0.25401342
0.47106564
0.19407241
-0.01516462
0.11076474
0.48403546
0.58688265
0.30712467
0.06272970
0.06502627
0.51014704
0.53480148
0.28957781
0.05174813
0.16616930
0.18749419
0.25787935
0.05754238
-0.02617829
-0.02076611
-0.06311619
0.05213628
-0.05327870
-0.09358747
-0.09739612
0.05029444
0.09744758
-0.06488222
0.10000632
-0.09984980
-0.06435406
0.02846865
0.02301430
0.06933246
0.01627925
-0.02510703
-0.01475140
-0.08603740
0.09381086
-0.08185908
0.00151524
0.01451326
0.07217126
-0.08920111
0.19153327
0.18803088
0.18227404
0.19705622
0.10676432
0.35858095
0.43261459
0.27516550
0.12516250
-0.05232044
0.29225630
0.38375235
0.19429821
0.06962372
-0.08897559
0.05827321
0.15446009
0.09132194
0.03144444
-0.00088000
0.01174552
-0.07608546
-0.20305920
-0.18426125
-0.20373423
0.01677644
0.05401690
-0.00284402
0.06426939
0.10959971
-0.11475912
-0.06814096
0.04681180
0.01094250
-0.08765473
0.01802151
-0.15291800
-0.18661040
-0.06180178
-0.11199426
-0.15480728
-0.02212205
-0.03697067
-0.14452858
-0.05983618
-0.00377477
-0.06803293
-0.02346289
0.07530815
0.01557901
0.03211483
0.02899877
0.03690568
0.07619598
-0.10047413
0.04896847
-0.10474250
-0.01334061
-0.02244982
-0.03359905
-0.09397713
0.06366374
0.01406077
-0.04721503
0.01115802
-0.01145434
0.01308435
-0.03277856
0.01307257
0.03711057
-0.01021621
0.09233085
0.08755357
-0.03011667
0.02716809
0.04179570
0.13464558
0.20822166
0.23043358
0.15162706
0.02899609
0.14261818
0.12755255
0.05093942
0.06782875
0.06672678
0.18500082
0.24875163
0.06910089
0.03215422
0.02991890
0.07062362
0.12459397
-0.11412104
-0.01593059
-0.08557477
0.02150903
-0.07077798
-0.17517267
-0.08975312
0.14004651
0.16504894
0.06836519
-0.14694954
-0.16108415
0.30171302
0.38664752
0.09402280
-0.16598162
-0.26524466
0.28064328
0.52074963
0.38095054
0.12660822
-0.07300014
0.25127783
0.40159145
0.53086710
0.28352898
0.12341745
-0.07551686
0.12804449
0.38643321
0.43669835
0.35832876
0.07707826
0.00235484
-0.09832179
0.06085198
0.02110300
-0.07019729
0.01691051
-0.01902701
-0.05408254
0.08819573
-0.01091234
-0.04492037
-0.01147705
-0.01614924
0.09608794
-0.04206734
-0.04641098
0.00330980
0.05223622
-0.03880994
-0.02686355
-0.02806200
0.01400375
0.00181773
0.08966397
-0.07325155
0.06004982
0.06016449
0.05756011
-0.08805723
-0.08297877
-0.07144216
0.01627775
0.04853220
-0.00935433
-0.07329915
0.00673151
-0.04535529
-0.01633323
-0.03638789
0.07699639
-0.08556201
-0.09888959
-0.00037970
0.06366306
0.08545820
0.02614465
0.05940635
-0.05831335
-0.03042048
-0.11149803
-0.07750053
0.02588040
0.10047742
0.07691381
-0.04424522
0.03998690
0.04543512
0.02224684
0.04977825
-0.08475997
0.00954428
0.04817614
0.18272369
0.01563831
-0.05610114
0.05142223
0.19228420
-0.03217282
-0.20450658
0.13402142
0.19273241
-0.01320378
-0.16307451
-0.13897347
0.00834041
0.13763823
0.11865399
0.04909419
0.08791852
0.14060703
0.25699651
0.35189721
0.29372656
0.10057868
0.21837154
0.50674379
0.24446851
0.02944512
-0.09392749
0.40476623
0.32604706
0.12323368
-0.00684476
-0.05276286
0.26324522
0.15435611
-0.06693757
-0.18420048
-0.13649952
