0.05313479
0.03214929
-0.06957469
-0.05190898
-0.04151675
-0.01743048
0.06523505
-0.01206204
0.02368603
0.04692322
-0.00716262
-0.01486470
0.03038027
-0.04005297
-0.02042497
-0.07373392
-0.00787850
-0.00563756
0.06517769
-0.07594260
0.07222129
-0.01204325
-0.05073633
0.04724786
0.04473458
-0.03258965
0.06387928
-0.00342191
-0.01932475
-0.08410525
-0.00323112
-0.07320891
-0.02448453
-0.07076882
-0.06579512
-0.07737488
0.06990617
0.05134548
-0.00569627
0.08027017
-0.00665540
-0.04957194
-0.01810742
0.06066353
-0.00860167
-0.04352761
-0.02514260
-0.01224848
-0.02198310
0.06420035
-0.04426228
-0.05188391
-0.02604362
-0.03076530
-0.01508321
-0.02387676
0.04320851
0.06369580
0.02376678
0.05267002
-0.00905706
0.07484251
0.06679409
0.06102847
0.00607351
0.05037972
-0.01490429
0.04996255
0.02946533
-0.01867804
0.08357124
0.00775048
-0.04013728
0.03667923
0.02124080
-0.01101107
-0.01021508
0.02129978
0.05694045
0.03390170
-0.04651127
0.06980126
-0.01944839
-0.04704985
-0.04316748
0.03917873
-0.06398042
0.04726220
-0.05834228
-0.00496886
-0.06474363
0.04805505
0.04892264
0.02988724
0.06432232
0.02092295
-0.00970516
-0.05335940
0.03358226
0.05836047
0.04538567
-0.03687830
-0.06561648
0.00034654
0.03124414
-0.05082535
0.00801071
-0.06126129
-0.07839013
-0.00658174
-0.01283993
-0.03774332
-0.00008322
0.02534254
0.02222952
0.02403812
0.06900859
0.04136031
-0.06403247
-0.06851637
0.00090444
0.05378458
-0.01848729
-0.05768586
-0.01649683
0.07661153
-0.01923664
0.01363312
-0.01976281
0.00466763
0.03293350
0.06088576
-0.06348713
0.02911307
-0.06465737
-0.04249800
-0.06272402
0.08541289
-0.00525745
-0.02708699
-0.05180142
0.03083964
0.01164543
0.01218942
0.03450521
0.05343905
-0.07126440
0.05423655
0.01885478
-0.04823040
-0.06843045
0.01632154
-0.04660182
0.06549032
-0.03054463
-0.06978533
-0.02649780
-0.05808499
-0.03360160
-0.07721525
0.04541893
-0.03294980
-0.00689211
0.02383956
-0.01915239
0.07851137
0.00968259
-0.04228456
0.06714343
-0.05701604
-0.05378429
0.00034440
-0.07664920
0.05636327
-0.04819210
-0.06501344
0.03069477
-0.00827120
-0.02293024
-0.03278971
-0.07267074
0.03526620
-0.01058187
0.02379360
0.00653910
-0.00070541
-0.06551390
-0.05177826
-0.08338244
0.01956342
0.06673907
-0.03151165
-0.00402960
-0.05258880
-0.03760648
0.05930426
-0.02270081
-0.03225685
0.01205278
-0.07421640
0.05420792
-0.05450302
-0.05367285
0.03309611
0.05225481
0.03662351
0.04881324
-0.00282897
-0.00328004
0.07459272
-0.03250490
-0.02526295
0.06296273
-0.06704899
-0.05931096
0.00120240
-0.03856049
0.00494645
-0.01568844
0.07708470
0.03229501
-0.01035196
0.02667637
-0.04508155
0.04169794
-0.07857430
-0.05271107
-0.05030993
-0.05568382
0.05019450
0.01753422
-0.02859077
-0.02777750
-0.05640268
0.02476045
-0.02166354
-0.02443187
-0.01623965
-0.07453688
0.04037881
-0.05714048
0.05399289
0.01459762
-0.06602792
0.06481963
0.07749723
0.00829816
-0.05306461
-0.05347883
-0.06673902
-0.04880220
0.06621730
0.02416717
0.02697025
0.01457053
-0.05080336
0.00087952
0.01232560
0.05842880
-0.06599851
0.07285256
-0.01424854
-0.00402661
0.03636722
-0.02206389
0.02008822
-0.03421188
0.03770394
0.07735246
0.05553832
-0.02298310
-0.05169065
-0.06871364
-0.07373083
0.06187748
0.07526553
0.06629909
0.02254247
0.05583785
0.01768936
0.04276348
0.04616295
0.02046327
-0.00177079
-0.00173108
0.04242785
0.04702593
0.01503124
-0.03956533
-0.01145552
0.03557470
0.04528963
0.02158859
0.00257573
0.01925594
0.01045134
0.01583890
0.04396974
-0.03719985
-0.06462251
0.04614225
-0.01610938
-0.07454434
-0.07315210
-0.02224489
0.01441173
0.04612752
-0.00779536
0.00449072
0.04452581
-0.06931400
-0.01908735
-0.04905810
-0.07237304
0.06181985
-0.05086888
-0.00414055
0.04653542
-0.05537534
0.03839960
-0.02620664
-0.00947173
0.08251837
-0.02340147
0.02635109
0.05430678
0.02470367
0.01267124
-0.04120269
-0.01818117
0.04305130
-0.06644743
-0.06169202
0.02806685
0.05080312
-0.05303588
0.00111617
-0.03090731
-0.06347699
-0.01584804
-0.00185079
-0.00916718
0.00821457
-0.03729311
-0.02630997
-0.03645632
0.03687420
-0.06206514
0.06032212
0.05906862
-0.04204779
0.01187678
-0.05944408
0.03810821
0.03968731
-0.07913420
-0.06208057
-0.02463694
-0.01820042
-0.01906257
0.06383932
0.06584898
0.06565581
0.05635929
-0.00257537
0.07146190
0.06545053
-0.03700630
-0.06399670
0.06463752
0.02195821
-0.02412353
0.05829267
-0.00671798
-0.02454946
-0.06286376
-0.06821065
-0.01278583
0.05959190
0.01249108
-0.00168485
-0.04077084
0.05594148
0.04565315
-0.00124287
0.05953842
0.02268130
0.03094776
-0.00689756
0.05870285
-0.01124940
-0.03258169
-0.00925692
-0.01870487
0.03783314
0.04842341
-0.03840722
0.04955036
-0.02404089
-0.06880385
-0.08889124
0.05649335
-0.06531137
0.05028341
0.01542986
-0.02148379
-0.07407936
-0.04281200
-0.05796080
-0.02054798
-0.01818346
-0.01967032
0.05260711
-0.01030278
-0.03935507
0.04559900
-0.01990906
-0.07514863
0.01695285
-0.01447703
0.06128200
0.03343924
0.03105480
-0.02016613
0.07427452
-0.00230318
-0.05698325
0.02340827
-0.06042193
-0.07131063
-0.06348774
0.00039531
-0.03177302
-0.01638228
0.02875651
0.07272722
-0.03945329
0.00816553
-0.04510456
-0.01736669
0.00957345
-0.06353460
-0.01861891
0.02261501
0.03349913
0.08045529
-0.03905280
-0.05974768
0.02596598
0.06380004
-0.04449735
0.06767274
-0.01376442
0.06670694
-0.06251158
-0.02118015
-0.01423329
-0.04087646
-0.07859375
-0.03466465
-0.00092503
-0.06644467
-0.01305252
-0.06846561
-0.05632855
0.01125876
0.00046350
0.01560769
-0.01060244
0.05609449
0.04080845
0.04666499
-0.05447043
-0.04821384
-0.05914656
-0.08084475
0.02316450
0.04501839
0.05826180
0.04261379
0.04026873
0.01515384
-0.05612686
-0.04379261
0.04826389
-0.05674733
0.02781346
-0.04304484
-0.05277619
0.01211942
-0.06492292
0.03469804
0.01148035
-0.00948107
-0.02728478
0.01226254
0.04868287
-0.07306296
-0.03729390
-0.03446472
