-0.01207835
-0.01956329
0.06107537
-0.10491510
0.11502784
0.03178050
-0.01344646
-0.02201661
0.07320961
-0.01243671
0.02431001
-0.06863016
-0.01930988
0.06077643
0.12941514
0.01618754
-0.15814981
-0.04330095
0.03858651
0.07831108
-0.10765267
0.05722415
-0.18142104
0.10677514
-0.08454385
-0.08331728
0.01309849
0.07919613
-0.09775937
0.17529605
-0.07335376
-0.02617916
0.01688186
0.01102488
-0.01376562
0.13456818
0.10977954
-0.00735509
-0.00480550
-0.07752765
-0.05339914
0.02232390
0.09448725
-0.02531591
-0.05300348
-0.03261183
-0.07689124
0.09327869
0.03712925
-0.00789747
-0.00766955
-0.08533467
-0.04412318
0.05704617
-0.08997167
0.05324755
-0.02890572
0.10436516
0.10146760
-0.03744717
0.04041363
-0.05378991
-0.11064826
0.08852636
0.09621365
0.10910224
0.05794922
0.03807626
-0.02285082
-0.08141211
0.00063904
-0.12600924
0.13554901
0.10849105
-0.22665502
0.02913133
0.11633462
0.00833263
0.14118139
-0.00227049
-0.10076817
0.02347943
-0.03716447
0.06638808
0.06704526
0.10198992
0.09028867
-0.09540684
-0.08202624
-0.01283733
-0.07365341
-0.08563881
-0.04695722
0.00287017
-0.00290398
-0.09846790
0.09426567
-0.04120559
-0.07996157
-0.03791468
0.12528540
0.12376020
0.08199868
0.04685126
-0.00571350
-0.06092563
-0.10603753
-0.03382233
0.11638751
0.01134333
-0.04032058
0.09070092
0.08773407
-0.04704593
0.03838294
0.10521951
0.01676359
-0.09469821
0.12562241
-0.03878151
0.13906917
-0.08976962
0.06834923
0.11818424
0.07468556
-0.01152379
-0.13170916
0.05385769
-0.07572987
-0.08242483
-0.05390438
0.00997448
0.03158955
0.07443537
-0.09737092
0.06902202
0.03905374
-0.08609133
0.09666714
-0.07948069
0.11409528
0.06607413
0.08955359
-0.02751415
0.02708943
-0.04137633
0.12235428
0.04913252
-0.07944129
0.00999214
0.00449386
0.15021332
-0.07176884
0.00243295
-0.04171866
0.10323177
0.01511009
-0.04733500
-0.14010711
-0.14418964
-0.06206650
0.08059575
0.10093855
-0.16404027
0.16474900
-0.10344079
-0.04722484
0.11889734
-0.08867329
-0.02934469
-0.10133985
0.15990412
-0.00216615
-0.08287022
0.08214594
0.03588162
-0.08060522
-0.06944692
-0.10135472
-0.12278157
-0.04934521
0.11046566
-0.12825680
-0.00141558
0.00112229
0.01912230
-0.09704996
0.06877968
-0.05695043
-0.09873323
-0.07750594
0.01444252
0.03429704
0.05290155
0.06743958
-0.06315091
-0.12516747
0.05675282
-0.01270756
0.09102076
-0.05792743
0.17005654
0.03055357
0.09555408
0.11667291
0.03376321
-0.08326301
-0.02024622
-0.16009590
-0.03789566
0.00246353
-0.06050264
-0.04612684
0.02918099
0.10227334
0.05376586
-0.08038185
-0.10002276
-0.01441180
-0.06544815
-0.03863060
0.06310757
-0.05004146
-0.06143423
0.04880084
-0.06436887
0.07395907
-0.00139774
-0.17759359
-0.07747581
-0.08748486
0.03170158
-0.13560739
-0.02954892
0.13923259
-0.12476917
-0.00797837
-0.03758951
0.07386284
0.11506465
0.02561652
0.04649676
0.00138366
0.05238181
0.06593293
-0.04566985
0.07003662
0.08090261
-0.10535511
0.04861860
0.09572037
0.13584229
-0.08211870
0.03918248
-0.12993397
0.15032171
0.08094741
-0.01384271
-0.13971771
-0.08900002
0.13519567
-0.01618796
-0.09884683
-0.10254513
-0.12379000
0.05534709
-0.08997256
0.07980935
0.05558829
-0.11946884
-0.10636814
-0.03626298
-0.06067107
-0.01435531
0.09689917
0.00765332
0.01257167
-0.02688342
0.09655927
-0.00202806
0.01550303
-0.04977565
-0.06602108
0.05662728
-0.01838859
0.12450582
0.07566458
-0.00640754
0.10102101
0.03075510
-0.00670427
-0.03243418
0.07142013
-0.01384765
0.07487855
-0.11176463
-0.05488548
-0.05000873
-0.08094943
0.08497146
0.04532986
0.04777691
-0.12886682
-0.06000452
0.11743629
0.14444384
0.13160908
-0.09186991
-0.05427346
0.13195656
0.09240651
0.02662305
0.08190481
-0.05038378
0.09358475
-0.09752851
0.05146153
-0.06444154
-0.06017280
-0.10190444
-0.12533440
-0.13961463
-0.07843299
0.12882914
0.17142372
0.13348369
-0.06049179
0.04161542
-0.05354277
0.04476461
0.02136678
-0.09028885
-0.13585392
0.20307422
-0.14899141
-0.02316458
-0.14931735
0.05922844
-0.06818399
0.09431697
-0.00738772
0.01717927
0.08528294
-0.02839221
0.09026626
0.05572604
0.04824876
0.01146374
0.01311239
-0.01432714
-0.07352759
-0.11535974
0.04877549
0.09633394
-0.06121825
0.10481444
-0.11377479
0.04933818
-0.02631497
0.10945726
0.15666527
0.00625027
0.09765512
-0.12585175
-0.10039210
-0.12117495
-0.10506973
0.05458957
-0.02433622
-0.10854409
0.10638394
-0.06215328
0.02574129
-0.08566497
-0.05956687
-0.03931054
-0.06376889
0.07000002
0.10608134
0.00895766
-0.03797692
-0.06743768
-0.08505167
0.12270042
0.07904860
0.02294835
-0.15429117
-0.01884124
-0.05649740
0.04020786
0.02470012
0.08288138
0.03745825
-0.11284600
-0.06989265
-0.03454353
-0.07410649
-0.09208763
0.11473018
-0.10090346
0.03777988
-0.02428036
0.01208521
0.03205403
0.02875619
0.06700375
-0.08820985
0.00617589
-0.00283878
-0.02662607
-0.09503995
0.00317888
-0.01523090
0.03307764
0.09417444
0.05051337
-0.07168177
-0.09206937
-0.02395553
0.00927897
0.04501050
-0.05936577
-0.01145996
-0.09738109
-0.10900954
-0.05421327
0.13754860
-0.16174780
-0.11481113
0.00013252
-0.03936923
0.02806757
-0.02508462
0.09622794
-0.04719879
0.10629761
0.01927594
0.05334413
0.06958564
0.06209672
-0.11147896
0.00082617
-0.11773978
0.10992079
-0.01974059
0.07216448
-0.10277443
0.00554862
-0.02971439
0.08391570
-0.06204061
0.05198509
-0.11845380
-0.07753664
0.07765212
0.15020999
-0.02730955
0.10610953
0.02448456
0.11606697
-0.07874903
0.10631312
0.06385354
-0.02947047
0.10318523
0.02292132
0.02653057
-0.11410695
-0.03862286
0.04838025
0.10980295
-0.13806848
-0.12461191
0.17797223
-0.09189118
-0.03133605
-0.06170394
-0.08615270
0.01782895
0.13046451
0.00669863
0.05736544
0.08387255
-0.04820628
0.00728872
0.09866807
-0.12589949
-0.05933017
-0.08899847
0.05604936
0.08340782
-0.05175525
0.07615660
-0.12940370
0.07783475
0.11941175
-0.08907671
0.02463113
-0.09476196
0.07966980
0.05299179
-0.07559177
-0.15956202
0.05298754
0.04672676
-0.07028493
-0.13189891
0.16352035
-0.11910253
0.00133136
0.07194724
-0.03533356
-0.11540107
0.05021288
-0.11668321
-0.00913994
0.05824614
-0.13334443
-0.04002532
0.07345942
0.09739919
-0.04693605
0.04083727
-0.02251069
-0.02281522
-0.07009549
0.07195977
-0.04603899
-0.02527137
0.04229767
-0.02301941
0.09428581
-0.14957425
0.00745791
0.09400186
0.00901194
-0.08436844
0.12792581
0.05191256
-0.11122258
-0.08233067
-0.04392460
0.08095380
-0.10025948
-0.07595480
0.07137683
0.15552598
0.08549414
-0.14651801
0.12160687
-0.06498919
0.18371311
0.04925806
-0.07739419
-0.08294956
-0.10342772
0.06958373
-0.04864339
-0.04450695
0.01829890
0.07657439
-0.02386029
0.05379610
0.05772648
-0.05598843
0.07606888
0.00624761
0.04884114
-0.04776506
-0.06902412
-0.07842319
0.09818261
0.11353683
0.10927900
-0.09574424
-0.00737756
-0.03449395
-0.06903484
0.12812208
-0.10263313
0.07256852
-0.15873329
0.06688932
-0.01053360
0.08970637
-0.05893931
-0.08505937
0.07002624
-0.01809354
0.11223715
-0.00241547
-0.05656692
-0.08827391
-0.03581019
0.01719624
-0.01316427
0.05567184
-0.00820576
0.02155881
-0.09557077
0.04375956
-0.08190975
-0.05876492
0.15385242
0.08605962
0.03274264
0.08982994
-0.12132115
-0.04603537
-0.03463069
0.01230147
-0.09334248
0.04822209
-0.00935000
0.04528876
0.01144025
0.00419556
-0.05697737
-0.06897902
0.01622564
0.01776401
-0.06727145
0.04091936
-0.11297790
0.08720019
-0.02472516
0.04051185
-0.09962254
0.06986498
0.01064817
0.03076839
0.02470150
-0.13814159
0.07918230
-0.06987284
0.04509429
0.02234698
0.14742039
0.08773407
0.09995271
0.15706982
-0.08212030
-0.06244536
-0.11483951
0.00440860
0.03261505
0.13752002
-0.06967354
0.09415758
-0.06003798
-0.00731808
-0.10587350
-0.02215109
0.02892057
0.05311337
0.06846681
-0.07898426
-0.04628668
-0.06080727
0.09616052
-0.06578629
0.02604937
0.10515927
-0.05792221
-0.00954371
0.05618382
-0.04374557
-0.10130943
0.02054042
0.04497074
-0.09940989
0.04643560
0.07288607
0.04291738
-0.02645283
-0.09425016
-0.12493069
0.05355947
0.01633796
0.03385699
-0.00132099
0.06030316
0.03157900
-0.11500623
0.02803470
-0.13707417
-0.04267601
-0.07447005
0.11909882
0.01938558
0.10884307
-0.09590092
0.01094897
-0.13266408
-0.09564219
-0.02847618
-0.06982427
0.12077597
-0.03379776
-0.07273754
-0.11769196
-0.00570637
0.06272642
-0.16406326
0.00485888
-0.12124228
0.08760253
-0.06414976
0.16627982
-0.08064687
0.00804427
0.11299530
0.03100436
0.10360708
0.01578225
-0.03561690
-0.15759322
0.05655830
0.04908463
0.01827448
0.02626915
0.09897227
0.04385028
0.03787996
-0.07677574
0.05456477
0.06455151
0.01420902
0.03765342
-0.00601331
0.02835419
0.08713236
-0.01933138
-0.06996703
0.08811874
0.10191742
-0.03852021
0.03180573
-0.05995059
-0.06417608
-0.06640976
-0.08241394
0.04107827
-0.10864257
-0.02881485
0.06714074
0.15191691
0.12032759
0.06864858
0.09116130
0.09065350
0.07334050
0.04362315
-0.07138249
0.00628272
0.04450475
0.04278987
0.05235998
-0.04535782
-0.08439983
0.03003806
-0.01023307
-0.01755941
-0.08392558
0.06841481
0.07354947
0.07546814
-0.10615047
0.06970518
-0.05072912
-0.00583544
0.07390242
-0.05758492
-0.00988864
-0.05083197
-0.03051563
0.02709051
-0.07006834
-0.09877767
0.14434187
-0.08634706
-0.09014711
-0.02867356
0.07972453
-0.08646742
-0.09858349
-0.01604031
-0.05530794
0.07175219
-0.08983391
0.08705486
0.06325813
0.01171626
0.05551720
-0.01579924
-0.00011500
0.10313339
0.05224196
0.09314842
-0.00522830
0.12738122
0.01482953
-0.06533092
-0.04248696
-0.04278615
-0.09211686
0.08413732
-0.06783180
0.07898003
0.12361859
-0.00579743
0.03155835
-0.02161531
0.09762794
-0.07091873
0.07095068
0.09725184
-0.04699456
0.06304432
-0.01626592
-0.00352265
0.10912058
0.13676202
-0.07125720
-0.10706373
-0.00265249
-0.07066817
0.13425322
-0.11275321
-0.09600253
-0.13117427
-0.01576688
-0.11455278
0.13451426
-0.04300100
0.13246067
-0.05396997
-0.02903913
0.07608478
0.05492065
-0.11251518
-0.00352494
0.05488214
0.08219211
-0.12505621
-0.02468661
-0.04996353
-0.05745718
0.05311514
-0.04399269
0.00431370
-0.00604438
-0.06391504
-0.23104089
-0.01336947
0.07499639
0.08387746
0.12854491
-0.08900324
-0.03047934
0.02739113
-0.04108705
0.03946039
0.03965056
-0.01600708
0.09680648
-0.09806866
0.02043971
0.00270918
-0.11180895
0.02697956
0.03448529
0.09754410
-0.02675867
0.09359813
0.02034535
-0.08388674
0.04407165
-0.04365442
-0.02919635
0.04233580
-0.11795536
-0.14158310
0.01879434
0.03983519
0.03440563
0.13091515
-0.11424642
-0.01967821
0.15583324
-0.10741814
-0.01370597
-0.02446722
0.10578164
0.10151518
-0.07079107
0.04238800
-0.04353018
-0.05205126
0.10776072
-0.09495743
-0.06514607
0.11322779
0.06028931
-0.05948707
0.00566600
-0.09400882
-0.11770681
0.04422761
0.11770492
-0.02698184
-0.09443533
0.13424405
0.00676644
-0.06364794
0.14291666
-0.09123165
-0.02615486
-0.11181931
-0.00699969
0.04177837
0.05901955
-0.00194880
-0.02809815
0.09689238
0.00126465
-0.07096991
0.00735150
0.02047995
-0.00928204
0.10194384
-0.07083587
0.10014337
0.02071962
0.08527079
0.02722096
-0.12506311
0.04258943
-0.03238055
-0.15908982
0.01167509
0.04527551
-0.00383304
-0.02880439
0.04581089
0.09486996
-0.01801509
-0.04668700
-0.05250547
0.02250881
-0.07329740
0.05418043
-0.08171302
-0.08485552
-0.10126422
0.01991662
-0.02412004
0.07303132
-0.07864065
0.04880430
0.08831583
-0.05689421
0.14961122
-0.08631809
-0.07460041
-0.12591799
-0.05674546
0.01095149
-0.12194566
0.04620159
0.00438259
0.01327071
0.00009224
0.09381326
-0.07657525
-0.07463951
-0.07578108
-0.07015769
-0.11148474
-0.00532341
-0.13721766
-0.00118867
-0.10249548
0.06749815
0.00970307
0.03085990
0.02423069
-0.07940080
0.15562209
-0.01694768
0.11506353
-0.10937399
-0.00002564
-0.01198572
0.06267188
0.07349734
-0.10053524
0.09100622
-0.08203404
0.01295202
-0.05333211
0.00478733
0.04611740
0.04983362
-0.08458508
-0.01255312
0.01374255
-0.00220657
-0.09809289
-0.08679012
-0.04377203
0.08913476
0.09737313
-0.12495935
0.00318511
-0.06088382
-0.11509193
0.04519275
-0.04820994
0.03350842
-0.01336629
0.06946456
0.21037632
-0.05497698
-0.08050019
-0.13208877
0.12434720
-0.04700917
-0.17435338
-0.03183023
-0.09958007
-0.09074228
-0.17551717
-0.12721740
0.18214166
0.03827747
-0.13656417
0.01481575
0.06366324
0.10988180
-0.10602180
0.06598860
0.07437697
0.01049556
-0.06723366
0.01535890
0.00318708
0.06678249
-0.00074022
-0.09276240
0.05091081
-0.10934192
-0.15232074
0.01234850
-0.06760056
-0.01581503
-0.04392905
-0.06905018
0.10012235
0.11122189
-0.01777704
-0.01387965
0.07499981
0.03689966
0.01900894
0.00485502
-0.04122345
-0.07231547
0.00565039
0.04297081
0.07146824
-0.11862065
-0.03690793
-0.08996122
0.08470087
-0.08392367
-0.13974421
-0.12293267
0.02517472
0.00208886
-0.03902072
0.04447937
-0.06671481
-0.06930505
-0.02600076
0.03358841
-0.09825065
0.11390566
-0.03651656
-0.07199249
-0.02106254
-0.00805528
-0.01770160
-0.02317432
-0.10316281
-0.00480793
-0.09930023
-0.12763055
0.15646660
0.12020085
0.15693158
-0.08090365
-0.05073095
0.01964688
-0.06719334
0.07474657
0.03799453
-0.05673295
-0.00321340
0.06624046
-0.04130584
0.12678514
-0.13875709
-0.02416164
-0.08718113
0.09816235
0.10747345
-0.07162723
-0.05670229
-0.09224547
0.08931178
0.01401656
-0.02584373
-0.10748333
0.10511620
-0.02543065
-0.04099149
0.07345448
-0.11260988
0.06579056
-0.07857037
-0.08246695
0.05439407
0.07712122
0.10427932
0.07114571
0.08206446
0.08504812
-0.15874481
-0.06188091
-0.03046644
0.05878323
-0.08307202
-0.05882033
-0.06447201
0.02363427
-0.09268873
-0.08882187
-0.15499458
0.14178751
0.01733081
-0.06445673
-0.09427448
-0.03889225
-0.01664007
-0.05906239
-0.10553511
0.09116189
0.03573014
-0.01618011
0.05504183
-0.00342875
-0.06624380
-0.07018241
0.04108173
-0.01935671
0.00673460
-0.06574754
-0.05292348
0.08603460
0.01507703
-0.04250747
-0.13843267
-0.10956977
-0.00781434
-0.00301217
-0.11511739
-0.11799848
0.04661686
0.09633544
-0.02470225
0.00234782
-0.12939782
-0.01420273
0.05806633
-0.01879620
0.16526711
-0.07564512
-0.01137237
0.09847619
0.12336252
-0.08476714
0.05530705
0.01007306
-0.09189005
0.07996589
0.10790010
0.04503059
-0.04383906
0.09530943
0.15195632
-0.11939931
0.00025734
0.08301240
0.10744908
-0.03664067
0.01309031
0.05434952
0.12515874
0.12851675
-0.08182426
-0.09889508
-0.08434393
-0.04376848
-0.06648538
-0.09008712
-0.01715995
0.09831174
0.03243983
0.04350086
-0.07401056
-0.13994601
-0.02240473
-0.09161439
-0.11503975
0.10105841
-0.08242541
-0.00697597
0.00923424
-0.08890773
-0.00094270
0.11974293
-0.06239804
0.14139901
-0.04618647
0.04931217
-0.10215544
0.03838281
-0.01462952
0.04414758
0.14174533
-0.09071553
0.17078003
0.05729021
-0.06881747
-0.15702115
0.10574003
-0.05237298
0.05599549
-0.04515992
-0.01602994
0.00032649
-0.10395000
0.04340499
0.13432069
0.15603349
0.11599226
-0.08720491
-0.15478283
-0.07707489
0.02073888
-0.04532294
-0.03479236
-0.12145606
0.01750944
0.07504823
0.14123540
-0.14501552
0.05031355
-0.07842381
0.07827492
0.07296878
-0.12006833
0.01833964
-0.01921903
0.05089140
-0.10958381
-0.02606624
-0.17750308
-0.07937472
0.18867712
0.02552419
-0.07084028
0.04161377
-0.05709094
0.04753846
-0.00250767
0.01186424
-0.11205510
-0.01442709
0.05003944
0.08960861
-0.04069052
0.09295977
0.00499491
-0.07400869
0.10805722
-0.05052450
-0.05053461
-0.02390815
0.03342694
0.00012429
0.00035092
0.01202125
-0.12653781
0.08020438
0.01281981
-0.14963701
0.11621664
0.01407808
-0.02468530
-0.08141513
-0.11539969
-0.02640296
0.10875490
-0.00716032
0.08918633
-0.11612315
-0.01160519
0.05632211
-0.07379444
0.03705204
0.01997583
0.11643181
0.02605877
0.09505191
-0.14485651
-0.03898590
-0.01946110
-0.06652477
0.21251117
0.01081126
-0.17132568
-0.08272717
-0.14841762
-0.06799801
0.00759062
-0.09599016
-0.01345367
0.04677227
-0.04453808
0.05705854
0.07672935
-0.01015897
-0.14413355
-0.03081968
-0.04638512
0.02732297
-0.04893707
0.08069889
-0.08975398
0.04998435
0.07535845
0.08565097
0.00904377
-0.08071792
-0.01773762
0.00135849
-0.09899307
-0.06059624
0.12929936
0.04357620
0.00062327
-0.21555260
-0.01084985
0.09602665
0.10248885
0.04102405
0.03897184
-0.08919250
-0.06035661
-0.02226524
0.01236044
-0.13558614
-0.07441548
0.09218237
0.20272507
0.03902152
0.08193973
-0.06362431
0.08019752
-0.11183554
-0.01205647
0.07318530
-0.05704714
-0.09516881
-0.04444737
-0.00281677
-0.07979458
0.00488708
0.03204997
-0.09285464
-0.07377706
0.09040947
-0.07100566
0.04774791
-0.00010332
0.16105142
0.04777259
0.04845954
-0.05272073
0.02483501
0.10906497
-0.14063339
-0.02893757
-0.00697284
-0.00375316
0.07130322
-0.17600836
0.09075275
-0.12009622
0.05401287
-0.01365320
-0.08518118
-0.04053108
0.09981743
0.08295510
0.04522429
-0.01672496
-0.11310238
-0.15327649
0.08024687
-0.07728109
-0.05217148
-0.12258829
0.01292956
-0.17610724
0.09717478
-0.07161209
0.20703259
0.00259329
0.00012082
0.07581335
0.16685669
-0.12690252
0.12123115
-0.11390132
0.12368562
0.09370949
-0.15935735
0.11345947
-0.07099213
0.02310537
-0.06681494
-0.08578502
-0.09223035
0.00366877
0.12139101
-0.08857667
-0.08222497
0.06488550
-0.15226935
0.00727922
0.02142832
-0.15244594
-0.00113636
0.02233323
0.04538712
0.08871765
-0.07688496
0.03575292
-0.02552919
-0.04082645
0.00460195
-0.00623950
0.01612722
0.00412327
-0.09573234
-0.00044128
-0.01721145
-0.09706350
-0.06261618
-0.17417867
-0.00330385
0.13118872
0.13307188
0.09956273
0.07729501
0.03359568
0.06750220
-0.03324962
0.07628953
-0.12069301
-0.05758035
-0.02241503
0.11998435
0.02854097
-0.01872539
0.02127131
-0.04101537
0.05276301
-0.04020119
-0.04267255
0.07484847
0.01418014
-0.06517500
0.03618610
-0.01255385
-0.02667298
0.01523187
0.06151678
-0.01881585
0.12181823
0.10455472
-0.03075087
-0.13916042
-0.06562115
-0.03303665
0.05018798
-0.12912031
-0.17268582
0.01283547
-0.14807239
0.01818912
-0.12561648
0.05658683
0.00577398
-0.01310443
0.04695301
-0.03918041
0.11356004
-0.14105082
-0.02964781
0.01769931
0.08796035
0.08918317
0.00836002
-0.01181867
-0.00095857
0.10346542
0.00258412
-0.10583092
-0.03499172
-0.11889336
0.03504371
0.04090194
0.00641248
0.15244515
-0.05079988
-0.02597237
0.02531028
-0.14377974
-0.04244838
-0.05511926
0.06153907
0.06954136
-0.01983986
0.08166171
0.00027966
0.04910584
0.01057168
-0.03323676
-0.10124005
0.00465333
0.00354971
0.09823881
-0.03903753
-0.04358318
0.09271275
-0.10862570
0.07144960
-0.11475791
0.06035149
-0.08250528
0.07248919
0.08552904
0.04500603
-0.08398940
0.07887727
0.02792931
0.04805746
0.03889785
-0.07067374
0.00784004
-0.02241442
0.04352433
-0.05582665
-0.12629376
-0.01162785
-0.07774958
-0.10127178
-0.01545440
-0.09292485
0.03100684
0.08801956
0.08731250
-0.01501205
0.01592455
-0.05150224
-0.02617343
-0.10223144
0.10195497
-0.00047394
-0.02965209
0.16965573
0.00195034
-0.16432121
-0.04065432
-0.07231949
-0.01717161
0.07561070
-0.11432257
-0.00723701
0.02169850
-0.05264138
0.02871395
-0.11863732
0.04904405
0.02408067
-0.01038392
0.06089384
-0.07641718
0.11582355
-0.00577539
0.09029683
-0.15819165
-0.01632880
-0.00242764
0.06631514
0.02730442
0.02760725
-0.04645184
0.11100227
-0.01861798
-0.07929781
-0.23022512
-0.07863232
0.09166716
0.16009203
-0.02351747
-0.03712139
-0.18368953
0.06343174
0.18011998
0.00111404
0.03555908
0.11684117
-0.03813585
0.07263482
0.06019228
0.02492079
-0.03197987
0.08489580
-0.01310893
0.06585842
-0.05923616
-0.05978664
0.13396862
-0.12444775
0.02166460
0.10864586
0.11332265
0.09969620
0.02870042
-0.02544525
-0.09031995
-0.07843313
-0.02406281
0.06437911
-0.20099932
-0.05705895
-0.04262086
-0.09770755
-0.11144699
-0.02071245
-0.05756128
0.09988503
0.09184180
-0.04640581
0.02710130
-0.10350819
-0.09078444
0.07078866
-0.07825775
-0.02996559
0.05497468
-0.05599720
0.02856826
-0.01359558
-0.00909856
-0.08030915
-0.01260090
0.07412753
0.02396107
-0.11037890
0.04596672
-0.10217653
-0.10207383
0.08695067
0.06916498
-0.04516504
-0.01538783
0.07926231
0.09008778
-0.01758012
0.08153528
0.04140523
-0.00157136
-0.07107570
0.03025367
0.07845257
0.06984299
-0.00611277
-0.07760169
0.02254074
-0.00740900
0.01403019
0.05631978
-0.03817261
0.10516156
-0.09792717
0.14194067
0.05337686
-0.15106457
0.04950644
-0.01406431
-0.09262307
0.12362599
0.03137317
-0.08467194
-0.05675561
0.05480516
-0.13497718
-0.09131645
0.10204425
-0.11335319
-0.07226279
0.09725008
0.09834538
0.12368904
0.01445392
-0.09420501
0.00104994
0.06764983
0.10758322
0.10285550
0.02335427
0.13265030
-0.01848218
0.09708557
0.05916474
-0.00234713
-0.07036786
0.05118705
0.07898016
-0.01611776
-0.00662303
0.00179496
0.10051781
0.03316663
-0.11114716
-0.11574513
-0.08933637
0.14771870
-0.09915157
-0.06143408
-0.10185622
0.10714708
-0.00947350
0.15693751
-0.03550826
-0.09351164
-0.02632616
-0.09369141
0.04945550
-0.04976171
-0.01026719
-0.04113635
0.02211197
0.03468490
-0.10094435
-0.02532883
0.04629644
0.03154601
-0.11725208
0.04102947
-0.01391460
-0.00888182
-0.01948807
-0.15995707
0.06599813
-0.04174931
-0.01098716
0.06125556
0.01271319
-0.11426827
0.01453059
0.04706260
0.11887084
-0.06651663
0.06894068
-0.07938207
0.02805763
0.07380847
-0.06762663
-0.03441619
0.11104622
0.09787890
0.09569947
0.08812046
-0.01698492
0.02692523
0.01446930
-0.09899703
-0.01357059
0.12751852
-0.08688275
-0.04758152
-0.03824975
0.04811472
-0.06512030
0.10419883
0.06505237
-0.09423953
0.06851608
-0.13822113
-0.03073818
0.05887598
0.04754080
-0.04631270
0.02320766
-0.13352312
0.05204059
0.11927097
-0.09838299
0.00539816
0.11540949
-0.06141913
0.02546955
-0.01076282
-0.10796029
0.02006370
0.06033068
0.05042604
0.06001567
-0.09462677
0.00445812
0.07119884
-0.08310838
0.07595669
-0.01166525
-0.03469814
0.01934026
-0.04639484
-0.11932319
-0.11684302
-0.09155215
0.11956041
0.06195175
0.12887484
-0.02153000
0.10656612
0.06061796
-0.09451610
-0.07384515
-0.03325726
0.07868920
0.07064341
0.10599475
-0.11307551
-0.08569024
0.06448355
-0.04869938
-0.10549990
-0.01121917
-0.04835558
-0.07449245
-0.10925315
-0.00127066
-0.04594116
0.11231993
-0.08475462
0.11578036
0.01587470
0.05106791
0.07250284
0.13605997
-0.08242349
-0.05652351
-0.10287795
-0.05882647
-0.01482730
0.07714241
0.05774985
-0.00405171
0.04838177
0.09180650
0.07073426
-0.02394075
0.04304289
0.04514563
-0.10635102
0.02071229
-0.02919955
0.14673844
-0.05468615
0.13351956
-0.10095590
-0.17173633
-0.12775773
-0.10759185
-0.02938239
0.00350134
-0.10741322
-0.06248847
-0.08622246
-0.05444215
-0.06950213
-0.15849140
0.05341049
0.05547142
-0.10129830
0.04261040
-0.00744184
0.04848193
-0.06334765
-0.17270733
0.17440219
0.00102210
-0.04561512
-0.03282899
0.05301610
0.04409355
0.05208781
-0.10166049
-0.07966191
0.09860209
-0.02175758
-0.09974750
0.02682253
-0.13765448
0.10005443
-0.03119650
0.09555937
0.15114118
-0.15085830
0.00713021
0.07297899
-0.06660816
-0.09216782
-0.04347676
-0.06603239
0.04439545
-0.02483796
-0.05924109
-0.08771545
0.07034661
0.09091387
-0.02342315
-0.08049592
-0.06316917
0.11662164
0.09299371
-0.10467654
0.10567524
-0.11022146
0.07927659
0.15333590
-0.06372774
-0.06826854
-0.05910026
0.00204870
0.07033679
0.01088227
-0.01172708
0.04373399
-0.09256292
-0.06286366
-0.10658821
-0.07068762
0.04477246
-0.14078897
0.06226821
0.00338338
-0.03514347
-0.01747888
0.03872682
-0.04526013
0.08661006
-0.11137402
-0.09864149
0.00608916
0.08087526
0.05038168
-0.06364064
0.06739148
0.02902487
-0.00914448
-0.01311979
0.08352397
-0.05668048
-0.04872055
-0.02966845
-0.06602153
-0.04375200
-0.03502287
0.00876515
0.05872604
-0.04327566
0.07894769
-0.05752478
-0.03303462
-0.11764795
-0.09433205
0.02113959
0.07498431
-0.13234434
-0.01521098
-0.02527253
0.12824748
-0.01385567
-0.07845104
0.16964856
-0.10197999
0.05564914
-0.07208618
0.15190275
-0.10811763
-0.07424682
-0.09620101
-0.06909065
0.11040959
0.09153045
0.05166670
0.10662848
-0.04303920
-0.08769629
-0.11343848
-0.03759438
0.04846518
0.04269879
0.13643426
-0.10982368
-0.16562749
0.00896076
-0.15679108
0.09466535
0.02382688
0.09991173
0.09749606
-0.00068478
-0.02944027
-0.00347456
-0.07707407
-0.03953633
-0.09053453
0.10374568
0.11232187
-0.01756844
-0.01674556
-0.04305397
-0.10436054
-0.10909187
0.04011109
0.12924071
0.10109890
-0.14522040
0.06885292
0.05616666
-0.12543249
0.06909007
-0.02057828
-0.06452193
0.07148530
0.06242560
0.10112341
0.03214303
-0.01031798
0.11415122
0.12542422
0.03193071
-0.09136181
-0.04522085
-0.10596545
0.05768914
0.06530666
-0.02605089
0.02983782
0.05483719
-0.10681131
-0.06673009
0.01322711
-0.14906706
-0.06000933
0.04900176
0.16329551
0.08320640
-0.03753565
0.00930334
-0.01583032
-0.04062552
-0.07128090
0.00405454
-0.04626904
-0.05331077
-0.05238529
-0.11151076
0.08432705
-0.12564313
0.09342825
-0.09806246
-0.09605767
-0.00535079
0.05873289
-0.07214358
-0.02983887
-0.05666878
-0.02940981
-0.08644564
-0.03862347
0.02817814
-0.08484893
0.11198755
-0.03244766
-0.07582248
0.09637814
-0.15133169
0.05018125
-0.02691679
-0.00328434
-0.01729408
0.08846375
-0.10953001
-0.03760504
0.00255178
0.10738384
0.01129591
-0.07015965
0.08986533
-0.07173053
-0.10573872
-0.02053649
0.02071500
0.01539875
0.03442098
0.02506965
0.09032704
0.06589869
0.06773610
0.11983001
0.10042376
-0.06038034
-0.03881571
-0.07338092
0.03221704
0.00889354
0.03840541
0.17480382
-0.03945882
-0.00676231
0.09778243
0.03934360
0.06402490
-0.05328754
0.09125291
-0.09993190
0.08968566
-0.15645248
0.09500676
-0.03414770
-0.04324339
-0.06573217
-0.06440224
-0.03066866
0.08402769
-0.10192053
-0.09385426
-0.03790264
-0.00311555
0.01572054
-0.05320035
0.00271610
-0.08391201
-0.03337778
-0.08112049
0.09721231
0.04478980
0.07651513
0.01985399
-0.05224746
0.07612915
-0.00099477
-0.06564338
0.05882350
0.09684609
0.04402354
-0.05859535
0.09816688
0.10353152
-0.10736746
-0.09312949
-0.05300075
0.11236782
0.04854636
0.10480864
-0.10026196
0.03470640
0.00494671
-0.07441434
-0.15543905
0.02565247
-0.05441812
0.10240070
-0.07321142
0.03768009
-0.08435884
-0.06523678
-0.11908641
0.13264775
0.09932621
0.06138439
-0.12589514
0.08752929
-0.09937211
-0.13624457
-0.09468127
0.11609751
0.12937890
-0.02767107
-0.07896602
0.02995923
-0.03657602
0.01744320
-0.00833437
-0.01799252
0.03437714
-0.05661044
0.03322678
0.04598490
0.10824998
-0.09621218
0.12914807
-0.01195468
-0.11047134
0.20458800
-0.14935036
0.01515742
0.13032337
-0.25692570
0.08562174
-0.13336110
0.13141419
0.05272592
0.05520992
-0.02281484
-0.12783898
0.01392583
0.01017143
0.03762813
-0.14928503
0.01277333
-0.03493613
0.07616057
0.02136229
0.01086292
0.08479396
-0.08093093
0.12831359
-0.14405039
-0.08334849
-0.02031593
-0.04625069
-0.14237982
0.11746521
-0.07295677
0.11739974
-0.02663425
0.00220862
0.17952149
-0.02154764
-0.07901445
-0.05975887
-0.01408407
0.01811077
-0.00064756
0.10811219
-0.09537361
0.04967638
-0.04856666
0.00768917
-0.11287472
-0.04293273
-0.04845332
0.10975290
0.08258021
0.05644700
-0.01251541
-0.06374803
0.04106316
-0.18937549
0.09988635
-0.08599856
-0.07157635
-0.13015273
-0.00661574
-0.01601488
-0.02001479
0.04406294
-0.05402543
0.05847421
-0.06460953
-0.10698165
0.02849210
-0.03766089
-0.00517084
-0.07719757
-0.02133628
0.03377303
-0.06712943
-0.07592376
0.04623629
0.05143186
0.10853717
0.16955876
-0.05786850
-0.01474800
0.00031287
-0.08485040
-0.01989046
0.07268520
-0.10032988
-0.00996463
0.05139112
0.07182202
-0.01919773
0.10062254
-0.09769158
0.10537551
0.11347707
-0.10935553
-0.01326756
0.08590364
0.04001069
-0.04222415
0.08635741
0.05454222
0.00551598
0.09091741
0.07862798
-0.09880403
-0.09297467
0.01171311
-0.03175282
0.09846894
-0.07736287
0.10597501
-0.00497110
0.09912704
0.01063099
-0.06022650
-0.01634326
-0.09197117
0.04873262
0.09391441
0.08049314
-0.03960299
0.10348732
-0.07272748
-0.05808524
-0.01826446
0.08234518
-0.00407472
0.08140542
-0.14255151
0.08359640
0.05903388
0.12259779
0.11630567
-0.08564837
0.02183297
-0.02138296
0.08062025
0.02308064
0.02346266
0.00779824
0.04819759
0.07171249
-0.06560477
-0.06412304
-0.00776256
-0.07598312
-0.09044878
0.04887983
0.19173922
-0.13020851
0.01526011
-0.08869801
-0.06893677
-0.03932670
-0.04737938
-0.07907517
-0.10081816
0.00885334
0.00302932
0.07650813
0.11128322
0.03499119
-0.03291423
-0.03005036
-0.11923018
0.00277710
-0.04514863
0.20079051
-0.08860911
0.02464178
-0.07076915
-0.00074926
-0.04795437
-0.01308466
-0.03341273
0.02476738
0.06185001
0.00387849
-0.07795466
0.06237500
0.16550370
-0.12190998
0.02497876
-0.06296340
0.03060935
0.10295071
-0.02032110
0.12213261
-0.07405977
-0.05869566
-0.01753010
-0.01142963
-0.14745127
0.01373353
0.02788879
-0.11505345
0.11440113
0.08552995
0.09095778
-0.08483993
0.16103955
0.03044759
-0.02698043
0.03501524
-0.11052833
0.05853134
-0.01267723
-0.01454823
0.05099576
-0.00700848
-0.03434234
0.06494269
0.00516326
-0.13158277
-0.01544013
0.04845084
-0.10214713
0.07322135
-0.12253847
-0.00615538
-0.03772038
-0.12675074
0.01528547
0.03665949
-0.04587519
0.04203024
0.09512302
0.11038618
0.01427071
-0.01960875
-0.04523163
-0.10624022
0.08020580
0.00317136
-0.06814444
-0.07280170
0.09115126
0.06402483
0.05001049
-0.09383947
-0.05833507
-0.02275632
-0.05477187
-0.08402990
0.05707012
0.07821049
0.04113499
-0.03132908
-0.08465838
-0.01063544
0.00716024
0.05658139
0.02986954
-0.02851338
-0.10335185
-0.05926064
-0.02908450
-0.01686093
0.15688674
0.01069568
-0.06374204
-0.04155582
-0.10090457
-0.03538207
-0.06441765
-0.14225499
0.03323603
0.01625117
-0.06085606
0.08101916
-0.11417662
-0.08075442
-0.04795708
-0.00383835
-0.15674497
-0.06843638
0.17119069
0.06967343
-0.08834825
0.11009201
0.01680423
-0.11923902
-0.03650333
-0.11421482
-0.07741441
-0.11704905
0.07953584
-0.00907746
0.05574115
0.03649076
-0.18345279
0.00802116
0.00811261
-0.08928076
0.10596532
0.06118867
0.08400871
-0.11488999
0.05043491
0.09968171
-0.00518301
0.04042466
-0.08694634
0.00664141
-0.04775010
0.14551765
-0.13777132
0.03646061
0.02477302
-0.02298240
-0.03397499
-0.10105941
-0.02800846
0.09478061
-0.13826053
0.00558694
0.02969747
-0.09078619
-0.04188605
0.06896523
-0.09353785
0.06477013
-0.03398495
-0.08437794
-0.06345790
-0.08342662
-0.00182545
0.06691070
-0.02779531
-0.04581803
0.05211034
-0.08936805
0.05794986
0.07251839
-0.05842328
-0.02945579
0.04083827
-0.04406215
-0.01800262
0.11612542
0.01778404
-0.02992018
-0.05316557
0.14218289
0.08224329
-0.04336949
0.09046591
-0.08596118
0.11185753
-0.03138075
0.00669619
-0.02593514
0.02693510
-0.03342913
0.10151289
0.03092553
-0.14855807
-0.01009946
-0.06430194
0.08901353
-0.11948954
0.05952311
-0.16084096
-0.00694904
0.11360416
-0.10473634
-0.00423223
0.09617309
0.04510938
0.01894137
-0.01450964
0.00652888
0.02653093
-0.08250672
0.00635585
-0.11449783
-0.04040762
-0.13617314
0.13976435
0.08273686
-0.01952920
-0.11481122
0.12777463
-0.07975215
0.15141471
-0.10287126
-0.06400964
-0.14463413
0.00308917
0.09238426
-0.00668340
0.08216979
-0.06505610
-0.03758157
-0.11235067
0.05434567
-0.02105596
0.10267262
0.02747673
0.00733713
-0.03580729
0.10441387
0.00864929
-0.01856213
-0.24287653
-0.08260535
-0.00455198
-0.13525131
-0.03767458
-0.03868639
0.17723213
0.05825658
-0.03418628
0.03010307
0.07045340
0.03982750
-0.01181912
-0.00004767
-0.07720498
-0.02724610
0.01584104
-0.01444969
0.16515103
-0.07258727
0.09486889
-0.04737851
0.06418248
0.00656719
0.02752795
-0.03424437
-0.05244138
0.06903256
0.07036081
0.01809424
-0.00246776
-0.07899293
0.12381036
-0.00659352
0.14115408
-0.05872477
-0.09576624
0.03686886
0.08689906
0.04319927
-0.06852842
0.09681942
0.10011398
0.03896149
0.08405221
-0.02283894
0.03090380
0.06728337
0.06879789
0.03985364
-0.02419904
-0.03422669
0.15775435
-0.13777821
0.09069389
-0.10976411
0.08795208
-0.02194526
-0.13887341
-0.04279365
0.11355675
0.08022496
-0.00656896
0.00625122
0.01914285
0.11076748
0.05663235
-0.06335056
0.12094365
0.09667190
0.08702701
0.00773827
0.09065069
0.03393679
0.03452346
-0.08776268
0.00257723
0.00908650
0.09967744
-0.04790529
0.09307481
-0.09210669
0.00232108
-0.06015451
-0.02858552
-0.06767339
0.05046095
0.11691973
0.02460707
0.05445621
-0.04249581
-0.09921301
0.09409366
-0.07718569
-0.13087265
0.14722298
0.04365948
0.00935314
0.10614592
0.05444133
0.04714635
-0.02933693
0.11241213
-0.13144919
-0.12995267
-0.01770438
-0.08140712
0.01463815
-0.02914009
0.05737690
0.19987710
0.08587360
-0.00277670
0.07427439
0.02716362
-0.01383475
-0.07156441
-0.00242799
-0.09609725
0.13506101
-0.09861375
0.08996024
-0.02874657
-0.03874226
0.06609622
0.07178354
0.11266399
-0.08726218
0.06931973
0.07829822
-0.09955267
0.08347954
-0.07662721
0.02618968
-0.12437330
-0.01924640
-0.12702999
-0.00467945
0.07782778
0.11554375
-0.02232170
-0.06041348
0.00544719
-0.09832887
0.00126394
-0.06885695
0.14678624
-0.03920874
-0.10083292
-0.13932422
-0.02482926
-0.04034968
0.07685997
0.12078355
0.03806142
-0.08914591
0.01125590
-0.11075396
-0.03439372
-0.06674047
-0.08263487
0.01934449
0.00105657
0.17478122
-0.09907139
-0.05319181
-0.00214398
-0.11779995
0.02155864
0.12711017
-0.08155251
0.10702924
0.07974624
-0.09441247
0.10476684
-0.01547304
0.05785352
-0.01576004
-0.00525928
-0.02221955
-0.04774386
0.02921133
-0.03801514
0.16727355
-0.13131276
-0.07115592
0.00347602
-0.16811921
0.05038944
-0.04087264
-0.02279921
0.12339319
0.17362443
0.01015667
0.03411278
-0.13813907
0.10118361
-0.05950441
0.08345836
-0.15334365
0.01982629
-0.07865859
0.08100341
0.13649195
0.08950634
0.03313072
-0.09978168
-0.10721014
-0.00210358
-0.07056192
-0.06197359
-0.10827602
0.05022142
0.04050439
-0.09617338
-0.02241495
-0.00983207
-0.07785194
0.09990285
-0.03783808
0.10057663
0.18742178
-0.05399679
0.00646817
-0.13944936
-0.15685833
0.07219703
-0.07488025
-0.13688311
0.00305962
-0.03882080
-0.10578194
0.15399741
0.18185656
-0.08188512
-0.01717833
-0.03478251
-0.16678756
0.04041639
-0.11110296
-0.10179451
0.04174853
0.12449940
-0.01283914
-0.01880100
-0.04779049
-0.14193034
-0.03350405
0.05055027
0.10315382
-0.03062140
-0.09688038
0.07635170
0.09720143
-0.04607033
-0.01722097
0.00116223
0.03046090
-0.02715705
-0.08609568
0.09995245
-0.00427464
-0.00174430
-0.14949933
-0.04681404
0.04344076
0.14196923
0.01584129
-0.04162149
0.02455361
0.10610071
0.04114215
0.03273436
-0.05259089
-0.08567198
-0.13874868
-0.12248294
0.10637987
-0.15233310
-0.06645660
0.00844920
-0.07343490
0.00091027
0.03447423
0.00819596
-0.06781622
0.05294361
0.17128867
-0.06305901
-0.04252567
-0.14865854
0.10607799
-0.14607096
0.09345840
-0.03095306
0.11837403
0.16864510
0.14122108
-0.13825895
0.07800148
-0.11263809
-0.11665878
0.08036809
0.06951552
-0.05518864
0.03740043
-0.01510754
-0.08218329
-0.09167445
0.04231146
-0.08472382
-0.07134752
0.05259295
0.09765954
0.02982670
-0.11156286
-0.02432466
-0.05030469
0.13255662
0.13344741
-0.02561641
0.05275586
0.01459056
0.04331205
0.02085418
0.12618200
-0.00011076
0.02463977
0.07865904
0.11167759
0.00646205
0.06364694
-0.04623052
0.00258203
-0.09804349
0.08735812
0.04912590
0.15239723
-0.10096785
0.05584927
0.02535067
0.07936959
0.06314763
0.13779387
0.03524274
-0.00750372
-0.03094467
0.11663963
-0.08342686
0.03910417
0.09630939
-0.01046058
-0.05619784
-0.02814266
0.07230857
-0.06723925
-0.10025894
0.10648902
0.09401418
-0.01299613
-0.03829007
0.02219115
0.08867840
-0.08150595
-0.06652781
-0.01992334
-0.10381597
0.09750926
-0.02422782
-0.07509299
0.05916541
0.00547550
-0.11821461
0.12071746
-0.03652203
-0.07962710
0.11762515
-0.04674706
0.01713038
0.10314178
0.00266711
0.01161707
-0.10013536
-0.04447537
-0.05122806
-0.00801351
0.11571654
0.03099038
0.11918123
-0.07378210
-0.05860821
-0.08062401
0.07797266
0.07282484
0.00619778
-0.06147061
-0.02223969
0.05433445
-0.05273125
-0.11980869
-0.02394533
0.02951718
0.13400386
-0.15185313
0.07104145
-0.06810161
0.08984037
0.04056587
0.13664232
-0.09273876
0.05069423
0.13274650
0.01766298
0.05713812
-0.02353424
0.01692836
-0.04168567
-0.12923059
0.08191524
-0.08067904
-0.04134578
-0.06642760
-0.05253792
0.12636302
0.04297916
-0.06272256
0.03317032
-0.08090205
-0.08657801
0.01745356
-0.09079007
0.10189550
0.04190844
0.04066930
-0.06750981
-0.04324212
-0.12842336
0.01021151
-0.10975900
0.11623821
0.04485672
0.08057393
0.08544786
-0.08063793
-0.07904069
0.00065030
-0.01114082
-0.09302587
0.03950902
-0.08425863
0.00562445
-0.00304083
0.07581094
-0.13965113
0.12090212
0.08710133
-0.03318135
-0.12413485
0.08939300
-0.05366769
0.07198749
0.06377663
0.02100888
-0.05810124
-0.00541953
0.07881187
-0.06795830
-0.08637705
-0.03315387
0.01012795
0.03505507
-0.04867662
-0.02423295
0.08130383
-0.08283630
0.10459885
-0.03816293
0.03012778
-0.03799376
0.06017614
0.09098326
-0.07797821
0.01916522
-0.03300233
0.09610313
0.08438779
0.00049829
0.04625214
-0.02773371
-0.03301146
-0.02984288
0.04277894
0.07736507
-0.03270989
-0.03601535
-0.12789157
0.10820481
-0.12637699
-0.00536204
0.05742579
-0.03977581
-0.05785806
0.09186558
-0.02326130
0.07385310
-0.02045564
0.01932449
0.07333510
0.03967466
0.02243561
0.10490543
0.04189756
0.04848474
0.12804753
-0.04601138
0.20868437
0.09591375
-0.02042683
0.10798573
-0.00359260
-0.06801300
0.06645310
-0.09849285
-0.06040934
0.16593733
-0.03659856
0.11334280
0.12074330
-0.04185330
0.01821142
-0.01432570
-0.08599683
0.04219277
0.05114517
-0.15036139
0.15907890
-0.08384597
-0.10549054
-0.13526852
-0.08358289
-0.07802442
-0.01338383
0.16134802
-0.06393574
-0.10780828
-0.01088299
0.02364504
-0.03019802
0.10419448
-0.16956933
-0.17839158
-0.05000453
-0.10694187
-0.09058084
-0.11115207
0.08753332
0.10277473
-0.06460690
0.09193100
-0.17698807
0.07730319
0.07579396
0.09949546
0.02665175
0.10471287
-0.08506317
-0.04471223
0.00510948
0.01455118
-0.02643659
0.03245709
-0.09381004
-0.01888586
-0.07229217
0.00819021
-0.10376602
0.03513292
-0.09770743
-0.07297228
-0.09725058
0.01481922
0.14263292
-0.07941991
-0.08701666
-0.04315111
-0.18348490
0.19934636
0.06959307
-0.05264940
0.09386411
-0.09147959
-0.10763586
0.07802649
0.06378329
0.12032571
-0.01091045
-0.10510814
-0.07322908
-0.10768898
-0.02252266
-0.00728597
-0.07041079
0.11305487
-0.06089316
0.03371053
0.01770442
-0.05587971
0.00625951
0.11231208
-0.10251313
-0.09764199
-0.09282400
0.05135005
0.06667266
-0.00310970
0.05771579
-0.09043045
0.09957067
0.06961203
-0.09987698
-0.02933520
-0.03419051
0.00856518
-0.03838614
-0.04344938
0.06917437
-0.03769816
0.05834490
0.05174337
0.06485034
-0.02024116
-0.07826781
-0.02986035
0.05174657
0.19226080
0.03862664
-0.03402485
-0.04554519
-0.04323192
0.10554907
0.03106014
-0.05919163
0.04935620
-0.03063274
-0.01554481
0.05633140
-0.01566994
0.10300178
0.03265812
0.15926874
-0.15124665
0.00220616
-0.08604499
0.11121365
0.07785168
-0.11308899
-0.01213506
-0.03886767
0.00668247
0.02048414
0.04767590
-0.08953981
0.13583675
-0.07568040
-0.06094601
0.05467628
0.03781259
0.00294344
0.04645415
-0.02435769
0.06520084
0.01266146
-0.04197725
-0.01301715
0.05193536
-0.04945612
-0.06101489
0.01385569
-0.01041753
0.10320035
-0.02425436
-0.08222318
0.05753486
0.08509939
-0.10703711
-0.09033635
-0.04991036
-0.02223825
0.02433235
0.08018551
0.09699251
0.04371727
-0.08201227
0.06965668
0.05922014
-0.02997633
-0.06762464
0.08454827
0.02519028
-0.12793128
0.07092097
0.07851526
-0.00483006
-0.00737997
0.03853237
0.01809119
-0.07379525
0.12795262
-0.02775443
-0.14330904
0.07253020
0.02118421
0.08368522
0.06284846
0.04549624
-0.07860874
-0.01302842
0.02554031
0.05526491
-0.07009459
-0.11392905
0.04125940
-0.14491948
0.10195865
-0.08491834
-0.07633679
0.01123457
0.01647452
-0.09271351
-0.15452892
0.06738155
-0.11324266
-0.00329828
0.10677793
-0.02906955
-0.10407709
0.07143266
-0.09608582
-0.03929147
-0.10849637
-0.00641114
-0.10513802
0.04535701
-0.02579640
-0.00124594
-0.02935982
-0.04268528
0.07236504
0.00711750
0.08793198
-0.05847142
-0.05775665
0.04365812
0.14713067
0.12926766
-0.15635794
0.00759946
0.11304000
0.00696723
0.14194056
-0.15324079
-0.06569471
0.01843830
0.14446902
-0.00525593
0.05071469
-0.05147683
-0.06215811
0.04357797
0.06044855
0.06216619
-0.05959794
-0.09265856
-0.04295531
0.06431445
0.03710530
-0.08936004
0.02732382
0.04383614
0.11267446
-0.05684759
0.09584149
0.07507359
-0.03437604
0.07922497
0.09888291
-0.03626446
0.12389228
-0.09135192
0.00210438
-0.05741274
0.02312326
0.08652262
-0.05063506
0.13323548
0.12809141
0.09711217
0.03197547
0.09592421
-0.10250252
-0.12912570
0.00780548
0.07556906
0.18370897
-0.08446133
-0.03481330
0.12184390
-0.07820185
-0.07384173
-0.08876797
0.02357286
0.00046428
0.10480690
-0.00366708
0.09167276
-0.09469415
-0.10196467
-0.07975105
-0.04299878
-0.09920930
-0.01505716
0.14873776
0.00093867
0.04828728
-0.04381876
-0.03556992
-0.04514441
-0.06757957
-0.02859144
0.00072751
0.05945608
-0.08156946
-0.09097091
0.00041279
0.05836769
-0.08321558
0.01131876
0.05366057
-0.14097972
0.07087970
0.06053002
-0.06892470
0.05404642
-0.02327567
-0.08900876
-0.10212775
-0.09923425
0.02413789
0.08618782
0.02199459
0.09206948
-0.02498065
0.04915450
-0.00646318
-0.04376801
0.03275600
0.11364507
-0.12889355
-0.00706572
-0.07109241
0.07714208
0.05085626
0.00371120
-0.03672244
0.02247946
-0.06619706
0.04381302
-0.04967334
-0.11220276
-0.10258243
0.06215846
-0.11053783
-0.00029469
-0.07256184
-0.06528176
0.08913083
0.08953468
0.01343424
-0.13934818
0.12936027
-0.00686923
0.09411866
-0.06698834
-0.08123963
-0.08410475
0.04918685
0.05547424
0.04350051
0.12433002
0.06134784
-0.01189485
-0.00261601
-0.01305520
-0.02908975
-0.06749015
-0.00586865
0.06747196
0.07033301
0.05150469
-0.01082571
0.11990412
-0.08699383
0.04665394
0.03263186
-0.01976320
0.02314728
0.13533817
-0.08002031
-0.05773003
-0.06567368
0.01477752
-0.06023135
0.08530145
-0.04122050
-0.08851634
-0.01255541
0.07556361
0.02056778
-0.03660280
0.00727866
0.05774919
-0.08166595
-0.01528237
0.10301252
0.08517782
-0.09069505
0.05029422
0.06146103
0.13758880
0.10775512
0.01618937
-0.00123671
0.00503852
-0.12918493
-0.14342792
0.03871746
0.16494508
0.15665135
0.04849410
-0.11616420
0.11104683
-0.03975708
0.01962953
0.03443629
-0.02633717
0.03751759
-0.05798028
0.08416437
-0.03273306
0.15984729
-0.03886576
0.01147376
-0.04450491
-0.04312615
-0.04972097
0.00110061
-0.03030629
0.13451244
-0.06282967
0.00223961
-0.00763518
0.02432114
0.11499319
-0.05739027
-0.07497918
-0.05301359
0.11092959
0.04291119
0.07740294
-0.04067282
-0.09273506
0.04354325
0.07666641
0.03176888
0.03346995
-0.08437482
-0.09950514
0.07419757
-0.03917957
-0.06583344
0.02667761
-0.10869913
0.12713550
-0.01625924
-0.11602005
0.05285380
0.04972945
0.13984741
0.11691563
0.04034670
-0.21486796
0.12555833
-0.01859144
0.08009467
-0.08199003
-0.11915536
-0.13353398
0.02305218
0.12638530
-0.03209857
0.06865072
-0.04448241
0.08803625
-0.01329588
0.02962173
0.09402658
0.07880598
-0.11400275
0.03448501
-0.08538597
-0.00087876
-0.05508101
-0.12124778
0.05834261
-0.06779339
0.01736737
-0.06976081
-0.02957903
-0.01462456
0.01857615
-0.05134164
0.00608063
-0.04997998
0.00155679
0.12054224
0.07773038
0.10818156
-0.08180187
0.08470383
-0.09109565
0.00735692
-0.00976633
0.12190209
0.09414694
-0.08603394
0.07310132
0.11246068
-0.02615924
0.11383975
0.11239790
-0.09669481
-0.07404565
0.03730342
-0.16593710
-0.03192354
0.09864154
0.05278308
0.01206872
0.01712673
-0.02594796
-0.10547313
0.07111585
0.01067238
-0.04283169
-0.03068693
-0.07005289
0.02079969
0.12583351
0.03156801
-0.02330825
-0.13218597
0.00102867
-0.01239563
0.08520868
-0.00701957
0.08860335
-0.00031728
-0.06501703
0.10233353
0.00347873
-0.08304603
0.03528834
-0.06724559
-0.05855561
0.02856693
0.05297329
0.00568683
0.07934001
-0.06773609
0.09387162
0.02406459
0.00625069
-0.09602321
0.00381458
0.10796974
0.06233632
0.11289342
-0.00113197
-0.00528347
0.02028195
-0.09355538
0.15009792
-0.04647698
-0.09422464
0.10823023
-0.03755990
-0.06804306
0.17340846
-0.00403352
0.00592596
-0.14767027
0.01183621
-0.06592358
-0.05039430
-0.04736267
0.04735557
-0.01811645
-0.06201272
0.04650887
-0.02861903
0.10553923
0.04826542
-0.10476603
-0.01962249
0.05088779
0.08418403
-0.04767125
0.05006408
0.07941861
-0.08247528
0.02591436
-0.11625522
0.01415935
0.02000645
-0.05828888
-0.00508769
0.11402053
0.10972445
-0.10903779
0.14896102
-0.00471299
0.09047119
0.02431915
-0.01106137
0.14565349
-0.15765268
0.13334467
-0.03352643
-0.08163854
-0.10051857
-0.11475566
-0.11969242
-0.08967923
-0.00855776
-0.07740914
0.04405953
0.07003652
-0.10019977
-0.11959466
0.00701203
-0.08592563
0.05359453
0.04533863
0.02265735
-0.05070211
-0.16804633
0.04518063
-0.00134805
-0.05928426
0.06413204
-0.06209106
0.08074608
0.15499797
0.08964099
0.02866379
0.00865832
-0.10087930
0.03749046
-0.02551225
-0.12728213
0.08758875
0.14170517
0.06430819
-0.08832841
0.07309560
-0.15830532
0.15790866
0.10654009
-0.09922168
-0.00234825
0.10067838
0.05814855
0.17944136
-0.14164932
-0.13992390
0.13825320
-0.18999676
0.10038473
0.00679609
0.04143987
-0.08828507
-0.01285169
0.02992117
0.04204894
-0.09347752
0.18099752
-0.06993456
-0.10000093
-0.05372363
-0.05568525
0.13302130
0.11311461
-0.01737656
-0.08874243
0.15951204
0.05028957
-0.06898915
-0.06112928
0.10330289
-0.18495029
0.09454189
-0.06349763
0.01148021
0.04532913
-0.02106373
-0.07883837
-0.08858214
0.09822443
0.07369446
-0.02133329
-0.11669119
0.05176945
-0.09382086
-0.01524823
0.07884480
0.06129020
-0.03882409
0.00552584
0.09595445
-0.08884104
-0.08296861
-0.11469095
0.04120855
0.04791714
0.14387572
-0.05762095
0.01150510
-0.12007303
-0.07218484
-0.02936059
0.12864582
-0.19101956
0.09579906
-0.13172944
0.07104109
-0.08399171
0.09003830
0.05844537
-0.12571508
0.03248721
-0.01237822
0.09370391
0.03487383
-0.02734433
0.02543221
-0.02561246
-0.01643219
-0.03291504
-0.04590859
0.04744425
0.10623293
-0.06484779
0.09509792
0.08056434
-0.05319681
0.09549992
0.09833947
-0.03036743
-0.08412272
0.03244722
-0.02810249
-0.03241124
0.04442382
-0.09371710
-0.03398011
-0.10969952
0.00774372
-0.05122989
-0.10557529
-0.03174527
0.03718582
-0.01661765
0.13908812
0.10258558
0.01623752
-0.04905879
0.02282781
-0.07538228
0.09690718
-0.01349855
0.01613703
0.06621385
0.16875818
0.08218969
-0.03003121
-0.12655328
-0.06318725
0.03626706
0.08210980
-0.11626017
-0.02392062
0.02061723
0.08925463
-0.07835850
-0.04497875
-0.09389973
0.04364145
-0.01803069
0.03575746
-0.09318968
0.07582843
0.10179935
0.06986623
0.15236786
-0.11083532
0.16596088
-0.12225289
-0.10516582
0.06366009
-0.13590977
-0.22495696
0.04593565
-0.00709232
0.06000005
-0.09028130
0.03744821
-0.10325455
0.05542259
0.08818341
0.13998923
-0.09394249
-0.06237496
0.12848902
-0.06100018
0.07935900
-0.06579424
0.05945016
-0.09938083
-0.02643141
0.06951221
-0.02960339
-0.04264211
0.04389521
0.06414095
-0.10926607
0.03327436
-0.07775709
-0.07895698
-0.08809701
0.02686377
-0.03963755
-0.05327898
-0.00615203
0.02136699
-0.06961368
0.10742511
-0.04018212
-0.07228059
-0.06969064
0.06071579
-0.00260699
-0.02346258
-0.06635372
0.07248826
0.02413350
0.11326244
-0.03961879
0.08038493
-0.06261276
-0.15016505
0.14621146
-0.07808851
-0.05328280
0.06346090
-0.05813709
0.07825444
-0.02257940
-0.03859926
0.10551901
0.10991273
0.04730070
0.06974889
-0.06791439
0.07099383
0.01295346
-0.03422460
0.05474151
0.01746962
-0.09945392
0.08037934
0.08245008
0.14083733
0.10285525
-0.06148815
0.10249572
-0.18744189
0.06159007
0.06763222
0.02457151
0.01823511
-0.14001846
-0.11147088
0.07830873
-0.03487195
-0.05422863
0.05020249
-0.09984257
0.04996703
-0.06708954
-0.07634941
-0.02338039
0.01655681
-0.07219402
-0.07917611
0.03954524
-0.08717474
0.06487273
-0.11442912
0.01542474
0.03210334
0.16859613
-0.14113192
-0.10228088
-0.01732810
-0.01543456
0.05363198
0.03116562
-0.16180715
0.05395471
-0.12610547
0.09651478
0.05156120
0.10093591
0.07431693
-0.00196113
0.00793257
-0.04536478
-0.06566233
-0.02653928
-0.00161333
-0.05268197
-0.12716566
-0.07155372
0.11918547
-0.04499754
-0.03731729
0.08986946
0.04397283
0.08598983
-0.08393330
-0.08650672
0.07209867
0.04159762
0.08148848
-0.06244764
-0.08701171
-0.08058708
0.00737956
-0.10243634
0.04251926
-0.00013814
-0.10760333
-0.00514642
0.05563313
0.13298315
-0.15653719
-0.16074859
-0.06136315
0.07376327
-0.12220377
-0.01808184
0.04549424
-0.01204756
0.01230934
-0.00731782
0.03901416
-0.01023512
0.04847323
-0.07966270
0.00121855
-0.09862186
0.01647628
0.02458371
-0.05038429
-0.06068937
0.09557249
-0.04731853
-0.00671067
-0.09691506
0.00432330
-0.04128226
0.05042856
-0.01912686
0.02728546
-0.08430291
0.17205317
0.09734875
-0.06792982
0.00057532
-0.00718199
0.03323079
0.08345436
-0.03833264
0.09685592
-0.00704079
-0.01324748
-0.10807186
-0.01622833
-0.02108013
-0.10861790
0.04412897
0.08458205
0.11600567
-0.07190900
-0.06038679
0.07408533
-0.04026176
-0.14352165
0.08481879
0.01331402
0.07635816
-0.04547400
0.11404798
-0.09498732
0.08917125
-0.05928624
0.00413080
-0.04431619
0.05912633
-0.06627435
-0.06618293
-0.09117581
-0.07602298
0.05108292
0.07324949
-0.01256790
-0.05836216
-0.10580491
-0.01290925
-0.03886542
0.07042920
0.02507542
0.06298528
-0.04965598
0.05259984
-0.00565489
0.07636532
-0.09811397
0.08026231
-0.09148102
-0.09068539
-0.01302752
0.01959913
0.05718425
0.05126169
0.11606498
0.01502902
-0.07071901
0.04013197
0.16635600
0.14406672
-0.10961603
0.07886074
-0.05982535
0.10888058
0.00114821
-0.06027165
-0.13597135
0.06635150
-0.00613716
0.00500649
-0.10844399
0.06006857
-0.05100664
-0.19451408
0.12740161
-0.01802370
-0.02105984
-0.07118957
0.11722085
-0.05952740
0.10238606
-0.01235927
-0.02933285
-0.05208141
-0.10061549
-0.04078248
-0.15638436
-0.01177137
-0.03715221
0.03883190
0.07279057
0.01743116
-0.07939785
0.09791721
-0.03554477
0.03040355
0.02560906
0.04202086
-0.06549641
-0.05438801
-0.11679194
0.11196858
-0.01874732
0.04766268
0.03749875
-0.03605120
-0.10390289
-0.08257517
0.11292349
0.02228149
-0.10412072
-0.09404469
-0.13339417
-0.10842900
0.11598926
0.06997372
-0.00052741
-0.10057361
0.15658094
0.13555095
0.01468659
0.04054825
0.06955420
0.00256922
0.06375894
-0.10453861
-0.11897491
-0.02619496
0.02484038
0.10590450
0.04067049
-0.06250905
0.04153793
0.06072914
-0.10793380
0.06083879
0.03679800
-0.08052817
0.00831131
0.03123381
0.09880030
0.10068082
0.07456101
0.10512651
-0.02268802
0.00048444
-0.10080954
-0.09100666
-0.07737649
0.02594751
-0.04750698
-0.03996245
0.04995456
0.08266325
0.08041722
-0.00946860
0.07059471
0.06235809
-0.09909001
-0.03355078
-0.10293621
-0.09001277
-0.07265705
0.00650022
-0.10291622
0.12972957
0.03282335
-0.00476888
-0.11722641
-0.01898491
0.06321525
-0.02016108
-0.04525167
0.02715824
0.05276291
-0.03726069
-0.06189499
0.08011682
-0.01684926
0.04227632
-0.08762185
-0.00947618
-0.08163749
0.06073458
0.03801100
-0.02367295
0.00879350
0.08781422
0.09734199
-0.05389839
-0.09514412
0.13714786
-0.02571480
-0.13993193
0.11655685
0.09959491
-0.07600874
-0.06722545
-0.07280744
-0.05108666
0.09088875
0.09505831
-0.07839391
-0.07589196
0.01739383
-0.12204868
-0.05661578
-0.04473300
-0.04381439
0.03258161
0.02262096
-0.15714327
-0.09245276
0.06723042
0.01104116
-0.08431194
-0.08928197
0.03076017
-0.00159217
-0.02950719
-0.05661297
-0.06054885
-0.07126610
-0.10600091
-0.00524300
0.01370779
0.03003674
0.03924904
-0.02717664
-0.04975207
-0.03998103
-0.10700315
-0.00687350
-0.05489151
-0.07116379
-0.03146002
0.04937644
-0.05968512
0.03414115
0.10747376
-0.14766295
-0.10396763
-0.10269556
0.06726756
0.12729144
-0.03551308
-0.05730963
-0.03789107
0.11545078
-0.11379551
-0.05019703
0.13874279
-0.01639117
-0.06539051
0.05963695
-0.16180374
0.01519712
-0.03338547
-0.09242711
-0.05049542
-0.05985446
-0.04010007
-0.13651121
0.09507684
0.05242177
0.09302665
-0.01828090
-0.04708615
0.07773379
-0.01224084
-0.09840031
-0.01752512
0.05423156
0.02305875
-0.07905124
0.00238020
-0.10919432
0.03371134
-0.01399618
0.01912897
-0.07726584
-0.00996352
-0.03032076
-0.05465988
-0.04586007
-0.07172098
0.13970931
0.07250314
0.12585004
-0.01731758
0.14859700
0.07580828
0.02955099
-0.02685079
0.12233532
-0.04802829
0.04982089
-0.06792021
0.05485516
-0.13928625
-0.05194072
0.04258545
0.03413502
0.07398417
0.05092669
0.04759390
-0.07148318
0.00067085
0.01957287
-0.01656148
-0.01134082
0.01691053
0.06333863
-0.10908392
0.01530425
0.11491222
0.00773532
0.02732370
0.01881560
-0.02248977
-0.05706553
-0.03604263
0.07590804
0.10666732
0.09540797
-0.08494915
0.08846320
-0.01255793
-0.05462114
-0.28479382
-0.05128522
0.11631040
-0.10465018
0.02736665
0.05677427
0.05379950
-0.07925806
0.09335548
-0.04644087
0.14177176
-0.07517881
-0.13583541
0.02211511
0.07022791
-0.09250863
-0.07687368
0.06696381
-0.03989756
0.07824798
0.10834815
-0.10282503
0.05020981
0.15368469
0.07323489
-0.04614440
-0.00554162
-0.13199902
0.03630131
-0.04203241
0.07487538
0.08426291
0.08299065
0.04845489
0.10330327
0.07322539
0.03106928
0.11152693
-0.04112951
0.15347447
-0.13801047
0.02269222
0.02991165
0.09891013
0.03394909
-0.04763184
-0.13072708
-0.05410654
-0.12873276
0.20565347
0.10381773
0.09696611
-0.02886777
0.11319488
0.11174087
-0.05972097
-0.08794759
-0.09545117
-0.01118905
-0.11481341
-0.04317795
0.05335710
-0.00431163
-0.10505316
0.08495377
-0.02958524
-0.10227745
0.05861750
-0.00737295
0.07798613
0.09389969
0.07043395
-0.07443528
-0.10309896
-0.06825725
-0.04417487
0.01345606
0.11417041
0.11787461
-0.07885755
-0.10139029
0.07593462
-0.11553409
0.08262648
0.04411799
0.09434409
-0.08659939
0.10741687
-0.01758790
0.07439923
-0.01155935
0.04587944
-0.01291358
-0.01303256
0.05420147
0.01293774
-0.11569203
-0.01020996
0.04269294
0.00185810
0.04867654
0.03712777
-0.09605657
0.04390295
-0.10304851
0.12234965
0.12335421
-0.06803941
-0.11614554
-0.09445649
0.02262417
-0.10326210
-0.07963710
0.07933832
-0.12939136
0.07627328
0.08758592
0.01458047
0.06262042
-0.04550831
0.04101069
-0.04091598
0.10593877
0.02593553
0.01716454
0.01060518
0.05055210
-0.02440532
-0.07310802
0.03164750
-0.06477492
0.06132761
0.08847997
0.01531538
0.01031324
0.02485850
0.01459686
-0.01272042
0.12006086
-0.01558157
-0.00843652
0.03453210
0.03330470
-0.10471486
0.02512754
0.06064532
-0.01934320
0.10983075
0.02728088
-0.07793020
0.01540401
0.04847885
0.14076246
-0.10356514
0.13849650
-0.07813214
-0.05949384
-0.09154427
-0.00152655
-0.10617985
0.07462910
0.01444324
0.07650508
0.06848519
0.11607003
-0.09959675
0.10829530
-0.08292127
-0.05046494
0.08498038
0.04275557
-0.04662838
0.03771397
-0.04798727
0.03519465
0.00969887
0.11783412
-0.00727739
0.09431666
0.07750022
-0.01830084
0.05774157
-0.13152206
0.10827448
0.02362885
0.14331359
-0.11804248
-0.02736964
0.10758805
-0.07805356
-0.05162538
0.05685277
-0.11804465
-0.03315027
0.12898166
0.05165330
0.08753554
0.14746177
-0.03023590
0.06979797
-0.03255544
0.00407683
0.09885078
0.18301758
-0.01375819
-0.08702378
0.00653884
0.09061679
0.07117255
-0.03036824
-0.19810294
-0.03130852
-0.02187144
-0.10305451
0.00335360
0.12661870
-0.08717432
0.03568560
0.01714389
0.05260660
0.10723679
-0.09958459
-0.11964898
-0.04475743
0.09970316
0.01395889
0.03676513
-0.12480605
0.01586150
0.10091763
0.09386762
0.12562685
0.04941190
0.02776107
-0.15460028
-0.02732207
-0.04929015
0.10764211
-0.14273053
0.01197234
0.13750619
-0.05854291
0.02329638
0.06326317
-0.07467271
0.03630450
0.10781102
-0.12597126
-0.06007610
-0.05231125
0.00500611
0.11333545
0.07136912
-0.02121427
-0.10860436
-0.05804646
-0.00198405
0.06316664
0.02729250
0.08680478
0.05106164
0.05016088
-0.04312756
-0.08699010
0.10570750
-0.01218302
-0.02451982
-0.03858021
0.03785366
0.01717900
0.05585347
-0.12169693
-0.09276155
0.01675962
0.08531412
-0.04917700
0.09245548
0.10117058
-0.12202765
0.10402357
-0.08389285
-0.05813576
0.00096866
0.00794063
0.07477868
-0.10994191
-0.01741165
0.10097299
0.11628649
-0.11614442
0.00391179
0.00858550
0.10446592
-0.04685166
-0.07076348
-0.00946199
-0.04911027
-0.07047250
0.02472720
0.08305225
0.00070265
-0.02554473
0.07092971
-0.00403379
0.10830391
-0.08480779
0.14310579
0.11885442
-0.01925992
0.12217981
-0.08357839
-0.03356071
0.12351796
0.11550207
0.07499485
0.07851715
0.05880787
0.00119945
-0.06878913
-0.05601245
-0.12471280
-0.00708467
-0.01193432
0.02070404
0.18723498
-0.09345200
0.04558252
-0.11881536
-0.02813709
0.13733949
-0.09890176
0.10649106
0.16440605
0.08652250
0.06689219
0.10411519
-0.10337874
0.12356722
0.07371934
-0.18959013
-0.03170996
0.00760294
0.04637087
-0.15716572
-0.00470311
0.07230189
-0.12806626
0.01959048
0.02113109
-0.07697885
0.06360693
-0.06616124
-0.02032099
-0.05879048
-0.08586302
0.12144944
-0.10705671
-0.01706165
-0.00469452
-0.05338712
0.06529593
0.02979321
0.12201534
0.09653948
0.12424007
-0.10458276
0.02129024
-0.03318799
0.16078733
-0.00052397
-0.10431900
-0.10395823
0.07033128
-0.09117014
-0.08066185
-0.09389400
-0.08548187
-0.03435013
0.02054113
-0.00188120
0.07063843
0.06251544
-0.04470438
0.10887966
0.08667641
-0.09841204
0.07756113
0.10265497
0.00550951
-0.02639729
0.10513769
0.07703780
-0.06696452
0.12600145
0.08652171
0.07951804
-0.13634205
-0.18138041
-0.05526886
0.07409322
0.15515088
0.10112623
0.13869163
0.06000051
0.07976303
0.11079091
-0.15194517
0.07735833
-0.17000076
0.10264844
-0.09018032
-0.00822762
0.07271926
0.09818625
0.09932593
-0.00368084
0.07842145
-0.05716064
0.00441350
-0.05443759
-0.06156663
-0.01745848
0.12431618
-0.17907402
-0.00543274
-0.01921886
-0.14956056
-0.04046034
0.08686679
0.04934466
0.23148374
-0.08462491
-0.03656990
-0.06315462
-0.08761965
-0.08504729
-0.11190375
-0.04948893
0.03564673
0.08385833
0.10159534
-0.02108345
0.02496622
0.01287802
-0.15169953
-0.01557826
0.12515409
0.09690381
0.04715994
0.09936313
-0.05536732
0.06271263
-0.02668296
-0.12728736
-0.02321804
0.01019903
0.06969819
-0.01406633
0.03445552
0.03118107
-0.06999613
0.02019095
-0.10350314
0.00964197
0.04998792
-0.05808035
-0.08841973
-0.05566291
0.10130581
-0.02696144
0.09218153
0.10352271
-0.10950164
0.05357228
0.09630755
-0.06962734
-0.08947136
0.06158714
-0.05356522
-0.06085179
0.07025716
0.10425299
-0.02962237
-0.03255706
-0.07403917
0.00450216
0.05249789
-0.09894873
-0.04245513
0.01022031
0.08820498
0.07056971
-0.07534600
0.07079921
0.06262757
0.01904078
-0.08931104
0.08134927
-0.11140980
0.09784754
-0.03224396
0.08005435
-0.01074510
0.01785628
-0.06533588
-0.13204201
-0.03278226
-0.10569406
-0.01597473
-0.09371998
-0.01098043
0.06900419
-0.00755364
0.02444921
-0.10427230
0.09315551
0.10392376
-0.05457390
-0.09384359
-0.01132763
0.09330214
-0.15068290
-0.04442849
0.04405836
-0.00848353
-0.01920787
-0.03420369
-0.14581241
0.04100598
0.11929229
-0.03392255
