0.05875184
0.15155344
0.24678244
0.20124286
0.07287709
0.21001221
0.39482945
0.27090397
0.31245890
0.16088542
0.28457367
0.46753365
0.52944392
0.24699351
-0.04418297
0.29708573
0.43258277
0.18881597
0.04981455
0.11055761
0.08668095
0.20161778
-0.08879059
-0.07010068
-0.02046144
-0.06809688
-0.02541678
-0.15606362
-0.08434228
-0.12560436
-0.00104780
-0.17389087
-0.23989399
-0.12119839
-0.15358619
0.00055144
-0.15547846
-0.06302341
-0.04293500
-0.02422270
0.00270114
0.17428745
0.21039979
0.09865835
0.20023486
0.24175622
0.12391742
0.18819848
0.12672479
0.02387640
0.08530147
0.06147892
-0.09807835
-0.08273061
-0.13310587
0.09631848
-0.09481338
0.00203626
-0.03785852
-0.17385335
0.07869833
-0.08126531
-0.08089440
-0.15705068
-0.03760962
-0.02540968
0.03071874
-0.09491263
-0.15332858
-0.08215211
0.04519800
-0.15383753
-0.04258503
-0.19139858
0.05118184
0.00797619
0.13364981
0.16286846
0.16319568
0.03387215
-0.06393798
-0.07207072
-0.02632121
-0.04528080
-0.00649083
-0.15203747
-0.07417656
-0.18748556
-0.15041740
-0.22811970
-0.14879189
-0.07229084
-0.18939629
-0.15749404
-0.09547998
-0.06663770
-0.15172465
-0.03063792
0.07338308
0.04827984
0.09489445
-0.00739278
-0.03304008
-0.09678564
-0.09486824
0.18988837
0.20089103
0.18427888
-0.01177982
0.00577215
0.01019010
0.15126929
0.24675465
0.12275828
-0.09593095
-0.17960230
0.05468751
0.08798275
0.15101416
0.01651250
-0.15913087
-0.17116797
-0.03583592
0.17364547
0.20864300
-0.04487779
-0.09726474
-0.06204623
0.04434191
0.02346054
0.07410445
-0.04095363
-0.10292562
-0.10408799
-0.00285429
0.10860432
-0.06929535
0.04867283
-0.03137247
-0.05636116
0.07852221
-0.09239122
-0.02973925
0.04685955
0.02931798
0.04475269
0.03682075
-0.08963510
-0.09116759
-0.05906833
0.03125947
-0.06095888
-0.11060677
-0.17219928
-0.09818956
0.10986520
-0.09167298
-0.10776472
-0.14939794
-0.01763693
0.15541966
-0.09275414
-0.21646388
-0.15876614
-0.14533877
0.21787609
0.05947919
-0.02256812
0.03453729
-0.00417150
0.21312775
0.25498265
0.27698007
0.24177040
0.15139352
0.06984958
-0.04332865
0.02551679
0.20648508
0.12829196
-0.10669629
0.01855982
-0.11309355
0.17818768
0.00846887
-0.02320220
0.04464551
-0.12271661
-0.00012137
0.09567913
-0.07636202
-0.06705631
-0.10662103
0.06322537
0.07295749
0.05270950
-0.03192054
-0.03476575
-0.10634309
0.03807371
-0.03405457
0.18629034
0.15444805
-0.13175288
-0.18969733
0.15936156
0.22911680
0.05375560
-0.04604052
-0.24877211
0.26889491
0.27173743
0.14230980
-0.00758947
-0.22674340
0.25774163
0.36976674
0.30538502
0.04641749
-0.05051160
0.06663468
0.22840062
0.21550049
0.25345987
0.09083966
-0.03818243
-0.09729081
-0.07058946
-0.13578013
-0.19698645
0.11893927
0.18850355
0.03219836
0.05626366
0.03467488
0.13648568
0.46790555
0.66444856
0.59749144
0.23658094
0.27930015
0.55408788
0.75880295
0.70325422
0.48641646
0.01064114
0.21356234
0.04235695
0.30216271
0.31427085
-0.07049598
0.00170254
-0.02714824
-0.10672822
0.08307648
0.07155695
0.01131770
0.06432319
-0.02953355
0.07829257
-0.08069576
0.07225247
0.08931315
-0.01082404
-0.02926813
0.07010175
0.03064748
-0.06883556
-0.08101877
-0.03960225
0.01146889
-0.01531458
0.10089553
0.09686771
0.01281166
0.07076126
0.13832428
-0.02199112
-0.20725091
-0.20543729
0.05466644
0.06653468
0.05144282
-0.21294025
-0.21050997
0.13790265
0.23144637
0.06187763
-0.06084272
-0.06744682
0.07892869
0.06040457
0.03981300
-0.08164589
0.07578583
-0.05359523
0.18080112
0.12125902
0.07629478
0.09968270
-0.08607715
0.06237778
0.04645159
-0.05623175
0.02372807
-0.10390910
0.09334951
-0.08638948
0.10728829
0.09453788
-0.02509350
-0.04565285
-0.06735718
-0.01356061
0.02397051
-0.00507755
-0.03442379
-0.00787706
-0.08594710
0.08319358
-0.03028103
0.09980661
0.06564113
0.07083473
0.03836593
0.11443280
0.24112429
-0.03095730
-0.18798414
-0.16429999
0.27657729
0.19826044
-0.12184546
-0.21207871
-0.19904065
0.29460070
0.00380998
-0.11461818
-0.21655647
-0.06771615
0.18799455
0.10175826
-0.17591800
-0.16160285
-0.10187334
0.10478489
0.08737174
-0.07291118
-0.13158184
0.03568609
-0.00854401
-0.00421262
0.00007554
0.04444383
-0.07535332
0.03805318
-0.01947560
-0.01792770
0.05934986
0.01026699
0.00869026
0.02166408
-0.10493043
0.03565782
0.01561021
0.04504426
-0.06655379
-0.10324484
0.07677744
0.00229556
-0.05299890
0.07235190
-0.06998160
-0.07121447
-0.00254388
0.14671038
0.16768607
0.24378647
0.25265864
0.24458417
0.04589450
0.07843014
-0.03735117
-0.05798627
0.01381051
-0.18392803
-0.09450991
-0.04672294
-0.01566654
-0.04342901
-0.21982072
-0.13212548
-0.13914725
-0.23274016
-0.13245139
-0.07786897
-0.16254231
-0.14877674
-0.03289716
0.01945908
0.05585916
0.00787070
0.06153734
0.21726899
0.11522786
0.12476926
0.30054462
0.25412548
0.28838784
0.18953560
-0.09480577
0.00244110
-0.05947816
0.04879843
0.16565771
-0.05320077
-0.18086560
-0.28978971
-0.27710906
-0.09160663
-0.16144671
-0.24970374
-0.14359179
-0.21979877
-0.09566113
0.01810967
-0.05693789
0.10526104
-0.10304511
0.09164301
0.01985147
0.00813188
-0.06236679
-0.09941943
0.00112035
-0.05977501
-0.06689392
-0.02519980
-0.05717261
0.04599861
0.04752631
-0.02035563
0.07119992
-0.01144195
0.05373693
0.06010952
0.09280210
-0.02760393
-0.09392029
-0.06043910
-0.00526752
-0.07810703
0.05575824
0.03958467
0.03611052
-0.07913603
0.09958430
-0.02676413
-0.02489892
-0.09354522
-0.04735067
-0.05590720
0.02463348
-0.05299309
-0.07382847
-0.04929883
0.07506413
0.00576571
-0.02166096
-0.10227258
-0.00108153
-0.01018956
0.03833434
0.09002919
-0.10038786
-0.03945700
-0.05378787
-0.04825195
0.05595794
0.03779856
-0.18107408
-0.06048317
-0.03092114
0.29294550
0.40652809
-0.11201042
0.07603711
0.07256018
0.23873253
0.38115561
0.07164757
0.08011740
0.15523183
0.12502751
0.16821982
-0.02784989
-0.09998751
0.01848446
0.01956325
0.10168558
