-0.06713679
-0.06587545
0.07013699
0.07010455
0.05971937
-0.04746285
-0.01771883
-0.04262589
-0.00883067
0.02367091
-0.07545497
-0.03409304
-0.12767737
-0.04803711
0.03040663
0.02103687
0.05682777
-0.02659979
-0.05645837
-0.05911776
0.02062943
0.03583743
0.06389501
-0.00800785
-0.04091456
0.00197362
0.02267175
0.02934940
0.02828979
-0.01291237
-0.03887995
-0.04226192
0.01071862
-0.00664605
-0.03934332
-0.02532841
0.07336232
0.01414435
-0.03338044
-0.02909509
-0.02754801
0.04215302
-0.01289928
0.07231658
0.02016502
0.00014108
0.03049176
-0.06605902
-0.04525425
0.01162672
-0.03288266
0.04557844
-0.04395624
-0.01299654
0.01451277
-0.02036056
0.02007587
-0.02724482
-0.03440774
0.03145964
0.02960894
0.02135119
-0.02826572
0.01575438
0.02591900
0.00698970
0.00152542
0.03623012
0.04838040
-0.01499615
-0.02489043
0.03509998
-0.02694936
0.01026399
0.06076435
0.02378015
0.00591566
-0.03528624
-0.04124663
-0.03082714
-0.02175670
0.00400776
0.06017525
-0.01760562
0.01508015
0.03713402
-0.00167026
0.00238319
0.05126573
-0.04309480
0.04932285
0.01932285
0.05436426
0.03425175
-0.01836730
-0.02601727
-0.03602506
-0.04124203
0.00520279
0.04164367
-0.01763063
0.03555264
0.05977838
0.05649380
-0.05704206
0.00981350
0.01793159
0.03359187
0.05975918
0.05008416
-0.03377431
-0.04869198
-0.01712411
-0.00268258
-0.00401263
0.03446436
0.07171471
-0.02732971
-0.02380168
-0.00831966
-0.05569825
0.01964412
0.01643285
-0.03389259
-0.04499125
0.04956152
0.02031230
0.02772895
0.04590099
0.04169593
-0.01417571
0.03054629
-0.01766938
-0.03454672
-0.03444627
-0.01522507
0.04023725
0.04502347
-0.03603347
0.03798983
0.04918339
0.02272656
-0.03417149
-0.01203001
0.03852852
0.02886296
0.01619553
0.02251973
0.01684689
0.03539855
-0.03043632
0.02742246
0.04727529
-0.03695808
-0.02668331
-0.04306939
0.02229368
-0.02559563
0.01539593
-0.03374925
0.03464620
-0.02596046
0.07288245
-0.03637311
-0.06284097
0.00882180
0.00995102
-0.02022207
-0.03209358
-0.04896461
0.04516537
-0.00046007
-0.01267652
-0.00317659
-0.01112889
0.05386025
0.01149314
-0.04714426
0.02513617
0.02751988
0.01331241
0.03783081
0.01830208
0.02583531
-0.01259864
0.04029031
0.04622038
0.05951669
0.04631933
-0.02628222
0.05504834
-0.05450568
-0.02023663
-0.01931336
-0.05630023
-0.00793787
0.05264656
-0.01780348
-0.03497367
-0.04212922
0.03070154
-0.00370319
0.05242043
0.10827358
-0.00920654
-0.01865635
0.02232354
-0.10502806
-0.00377032
0.03922287
0.04883392
-0.02405585
0.01718216
-0.09657194
-0.05194041
-0.04865192
-0.03560642
0.01579937
0.01837963
-0.00077552
0.01579813
-0.05097267
-0.02178474
0.01563335
-0.02476748
-0.02925787
-0.01835842
0.08636063
0.13153797
0.00677710
-0.09396464
-0.15614957
-0.13072526
-0.01040324
0.08940518
0.01355052
-0.00681735
-0.00133153
-0.09514467
-0.07418405
0.09678448
0.06701914
0.09482069
-0.03011984
-0.05127592
0.01978385
-0.03473818
-0.03234641
0.04478280
0.00199040
0.00374497
0.03992045
0.00417977
0.00404661
0.03035903
-0.00168491
0.01218249
0.04223650
-0.01128438
0.05035406
0.02857913
-0.04169815
-0.01816396
0.02999094
0.03331190
-0.04221521
0.04902659
0.02145931
-0.01499894
0.00721086
-0.00973629
0.02010335
-0.02476570
0.01161357
-0.04933596
-0.05425620
-0.01922379
0.00755538
0.02163427
0.05433838
0.02154981
-0.05175972
0.02089771
0.00780354
-0.05056761
-0.03160327
0.03336569
-0.00915165
-0.08061123
-0.00480202
-0.03207660
0.03112673
0.02305345
0.01870516
0.02359093
0.00876413
-0.02710190
0.00182695
0.04421825
-0.00716240
0.02513509
-0.01315388
-0.01031830
-0.01119302
0.00586181
0.02970223
-0.00435203
0.04360721
-0.03674617
0.00328771
0.04932193
-0.04132136
-0.05713604
-0.01411969
0.05381137
0.01523964
-0.04066869
-0.00080151
0.03269597
0.00223637
0.05365247
-0.00381240
-0.04322640
0.04089832
-0.03124897
0.01233144
-0.01715851
-0.00801008
-0.02183656
-0.04346376
-0.00574306
0.00920436
0.02107349
-0.03685075
-0.05045369
0.04612255
-0.04913772
0.02931759
-0.05624133
-0.06272139
0.00252022
-0.03012477
0.05400098
0.03238614
-0.01791148
0.03940503
-0.01189954
0.02330232
-0.00770191
0.01525371
0.02034349
0.01333646
-0.04525015
-0.05525192
-0.01600596
-0.01953095
-0.03994482
-0.05597599
0.00323814
-0.04540588
-0.01685247
-0.01641516
-0.01836592
0.02762244
-0.05246731
-0.05421754
-0.01863921
0.03507668
-0.01464851
0.05319689
-0.01315465
-0.02893948
0.03514250
-0.05433417
0.05536424
-0.01122788
-0.00853245
0.04084088
0.00755259
0.01301130
0.03411603
0.01960048
0.07157274
-0.01028155
0.00830302
-0.03218632
0.03020307
0.06570890
-0.02885738
0.04054018
-0.01908145
0.01233503
-0.05378305
0.04953801
0.01999182
-0.02055541
-0.02790788
0.03905902
0.04567867
0.01722351
0.00466490
-0.00124858
-0.03596834
-0.04320104
0.02902169
0.02816625
0.00147736
0.09647554
0.09054171
0.07919704
-0.00758048
-0.01044493
-0.02797866
-0.00442993
-0.01284698
-0.01891355
-0.03914569
-0.01452040
0.00689538
-0.01578039
0.01025856
0.02728481
0.05814434
0.01672619
0.03745747
-0.00684752
0.01441799
0.02874685
0.01528774
0.03046478
-0.00264730
-0.02113765
0.03219793
-0.03677642
0.03207692
0.00595517
-0.03647712
-0.04433024
0.02374365
0.02622921
-0.01404310
0.00166320
-0.05704031
-0.02399319
-0.05284906
-0.01945383
0.02950640
-0.00667742
0.03863628
0.05230180
-0.00887195
-0.02587074
-0.01690751
0.05682715
0.02536422
-0.02354357
-0.02252154
-0.05114719
0.01432760
0.04391329
0.00207745
-0.04876395
0.05233989
-0.02400699
0.03980919
-0.00647053
-0.00156028
0.02280264
-0.02856676
0.02161595
-0.05793624
0.03919759
0.05443680
0.01265708
-0.05562739
-0.02521076
-0.05149809
0.08194440
-0.05472242
-0.02131390
0.00741074
-0.07027270
0.05458252
0.04412669
-0.03318628
-0.04607935
-0.08318301
-0.04359834
0.01577079
0.02840110
0.01257696
0.00823287
-0.01542875
-0.03041436
-0.00974950
-0.01791825
0.02847814
-0.00393215
0.03701461
-0.00015962
-0.07577550
-0.01094797
-0.01550890
-0.00286885
0.02158078
-0.05217684
0.00898160
0.00860744
0.03985247
-0.05979853
-0.06909189
-0.02523361
-0.01267516
-0.06054556
-0.00876043
0.07131015
0.06927871
-0.02928841
0.01069144
0.03774017
0.04283392
0.07260127
0.03410784
-0.03668256
-0.03955044
0.00357288
0.04433661
-0.01986429
-0.00844964
-0.01668846
0.02375964
0.02448374
-0.03222992
-0.00465828
-0.02032356
0.00673700
0.00729185
-0.01333678
-0.00206094
0.02892373
0.01796594
-0.00782878
0.07331403
-0.01504379
0.01770923
0.03356156
0.03237278
0.00953501
0.05440611
0.06823255
0.02470439
0.00977360
0.04595901
-0.00034383
-0.00945096
0.03476557
0.01394322
-0.00093367
-0.04332573
-0.06018487
0.04169148
0.00300414
-0.02513582
0.05167235
-0.06333806
-0.02405586
0.05038245
-0.06352993
0.03449451
0.05325379
-0.04033032
0.02960159
-0.01164166
0.04445714
0.00382031
0.06643819
-0.00110482
-0.01908612
-0.04542315
0.00735553
0.01637023
0.03059629
0.03857390
0.01044042
0.00927733
0.03271195
0.04850011
-0.02353554
0.05287472
-0.05403453
0.04287968
0.05333298
0.02767595
0.02668734
-0.00458280
-0.05401178
-0.01707081
0.03882858
-0.00353305
-0.01727435
-0.01219016
-0.03397547
-0.03374040
0.03955398
-0.00591723
0.00004449
0.03121702
-0.00339758
0.05902450
-0.02558815
-0.00273604
-0.00510379
0.05668432
0.01199773
0.01859074
0.04689923
-0.00668243
0.01043861
0.00222632
0.00790904
-0.04717516
-0.02107683
0.02430779
0.01428000
-0.00750463
0.02122225
-0.03520152
0.01214747
-0.05145833
0.05486881
0.04523963
-0.00834486
-0.02857734
-0.02900730
-0.04289208
-0.00216053
0.04487947
-0.04909883
0.05400647
-0.00071086
0.05599074
0.04256732
-0.04058464
-0.00868397
-0.01542964
0.04982478
0.02132958
-0.03883796
-0.00634547
-0.02060422
-0.04606136
0.03587494
-0.00191519
0.02288599
-0.02259952
0.05938425
0.03746377
-0.01906705
0.04092555
-0.02912544
0.05461404
-0.01625977
0.04299013
-0.01719990
-0.00534172
0.02022563
0.04822209
0.03422200
0.04644772
0.03237384
-0.03235845
-0.00655011
-0.05698736
-0.01948919
0.00032573
0.01148540
0.00618905
-0.04506533
-0.04700094
-0.03585088
0.02705766
-0.05532182
-0.04483753
-0.02049005
0.02124507
-0.04103351
0.05762152
0.00642709
0.04430186
0.04432951
0.03648243
-0.05220128
0.05696371
0.05492324
-0.03445640
-0.01896857
0.04256951
-0.00012060
-0.03556633
-0.06141923
-0.02471633
-0.00653966
-0.00347655
-0.00980196
-0.00229726
0.01092850
0.04624347
-0.03076282
-0.03009176
0.02666197
-0.02190450
0.03436683
0.01521676
0.00531624
-0.02600941
-0.02130167
0.01900916
-0.00729348
-0.02181393
0.03660714
-0.00191911
0.00373868
-0.05093685
0.01559822
-0.05593093
-0.09405580
-0.08161435
0.03484730
0.00403409
-0.02032337
-0.07837888
0.06108996
0.01942398
0.03429842
0.04245767
-0.03616956
0.04602907
-0.00162050
-0.00688458
0.04082264
0.04559001
-0.04393539
0.01550434
0.01601725
-0.06147388
-0.00328301
0.02305308
-0.01792940
-0.07452700
-0.04813189
0.04959777
0.03211217
0.02942099
-0.02694702
0.02271669
0.03914100
-0.04040321
-0.03151271
-0.03231115
-0.02560004
0.04897613
0.02289973
-0.00233365
0.04571659
0.05113890
0.03204452
0.00245563
-0.02093200
-0.03516561
0.02881089
-0.01687719
0.03718240
-0.03624881
-0.04191329
-0.05116847
0.05613685
0.04879213
0.01948525
-0.01925100
-0.02579563
0.03618426
-0.05684793
0.00370259
-0.03534803
-0.03040273
-0.05044389
0.00159128
-0.01292702
0.04335487
-0.02115052
0.04529266
0.00425394
0.00324512
0.01752961
0.03880718
-0.03333411
0.06486095
-0.01731103
-0.02944648
0.05469179
-0.05454504
0.03115259
0.01801882
-0.03957175
0.05094773
0.01734948
-0.03933452
-0.01772283
0.02235566
-0.03272815
-0.01872960
0.03263129
0.02081743
-0.01878717
0.03135476
0.02590889
-0.05569573
-0.04414234
0.01458680
-0.02367830
-0.03790291
-0.03902386
-0.03655837
0.03706804
0.02967377
0.05435504
-0.02428153
0.04261780
-0.04648280
0.02181795
-0.00058800
0.05483982
0.03103177
-0.03290287
-0.00438735
-0.01052304
-0.04921781
0.00500180
-0.01599888
0.01309508
-0.00476146
-0.03727688
-0.01537386
0.01991893
0.03559381
-0.00375474
-0.00393530
-0.01864946
-0.04954050
-0.01132442
-0.04561298
-0.00085899
-0.02559409
0.05020546
0.00444854
-0.00392184
0.02554629
0.04955702
0.00160999
-0.01112394
-0.04991638
0.02482612
-0.01215153
0.01929101
0.04704628
0.04836819
0.01530687
0.04650707
-0.01089606
-0.05361367
0.04048792
0.01913357
-0.03909838
0.00473969
0.04489461
0.04274508
0.04216560
0.03154035
-0.00398699
0.01056836
-0.00201809
0.02979893
0.02414731
0.02475791
0.01954976
-0.01828424
-0.04423628
0.04893377
0.06030800
-0.02006566
-0.05799130
-0.04065730
0.04723248
0.06807268
0.06055522
-0.05849434
-0.02985119
-0.03440424
0.05566875
0.03059448
-0.01062022
-0.07569760
-0.05046546
0.04863438
0.01381113
0.00845268
-0.05174600
-0.01114181
-0.01685346
0.05405034
0.03668392
0.02268556
0.08416692
0.05630786
-0.03915766
-0.03961911
0.02041142
-0.03336309
-0.03648903
-0.00152194
0.05062695
0.01047515
0.01111849
-0.05014282
0.02931361
-0.04996810
-0.05458001
-0.02478126
-0.03736944
0.02454528
0.00098398
0.04324586
-0.05551546
0.05677737
0.01516817
-0.00436547
-0.02012579
-0.04387703
-0.05123093
0.00633701
-0.03121265
-0.02382221
-0.05739601
0.00285784
-0.02654451
-0.02279216
-0.03547239
0.04831482
0.02781313
-0.04607569
0.05805055
-0.05846948
-0.02911695
0.00848040
0.02998313
-0.00429705
0.00601222
-0.05409356
0.00035376
-0.04935428
-0.00859430
-0.03898739
-0.03743744
0.00536234
-0.03659785
-0.01049297
0.04250525
-0.03906033
-0.03525205
0.00147374
0.03041469
0.00211629
0.01219306
0.00723534
0.00899816
-0.00524084
-0.03532502
0.04580914
0.00016040
0.05315151
-0.00296916
0.03622743
-0.01116428
0.04247024
-0.06105119
-0.03516739
0.04894018
-0.05589110
0.03612576
0.01015428
-0.01356579
0.03164049
-0.04773008
0.04092451
0.00194371
0.03420833
0.04721674
0.02060236
0.01392604
0.01091079
0.01921403
0.04403031
0.00394686
0.06010837
-0.01657076
-0.06133200
0.03407364
-0.03261850
-0.05432110
0.09874588
-0.07472067
-0.02410523
-0.04709563
0.05757221
0.07474819
-0.01858521
0.00474504
0.06852171
-0.00572381
-0.01468300
0.02060906
-0.00243284
-0.08441203
-0.01333193
-0.06881093
0.02711598
0.01180969
0.01567393
-0.05833741
-0.05859764
-0.01533288
0.01905464
0.03734267
-0.00571622
0.00462333
0.03260316
0.05820510
0.01841270
-0.02289128
-0.07258868
-0.03713116
-0.01276664
0.05416168
0.04028220
0.00566600
0.04143265
-0.04427104
-0.02677828
-0.00394912
-0.00824374
0.01041820
-0.00648017
-0.05955840
-0.06137330
-0.02476964
0.04260094
0.03217289
-0.00216501
-0.02010813
0.04452150
-0.02315735
0.04208247
0.00231837
0.01763594
-0.00776686
0.00492981
0.00500405
-0.01244862
0.01105380
-0.00045139
-0.04170021
-0.04039721
0.02117709
0.03127885
0.00882769
-0.00469689
-0.04844415
-0.05378981
-0.03036403
0.00905714
-0.01352871
0.03425683
0.01698588
-0.02787791
-0.02200912
-0.00561716
0.04388096
0.03826551
-0.03775856
-0.05881355
0.02940998
-0.04977372
-0.01899880
-0.00171168
0.03755125
0.03853896
0.06770145
0.01923715
0.03362832
0.00110870
-0.03671541
-0.02844646
0.03718684
0.02657578
0.05643950
-0.01913176
0.04284232
-0.05323052
0.04723517
-0.00113159
-0.02299519
-0.05184866
-0.01042282
0.05021898
0.03048933
-0.05541988
0.01524648
-0.05184230
0.01809922
-0.02733349
-0.04914266
0.03457189
-0.03828831
-0.04491848
0.02529078
0.02699469
0.03621726
0.05329067
-0.00539735
0.04033638
0.03487447
-0.00502965
0.00277801
-0.03226913
0.00864528
-0.02088093
-0.03724688
-0.00400655
-0.04267364
-0.00719078
-0.04630646
0.04161848
-0.05467354
0.00371189
0.01566020
-0.00031335
-0.05622411
0.00267539
0.05629958
-0.01063691
-0.05523171
0.01913267
0.02276260
0.01750370
-0.02591593
-0.00932435
0.01265891
-0.04963281
-0.05308365
-0.04363878
-0.05604840
0.01539579
0.03041746
-0.00835411
-0.06229913
-0.04148021
-0.05702832
-0.01871254
-0.05434017
0.00111679
-0.03938926
-0.03128378
-0.04921389
-0.02969524
0.04952677
-0.00065517
-0.01541950
0.00784514
-0.03060163
-0.05005541
-0.02522632
0.01283881
-0.04728067
-0.04366161
0.05657757
0.04061354
-0.01615376
-0.01147023
-0.04975704
-0.00783637
-0.05319000
-0.01617419
-0.02154140
-0.00903997
0.02272653
0.02879339
0.00132136
-0.05859601
0.01451971
0.01123424
-0.00552810
-0.00225394
-0.00855457
-0.02694492
0.00595880
-0.01779812
0.03064388
-0.02877347
0.00946956
0.00470561
-0.00722856
0.03634829
0.04734528
-0.07055450
-0.02128216
0.00436346
0.00730312
-0.01117452
-0.04655381
-0.03736594
0.00899867
0.00325503
-0.03957558
-0.04152135
-0.02888140
-0.03483675
-0.02187188
0.04859996
0.03355097
0.08195951
0.02005613
-0.05158094
-0.02119072
-0.00057599
0.04552563
-0.06933834
0.04004771
0.07978899
0.03101363
-0.01116697
-0.01056564
0.05732608
-0.01232295
-0.11801910
-0.01361856
-0.03936945
0.00767283
0.00262214
-0.00189031
0.00533168
-0.00261756
-0.02176660
0.03683357
-0.01094600
-0.04310974
-0.01391448
0.00946682
-0.05780152
0.00249853
0.04664583
-0.03584040
0.05596072
0.04900545
-0.02073216
-0.04722099
-0.02723949
-0.00013392
-0.02280722
-0.04872947
0.00821013
0.04848994
0.00770038
-0.02398393
-0.01163939
-0.05467001
0.00745123
-0.03512386
0.04479782
-0.01459709
0.04738332
0.04781631
-0.04573690
-0.04074788
-0.06854942
-0.05463104
-0.03021810
-0.05132189
0.03131605
-0.05447981
0.04373459
-0.04141610
0.01160703
0.03442276
-0.03287753
0.00426732
0.00822688
-0.02890922
-0.03522009
0.02555496
0.00586123
0.02845867
-0.02072200
-0.00180800
-0.05187298
-0.01814730
0.03895576
-0.01122456
0.05565599
-0.00716625
-0.00040895
0.03078257
0.03867904
0.01878012
0.03406566
0.01079799
0.02073929
-0.05764155
0.01132388
-0.01472502
-0.04854075
-0.01133657
0.01061002
0.02960202
0.03735510
0.01188680
-0.03139254
0.03881952
-0.06994402
0.00821282
0.01166466
-0.05102686
0.02593783
-0.00188684
-0.04964574
-0.03668704
0.01374559
-0.05251902
-0.04386072
-0.00174341
-0.06511704
0.02198917
-0.04894013
0.02538760
0.02955578
-0.02291590
0.03804211
-0.04327768
-0.00024345
-0.02668411
-0.03980853
0.04666562
-0.02372438
0.01587064
0.05760472
-0.04747836
0.03860367
0.00899064
0.02232502
-0.00210403
-0.02002819
0.01400724
-0.00109603
-0.02076648
0.00291932
0.01419591
0.04467550
-0.00112223
-0.00247908
-0.04061877
-0.02593793
0.03044019
0.00421910
-0.03272954
0.03191872
-0.03703539
0.02409439
0.03467379
0.03026408
0.00932466
-0.05071771
0.02244074
0.01713653
0.03242803
-0.02131222
0.01606067
0.05203823
0.05450936
-0.01857310
-0.04066144
-0.04155014
0.01218566
-0.00623238
0.03510080
0.06973864
-0.00723147
-0.01982461
-0.00092452
0.04840250
0.01687606
0.01177099
-0.05038893
-0.04955554
-0.01162200
-0.03412503
-0.02762820
-0.02862918
-0.05065799
0.02599346
0.01380871
-0.06007795
0.04107999
-0.04181008
0.04556207
0.04425113
-0.00976993
-0.02889877
0.00328102
0.03782186
0.01751194
-0.03291683
0.04725142
-0.00599910
-0.00131875
-0.03206570
-0.05456322
-0.02177011
-0.01509374
-0.01230315
-0.00962670
0.00821341
0.02930595
-0.01012019
0.05026413
-0.03567582
0.02419921
-0.04196327
0.05826723
-0.02642747
0.01413614
-0.04721088
0.05447896
0.05304745
0.00405444
0.02811093
0.03432585
-0.05095408
-0.02138471
-0.03385077
-0.03787166
0.04186710
-0.01190383
-0.02802777
0.03871408
-0.01213094
0.04533292
-0.04581968
0.02144047
-0.04935871
0.03155999
-0.00255819
-0.02242868
-0.01706394
0.00468226
-0.05576428
-0.05518649
-0.00943972
-0.00841114
-0.00143770
-0.02095882
-0.03216984
0.03858225
0.02866490
0.01187530
0.05216761
0.00216404
-0.05616321
-0.01746247
0.01549282
0.06167552
0.04776210
-0.02584072
0.03001017
-0.05198332
0.05174464
0.05807053
-0.05080686
-0.04516912
-0.03418244
0.07526968
-0.02239185
-0.02606656
-0.00531569
0.00763002
0.00037308
0.01148007
-0.04594233
-0.02218036
-0.05211184
-0.01151804
0.00594369
0.00762039
-0.04407974
-0.06089042
-0.10228068
0.04736727
0.02330632
-0.00475262
-0.01148600
0.09780926
0.06490343
-0.03252440
-0.01200489
0.12265583
0.05085953
-0.02723875
-0.04689034
-0.04778844
-0.11429637
-0.06714757
-0.08270436
-0.03676182
-0.00581134
-0.08198359
-0.03686534
-0.05179066
0.02565493
0.02085770
-0.01920787
0.03667765
0.02291092
-0.02086700
0.02255869
0.06397341
0.08277349
0.01316792
0.03724210
-0.05615197
0.04007721
-0.04861464
0.00512868
0.01964030
0.04754774
0.00421860
0.04415009
0.03039968
0.06129976
0.01149036
-0.02144585
-0.00845123
0.06934083
0.03868724
-0.03392401
0.05219283
0.00780695
-0.04543423
0.01620833
0.02713309
-0.02489369
-0.07379591
0.00086150
0.01003944
0.03459631
-0.05576828
0.04559193
0.06494429
-0.01221808
-0.03770452
-0.01056172
-0.03682521
0.06463286
0.00052767
-0.04832005
0.05113371
-0.02636363
-0.04572826
0.00421429
-0.03165504
0.06112681
0.05280744
0.04086184
-0.04742420
-0.03483104
0.00364377
-0.00561244
0.05702631
0.04221935
-0.05133373
-0.03933398
0.07013518
0.00070217
-0.03815219
0.04418337
0.08462131
0.02995069
0.04030481
-0.04812667
-0.04548250
-0.02748626
0.01263238
0.04869230
0.03304533
0.03413734
0.00186146
0.00465388
-0.05489118
0.07599542
0.04697188
0.01622753
0.03789423
-0.04019023
0.00974423
0.06041962
0.05961718
0.06360602
-0.03270622
-0.04940395
-0.00072432
0.00981396
0.01613090
0.02120933
0.06307989
-0.03468835
0.02784407
-0.04309281
0.03031926
0.03921299
-0.04816137
0.01870918
0.02058264
-0.03312793
-0.00751444
-0.02402929
-0.02103868
0.04019227
-0.02232859
-0.02647562
0.01908457
0.01560588
-0.01117265
0.02844128
-0.03135350
0.03309752
-0.04858778
-0.04385729
-0.05675064
0.01605493
0.01980346
0.05768146
0.00795187
-0.03426778
0.02382051
-0.03466201
0.05661147
0.00257380
0.00085335
0.04434921
0.07178755
0.09478894
0.02742072
-0.02391311
-0.07780822
-0.00660885
-0.07807489
-0.02228056
0.00381306
0.00422088
-0.02692464
-0.01496339
-0.03221549
0.00635633
0.05191524
0.00766445
0.05109413
0.03774966
0.05038693
-0.02338457
-0.04656639
0.04526420
-0.01566092
-0.04012534
0.05483424
0.03299146
-0.00003878
-0.03644640
0.04467887
0.02059336
-0.03416578
-0.00171747
-0.00957644
0.01920260
0.02820285
-0.03352107
0.01660752
-0.04969208
-0.02560221
0.00358092
0.03797661
-0.01840438
-0.01084533
0.00077687
-0.01164381
0.01834332
0.00302886
0.01791134
-0.04186391
0.02529172
0.02934470
0.02113625
0.04594320
0.06266225
-0.08012206
-0.00730386
-0.04794416
0.03381409
-0.00595737
-0.06641137
-0.07829044
-0.11511237
-0.07684585
-0.10722794
0.06193607
0.00965809
-0.01875127
0.00441320
0.02777129
-0.02596158
-0.02389830
-0.06224909
-0.03600656
0.06530073
0.10173548
0.13575336
0.12968151
0.15532833
0.08558889
-0.02895835
-0.01344599
0.04267255
-0.07150968
-0.05292725
-0.16080718
-0.16571395
-0.13095915
-0.12320652
-0.03143311
0.06689312
0.02341161
0.02776089
0.09644946
0.01017639
-0.01280085
0.02514386
-0.01264804
0.04328379
0.02536296
0.00865193
0.00962840
-0.05809258
-0.00699902
0.02647731
-0.05583240
0.03067863
-0.01375707
-0.01767712
0.05761930
0.05092919
-0.00826057
0.00453940
-0.01281238
0.05501484
-0.03206423
-0.05163002
0.04427748
0.05379162
0.04848934
0.00499546
-0.02906267
-0.06074326
-0.00590546
0.02371812
0.05510435
0.07682952
-0.02245745
-0.01465659
-0.00685298
-0.03819750
0.03416437
-0.01506107
-0.04784808
-0.02794706
0.03329084
0.02506997
0.01765185
0.00416090
-0.05252950
-0.00559789
-0.03804864
-0.05079088
-0.01738014
-0.01519292
-0.02489085
-0.05557451
0.04875612
-0.05428073
0.03234014
-0.00519141
0.01867546
0.00171891
0.00606890
-0.05873449
0.04107990
-0.00900906
-0.05504819
-0.02725603
-0.04147946
-0.05095501
-0.05336920
0.01765535
0.05003119
0.03940187
-0.01747710
0.02857303
-0.00855799
0.05520925
-0.00670142
-0.03182444
0.05397541
0.01612051
-0.07045363
-0.05519630
-0.05470788
-0.04130333
-0.04443966
-0.02357805
-0.02242685
-0.00257934
-0.05031306
-0.04785470
-0.03075471
-0.03342141
0.02114427
-0.04956802
-0.05133937
-0.01360466
-0.07460000
-0.00476980
0.00226719
0.02278106
0.00698174
-0.08155604
-0.02413652
-0.01349710
-0.00817230
-0.03480653
0.01133306
0.04153810
-0.03438424
0.04272879
-0.00810924
0.04405668
0.01127784
-0.04453152
-0.03779805
0.01214065
-0.01014529
0.01749449
-0.04635840
-0.05603398
-0.01791916
0.02116539
0.00383903
-0.03719200
0.01213372
0.01820645
0.04273357
-0.06218411
-0.05777102
-0.03188364
0.02471587
0.04119677
-0.00923693
-0.04758913
-0.01462842
0.02484507
0.05146030
0.02810639
0.07920681
-0.01217142
0.07733879
-0.01279780
0.06707456
0.09810333
0.05021115
0.06275662
0.04982628
-0.00998398
0.01967200
-0.03646052
0.00173881
-0.06213750
-0.05329230
-0.03936878
-0.05616931
-0.01005874
-0.06225590
0.05690155
-0.01241728
-0.06381918
-0.04894101
0.05267950
0.07377394
0.05312255
0.06605751
0.01501744
0.02821686
0.01046796
0.03306619
0.02790636
0.03182248
-0.05788336
0.00343552
0.02864434
-0.03650859
-0.00461198
0.04424586
-0.04867088
-0.02349796
0.01540386
-0.03891604
-0.05388359
0.02839989
0.05590712
-0.01169594
0.04826814
-0.04973191
-0.04891573
0.00636536
0.04421804
0.05524758
0.00694345
0.03811968
0.03558962
-0.01430159
0.02635059
0.04502751
-0.03699104
-0.01760505
-0.01548225
-0.03053073
0.04718290
-0.01883780
-0.00138987
0.00261776
-0.03819193
-0.02123188
-0.03331204
0.01598188
0.05178702
0.02274483
0.05094793
0.00946455
-0.01117846
-0.05384935
0.02076589
0.05340978
0.01902593
-0.05131539
0.04025765
-0.04256409
0.05430711
0.00449867
-0.04398239
0.00146689
0.01285161
-0.01054920
-0.01162269
0.01825832
-0.04021070
-0.05815388
0.01924799
-0.04249718
0.03969936
0.06492735
0.09626123
0.02778332
0.01437960
0.02967675
0.03686227
0.03623039
-0.03152511
-0.11240299
-0.08856201
-0.06387939
-0.02420548
0.02898719
-0.01485265
-0.04155520
0.02836156
0.01395852
0.01153969
-0.00713581
-0.03796151
0.02677596
-0.00486753
-0.11065603
0.01763221
-0.03317525
0.02257752
0.04709798
0.02002388
-0.00932873
0.05950043
-0.00048949
-0.04326492
0.01484902
0.04551134
-0.03470013
-0.06899007
0.05538130
0.09164219
-0.05189433
0.02834095
0.00866881
-0.00116313
-0.04023560
-0.01391591
0.00840884
-0.03549828
0.02088551
0.02481049
0.06590443
0.03909481
-0.00623178
0.01324092
0.00576754
-0.00976441
0.01611955
-0.06856271
-0.04612653
0.02429293
-0.06277337
0.05373198
0.04778269
0.00494833
-0.01059872
0.03597419
0.08623184
-0.04524833
-0.00270883
-0.02089478
-0.02104311
0.06320445
0.00031427
0.06651849
-0.01071939
-0.04732019
-0.00742229
0.04383450
0.02189364
0.00031947
-0.04860219
-0.05756837
0.04656931
-0.03106536
-0.02858022
-0.03486613
-0.05740095
0.00902983
-0.02052304
-0.03534543
-0.06512391
-0.03556429
-0.00947609
-0.04422110
-0.04550083
-0.01050533
-0.02380753
-0.02906311
0.00957443
-0.03177911
-0.02122872
-0.03160719
-0.04288539
-0.02168874
-0.04517152
-0.02701559
0.01531813
-0.03868790
0.00564746
-0.03770542
-0.03900309
-0.01465981
-0.02408611
-0.00711410
-0.05793240
-0.00716287
-0.05190123
0.00390744
-0.02690488
0.03803951
-0.05815458
-0.00700151
-0.02660988
-0.04577198
-0.05942554
0.05093982
-0.04643718
-0.05177591
-0.01409938
-0.02674647
-0.03848705
0.06159603
-0.01295032
0.02813958
0.00578045
-0.00848314
0.01881981
0.06101382
-0.01180608
-0.03217120
0.03462590
-0.05872365
-0.04171189
0.03755402
0.01232440
-0.01010269
-0.01733174
-0.00904756
-0.05013119
-0.00146270
-0.05444689
0.05353222
0.00377218
-0.00247596
0.01284419
0.04548018
-0.02463873
0.04914846
0.05123233
-0.05477972
-0.03898230
0.02717977
-0.05460066
0.02340346
-0.00181435
0.05564628
0.05483298
-0.03658955
-0.00144708
-0.01258461
-0.04715179
-0.02638828
0.02615316
0.02429164
0.03008853
0.05139393
0.03486557
-0.02159997
0.04107661
0.01060248
0.01369178
-0.04341269
-0.00409147
0.04755123
0.01818887
0.04871244
-0.03434005
-0.00008498
-0.04800836
0.04717798
-0.02467225
0.06550989
-0.00216739
0.00954822
-0.01328972
0.03886342
0.03736478
0.05315096
0.05165476
-0.02350649
-0.05462307
-0.03013450
0.03928943
-0.03280643
0.02254152
-0.05615804
-0.04858495
0.03283855
-0.00762381
-0.00845861
0.02320614
0.01524325
-0.04448779
-0.00759212
-0.04415563
-0.01103215
-0.05363781
0.04763203
0.02562614
-0.03881419
0.00091040
-0.04647090
0.05333836
0.02377440
-0.05484469
-0.00049676
0.01037009
-0.01874747
0.00349825
-0.02491047
0.04015671
-0.00106466
-0.04608328
0.03909128
0.01831731
-0.04927661
0.01206274
-0.00730444
0.04654832
-0.03724049
0.00474574
-0.02726046
0.01885205
0.03676937
0.02046720
-0.05601823
0.04873573
0.06365315
0.00263324
-0.11642914
-0.01627991
0.05949751
-0.02003743
0.03691876
-0.09311489
-0.03868440
-0.03532760
-0.08387031
-0.00807623
-0.04119389
-0.10531797
-0.01920444
0.04700277
0.05274251
-0.00499183
0.04763136
0.01350703
0.02475733
0.00070868
-0.05494832
-0.03372278
0.03584191
-0.04186946
-0.02572257
0.02217346
0.03588276
0.02758554
0.03017076
-0.04928795
0.02761128
-0.00243266
-0.01388102
-0.01498597
-0.00406482
-0.00498626
-0.05161035
-0.04287864
-0.03154789
0.03616781
-0.02119009
0.00521056
-0.00292743
0.04175664
-0.02742412
-0.02604339
-0.00798369
0.01503728
0.01246459
0.04250704
0.02777428
0.05970197
0.05694633
-0.03656662
0.05295699
0.06288093
-0.03684572
0.01957452
0.02538091
0.08179757
0.05794458
0.04833023
-0.01305190
0.02085690
0.03211658
0.02390152
0.03407753
-0.05374816
0.01999188
0.04231149
0.05234864
0.02936958
0.04231187
-0.01734670
0.05613659
0.01310109
0.01213221
-0.00610793
-0.03197850
0.01660827
0.04375511
0.05457652
0.01836695
0.00246213
0.02883177
0.04280120
0.03530300
0.02165399
-0.05016788
0.03139704
0.00606400
-0.04631508
-0.00071939
0.05532393
0.05136406
0.02451459
0.02662001
0.00210113
0.06686044
0.03069385
0.07867660
0.00099422
0.03127957
0.05965043
0.05546561
-0.00316796
0.01460182
0.04866488
0.02620123
0.05392757
0.07297055
0.02257878
-0.02261441
-0.03997958
-0.03368522
0.05712282
0.03288151
-0.03554829
0.00491650
0.06386028
0.01711817
-0.01651891
-0.03006370
0.02075855
0.01443491
0.03544186
-0.02059027
-0.03246118
0.03156520
0.03940077
-0.05577919
0.02348142
0.03480728
-0.00899371
-0.04195913
-0.00489464
0.01465156
-0.00815776
0.02556646
-0.04005433
-0.05725477
0.03245966
0.04846135
0.00350326
-0.02132108
0.03369593
0.00426332
-0.03606950
-0.04295202
-0.05995310
-0.05335669
-0.01910101
0.03835811
0.00375285
0.03057557
0.03066562
-0.02149941
-0.05174673
-0.00834572
-0.00970498
-0.08997540
0.02470404
0.06281041
-0.05696803
-0.00417251
-0.04172856
0.00042007
-0.01980456
0.01960325
-0.04220411
0.00563119
0.04573509
0.01415944
-0.03410145
-0.00416308
-0.07170188
-0.04162991
0.03065221
0.04697571
-0.04837379
-0.04159963
-0.01651951
0.05823221
0.07343808
-0.02382128
-0.04849511
0.05211767
0.01208850
-0.04230072
-0.07329904
-0.00697758
-0.02867079
0.03753475
0.03684295
0.06383054
0.04935569
0.03416906
-0.02471450
0.03180504
-0.04114141
0.02531299
-0.00581344
-0.03066039
-0.04010534
0.00383127
0.03103298
0.04141784
0.00746914
-0.04336971
0.01465523
0.05120638
-0.00349725
-0.02991441
-0.04558434
0.05687989
0.02082701
-0.05110959
0.04717739
0.01177352
-0.00280969
0.01363664
-0.02334120
0.02921090
0.00376391
-0.02734005
0.05163437
0.00954934
0.02201126
-0.03548454
-0.00567177
-0.05575554
-0.01690250
-0.00214506
-0.03753024
0.00612373
-0.05719738
-0.04689650
-0.03650127
0.03338393
0.03416488
-0.05777505
0.01434489
-0.02002087
-0.01319346
0.00509074
-0.04700069
0.00501411
0.04064141
-0.00540863
-0.06488695
-0.06386202
0.02835127
0.06928043
0.04391075
0.03909046
0.01730319
0.04674372
0.03387414
-0.03778276
0.04768876
0.02535416
-0.05807550
0.03630601
0.00120085
0.06297276
0.05578288
-0.01651261
0.02774556
0.08684053
0.04963719
-0.02221685
-0.05659465
0.00723937
-0.02940564
-0.00533293
0.05840764
0.03603939
0.00077059
0.03584654
-0.02764628
0.02602690
0.03365697
0.00945371
-0.05719865
0.01860347
-0.03421344
-0.00659169
-0.03267508
-0.01686132
-0.05653894
-0.04343873
0.01664698
-0.05159119
-0.02419631
-0.01976431
-0.04721623
-0.05340457
-0.03648311
0.01378981
-0.04450125
0.00487938
-0.01980572
0.03567690
-0.05255078
-0.05059397
0.05645234
-0.03689960
-0.01776262
-0.00822087
-0.00932472
0.03736682
0.04894980
-0.00493910
0.00904004
-0.01291576
0.02141912
0.01749212
-0.03875388
-0.04479017
-0.01355601
0.03883276
0.05612214
-0.03485773
0.02207758
0.05068703
-0.00125891
-0.02233741
-0.00656559
0.00306619
-0.03857356
0.04300099
-0.02754143
0.05453446
0.05720187
-0.03000771
-0.03517359
-0.03523197
-0.02537212
0.00113561
0.00244832
-0.02671777
-0.03843186
-0.05357424
-0.01554123
-0.04368761
-0.00901033
-0.03459648
-0.03610611
-0.04291353
-0.01886678
-0.00548523
0.02064051
0.02032158
0.01341869
-0.03249796
0.01431634
-0.03237155
-0.05179548
0.01781107
-0.00569964
-0.00793006
0.05481796
-0.00494439
0.01595178
0.00026564
0.05449812
0.04339134
0.05255964
-0.02608732
-0.04851560
-0.00346615
0.04180733
-0.05111625
-0.02278806
-0.01667570
-0.01627821
0.04637689
0.01374800
-0.02758756
-0.05240794
-0.03692279
0.01681523
0.00642268
0.00256740
0.03345548
-0.02224083
0.04199240
0.05712081
0.04609748
-0.00608509
-0.05215372
-0.00782815
-0.05759063
-0.05655203
0.05632371
0.01946567
0.00588569
-0.05122343
-0.00212958
-0.01434064
-0.04774419
0.01973543
-0.02602872
-0.04382826
-0.04817840
-0.01666716
-0.00656808
0.00794645
-0.05266943
0.01592460
0.00745029
-0.05525372
0.00972300
0.01598971
-0.00631012
-0.00645610
-0.01140714
0.04967866
0.04028833
0.05667550
-0.01593162
0.00662855
-0.05453252
0.04649665
-0.03233066
0.03487800
-0.03457939
-0.02374331
0.03769438
0.02846126
0.02057137
0.04336658
-0.01156089
0.03434440
0.03870482
-0.05488514
0.03461842
-0.00333313
-0.01799927
-0.02897378
0.02595947
-0.02634612
-0.05559359
-0.05825061
0.04567338
0.02334176
-0.04478683
0.02111714
-0.01633948
-0.04006321
-0.00850853
0.00481714
0.02600656
0.00106366
0.02722228
-0.00729110
-0.01655342
-0.05066665
0.02864736
-0.04776697
-0.05343032
-0.00797839
0.05122468
-0.01894020
0.05420071
0.04047737
-0.04639634
0.05145510
0.02261961
-0.04448039
0.00876375
0.02959981
-0.01157411
-0.02758101
-0.00571602
-0.03414947
0.01164114
-0.00848342
-0.03470321
0.01874891
0.00033050
-0.04807051
-0.00879976
0.04010287
-0.03996061
-0.05891312
0.05164609
0.03516919
-0.05374842
0.04215020
0.02615316
0.02316566
0.05535910
0.05185767
-0.04955490
0.01214710
-0.05161647
0.01426181
0.03118330
-0.01111777
-0.03110468
-0.02060218
-0.04075727
-0.03622831
-0.03193842
-0.03671110
-0.00626415
0.03326472
0.02131473
0.03588155
0.04532433
0.01164987
-0.02840742
0.03697390
0.05427840
-0.04166060
-0.02684304
0.05690765
-0.05323691
0.02262835
-0.01795409
0.04351662
-0.01591737
-0.04669417
0.00252243
0.03407204
0.02851468
-0.03424999
0.00438090
-0.01281625
-0.05445030
-0.01933481
-0.02552768
0.05733014
0.05730880
-0.00344149
0.01936270
-0.05671320
0.01160933
-0.04336733
0.02664636
-0.00049867
0.04565693
-0.00099676
0.01126691
-0.05839561
-0.05760454
-0.03977057
-0.00107466
-0.04094120
0.02423331
-0.05578427
0.05168430
-0.05197298
0.03881360
0.01948309
-0.05014429
0.01174458
-0.00462092
-0.02964494
0.04354911
0.00134893
-0.03421751
0.01832947
0.04611649
0.01895828
0.02583486
-0.05122929
0.05025206
0.04542030
-0.04540805
0.04959596
0.04836636
0.04621320
0.04181949
0.04280635
0.05155542
0.01677262
0.02567865
-0.03480820
-0.05125215
0.05435871
-0.00759928
-0.00724201
-0.04113493
0.03354594
0.01751991
0.02884084
-0.05255281
0.03504830
-0.03957549
-0.02092136
-0.00370026
0.05732003
0.00943516
-0.04118571
0.02433192
-0.00013201
-0.05042021
-0.00482335
-0.00791031
0.01839375
0.01899080
0.04258473
-0.02973798
-0.01878140
0.02652051
0.02253661
0.02401218
0.00426193
-0.03072401
-0.04870558
-0.05458296
0.01532715
-0.02365725
-0.03336320
-0.00883480
-0.05035264
0.00147817
-0.04092923
-0.01037266
0.03903108
-0.01668099
0.02845594
0.02897519
0.00258923
0.02524832
-0.04759194
-0.02334280
0.02342515
-0.00040499
-0.02881913
0.05610454
-0.01562884
0.02505148
0.02527301
0.04694567
-0.04269265
-0.02365593
0.05278836
-0.00802569
0.01442638
0.01132492
-0.02467315
-0.00222626
0.05594416
0.01569397
0.05692990
-0.03761343
-0.03683360
-0.05242186
-0.05174589
0.03564202
0.00303579
0.01281465
0.04409188
0.02879134
0.04299390
0.03010053
0.00009703
-0.03384281
0.04327927
0.04861497
-0.05123338
0.00293930
0.04603554
-0.03808464
-0.03022908
0.04093752
0.01704114
0.00763140
-0.04269535
-0.00920849
-0.05725026
0.03329489
0.04298550
0.02143511
0.02662714
0.03310674
-0.02089298
-0.04731476
0.03036004
-0.05024765
0.01393880
-0.01286923
0.02342309
-0.04150533
0.00411807
0.00530000
0.02877542
-0.04410430
-0.00318652
-0.02514973
0.02023719
0.04558405
0.04893425
0.00850675
0.04338297
-0.04311522
-0.00715269
-0.01445474
-0.01178133
-0.01281427
-0.02658649
0.05297322
0.00053003
0.03861400
-0.01568941
-0.03874824
0.05850572
0.01320942
-0.03543004
0.02598872
0.04570686
-0.01105040
0.00507385
0.02526550
-0.01196903
0.01910136
-0.00947088
0.04384453
0.01071409
0.02816422
-0.00740812
-0.04385573
0.02670122
0.01211092
0.00961672
-0.00960883
0.01062530
-0.01279252
0.00415470
-0.02437672
0.00255991
0.03776409
-0.04292373
0.04583702
0.03856174
0.00810346
0.02670038
-0.04901364
-0.03305279
-0.01234169
0.03730365
0.03984994
0.00815733
0.04625517
0.00488686
-0.02230665
-0.03643061
-0.00283245
0.01462235
0.05677440
0.00348156
0.02465174
-0.03499574
-0.04302057
0.02794874
-0.01872442
-0.04599528
-0.04565407
0.03538702
0.04961647
0.00178015
0.05331303
-0.01599847
0.00096270
0.02193455
-0.00732763
0.04740234
0.02283620
-0.03464087
-0.11514298
-0.02848045
0.03275323
0.08911259
-0.07264510
0.01731822
0.06275059
-0.01317427
-0.04710916
-0.01354924
0.01527492
-0.06578818
-0.09751027
-0.07868482
0.00788719
-0.03019051
-0.06702606
-0.10117167
-0.04438158
-0.08355738
-0.00298008
0.05575203
0.01550854
0.00186462
0.01264346
-0.00696472
0.04325967
-0.00257758
0.02084296
-0.04737223
-0.01202598
0.00742066
0.02817991
0.03320213
0.01209032
-0.00901791
0.01249644
0.00964006
0.04372790
0.01010540
-0.07001003
-0.02397566
0.01865484
0.07551289
-0.02572382
-0.03118343
-0.00884446
-0.03295619
-0.00443283
-0.01930599
0.06680539
-0.03162570
0.02780728
-0.02611181
-0.03325040
-0.03922487
-0.04367963
-0.01758759
0.02008415
0.00422776
-0.02961270
0.00866665
0.02770145
0.03165846
-0.02876438
0.02248027
-0.06383499
-0.08149028
0.05066794
0.02109392
-0.05183757
-0.05086799
-0.08179168
0.02568361
0.03929215
0.01479773
-0.01566089
-0.01737019
0.02540449
-0.02823385
0.00782339
-0.06243221
0.01194982
0.03573829
-0.06342451
-0.00133720
-0.06323910
-0.02338951
-0.03182728
-0.03291503
-0.07196244
-0.02919968
0.02775384
0.03010364
-0.04810354
0.03235908
0.03983413
-0.00974189
-0.00729989
0.00472969
0.00254191
-0.03562754
0.00735568
0.02614805
0.00771204
-0.02240570
-0.07187721
-0.04148803
-0.01402906
-0.02435343
0.03417933
0.02534541
0.01647850
-0.04516756
0.02794495
0.05364077
0.03721133
0.08589482
-0.03902340
0.04051842
0.02572185
0.01240437
0.04930469
-0.02492581
-0.04358295
-0.05564938
-0.04747811
0.02653147
-0.05567404
-0.05258275
0.01978072
-0.04326620
0.03941266
0.00394629
-0.04461071
0.02280164
-0.04463726
0.04841960
0.04481704
0.00059111
-0.05361593
0.04488616
0.02261000
-0.03685392
0.00699942
0.00994349
0.04933444
0.00608523
-0.04809457
-0.01257374
0.02551079
-0.02137521
-0.00386900
-0.03909623
0.06709879
-0.01456950
0.02812029
0.05338848
-0.00477616
-0.04494486
0.07183272
0.02855030
-0.00140089
-0.00796260
-0.06674467
-0.02438963
0.08159006
0.05085664
0.09441299
0.05112291
-0.07269236
0.04316130
-0.02163221
0.00712377
-0.00874920
-0.01418254
-0.01557558
0.01018277
0.03466034
-0.02052179
-0.04994142
0.04356968
0.04129650
0.00025187
0.01350072
-0.04953332
0.05010763
-0.01867750
0.03999130
0.03158917
-0.00347980
0.02252594
-0.03915064
0.03029434
0.05184919
0.07123002
0.02042484
-0.00979816
-0.00824267
0.00123940
-0.00271500
-0.08958560
0.02777199
0.04504691
0.05704755
0.01427670
-0.02204280
0.04815071
-0.01931472
0.00330331
0.02216093
0.04264065
0.03311965
0.03177451
-0.01751218
0.11897589
0.02820452
0.11104298
-0.03121157
-0.03321366
-0.04679121
0.04352501
0.04191231
0.01778544
-0.07608523
-0.10283475
0.01023811
-0.01903760
0.07995293
0.00529172
-0.03230682
0.02858844
0.00338510
-0.07186647
0.09283224
-0.02693727
-0.05232295
-0.12486624
-0.07817327
0.06952915
0.10689116
0.06162350
0.05711012
0.01789944
-0.12816571
-0.00399607
0.09101205
0.08991586
0.01223354
0.02827562
-0.05024112
-0.03331486
0.05003024
0.04661977
-0.00651059
0.02621678
0.00986389
0.05121311
0.05251951
-0.02308301
0.02164262
0.02788137
0.03332802
-0.05673637
-0.04606926
0.01269621
-0.05743651
-0.00117564
-0.01181541
0.04017639
-0.01829532
0.02315491
0.02403856
0.05010701
0.04220991
0.03576007
-0.00774850
-0.03333941
-0.04832317
0.05032556
0.00472521
-0.00204384
-0.02154755
0.04305202
-0.02086745
-0.02972006
-0.01489349
0.02982621
-0.02084097
-0.01527910
0.02168456
0.10399286
0.10455913
0.04070384
0.02561653
0.06267817
0.04958982
0.00689541
0.06106435
-0.03215859
-0.01601796
0.00786971
0.01914289
0.01576099
0.05455071
0.01721524
-0.01012436
0.01495199
0.03741484
-0.04314170
-0.03282841
0.01920648
-0.04360576
-0.02578134
0.01331280
-0.04928829
0.03883660
0.04906189
0.04842739
0.02036188
-0.00949522
-0.02100814
-0.02077143
-0.01051608
0.05973603
0.07955659
0.05698649
0.04894819
0.00509802
-0.02128628
0.05114264
-0.01694404
0.03905753
0.07309400
0.01711595
0.05567913
0.05383574
0.01809356
-0.02605406
-0.00761549
0.03568830
-0.00334440
0.05265978
0.03076307
-0.04439210
-0.08465688
-0.07613409
-0.00098386
0.06517480
0.05534900
-0.02582561
-0.05700418
0.04511572
-0.00239420
-0.01530064
-0.04677458
0.04553365
-0.04714976
-0.04428785
-0.04981586
0.03530060
0.03055114
0.05772893
-0.02760580
0.03387390
0.05019993
-0.02530904
0.02293417
-0.05644570
-0.02579799
-0.01569426
-0.00969341
-0.02055049
-0.01808861
-0.04809954
0.03045451
0.04023610
0.00650730
-0.01591834
0.02796207
-0.04803986
-0.06877259
-0.04336096
-0.01036626
-0.06572504
0.01057357
-0.06943762
-0.03586353
-0.03978430
-0.03922438
-0.02108669
-0.00903273
0.04265780
0.03377590
0.04444735
0.06293885
0.03311153
-0.01647129
0.06314012
-0.01472125
-0.00878945
-0.06163631
0.01446132
-0.01901701
0.00928042
-0.00068975
0.02791074
-0.00273722
0.05122120
-0.04475952
-0.06422434
-0.03400448
-0.05187068
-0.01419301
0.06631175
-0.03963031
-0.05154987
-0.04515560
0.07081784
0.10041036
0.05124256
0.07130402
0.11590118
0.08479328
0.05370870
0.03324923
0.04627028
0.02814386
-0.05700362
-0.00880216
0.03853283
-0.04412057
0.01872554
0.01733719
0.03478141
0.00055343
-0.03843407
-0.03943513
0.01310092
-0.01008023
0.03510806
0.05757057
0.05478125
-0.05815796
0.02512239
-0.02884136
-0.02632461
0.00120074
-0.02931571
-0.03790800
-0.00895451
-0.03047950
0.04821327
0.02612825
0.02341251
0.03345677
-0.02161383
-0.01736277
-0.01068344
0.04956670
0.03262579
0.03757549
0.04679187
0.03648125
-0.01217092
-0.03157590
0.05359701
0.04846842
0.05689578
-0.01487247
-0.04737391
0.04557736
0.05526545
-0.05305956
-0.04273681
-0.04946396
-0.04211791
0.00369586
0.06996971
-0.00002249
0.04044841
-0.03980482
-0.01435891
0.00539804
0.04468235
0.06974106
0.02053298
-0.04371420
-0.03013853
0.06155333
0.05780770
-0.01389792
-0.05800421
-0.02633991
0.01034288
0.01307879
0.05692659
0.03011263
0.00473712
-0.06395347
-0.00602601
-0.04117958
-0.05490632
0.01227126
-0.02156636
-0.06178432
-0.09439212
-0.03412969
0.11311079
0.02281978
-0.00372581
0.08643515
0.13283403
0.07664217
-0.05474222
0.11437546
0.08795692
0.05050419
-0.11881443
0.03001988
0.08961217
0.04518503
-0.04700010
-0.08279009
0.05123335
0.02773247
-0.00611594
-0.07991412
0.02259316
-0.00865304
0.03969166
0.06390388
0.06449591
0.03143505
0.00256783
-0.02423081
0.04540268
0.04018216
0.02071367
-0.03375809
-0.03754997
-0.07124756
-0.02602020
-0.00138405
0.01264695
-0.08239418
-0.06859536
-0.01574936
0.00225874
0.04875629
0.01896191
0.00171072
0.02992632
-0.04879992
0.01652520
0.04499022
0.04390209
-0.05339243
0.00144916
-0.02179354
-0.01918471
-0.00767387
-0.01847825
-0.03651264
-0.00553646
-0.00782350
-0.05264487
0.01541131
-0.01875087
-0.00898368
0.04623981
0.04657022
-0.02037317
-0.03062564
-0.04541615
-0.00512524
0.01855342
0.03114945
0.02380478
-0.01355503
0.06251448
0.05046861
-0.05005001
-0.03814210
0.06232775
-0.02413168
0.03468651
-0.05161137
-0.02976340
-0.00710322
0.03956123
0.01340745
0.01287788
-0.03981075
-0.05201194
-0.05823305
0.01021634
0.02157378
-0.01261068
0.02010736
0.01658803
0.06111561
0.07344855
-0.00359912
-0.00312648
-0.00639738
0.03719599
0.01388222
-0.00540791
0.04944303
0.05919285
-0.02944890
-0.00089714
-0.01978864
-0.03585534
0.00462636
0.05124217
0.03296892
-0.04411216
-0.04199906
-0.01066241
0.04741522
0.02044107
-0.03014450
-0.01236960
0.02623245
0.05445890
0.04949946
-0.02251318
-0.04794791
0.02998899
-0.05395298
-0.01486811
0.02730616
0.02183720
-0.02956961
-0.04296875
0.04820072
0.03813821
-0.03514221
-0.00537477
-0.01943079
0.02979109
0.00732403
0.01605760
-0.04237655
-0.05398460
-0.00414580
0.01120732
-0.00348595
-0.06110186
-0.04835944
-0.07115324
-0.03419495
0.02494501
-0.03034483
0.03300073
0.04326906
-0.02738695
-0.00330466
0.02139780
-0.01031550
-0.05109894
-0.04523710
0.04737941
-0.02647861
-0.02675428
-0.01036156
0.03681799
-0.01784266
-0.06052457
-0.01163399
0.01085157
-0.04204626
-0.04116093
0.05236211
0.02503012
0.05595522
0.04147005
-0.02428438
-0.02534057
-0.02683281
0.01100918
0.00221774
-0.03254039
0.00749887
0.02417656
0.02753523
0.02006891
0.02256625
0.01342987
-0.01177738
0.04770725
-0.01933156
-0.02387996
-0.05336896
0.03972094
-0.05196491
0.04450948
0.00715780
-0.06689894
-0.07540070
-0.01099067
0.02143774
0.05202923
-0.08094408
-0.05822951
0.01865641
0.02450162
-0.06475545
0.00426688
0.00568599
0.03126676
0.01881303
-0.03635861
-0.00138034
-0.02921685
-0.03182668
-0.03696305
0.05485164
-0.00357453
0.06258754
-0.07480778
-0.04527480
0.01381084
0.01335488
-0.11561437
-0.00865683
0.03150276
-0.04824158
-0.11530975
0.00539286
0.12982906
0.05900105
0.01120379
0.11643136
0.16412097
0.13802822
-0.02832542
0.05833572
0.07646938
0.04270943
-0.04039516
-0.11186298
0.06829206
0.05888866
0.01102320
-0.12544087
-0.08210215
0.02035931
0.01467280
-0.03206269
-0.01663231
-0.03629328
0.02400621
-0.05489948
0.02729762
-0.04241703
-0.02888349
-0.02782561
-0.03259086
-0.01498552
-0.01343019
0.05241976
0.01426466
0.03360028
0.04941998
-0.04865732
0.00320117
0.03888132
-0.04352922
-0.00766521
-0.04514569
-0.02246530
-0.01768804
-0.01093531
-0.07182118
-0.02904545
0.00040921
-0.01113587
-0.05003575
0.04835075
0.04551352
-0.01205475
-0.00456752
-0.02712977
-0.07622039
-0.06935208
-0.00797789
0.02714147
0.02584105
-0.07290591
0.05062366
0.06557557
-0.05047439
0.05038516
0.07154950
0.02060068
0.01837061
0.02169976
-0.05089302
-0.00496217
-0.00581856
-0.02814424
0.05700622
-0.04375198
0.04242281
0.03135712
0.00405585
-0.00806474
0.01222282
0.03541975
0.05250782
-0.04944790
-0.05342388
-0.02124232
0.05090393
0.02894161
0.04633048
-0.01986472
-0.03799020
-0.03055508
0.05115540
-0.04575613
-0.01546321
0.02591923
-0.05514463
-0.03628785
-0.00684005
-0.02437268
-0.01552183
-0.04414532
-0.03890751
-0.03452892
0.01298377
-0.00152027
-0.06986954
0.03242711
-0.01960740
-0.01123494
-0.06501997
0.04709939
0.03070866
0.03388328
-0.02546565
0.00183184
0.05566834
0.01332853
-0.06240911
0.05241467
0.00745854
-0.04426466
0.02667039
0.03311511
-0.00781812
-0.00325779
0.03004053
0.03269240
-0.01552185
0.04157988
0.01903411
0.01205511
-0.00288518
-0.01493590
0.03180768
0.04925433
0.05547474
0.04981706
-0.03372211
-0.01759058
-0.04215335
0.00443177
0.04846150
0.00826320
-0.05049531
-0.01233130
0.02393694
0.06980737
-0.04949903
-0.01846003
0.00702346
-0.02816717
0.01401323
-0.03790294
-0.00827695
-0.00236048
-0.05371046
0.00718996
-0.00397997
0.01120593
0.02843619
-0.01275240
0.03042900
0.03211698
-0.05632190
-0.00441496
-0.00440469
-0.05641086
-0.06117660
0.00976814
-0.02118884
0.07104935
-0.01813733
0.01876228
0.07170234
0.01789233
-0.00840918
-0.01923481
-0.01619437
-0.01837100
0.01459462
-0.06156985
0.06163341
-0.02220435
-0.09436987
-0.03187979
-0.00650268
0.05852637
-0.04092287
-0.01994974
0.04523105
0.03745509
0.02219190
-0.01531136
-0.00712771
-0.02542911
-0.03789309
0.04139538
-0.05574028
-0.05225802
-0.02064218
-0.04406042
0.02329336
-0.00175053
0.04876486
-0.03617998
-0.05251002
0.05772549
-0.01634228
-0.00947491
0.03668085
-0.05306846
0.00939985
0.05690267
0.05236487
0.05644749
-0.01384928
0.03761035
-0.04618774
0.05839840
0.05710971
-0.05427336
0.00311566
0.03346693
-0.03207526
-0.02782987
-0.04596694
0.00413721
-0.01463903
-0.01717573
0.05361223
0.04618387
0.04324283
0.00205451
-0.04830970
-0.00170175
0.04171950
-0.02213740
-0.02002155
0.04538790
-0.00206735
-0.02233917
-0.01468638
0.05497268
0.04316133
0.01536136
0.01754251
-0.04785230
-0.02597805
-0.05209528
-0.10511117
-0.02294902
0.03131492
0.02730387
-0.00112790
-0.06154322
0.05242783
0.07359389
0.01627697
0.05179221
0.03808097
0.04748849
-0.10005460
-0.05212879
0.05825119
0.01696218
-0.05646603
-0.02250415
-0.00620683
0.01972852
-0.03343660
0.06743898
-0.06548699
-0.09686831
-0.09011201
-0.02069334
-0.06284149
-0.11558587
-0.03371582
-0.00032244
-0.08061811
-0.03938233
-0.01076854
0.04147919
-0.01119371
-0.04348328
0.00114898
0.08019146
0.05415059
0.05329680
-0.01294422
0.04261249
0.08572053
-0.03055236
0.01666020
-0.04364203
0.03415082
0.01145583
0.04513980
0.05789224
0.03252379
0.01924413
0.00805395
0.06114630
0.01615689
-0.02120844
0.07578366
0.00501580
0.00540228
0.00875261
-0.01416031
0.02615069
-0.00403691
-0.03731613
0.01373055
-0.02809118
0.02333130
0.01619632
-0.05872642
0.00972542
-0.03986707
-0.01099854
-0.00131997
-0.01070206
0.03685486
0.02323285
0.04631870
0.03893840
-0.00266644
-0.04621553
-0.01580862
0.01301535
-0.02562203
0.01240610
-0.04145879
-0.05673902
0.04258701
0.02234354
-0.02020252
-0.00140687
0.03612337
0.01174593
-0.00845665
0.01542146
0.03135886
0.02526509
-0.00818064
0.07676362
0.07352660
0.02119734
0.07629601
0.05236804
0.08421019
0.05900188
0.06680305
0.02112664
0.02181138
0.01669200
0.02811869
-0.00109828
0.00263881
-0.03926263
-0.04610086
-0.02075764
-0.01724731
0.03866373
-0.04496059
-0.00489148
-0.02937585
0.01054635
0.00343306
0.05670983
-0.02398640
-0.01820110
0.00003854
-0.02468747
0.03867600
-0.04683774
-0.01193357
-0.00216063
0.02014580
-0.00473295
0.03507053
-0.04135409
0.02240636
0.02058599
0.01733376
-0.01199837
0.02090005
-0.03266719
-0.00197698
0.00860130
0.00133506
0.00625168
0.05456989
-0.04338484
0.00642491
0.05492193
0.05527211
-0.04887592
-0.02946690
-0.04191207
-0.01473404
0.01144072
-0.00792568
0.04312275
-0.04708376
-0.04139360
-0.01354436
0.03792305
0.00056890
0.03535106
0.04775233
-0.02668494
0.00066222
0.00662616
-0.05253491
-0.01559150
0.01196878
-0.03266855
0.00894577
0.01959570
0.04497878
0.00290823
0.06674915
-0.03625314
0.04194447
0.08352988
-0.00681868
0.05699176
0.02950496
-0.00817798
-0.03649483
-0.04708391
0.00768239
-0.00785006
-0.03363565
0.02406158
0.00206200
0.02408469
0.02894003
-0.04986705
-0.03439175
0.08033647
0.06092620
0.02660537
0.00023662
-0.05018938
-0.02734919
0.02860661
-0.01648516
-0.00126225
0.00172698
-0.04832486
-0.00202926
0.04695239
0.02864363
-0.01124677
-0.04319827
0.00256252
-0.03778299
-0.00113474
0.03567987
-0.02594059
0.02013197
-0.04320036
-0.03893543
0.03109359
0.00681936
0.00299919
-0.03725561
-0.00593906
-0.06100337
-0.10596712
-0.02673876
-0.01061462
-0.02284318
0.03486505
0.00227537
0.02379969
-0.00768331
-0.05906024
0.05736673
0.03648207
-0.01539224
0.01583490
0.05837807
0.03612886
0.04740158
0.02482493
0.01158510
-0.02589400
0.08845938
0.11195142
-0.07005973
-0.06118978
-0.09579410
-0.17410974
-0.12803629
-0.09055410
-0.12983540
-0.07782583
-0.03725943
-0.03034132
-0.08671861
-0.06801033
0.05190339
0.05499307
0.10974413
-0.04570274
0.01924229
0.05741039
0.06610572
-0.02105358
0.05055187
-0.03836203
-0.00126937
0.10191127
0.02736382
0.02102408
0.04164612
-0.01709479
0.03026312
-0.04281462
0.02451349
-0.04633937
0.04471868
0.00187104
-0.04276757
0.02838345
0.04100522
-0.04184267
-0.02518962
-0.03173652
-0.03384814
-0.03739753
-0.00620819
0.02619373
0.03371270
-0.04468642
-0.03467336
-0.00858447
-0.00161038
-0.05318419
-0.02063038
-0.05281590
-0.05412624
0.00661862
0.02709406
-0.01247917
-0.00446591
0.00726608
0.03672664
0.05636488
0.02838859
0.03258085
0.03688366
0.04066597
-0.02178248
0.01231816
0.04910089
-0.00078013
0.04941007
-0.01065995
0.02201739
0.02410032
-0.04712536
0.01599722
0.02647930
0.05631495
-0.03593394
0.04193053
-0.05366464
-0.04728213
-0.02381067
-0.03712622
-0.03046497
-0.05415911
-0.03693686
0.05819735
-0.01181574
0.05498673
-0.03375618
0.02254579
-0.02333530
0.01552991
-0.00992207
-0.05495092
0.02743135
-0.03259503
-0.01726551
0.04874989
-0.00767027
-0.05095085
-0.00721724
-0.02214393
-0.02637827
0.02589663
0.04297563
-0.03431541
-0.00853863
-0.04385262
0.03483947
-0.04630851
0.06181327
-0.03060640
-0.00685833
0.03471159
-0.03916159
0.04031804
0.02732009
-0.00597987
-0.06069489
-0.00982342
0.01335731
0.05094852
0.06694569
0.06069896
0.07352525
-0.00002831
0.02037131
-0.04323283
-0.00456121
-0.04769457
-0.03713926
0.02446212
-0.04655083
0.05149786
-0.01568986
0.02231944
0.00631494
-0.03557892
0.00503116
0.05497585
0.05651445
-0.04298333
-0.02993395
0.03093771
0.03808026
-0.03273870
-0.04525170
-0.03695408
0.03873658
0.03533431
0.04503287
-0.00488247
0.08230602
-0.00428628
0.02858854
0.07642197
0.00093769
0.01650941
0.07453565
-0.04013540
0.02823409
0.03915947
0.04204370
0.01787942
0.01108595
0.05505200
-0.00870380
0.03526478
-0.04241309
-0.01877538
0.02601418
0.04777782
0.01841176
-0.01342055
-0.04850115
-0.00885611
0.01556736
-0.00380099
0.09648907
0.02936963
0.06812190
0.07052643
0.03340141
0.05276929
-0.00884463
-0.01973854
-0.01206776
-0.01959940
0.01332974
-0.04727758
0.00005643
-0.04812905
-0.00903368
0.00254510
0.01511743
-0.00531536
-0.07643349
-0.06735764
0.00011217
-0.07471643
0.01870063
-0.04880296
-0.04026370
-0.02069653
0.04962711
0.00969856
0.01988683
-0.05092414
0.02669263
0.05532021
0.01503379
0.01355851
-0.00863951
0.01466546
-0.05511700
0.01653634
-0.00938055
0.00887248
-0.02285212
0.02871330
-0.05022098
-0.03080981
0.01081846
0.04736265
-0.04455075
-0.01920449
-0.05627533
-0.05324135
-0.05588945
0.00323195
0.04947431
-0.00629055
0.00011667
0.00812389
-0.01000721
0.02995342
0.01840596
-0.00648364
0.02515421
0.02900016
-0.02976105
-0.03929161
-0.02898868
0.03670676
0.02382309
-0.01599115
0.03961834
-0.04348752
-0.05272785
0.04431275
0.04938417
0.00665035
0.02873923
-0.08747628
-0.04188085
-0.06764614
0.02866298
-0.01205881
-0.06657586
-0.05430231
0.00953696
-0.00158933
-0.00270007
0.01438655
-0.01596767
-0.00909780
0.03022934
0.00958326
0.05071630
-0.04123684
0.06198693
-0.00675696
0.05128382
-0.03400331
0.01117447
-0.00570927
-0.03866527
-0.03032152
-0.02166831
-0.00695721
0.00611830
0.04898869
0.05455877
0.12729926
0.11581776
-0.05808721
-0.02550803
0.12286975
0.01671373
-0.10796739
-0.02044870
-0.00752454
-0.00915937
-0.05840075
-0.11704235
-0.09724750
-0.12639515
-0.08946273
-0.04117592
-0.02286225
-0.04823899
-0.05375584
0.04826177
0.03475886
0.02032562
-0.05390445
0.02756722
0.00951127
-0.05219226
-0.06558082
-0.04569978
-0.06426477
-0.01693676
0.04599727
0.01636320
0.04011250
0.04708877
-0.01553981
-0.01559582
-0.00042204
-0.03187812
-0.00684497
-0.00607610
0.02198847
0.01982887
-0.02548476
-0.03384538
-0.00807007
-0.00278816
0.05401491
-0.00670389
0.00780999
-0.01567890
0.01664967
0.00334721
0.04478188
0.02465631
0.02417797
0.02281853
0.03204834
0.05335045
0.02636067
0.07221927
0.05198141
0.04867424
0.03840980
-0.03459392
-0.02967879
0.00466709
-0.00991190
-0.04157925
-0.02202513
-0.02690899
-0.06521221
-0.02944295
-0.05011541
0.02631710
0.02664296
0.02939891
0.05975827
-0.04133686
0.03792697
-0.02166183
0.07543091
0.02285567
0.05545847
-0.01010426
0.01401309
0.06030069
0.00219820
0.02354499
-0.03422066
-0.00281802
-0.05567318
-0.01477173
0.03959546
-0.02549227
0.01449025
0.02473632
-0.00741983
0.04660076
-0.04330681
0.03418564
-0.06333360
-0.06090674
-0.00227138
0.04089881
0.06602812
-0.05321931
-0.06764576
0.03697766
-0.00482346
-0.00813321
-0.03658606
0.01483410
0.03397191
0.00216220
-0.04216053
0.02102846
0.03519423
0.00761189
-0.04279413
0.05237932
0.00219164
-0.04897289
-0.03607620
-0.03843331
0.01392619
0.02156027
-0.01339880
0.00829432
-0.04658461
-0.02678114
-0.04417438
-0.05523454
0.01218912
-0.01477061
-0.02356425
-0.03900315
-0.03438041
0.01889838
-0.03002186
-0.04733375
0.05011619
-0.04352501
0.02419363
0.01649704
-0.00436409
0.07269262
0.01030871
0.02639489
0.02869563
-0.04337446
-0.04801593
-0.02956780
-0.04789921
0.02982060
-0.00390505
-0.06609312
0.01736784
-0.05141817
-0.05390865
0.01979609
-0.03285605
-0.00130743
0.04751334
0.03065344
0.03075906
-0.01600021
-0.06518874
-0.05089454
-0.01006641
0.01330278
-0.01183082
0.01015061
-0.04425369
-0.01164053
-0.05919571
0.03820782
-0.04870433
-0.03537468
-0.00707241
-0.00535332
0.00904841
-0.00504979
0.05611529
-0.01528061
0.03309790
-0.04693166
0.04097437
0.00154650
0.03541245
-0.02256000
-0.02689609
0.04172138
0.03628600
0.06289142
-0.00675814
0.03507400
0.06357518
0.07225233
0.00309775
0.05277996
0.04959965
0.01274744
-0.02560150
-0.05905994
-0.05365533
0.05379437
-0.01493307
-0.09199964
-0.03486363
-0.01828999
-0.00649907
-0.08422774
-0.04128633
-0.01994327
0.00813984
-0.07426507
-0.07726055
0.04291943
-0.00664503
-0.02500008
0.12989925
0.10436016
0.02849551
0.08300196
0.20874442
0.05226479
-0.04249661
-0.00279797
-0.00515074
-0.01803290
-0.15893257
-0.11068691
-0.17152068
-0.14055723
-0.07442952
-0.10237671
-0.04469193
-0.10051718
-0.02125304
-0.06061819
-0.04766558
0.01704233
-0.00131369
0.02164830
-0.00568064
0.01049960
0.02625018
-0.03715868
0.01915525
0.01741752
-0.00760814
0.01211727
0.00653766
-0.04760471
0.05576345
-0.02445018
-0.00759910
-0.00885010
-0.00357324
-0.04344385
0.05473933
-0.03751003
-0.03601823
0.00655084
-0.04588502
-0.05146959
0.01741024
0.05344952
0.06934927
0.00262391
-0.02946209
-0.04629918
0.00040948
-0.03218095
0.03524996
-0.00558458
0.01112795
-0.03424178
0.00590444
-0.02074688
0.02631588
-0.00822770
-0.04623299
-0.04108074
0.01145276
0.04615441
0.04336879
0.02818714
-0.05333432
-0.02302115
0.03573392
-0.04086684
0.04795947
-0.02150450
0.04652151
-0.04093253
-0.05214648
-0.04059541
0.00609877
-0.01219822
-0.04756562
0.02223485
-0.04735733
0.04429450
0.04896634
-0.00098105
0.04798920
-0.04752344
0.00930771
0.03352316
-0.01881422
-0.05322910
-0.04508569
-0.05038139
-0.00341372
-0.00362858
0.03787335
-0.02894499
0.01931158
0.02996452
-0.05210795
-0.03722536
0.03087012
-0.01640259
-0.08328048
0.05865267
0.06456204
0.04468333
-0.03126843
-0.05867656
0.03185176
0.09698598
0.01825974
0.04422635
-0.03481666
0.07364175
0.04112752
-0.02401099
-0.03738004
0.06425621
0.02991231
-0.04594088
0.02217760
0.04925671
0.00505996
-0.03482485
0.03221112
0.03123672
-0.01037718
0.01886198
0.02208534
0.03276113
0.04654285
0.04489224
0.03388988
0.00256205
-0.00327579
0.03911410
-0.00195548
-0.04222214
-0.03810089
0.00144625
0.00009732
0.04120394
0.00493759
-0.04523171
-0.01726348
-0.07356334
-0.04806814
0.03319205
0.02638530
-0.01113684
-0.07633750
-0.06406524
0.01414328
0.02332192
-0.03482557
-0.04102839
0.07558823
-0.00703432
0.02187457
-0.01204842
0.03651970
0.06977629
0.00708595
0.01000900
0.02770935
0.03689397
0.03753754
-0.01403558
-0.06589257
0.04887034
-0.08472522
-0.01444353
-0.08107002
-0.01300573
-0.02836365
-0.05255398
-0.06887634
-0.01277370
0.04759071
0.03420113
0.02678149
0.05915113
-0.01127339
0.05247989
-0.04441155
0.03075670
0.00816764
-0.02910104
-0.03661757
-0.02512092
-0.04181692
-0.03038507
-0.06509021
-0.00067932
0.03679024
0.04761461
-0.05590595
-0.02335826
0.00162105
-0.05257199
-0.01479617
0.04434413
-0.02867766
0.02159905
0.03597296
-0.03618480
0.02001050
0.00930589
-0.05788872
-0.03841475
-0.01821931
0.03868697
-0.05535652
-0.03513961
-0.01191816
-0.01974824
-0.05088383
0.05557350
-0.00041189
-0.05731248
0.00463603
0.02851076
0.01353877
0.00143495
-0.01645128
0.02926054
0.04299415
0.05433850
-0.00890504
-0.02611568
0.00727752
-0.00033108
0.04516807
0.00803466
0.01993822
0.02339938
-0.00428062
0.04516210
0.00189273
0.02003161
-0.02248635
0.00329142
0.05114431
0.01623743
-0.04276816
-0.06489106
-0.03885968
0.01187661
0.05459919
0.06958297
-0.02271918
-0.02538636
0.04685264
0.02410020
0.02075260
0.02221080
-0.02327778
-0.03961703
-0.06743645
-0.06921405
-0.03144490
-0.01332479
-0.07784755
-0.08952399
0.05853176
0.03430084
-0.02071152
-0.01135441
-0.00758793
0.01500050
-0.00693819
0.05730057
-0.06487566
0.00493504
0.06474695
-0.00994908
0.00302765
-0.01484489
-0.05936290
0.06240622
0.04664624
-0.05829085
-0.00430787
-0.01175723
0.05069089
-0.00604605
-0.04260787
0.00029134
-0.00053850
0.02601127
-0.02439599
0.08843793
-0.00213050
0.05983609
0.05665869
-0.00357228
-0.03492504
-0.04214136
0.00613105
-0.02524476
0.01763992
-0.04027506
0.01684157
-0.07199545
-0.06979500
0.01089379
-0.01352436
-0.05620428
-0.02361373
-0.03149961
0.03024254
0.00702290
0.01241206
-0.04555897
-0.05978676
0.01775061
-0.06177386
0.02884066
-0.06943493
-0.03264982
-0.04520776
-0.02606329
-0.06204340
0.01015388
0.03553265
0.03845949
0.04178250
0.05149367
0.01983872
-0.06065693
0.00230121
-0.03661216
0.04878749
-0.02774346
0.00765643
0.03194198
-0.03474019
-0.05349952
0.02236506
0.03542549
-0.06419041
0.04682833
-0.04009449
0.04489379
-0.05501660
0.02918760
-0.04979867
-0.02320117
-0.05315074
0.00136768
-0.02139661
-0.05835259
0.00402375
-0.02564454
-0.06995284
0.02921097
0.01175134
-0.04874550
-0.05657588
-0.02909551
0.01595560
0.00730242
0.00327794
0.01603705
-0.06435109
-0.07194936
-0.03230148
0.03184516
-0.03026136
-0.01179056
-0.00263794
-0.04813188
0.03188832
-0.00242522
0.04351830
-0.03480670
0.04452909
0.05059390
0.05920631
0.04061656
-0.05664036
-0.03351084
-0.02633272
-0.05689882
-0.01753259
0.05503304
0.02879770
0.02164793
-0.06568328
-0.01562325
-0.02656216
0.03671693
0.00163271
-0.00679139
0.04923089
0.04631014
0.05057804
0.03260976
0.00480330
-0.00718024
0.01496913
-0.02676867
-0.04664000
0.05812627
-0.03051668
0.03715336
-0.00716141
0.00871174
-0.04724887
0.05031407
-0.04161917
-0.00870799
0.01798339
0.02063509
-0.05517078
-0.05334184
-0.01226777
0.02181198
-0.04245791
-0.04293896
0.01694785
-0.03776726
0.00930159
-0.05720518
-0.01666746
0.04440454
-0.02807017
0.00988205
-0.04919567
-0.01269752
-0.02168195
-0.02999369
-0.04537879
-0.04963225
0.00892081
-0.03537813
-0.00137325
-0.06147452
-0.05043922
-0.00936221
-0.05888634
0.00339433
0.02133670
0.01859133
-0.01165626
0.02360216
0.01770806
-0.00859651
-0.00806173
-0.05059148
0.01475151
0.05765922
-0.02737717
0.04163183
-0.04990254
-0.00872508
-0.06292969
0.05102674
-0.03124062
-0.04289777
0.01536397
-0.01829240
-0.02748334
-0.04513486
-0.05408734
-0.05666445
-0.02444551
-0.01210598
0.01042165
-0.00320166
0.05642348
-0.02632853
-0.03968853
0.04311492
-0.00213542
-0.03236836
0.00374651
0.00453617
-0.07468421
-0.01044942
0.01248980
0.01508505
-0.03348307
0.01750878
0.04183762
-0.05236574
0.04865336
0.00090426
0.00594174
0.02186969
-0.04821842
-0.02965288
0.04400472
0.06266804
-0.00576823
0.05103099
0.04868605
0.00136342
0.08673569
0.06759840
0.01254266
0.01687555
-0.04204359
-0.03641874
0.05154385
-0.03146001
-0.05379395
-0.07441112
-0.03681846
0.08823948
-0.03877546
0.01301661
0.04624065
-0.00496507
0.05439571
0.01929309
0.04207054
0.04668143
-0.03421608
0.03982984
-0.00638808
0.04100002
0.02058624
0.02579905
-0.04332678
0.01312452
0.02213415
-0.02671496
0.00327712
-0.00247936
0.01782199
-0.04771028
0.04220011
-0.03990833
0.02428831
0.00092186
-0.03912130
-0.03782758
0.03763986
0.02449219
-0.02544700
-0.05346555
0.04746032
0.05477857
-0.00250269
0.01623230
-0.04650387
0.02191879
0.00351607
0.04761475
-0.01720055
0.03082214
-0.03473242
-0.06589284
-0.06197242
-0.03444678
-0.00835052
-0.02063434
0.00561137
0.00267118
0.04536199
-0.03735537
0.01733076
-0.02487686
-0.03351951
0.00925178
-0.02277280
-0.07705846
0.00954941
0.03045803
-0.00264645
0.02597862
0.02296200
0.04860450
0.00657492
0.05426626
-0.02365402
-0.00108542
0.00387267
-0.01299716
-0.04130368
-0.00531165
0.02055880
-0.00603600
-0.04028334
-0.02505251
-0.02060360
-0.01877723
0.04138187
-0.01344858
0.03933210
0.00444234
0.02646081
0.03577925
-0.05494625
-0.03155622
-0.02130465
-0.07077400
-0.07856677
-0.07571545
-0.07595749
-0.07050842
-0.03754987
-0.04368781
-0.07354925
0.02369716
-0.06941368
0.00242612
-0.03909022
-0.06306045
0.00639133
-0.05358851
-0.07327446
-0.08218853
-0.02950396
0.02929490
-0.00774380
-0.00847327
0.03658318
-0.02822306
-0.05553557
-0.01973169
-0.04431034
0.04967130
-0.02613664
-0.01536144
-0.01932647
-0.03733712
-0.05645864
0.04828864
0.02329462
-0.03633658
0.03023428
0.01877824
-0.00777119
-0.04716577
0.00621806
0.01201865
-0.05474603
0.02953998
-0.03329460
-0.03215523
0.05165928
0.00905644
-0.02739453
-0.05185354
-0.01855324
-0.03847996
0.02707862
-0.06571659
-0.01385051
0.04732184
-0.00320739
0.03765659
-0.06933899
0.00638779
0.06337040
0.01625653
-0.04650684
-0.04715944
-0.01072338
-0.05725287
-0.05091549
0.02221975
0.01495955
0.03639875
-0.03526387
0.02276171
0.02473182
-0.04536221
-0.02613299
-0.05076921
0.02247991
-0.05267039
-0.06877804
0.01726958
0.04134539
-0.02637771
0.04394374
-0.01318627
-0.00439611
0.05156087
-0.05914678
-0.06215174
0.00756620
-0.01579793
-0.07408880
0.03736685
0.02669540
0.01482910
-0.06000603
0.02011982
0.02423417
-0.02454670
-0.06281959
0.04211597
-0.03574452
-0.00885222
0.04946825
0.02303476
0.03779788
0.04556033
0.01130875
0.01424247
0.05031337
-0.04891156
-0.00453745
-0.03314655
-0.03528461
0.01751420
0.04014012
0.00936015
0.02100262
-0.03351434
-0.04023296
0.02262414
0.00856851
0.01247663
-0.04434069
-0.00168986
0.01991020
-0.02387656
0.02453939
0.01796110
-0.02549423
0.03353586
0.02473765
0.03769326
-0.02207535
-0.01734540
-0.04952902
-0.04251411
-0.03135655
-0.02840128
-0.00447869
0.01120558
-0.03472995
0.00564085
0.04736428
0.02481357
-0.02370141
-0.01565039
0.01385227
0.00617150
-0.03999957
0.00178616
0.04128820
0.01290983
0.01520296
0.02637456
0.04652818
-0.01436241
-0.02691703
0.04097821
0.04368570
0.02497612
0.01931938
-0.06027221
0.04741626
0.06488215
0.00496945
0.01016032
0.04270557
0.02361621
0.03380800
-0.00458783
0.01910540
-0.03790666
-0.04610252
-0.03491991
-0.01356978
0.03901323
-0.05444688
0.05496661
-0.02143832
-0.02620671
0.05215311
-0.04219964
0.04772071
-0.04467381
0.04269665
-0.02678361
-0.05333261
-0.05746514
-0.05783063
-0.02812731
-0.01453399
-0.03178415
0.02076751
-0.06424778
0.00302918
0.00871605
-0.03970557
-0.05388962
0.02014558
-0.00592908
-0.05020810
0.03841276
0.02122828
0.00752271
0.03008881
-0.03598449
0.05434407
-0.04683087
-0.04799442
0.01647636
0.01766928
0.03552989
0.05223333
0.01346862
-0.01786120
-0.03014734
-0.04073722
-0.00401539
0.04548409
0.02276150
-0.03916597
0.05227374
0.04038222
-0.05108851
-0.04572892
-0.03074446
0.04674865
-0.04778393
0.04254241
0.03783743
0.04773160
0.01476073
-0.01620008
-0.01177005
-0.01092723
-0.00403663
0.03761940
0.03188585
0.03574129
0.05566419
0.04424714
0.03983608
0.03291527
0.00204283
-0.04681789
-0.04344749
0.02730605
-0.02704031
-0.02689187
-0.01944184
0.05143439
-0.02357125
0.01644085
0.00676156
0.00795191
0.01566894
0.04081089
-0.01467017
0.04631728
-0.03321809
-0.03087213
0.03919847
-0.03327897
0.00083126
-0.02982833
0.03951050
-0.03691728
0.03629393
-0.05195532
-0.00450342
0.02996720
0.01493360
-0.01130451
-0.01454987
0.04580015
0.05523147
-0.03302484
-0.03546126
0.05370154
-0.01750504
-0.04324389
0.00238637
0.00774458
-0.05421224
0.03902143
-0.02922322
0.03366384
0.05762568
-0.04905795
-0.00909968
0.02668040
0.00526608
-0.04796210
0.00988578
0.01507470
0.01838040
-0.02264047
0.02218124
0.00906495
-0.02103196
-0.05458834
0.05853065
0.02858864
0.03022025
0.01195437
0.04981662
0.01390018
0.01565924
-0.04328300
-0.03550796
0.00635662
-0.01072835
-0.02518815
-0.00788166
0.05664023
-0.00084660
0.01889479
0.03395846
-0.03493709
-0.05429146
0.04667341
-0.03066032
0.05286241
0.00553282
0.00584177
-0.00662961
0.04742469
-0.02141855
0.00381063
0.01618302
0.03692338
-0.01358394
0.02845888
0.01941469
0.00304414
-0.03829372
0.01406681
0.01215728
-0.02021592
-0.03392077
-0.02174134
0.02057907
-0.00346182
0.02167795
-0.01367265
-0.02696609
0.02500391
0.04114406
-0.00262339
-0.02857425
0.05318435
0.05045876
-0.04959474
0.00515288
0.03224640
-0.03137039
0.01861297
-0.04587140
-0.04592935
0.00678106
-0.00832796
-0.01936577
-0.04738573
0.03669995
0.00859536
-0.02554001
0.00490628
-0.02646641
0.02125004
-0.01971351
0.02544986
0.01567937
0.03012008
0.01409798
0.00958301
-0.02648094
0.02413978
0.00786528
0.00983399
0.00840371
-0.00287397
-0.01827459
-0.03785056
-0.05210562
-0.03146424
-0.05680392
0.01702997
0.03996211
-0.00270607
0.04939173
-0.00852989
0.00397278
0.00683514
0.03811446
0.04866896
-0.04313060
0.02778319
0.03130812
-0.00999426
-0.04746571
0.02274570
-0.05004654
0.00589629
0.03739850
-0.03890619
0.00104933
-0.00322572
0.02991299
0.02803032
0.01587385
-0.03773851
0.00704955
0.02922024
-0.02195953
-0.02241523
0.01957237
-0.00185256
-0.02701486
-0.00861197
-0.04150998
-0.00040781
0.01798561
0.01711261
-0.00877979
-0.05602782
-0.04097745
-0.04026067
0.02099967
-0.04800755
-0.03155329
0.04644075
0.01919239
0.00778273
-0.02532883
0.05470696
0.04065940
-0.03274034
-0.03274250
-0.02043559
0.00553240
0.02789453
0.04022674
-0.04930657
0.00174647
-0.05177556
0.01076404
-0.00374873
0.03265047
-0.01245296
0.00286411
-0.03922847
-0.04686422
-0.03723502
0.01640339
0.04593389
-0.03466147
0.03789658
-0.00521939
0.04574510
0.05147979
0.03274861
0.02592283
-0.03275407
0.02549342
-0.05095971
-0.00635560
-0.03465827
-0.00161710
0.03423875
0.01071733
-0.05219186
-0.00664903
-0.02541748
-0.00017684
0.03114205
-0.00441873
-0.05201966
0.05405540
0.04998649
0.05301367
-0.02808850
-0.02243202
-0.02514030
-0.00281554
-0.03606271
-0.02142396
-0.02631985
0.01092910
0.04907565
-0.05403408
0.00937564
0.00511657
0.04760001
-0.00690279
0.00559317
-0.00605181
-0.00997518
-0.03563350
0.04489369
-0.00110721
0.04119464
-0.01959597
0.04853351
-0.05565039
0.03228785
0.04857459
0.03908453
-0.04038867
0.00865473
0.05025864
0.01955401
-0.04115063
-0.02478562
-0.04338106
0.00283725
0.01729741
-0.05061191
-0.02438135
-0.00872529
-0.00058644
0.02894630
0.01797488
0.03390377
-0.01218756
-0.01198975
-0.03572061
0.02538453
-0.04823194
0.02465383
0.05542398
-0.00599832
0.00658162
-0.00327915
0.00201921
0.02226390
0.01957694
-0.00342503
0.00623905
-0.00729899
-0.04212729
0.02500622
0.04802741
0.02866149
0.03702930
0.02593870
-0.02997281
0.01758872
-0.05570474
0.05088637
-0.00332144
-0.03029305
-0.00916890
-0.02091964
-0.05581065
0.05478718
0.05155738
-0.03748914
0.05757876
-0.02753904
-0.00932738
-0.01578774
-0.04149726
0.04163330
0.05322169
-0.01193386
-0.00598592
-0.03510229
-0.00164079
0.00955337
-0.04872105
0.02162668
0.03344418
0.02427959
0.03283051
0.01678885
0.02760651
-0.05613183
-0.00019182
-0.03099979
0.04318186
-0.06323446
0.05367736
0.02500454
-0.04131618
-0.02690000
-0.03408342
0.00968243
-0.01724680
-0.04318155
-0.01810780
-0.02735594
0.00222047
-0.05046425
-0.03277907
-0.02656536
0.00557409
0.04815232
0.04571509
-0.03148993
0.01537267
-0.03037614
0.04218854
-0.02468230
0.00319614
0.03364498
0.00848561
-0.03544607
-0.04140423
0.01987689
0.01953497
0.05675570
0.04568483
-0.04115570
-0.04364285
-0.04503310
0.02809061
0.05692499
-0.03207622
-0.04611754
0.04072612
0.05353419
-0.00457319
-0.00249077
0.00337652
0.03280363
0.04141593
-0.01668205
0.04963096
-0.00362431
0.03964686
0.02412725
0.05364228
0.00984282
-0.02881114
0.01182726
0.00217067
-0.02146595
-0.00680646
0.04469576
-0.02041470
0.04774799
-0.00592691
0.03093566
-0.05100590
-0.02369167
-0.01951289
0.04384277
-0.02962316
-0.04284241
-0.03278754
0.00351481
-0.01383455
0.04082931
0.01778033
-0.02913478
-0.04626337
-0.05516194
0.01008324
0.05743069
-0.03745304
-0.05402082
-0.02263115
-0.01894501
0.04721370
-0.04502301
-0.06114046
0.03777967
0.03133304
0.00845908
0.02497138
-0.02373308
0.03111421
0.03133994
0.02867196
-0.01691155
-0.04895301
-0.06930669
-0.06290685
0.00265490
0.01664084
0.06338040
-0.01552703
0.00046735
0.00139689
0.00339731
0.05483709
-0.01036023
-0.01711945
-0.04291711
-0.01725782
-0.05228784
-0.07120331
-0.07975511
0.03416629
-0.02334623
0.03080419
0.01146662
-0.00036739
-0.00929530
0.04710176
0.00896008
-0.01400124
-0.03655310
-0.04669659
0.03426267
-0.00136963
0.05820226
0.01411571
-0.05250032
-0.02267225
-0.05324581
-0.02890071
0.05170755
-0.00636095
0.05499766
0.00895637
0.00873317
-0.00747724
0.02240901
0.03747544
0.04795359
0.07829223
0.02557380
-0.03295634
-0.01727416
0.01552069
0.01195686
-0.03578965
0.04229626
-0.05901242
-0.00272573
-0.00449106
0.02281779
0.04770052
-0.04894907
0.00343419
0.03572008
-0.03284938
-0.00758056
-0.01320635
-0.03083665
-0.03553564
-0.00614923
-0.03153007
0.05586879
-0.01939133
0.03997501
0.02662521
-0.04317042
-0.01571707
-0.03348335
0.05904494
0.01245468
0.01510283
-0.03170021
0.01547852
0.03639694
-0.00191013
-0.04174334
0.03253641
-0.01003614
-0.04196800
0.02840017
0.00300755
0.00979761
0.07604562
0.05243960
0.05192140
-0.00002554
-0.01189224
0.01472198
0.05028594
0.04195954
0.05199196
0.00145199
0.05558887
-0.05678514
0.01690377
-0.01399979
0.06234214
0.01896637
-0.03133124
0.01032249
-0.00220621
0.04638745
0.02050064
0.06284501
-0.02640992
-0.00360001
0.04381981
-0.06218015
0.00745703
0.05995596
0.02589746
0.03412478
-0.00472219
0.02400480
-0.00418642
-0.01293826
-0.01257562
0.05694835
0.03330871
0.03813598
0.05659161
-0.03113674
-0.00749034
0.01610503
0.01380402
-0.03619150
0.01866822
0.03525666
-0.02643486
-0.02656571
0.03703581
-0.03054073
0.00913106
-0.03049905
-0.02688425
0.03290244
0.01389445
0.02953359
0.01577424
0.02817586
-0.04190696
-0.01599309
0.04066785
-0.03018077
0.02305694
0.05317556
-0.03606809
0.00128116
0.08069900
-0.02005687
-0.05374772
-0.02446431
-0.02405884
0.02176416
0.04295968
0.03134251
-0.00469547
0.00533658
0.00513865
-0.02930402
-0.04124070
0.04282544
0.05660705
0.01031386
0.04025187
0.00560855
-0.00885299
0.03295215
0.04419016
-0.01204325
0.04461585
0.00624062
0.01187580
-0.05309794
-0.04693736
-0.01096646
-0.03824758
-0.01921149
-0.02096887
0.01646736
-0.03289236
-0.00316990
-0.00190652
-0.01606619
0.03564619
0.03703535
0.01498508
0.00247863
-0.01528285
-0.03795153
0.00645274
-0.05357033
-0.03155791
0.05225488
0.04077863
-0.00823415
0.05869475
0.02002612
0.06107466
-0.01710718
0.01525666
-0.05613476
-0.01514399
0.04046948
0.01829313
0.04656655
-0.02902810
-0.05746649
-0.06569006
-0.06069037
0.00971438
0.00841114
0.04822192
0.00489084
0.04867917
-0.00514074
-0.01286448
0.01426827
-0.03492255
-0.00351099
0.02738451
0.01294242
0.06300952
0.06271914
0.06983538
0.02790561
-0.01888352
-0.00447115
0.10771904
0.01808598
-0.06259376
-0.04248577
-0.08279874
-0.12072857
-0.06394926
0.05356367
0.03085092
0.03982601
-0.00048452
0.06212715
-0.03391559
-0.03059081
-0.01310054
-0.03671610
-0.04166527
-0.02257403
-0.01043665
-0.03698662
-0.00932031
0.03865398
0.01653081
-0.02507536
0.00124780
0.02331184
0.03598759
0.01620639
-0.05256487
-0.02202164
-0.02294081
-0.00457403
-0.02415136
-0.01754583
0.00642286
-0.01821055
-0.02264565
0.00578275
-0.04214399
-0.02178375
0.01819461
0.05026363
-0.01955028
0.04430249
0.03638287
0.04673837
-0.02245959
-0.02941683
-0.02045624
-0.05043418
0.05152896
-0.03662010
0.01645242
0.03604758
-0.01016025
-0.02156200
-0.05020072
-0.05844748
0.05699123
-0.02452473
-0.04422640
0.00720123
0.04054314
-0.05021567
-0.03734110
0.04065032
-0.03901993
0.01855250
-0.00702799
-0.04217422
-0.04438628
-0.00573663
0.00895427
0.04536639
-0.00022048
-0.05706592
0.00852329
0.05111923
-0.00171642
0.04832736
-0.00722604
-0.04278595
-0.04802575
-0.03517958
-0.01288392
-0.01769622
0.04371900
0.04081028
0.03042145
-0.02498101
-0.02251570
-0.00239832
-0.02575692
0.01420559
0.02835155
-0.05032124
0.00681252
-0.02993087
0.04412419
-0.03745566
-0.03981224
0.01185604
0.01209435
-0.04913271
-0.02449187
0.00843727
-0.04276245
0.02111110
-0.03128500
-0.04332505
0.02472123
0.00070306
0.02918442
-0.04810980
0.05542111
0.04097331
0.03496375
-0.00360478
0.03320177
-0.05216207
0.00468054
0.01216143
-0.03536167
0.01854880
-0.03643935
0.04704454
-0.05309353
0.04426352
0.01817132
0.00325815
0.00704046
0.03234100
0.04648978
0.01661453
-0.00155475
-0.01557809
0.02798691
-0.05737458
-0.00539891
-0.03842328
-0.05105943
0.04548414
-0.04050705
0.04375700
0.01258492
-0.00314376
-0.05280452
0.03260354
-0.03981784
-0.01013160
0.06556651
0.06783674
0.01872398
0.05009024
0.04597773
0.04170877
0.03073124
-0.04161803
-0.04711627
0.02565431
-0.04975340
-0.00395834
0.04875043
0.01783812
-0.01061345
-0.05147986
-0.05062245
-0.05890347
0.03756713
-0.01715404
-0.05727545
0.02958210
0.00599538
0.07058997
-0.02222599
0.01708180
0.04401657
0.01445095
0.05556363
0.02434972
0.03648740
0.01036379
0.05273641
-0.05367622
-0.04729985
-0.01433326
-0.04790462
-0.05165712
0.02575124
0.04363081
-0.03611296
-0.01651073
0.02497365
0.03323831
-0.00829255
0.04817634
-0.05205673
-0.04024781
0.02008124
0.03320520
-0.04278249
0.02029659
0.02253411
0.03494352
-0.04182734
0.01347178
0.01787328
-0.01386764
0.00079761
-0.00536307
-0.01038102
-0.04013361
0.00331605
0.01968558
-0.03966654
0.02081566
0.02338615
-0.01182123
0.02745028
0.04179528
-0.03054852
-0.01921291
0.01545655
0.01905472
-0.04361025
-0.01441656
-0.01033413
-0.03161364
-0.02492737
-0.00453142
-0.03573480
0.01091516
0.04433828
-0.04787168
0.00111515
0.01282391
-0.04325880
-0.00453615
-0.00870647
0.02849220
0.04165402
-0.04890649
0.01740035
-0.00445895
-0.01508109
-0.03376830
-0.01622774
0.01033462
-0.00797618
0.07153773
-0.03468700
0.02365849
-0.00830587
-0.08306054
0.02488176
0.02071280
-0.00063193
0.02741925
-0.03763759
-0.03318613
-0.05340587
-0.02014807
0.05196811
0.04138455
-0.02828928
0.01472365
-0.02292022
-0.01438413
0.01055935
0.04463622
0.00647246
0.00566028
0.01270113
-0.04197292
-0.00187806
-0.06524999
-0.03275859
-0.04740383
0.02971716
-0.00980748
-0.07598204
0.00057000
0.00532744
0.01369330
0.05550374
0.07807539
0.07162809
0.04285738
0.01021123
-0.02558645
-0.05562813
0.05674737
-0.00947273
0.00664264
-0.00598786
0.00476293
-0.01731603
-0.00741844
0.01050471
0.01219262
-0.06053752
0.01540667
-0.03281018
0.01218896
0.00021271
0.03599033
0.06987108
0.04080903
-0.04570566
-0.02839523
-0.00265049
0.03142923
0.01804699
-0.05114669
-0.03494618
-0.03807776
-0.02007696
0.03933195
-0.04413474
-0.06951615
-0.01142488
-0.03479622
-0.02272345
-0.04414708
0.00487890
-0.00158250
-0.04693168
0.04361907
-0.01654989
-0.07233910
-0.08070790
-0.00695083
-0.00776746
0.02811304
-0.03073487
-0.04827941
0.02035273
0.05191226
0.05144631
-0.05085420
-0.01439950
0.04523104
0.03606928
-0.04686673
0.03519627
-0.03072202
-0.02797705
0.00699194
0.01340649
-0.05925604
-0.02743102
-0.07797011
-0.03193955
0.03515372
0.01042557
-0.04189383
-0.02413304
0.00437105
-0.02719550
0.01194561
0.01861792
-0.03114425
0.04832912
0.01352868
0.02560611
0.05015581
0.04832721
0.00864063
0.02112717
-0.02460807
0.03164429
-0.04664055
0.03581654
-0.04588878
0.00651325
0.01916603
0.07651701
-0.01174927
0.00253497
0.03706847
0.05683539
-0.05198145
-0.01954444
-0.03846644
0.01619747
0.00919924
0.00289241
-0.02869983
-0.01496228
-0.00307571
0.04338174
-0.02196462
-0.01229231
-0.02861559
-0.00003920
0.03871630
0.05282018
0.02965949
0.03284178
-0.00530606
0.04416142
0.04270006
0.00649878
-0.04631764
-0.03664717
0.00943667
0.05687206
-0.02099671
0.01316753
-0.00466923
-0.02452704
-0.01835875
0.03768810
0.00805679
-0.02123624
-0.01416147
0.03467236
-0.01824287
-0.01019962
0.00270172
-0.03842815
0.04468076
0.00331173
-0.00757955
-0.05210590
-0.05461818
0.00949593
0.04159493
0.02487402
0.10056321
0.10728186
0.07541157
0.04727009
0.04190625
-0.03063629
0.01950604
-0.07845351
-0.07205428
-0.03577336
-0.03686291
0.05670777
0.00604435
-0.03721367
-0.04778798
0.02071492
-0.03391941
-0.02699465
-0.02177691
-0.05326686
0.05011475
0.06145776
0.02052777
0.02460607
0.04842966
0.01708978
-0.05715038
0.00293201
-0.01705920
-0.02587861
-0.04789579
0.00326676
0.02396026
0.05430415
0.01033990
0.04277511
-0.00445871
-0.04904893
-0.04656320
-0.01200572
-0.03307679
0.02162884
-0.06131107
0.04979211
0.04073195
0.01518566
-0.03732171
-0.06043250
-0.01029199
-0.00075466
0.05707269
0.04199746
0.06062510
0.06802074
-0.02832460
0.02349772
0.04248114
0.00923150
-0.07816536
-0.06002047
0.06455451
0.01700631
-0.05778598
-0.01242461
-0.07671253
0.04164350
0.04209069
0.01077523
0.03146721
-0.01038567
-0.09946405
-0.13356845
-0.06663769
0.00890958
0.07685962
0.08521234
0.08098944
0.11191908
0.12707429
0.02096370
0.01216812
0.02485794
0.02595929
-0.17993848
-0.04099165
-0.03113783
-0.02503214
0.00476378
-0.02672161
-0.04496072
-0.00939523
-0.04015308
-0.02539814
0.00188628
-0.02417713
0.05689582
-0.02479667
-0.03870935
0.03017691
-0.01305963
0.01307038
-0.01244927
0.05222375
-0.02448434
-0.05428579
-0.02434609
0.01673227
0.05765087
0.04913414
-0.05331310
0.01958628
0.06472995
-0.01864981
-0.03932538
0.03819527
-0.01785787
0.03837104
0.00333543
0.01730013
-0.03903972
0.00419930
-0.02857934
-0.02148338
0.04064573
-0.00287807
0.00621623
0.00797497
0.03923203
-0.05080168
-0.05251347
0.02962178
0.03029823
-0.04970613
-0.02758766
-0.03957023
-0.04702191
0.02127788
0.02970250
-0.01670106
0.02692815
0.00150039
0.02967337
0.01019768
-0.02153586
-0.03956083
0.00490154
0.01137852
-0.05729562
-0.05293624
0.03707472
0.01071398
-0.02026064
-0.03365305
-0.03714941
-0.02276747
-0.03660325
-0.03480039
0.02145167
0.01222577
-0.03245912
-0.02045003
-0.00339969
0.00645206
0.06624605
0.02943214
0.00080837
0.02782322
-0.01903526
-0.03594906
0.00930624
0.01833151
-0.03917078
0.01340055
0.01746524
-0.03884054
-0.05865234
-0.01280269
-0.04223560
0.04742286
-0.07747046
-0.09703571
-0.02312788
-0.03516730
0.04947724
-0.01751852
-0.05050560
-0.03685441
-0.01989831
-0.01974832
-0.02468663
0.03664608
0.05078292
0.01147393
0.05016728
-0.01550999
0.04661022
-0.02857422
0.00756136
0.03670868
-0.02213053
-0.02005958
-0.04936224
0.05122950
0.01823593
-0.00589792
0.02878237
0.04747436
0.01851118
-0.02393300
-0.00154075
-0.03631534
-0.05889176
0.00324420
-0.02345907
0.04608800
0.00295110
-0.01774149
-0.06778523
0.00591981
-0.04441416
0.00530823
0.02866571
0.03355966
-0.07798074
-0.04674318
0.01539131
-0.02959470
-0.05594135
-0.01264894
0.04227448
0.02021616
0.01363310
0.04408240
0.07758134
-0.01182176
-0.00915294
-0.03489227
0.02785942
-0.02782152
-0.05338138
0.03128816
-0.01532088
-0.03166742
-0.07406981
-0.00958450
-0.02333323
0.01455452
-0.00831355
-0.02134563
0.04068200
0.02914857
-0.01351598
-0.01136965
-0.04639922
0.01629498
0.01407750
0.06186838
0.11821211
0.06356759
-0.05352161
-0.02061933
-0.02380496
-0.03963827
-0.00660389
0.02083193
-0.03458673
0.03765386
0.01992921
0.05815315
0.03254349
-0.03417271
0.05824340
-0.04950392
-0.05696886
0.01886332
-0.02698012
-0.03314218
-0.05498861
0.05035577
-0.03715295
0.04782556
0.05019445
-0.00932132
-0.04087126
0.02646003
-0.02005211
-0.00812929
0.00498071
0.00609758
-0.00813308
-0.02922179
0.05495511
-0.02238123
0.00485411
0.00847030
-0.04961123
-0.01331197
-0.01318234
-0.05608138
-0.04053536
0.04509625
-0.01372127
-0.02953202
-0.04911095
0.01457333
-0.01251807
0.03173074
0.05240240
-0.04577457
-0.02959646
0.07396076
-0.06090949
-0.02225881
0.02114049
0.01247010
0.05383255
0.01275316
-0.05119947
0.04285235
0.03928320
0.04122009
0.03958059
0.00295826
-0.04404219
0.06140424
-0.02179983
-0.01232964
0.04646776
0.06087960
0.04018117
0.00503302
0.00071070
0.04552846
-0.05562615
-0.00717658
-0.03804488
0.00924724
-0.01074896
-0.05284555
-0.04463042
-0.02964118
0.01108829
-0.06034394
0.00102555
0.03406759
-0.02498721
-0.07945939
-0.09171065
0.01320560
-0.05480335
0.05784084
-0.01404335
-0.02520905
0.03111165
-0.05699705
-0.00937846
0.05536773
0.04233626
0.00460095
-0.00735657
0.02627676
0.01087000
0.00763177
-0.00019533
0.00084787
0.03538315
-0.04406539
-0.01615743
-0.00888316
0.02368067
-0.04638061
-0.02944162
0.05110655
0.00477778
0.00855018
0.01727005
0.06580108
-0.02147983
-0.03457829
-0.05160537
0.00095789
0.01080998
0.03001250
-0.01748979
-0.05543413
-0.04508250
0.04086706
-0.01089468
-0.01175836
-0.06762360
0.00719602
-0.05131249
0.05191303
0.05235306
-0.03421377
-0.02042188
-0.02931832
0.02451612
0.04253774
0.02975962
-0.05169959
-0.07086396
-0.01267419
-0.00551306
0.00545773
-0.00638618
0.00978686
0.01537972
0.04709366
0.03214223
-0.02268432
0.01819019
-0.01642548
-0.03351112
-0.02560786
-0.04866657
-0.00475477
-0.00636989
-0.02063248
0.02715993
0.03539603
0.03858195
-0.02721386
-0.00961758
-0.04629869
-0.04013261
-0.02893888
0.03082476
0.01045254
0.02504197
-0.05437815
-0.03232188
-0.03949978
0.00962833
0.04183694
0.01879868
0.05482267
0.01630693
0.02605802
-0.00136941
-0.02518181
-0.03665615
-0.04958998
0.05296368
0.03980266
0.02330966
-0.01271985
-0.05282644
-0.01628733
0.07070660
0.03098979
0.06981703
0.01368639
0.02596398
-0.00772219
0.01910054
0.04444916
-0.00690081
0.04044135
-0.03225186
0.03409458
0.04223621
0.04677360
0.01554354
0.03889175
0.02462164
0.02221892
0.00461961
-0.05345435
-0.01086198
-0.00921920
0.05734601
0.04035093
0.05513517
0.03386197
-0.05696826
0.02218019
0.01007367
0.00512536
-0.00436406
-0.03560087
-0.02312274
0.02231668
-0.04267629
0.03734631
0.05388580
-0.00980013
-0.04238363
0.01937377
0.00398409
0.00596860
0.04905686
0.02355612
0.06780415
-0.00217942
0.05184421
0.06822095
0.02891663
-0.04012466
-0.05379039
-0.02565533
-0.00535979
0.04858329
-0.02852958
-0.03613454
-0.07580157
-0.06171556
0.02043140
0.03851106
-0.02341264
0.04981761
0.03581333
-0.05130233
-0.01908960
0.00835202
-0.01011574
-0.05620305
-0.04037892
0.02504314
0.00408270
0.02209232
0.00221385
0.01009673
0.03883865
0.04216139
0.04889616
0.00656015
0.06423748
0.04890420
0.00885436
0.03783191
-0.03619309
-0.00096485
0.02744528
-0.02946561
-0.02630102
0.04786252
0.00788888
0.05238992
-0.03013408
0.01927957
0.04832143
0.03732313
-0.00717059
0.02898372
0.08312521
0.01480796
-0.07084715
-0.06981222
-0.07636853
0.06804080
0.04636935
0.03774754
-0.01400298
-0.08197361
-0.01304334
-0.01297300
-0.04477886
-0.03705710
0.00503241
-0.00201204
0.05256651
-0.00048953
-0.05054370
-0.01789507
-0.05090791
-0.05289020
0.03190198
0.02863961
-0.02420860
0.00779961
-0.13063633
-0.01898698
-0.04463024
0.05633779
0.16232926
0.11699801
0.03399941
0.02090359
-0.13035691
-0.00362995
0.04264839
0.01341694
-0.04125328
-0.03454562
-0.00670687
0.02799940
0.04545787
0.02822687
-0.03212866
-0.01754652
-0.01428442
0.01770396
-0.02470654
-0.01138793
0.05456431
0.05113992
0.00854800
0.03701280
-0.02787933
-0.03897483
0.00510819
0.05644582
0.01278306
0.05802248
0.03557486
-0.00810900
-0.03102075
-0.00689328
0.00492301
0.04352440
-0.04591516
0.03925238
-0.05162240
-0.06367768
0.01232222
-0.01808014
-0.03168326
-0.03611226
-0.01896554
-0.02374271
0.00131417
-0.02380208
-0.02084428
-0.04106206
-0.02579541
0.05101410
-0.00319492
-0.00724781
-0.04965325
0.02841989
0.08150209
-0.04122371
0.04874414
-0.04821305
0.04059023
0.01808717
-0.00631662
-0.04952899
-0.03642528
0.00013429
-0.04213094
-0.00993078
-0.02297822
0.01342086
0.01115557
-0.01274080
0.04608454
0.02409424
-0.03187858
-0.03088140
0.03823090
-0.00150341
-0.02226869
-0.05064733
0.04522671
0.04800804
0.02126464
0.05564456
-0.02963375
-0.00507206
-0.03442159
0.06054040
0.00529278
-0.03745352
-0.03491004
0.03770265
-0.00797352
-0.04235524
0.02359540
-0.03841142
0.03002192
0.04370444
0.02604146
0.02227784
-0.03908395
0.03337741
0.00092250
-0.03828410
0.02240695
-0.06637578
0.06722950
0.03762088
-0.04194373
0.05171781
-0.05338418
0.05378761
-0.01850916
0.03532209
-0.05344962
0.05785726
0.02407396
0.04931278
-0.04776612
0.03004695
-0.04278140
-0.04013505
0.02625149
-0.04580455
-0.01480492
-0.04381564
-0.02119111
-0.00812063
-0.00172793
0.03012037
0.01471763
-0.02532821
0.04031055
0.03105178
-0.02614713
0.00386193
0.02849942
0.03679438
0.02662758
-0.03074444
0.04243854
-0.00069897
0.04415091
0.01269814
-0.01400740
-0.03263813
-0.05919604
0.04843890
-0.04249820
0.03511439
-0.00555857
-0.03961504
-0.04074533
-0.02833417
-0.01074015
-0.00106360
0.04547053
0.00778354
-0.04478903
0.02484095
0.02911756
-0.00804007
-0.05355499
0.02373313
-0.03750739
-0.01507584
0.02788312
-0.04932793
-0.05838007
0.05613989
-0.03780788
0.02124712
0.06988913
0.00409484
0.03098089
-0.00413633
-0.00729605
0.01650525
-0.00575996
0.07431170
0.05167883
0.05822008
-0.02548236
0.00391069
0.01991996
0.04688119
-0.02201033
0.00795767
-0.00549635
0.04511790
-0.00766893
-0.03498044
-0.02636384
-0.04617599
-0.00447164
-0.04897499
0.01362141
-0.04399777
-0.05345124
0.01485084
0.03128974
-0.00796225
-0.04339582
0.01131525
-0.02828878
-0.02626623
-0.01852119
0.00630391
0.03476228
0.00117245
0.02478603
0.02012522
0.03486481
-0.01840766
-0.05791753
0.03533542
0.02431987
0.03329572
0.03544467
-0.02988466
0.00460524
0.00454134
-0.00553623
0.04620633
0.01628007
0.02068795
0.05309496
0.01397942
0.03900685
-0.04578227
-0.03521224
-0.05720942
0.00960171
0.03892167
0.00165019
-0.03486510
-0.00126132
-0.02262476
-0.02568106
0.01189996
0.05977661
-0.05200803
-0.03388936
0.05453902
0.04309538
0.00911225
-0.07705974
0.05688965
0.00712089
0.00231304
0.06490739
-0.06779727
-0.03442264
-0.00047081
0.01392371
0.04357571
-0.00373585
0.02630118
-0.06810127
0.03323383
0.01636336
-0.00392916
-0.05936116
-0.05459955
-0.02843899
0.05852001
0.07151052
-0.03793130
-0.06412905
0.00425421
0.08869211
-0.06563526
-0.07350310
-0.02267172
0.01168270
0.05671409
-0.07911712
-0.04285861
0.01693631
0.00819606
-0.04928990
-0.04662750
0.08558224
0.05163889
0.02422153
0.06118356
0.04373432
-0.06070228
-0.03551985
0.02160439
-0.03372160
-0.05509266
-0.03780370
-0.02390564
0.03905408
0.01112145
0.00047526
0.04495258
0.02342812
-0.05996061
0.00571515
0.04249749
0.03607310
0.05826283
0.05223962
-0.01983264
0.04494565
-0.05989120
-0.00454788
-0.00011356
-0.02459011
0.04237037
0.02019248
-0.01580362
0.01526196
0.02255789
0.00659980
0.05243578
0.00241966
-0.01448337
0.02539305
0.04637884
0.04859059
-0.06075886
0.04640559
0.02639367
-0.02469628
-0.03032582
-0.02552573
0.01637560
-0.00300333
-0.05456166
0.01309332
-0.03833378
-0.00010029
-0.01097729
-0.03277061
0.01099360
0.03966897
0.00326301
-0.01995936
-0.02610167
-0.02442967
0.04336064
0.01381853
-0.00990222
-0.03391820
-0.01834642
-0.03210945
0.04708228
-0.00928914
0.02030811
0.01110666
-0.05549657
0.05145534
0.00090488
0.03070761
-0.05302383
-0.05756192
-0.05406987
0.02651908
0.00545051
0.00657407
-0.02401503
-0.00671596
-0.02706658
-0.00448693
-0.01366509
-0.05444513
0.03171559
-0.03819751
0.02637842
-0.04061409
0.03225993
-0.00624483
0.02555596
0.04470904
0.02016618
-0.01505720
-0.04577159
-0.05965291
0.04916739
0.06520937
0.04829285
-0.04474645
-0.04458292
-0.05432855
0.00854858
-0.01994193
-0.03368911
-0.05500257
-0.00657060
0.01832493
-0.01746313
0.01625220
-0.02342195
-0.03966409
0.00452955
-0.03090498
0.00258196
-0.00515359
0.05334183
0.05836315
0.04107964
0.01748595
0.05052363
0.00853559
0.00314772
0.01985352
-0.05903460
0.00462862
-0.02958451
-0.04122809
-0.00749252
-0.00290085
-0.00481706
-0.04326826
-0.03652296
0.02640494
-0.05883599
0.05277926
-0.02707239
-0.05105088
0.01479612
-0.00795917
0.01496188
0.06660219
-0.05254703
-0.02944744
-0.06266601
0.01326036
-0.04124178
0.01140244
0.04553782
-0.05624695
-0.00828754
0.01988051
-0.01438287
-0.04255920
-0.00132039
-0.05892330
0.02856302
-0.00860890
0.04962348
-0.02237408
0.04415020
-0.05192264
-0.01815606
-0.04733637
-0.05441803
0.00224080
-0.01264741
0.00803320
0.01432236
-0.01560290
-0.00957636
-0.03687979
0.00796931
-0.02671165
0.02871137
0.06015909
-0.01027169
0.03751573
-0.04516187
-0.03471234
-0.00931967
0.04788323
-0.01591284
-0.00908204
0.05708479
0.05575035
-0.00434957
-0.07476042
0.03608024
-0.02976269
0.04978736
-0.04790526
0.02792954
0.04384952
-0.00815628
0.04167785
-0.01021079
0.00721007
0.07174028
0.06040367
0.01868152
0.05973332
-0.01459702
0.02943390
0.03219530
0.04588646
-0.07264206
-0.10299890
-0.04189070
0.01542423
0.00338381
-0.02968150
-0.05695424
0.01222795
0.06584165
0.00741133
-0.04880043
0.09370107
-0.00002705
0.04075129
-0.01244115
0.06175178
0.04266328
0.03191757
-0.04945026
-0.02982392
0.04783085
0.01494179
0.05298586
-0.01094628
-0.03519148
-0.03089348
-0.02367768
0.05151398
-0.05726278
0.00276528
0.03465581
0.01723931
0.04218126
-0.00772431
0.05703929
0.00816740
0.05159583
0.05785851
-0.02244644
-0.04342901
0.05239303
0.01707692
-0.02586880
0.00724564
-0.05619150
-0.01335202
-0.02151434
0.02817818
0.02398869
-0.03340207
0.00605154
-0.04634343
0.05126449
-0.06201551
-0.00856392
-0.03068388
-0.02033892
0.05302973
0.02755978
0.06092026
-0.03241289
0.00954696
0.05436915
0.02467564
0.01547390
0.01416320
0.04119565
0.00514155
-0.01622038
-0.04821949
0.01864767
0.03381046
0.05170718
-0.01509106
0.05718296
0.04985377
-0.01498335
-0.02167533
-0.03393378
-0.04633704
-0.01625007
0.00405903
-0.05341773
0.04730760
-0.00717566
0.01222434
-0.05275788
0.01642139
-0.02436345
0.04050089
0.03095412
-0.03821024
-0.02476903
-0.03647270
0.03347367
-0.00351308
-0.04453812
0.02277654
-0.06614885
-0.00414886
0.05754484
-0.00259094
-0.03985405
-0.05533976
0.01218856
-0.00660787
-0.01149773
-0.06038747
0.02963075
-0.00654821
0.01691106
0.03203313
-0.05907369
-0.00505944
-0.01897184
-0.03224128
-0.00714122
-0.04063681
0.02865491
0.01664089
-0.05422792
0.03610809
0.05425819
-0.04685441
0.03505436
-0.01991409
-0.03318340
-0.05524047
-0.03188571
-0.03119844
0.00308835
-0.01568777
-0.00439747
0.00998749
-0.01588164
-0.00764760
-0.03721285
0.02494879
-0.00941714
0.04913081
0.02691990
0.05679961
-0.04097688
-0.03846243
0.00179573
-0.05957387
-0.02006601
0.00199777
0.00978271
0.04201551
-0.01692403
-0.02589785
-0.00676230
0.04736697
0.01895430
-0.05382061
0.02911694
0.04667779
-0.01375282
-0.04531131
-0.02967842
-0.00859253
0.01125453
-0.04415905
-0.05805159
-0.03037450
-0.00246122
-0.02494357
-0.02791516
-0.00289360
-0.02222305
0.01936639
0.03138094
0.00095501
0.03013450
-0.04618666
-0.03824280
-0.06064141
0.00035052
0.04678527
0.00013614
-0.05929360
-0.04590154
-0.02305111
-0.02291310
0.04394350
-0.06124959
0.04787659
0.04466274
0.00760860
0.05418070
-0.01044359
0.05686393
-0.04208889
-0.03196737
-0.05646661
0.04193175
-0.01437448
0.03268971
0.04837238
0.00713870
0.05456368
-0.00731883
-0.04978091
-0.00332216
0.03083298
0.01388146
0.04758449
-0.02935695
-0.05170261
0.04082701
0.01746102
-0.04175737
-0.03750429
-0.01716784
-0.04272979
0.05523208
-0.02752658
-0.00122409
-0.00281818
-0.01001331
-0.04328819
0.03087495
0.00235946
0.03474454
-0.03342438
-0.03800800
-0.03901620
-0.04364893
-0.04913588
-0.04039852
0.04059886
0.03015788
0.03399153
0.05812165
-0.02132930
0.00781652
0.00606501
-0.00905876
0.01191056
-0.05072907
-0.01941708
0.02575402
-0.01514420
-0.03884447
-0.03904012
-0.03757050
-0.02652219
0.01521994
-0.02038611
-0.05863732
0.00705145
-0.04956664
-0.02671937
-0.03944116
-0.02318519
-0.01740828
-0.01271155
0.05161904
-0.01145691
-0.05446571
-0.01182003
0.05394738
0.00119854
