-0.62496668
0.62496668
0.49997333
0.49997333
-0.74996001
-0.49997333
0.49997333
-0.12499333
-0.62496668
-0.62496668
-0.12499333
-0.24998666
-0.37498000
0.49997333
0.24998666
0.00000000
-0.12499333
-0.24998666
0.49997333
0.12499333
-0.37498000
-0.24998666
0.62496668
0.12499333
-0.24998666
-0.37498000
0.24998666
-0.24998666
-0.49997333
-0.37498000
-0.24998666
0.12499333
0.74996001
-0.00000000
0.62496668
-0.37498000
-0.74996001
-0.62496668
-0.37498000
0.62496668
0.12499333
-0.24998666
-0.12499333
-0.12499333
0.24998666
-0.12499333
0.62496668
-0.62496668
-0.74996001
-0.37498000
-0.24998666
-0.24998666
-0.12499333
-0.74996001
-0.00000000
0.37498000
0.00000000
-0.49997333
-0.49997333
0.00000000
0.62496668
0.49997333
0.62496668
-0.49997333
-0.62496668
0.62496668
0.24998666
0.62496668
-0.00000000
-0.49997333
0.37498000
-0.49997333
-0.24998666
0.62496668
0.49997333
-0.37498000
-0.24998666
0.12499333
0.37498000
0.00000000
0.00000000
-0.00000000
-0.12499333
-0.62496668
-0.12499333
-0.49997333
0.62496668
-0.37498000
-0.62496668
-0.49997333
0.24998666
-0.12499333
0.24998666
0.37498000
0.12499333
-0.00000000
-0.12499333
0.37498000
-0.24998666
0.49997333
-0.12499333
-0.74996001
-0.49997333
0.49997333
0.12499333
-0.00000000
0.37498000
-0.37498000
-0.37498000
-0.24998666
0.12499333
-0.12499333
-0.12499333
0.37498000
0.62496668
-0.37498000
-0.37498000
0.87495333
-0.37498000
0.74996001
0.00000000
0.12499333
0.49997333
0.49997333
0.12499333
0.49997333
-0.37498000
0.62496668
0.24998666
-0.37498000
0.37498000
0.24998666
0.87495333
-0.24998666
0.49997333
-0.00000000
-0.49997333
0.62496668
-0.12499333
0.24998666
-0.87495333
-0.24998666
-0.24998666
-0.37498000
-0.74996001
0.12499333
0.00000000
-0.37498000
-0.00000000
-0.37498000
0.62496668
0.37498000
-0.24998666
0.12499333
0.49997333
0.37498000
0.49997333
-0.74996001
0.12499333
-0.12499333
0.24998666
-0.74996001
0.12499333
0.12499333
0.00000000
0.62496668
0.24998666
0.24998666
0.00000000
-0.37498000
0.37498000
-0.00000000
-0.62496668
0.12499333
-0.24998666
0.12499333
0.49997333
-0.37498000
0.00000000
0.37498000
0.12499333
0.62496668
-0.12499333
-0.74996001
0.12499333
-0.62496668
0.37498000
0.00000000
-0.62496668
0.62496668
-0.37498000
-0.12499333
-0.62496668
-0.62496668
0.74996001
0.49997333
-0.74996001
-0.12499333
0.12499333
0.12499333
-0.12499333
-0.49997333
0.12499333
0.24998666
0.62496668
0.62496668
0.87495333
0.37498000
0.37498000
0.49997333
-0.37498000
-0.37498000
0.74996001
-0.12499333
-0.62496668
0.37498000
-0.00000000
0.12499333
-0.00000000
0.62496668
0.24998666
0.00000000
-0.12499333
-0.49997333
-0.62496668
-0.24998666
-0.74996001
0.74996001
-0.12499333
-0.12499333
0.24998666
0.24998666
-0.12499333
-0.62496668
0.12499333
0.24998666
-0.49997333
0.62496668
0.37498000
0.12499333
-0.49997333
0.24998666
-0.62496668
-0.12499333
0.62496668
0.24998666
-0.62496668
0.12499333
-0.12499333
0.24998666
-0.00000000
0.24998666
0.12499333
-0.74996001
-0.62496668
0.37498000
-0.37498000
-0.37498000
0.62496668
0.62496668
-0.49997333
0.12499333
-0.24998666
-0.12499333
0.62496668
0.24998666
0.24998666
0.37498000
0.49997333
-0.49997333
-0.00000000
0.74996001
0.00000000
-0.12499333
-0.49997333
0.37498000
0.37498000
-0.49997333
0.62496668
-0.24998666
-0.62496668
0.00000000
0.62496668
-0.62496668
-0.24998666
0.00000000
0.00000000
0.37498000
-0.62496668
-0.24998666
-0.37498000
-0.74996001
-0.62496668
-0.24998666
0.74996001
-0.74996001
0.24998666
0.37498000
0.37498000
-0.37498000
-0.49997333
-0.62496668
0.62496668
0.12499333
0.12499333
-0.74996001
-0.24998666
-0.62496668
-0.62496668
0.74996001
-0.62496668
-0.49997333
-0.37498000
0.37498000
0.12499333
0.00000000
-0.37498000
-0.24998666
0.24998666
-0.62496668
0.62496668
0.49997333
0.00000000
-0.12499333
0.12499333
0.24998666
0.62496668
0.24998666
0.24998666
0.00000000
0.24998666
-0.12499333
0.62496668
0.12499333
0.24998666
0.74996001
-0.49997333
-0.62496668
0.49997333
0.62496668
0.62496668
0.74996001
-0.12499333
-0.12499333
-0.74996001
0.37498000
0.37498000
0.37498000
-0.24998666
0.12499333
0.24998666
-0.49997333
-0.62496668
-0.12499333
0.62496668
0.24998666
-0.24998666
0.24998666
0.24998666
-0.12499333
0.62496668
-0.49997333
-0.37498000
-0.37498000
-0.24998666
0.24998666
-0.37498000
0.24998666
-0.24998666
-0.24998666
0.74996001
-0.00000000
-0.62496668
0.12499333
-0.00000000
-0.49997333
-0.24998666
0.00000000
-0.62496668
0.62496668
0.12499333
-0.00000000
-0.62496668
0.49997333
0.00000000
0.49997333
-0.00000000
0.62496668
-0.62496668
0.87495333
0.74996001
-0.00000000
-0.12499333
0.12499333
-0.62496668
-0.37498000
0.49997333
-0.49997333
0.37498000
0.24998666
0.24998666
-0.24998666
-0.74996001
-0.49997333
-0.49997333
-0.24998666
-0.74996001
0.12499333
-0.12499333
-0.62496668
0.37498000
0.37498000
0.24998666
0.12499333
-0.62496668
-0.12499333
-0.00000000
0.24998666
-0.62496668
0.12499333
-0.00000000
0.49997333
-0.62496668
-0.12499333
0.24998666
0.24998666
-0.74996001
0.62496668
-0.12499333
0.62496668
-0.37498000
0.62496668
0.24998666
-0.00000000
0.37498000
0.74996001
0.49997333
-0.24998666
0.49997333
-0.12499333
0.37498000
0.37498000
-0.12499333
-0.37498000
0.49997333
-0.74996001
-0.74996001
0.12499333
-0.62496668
0.49997333
0.62496668
-0.49997333
0.62496668
-0.49997333
-0.37498000
-0.62496668
-0.49997333
-0.37498000
0.74996001
-0.00000000
-0.74996001
0.24998666
0.62496668
0.62496668
0.24998666
-0.49997333
0.24998666
0.37498000
0.62496668
0.00000000
-0.62496668
0.37498000
-0.37498000
0.12499333
0.37498000
-0.62496668
-0.62496668
-0.62496668
0.24998666
-0.62496668
-0.74996001
0.12499333
0.24998666
-0.24998666
0.37498000
0.74996001
0.74996001
0.12499333
-0.12499333
0.62496668
0.62496668
0.62496668
-0.49997333
-0.49997333
-0.49997333
0.24998666
-0.37498000
0.74996001
0.00000000
-0.49997333
