0.12499333
-0.49997333
-0.87495333
0.62496668
-0.62496668
0.99994665
0.37498000
-0.99994665
0.99994665
-0.62496668
-0.99994665
-0.00000000
-0.74996001
-0.99994665
-0.87495333
0.87495333
0.74996001
-0.74996001
-0.12499333
0.62496668
-0.49997333
0.37498000
0.62496668
-0.99994665
0.00000000
0.24998666
-0.24998666
-0.37498000
0.12499333
0.74996001
-0.49997333
-0.99994665
0.24998666
-0.49997333
0.74996001
-1.24993336
-0.99994665
0.37498000
0.99994665
1.37492669
0.12499333
-1.37492669
-0.12499333
0.62496668
1.12494004
0.12499333
1.12494004
2.12488675
1.62491333
-0.74996001
-0.24998666
-1.24993336
-1.87489998
-1.74990666
-1.49992001
0.87495333
-1.49992001
-2.37487340
-3.24982667
-2.12488675
0.24998666
0.24998666
-1.12494004
0.00000000
-0.99994665
1.62491333
3.12483335
1.99989331
2.74985337
0.74996001
0.74996001
1.74990666
3.12483335
2.24988008
2.62486005
0.24998666
0.37498000
0.74996001
0.37498000
0.24998666
-0.87495333
-0.24998666
0.49997333
0.99994665
1.49992001
-0.12499333
-0.99994665
-0.87495333
-0.49997333
1.62491333
0.12499333
0.37498000
0.37498000
0.49997333
1.37492669
0.87495333
-0.74996001
0.12499333
1.37492669
1.12494004
-1.74990666
-0.74996001
-1.62491333
-2.12488675
-0.12499333
-1.49992001
-0.24998666
-0.12499333
1.12494004
2.12488675
1.49992001
1.99989331
2.12488675
2.49986672
3.37481999
1.24993336
1.99989331
1.62491333
2.24988008
0.37498000
-0.49997333
0.74996001
0.74996001
0.62496668
-0.74996001
-1.12494004
-0.49997333
-0.24998666
-1.74990666
0.62496668
-1.62491333
-0.99994665
-1.62491333
0.12499333
-0.12499333
-0.74996001
-0.62496668
-0.24998666
0.12499333
0.24998666
-0.74996001
-0.49997333
0.87495333
0.00000000
1.24993336
0.24998666
0.12499333
-0.37498000
0.62496668
1.74990666
-0.49997333
1.12494004
0.74996001
0.00000000
-0.87495333
-0.12499333
0.74996001
0.12499333
0.74996001
0.24998666
-0.62496668
-1.12494004
0.12499333
0.62496668
0.37498000
0.74996001
-0.24998666
-0.24998666
0.87495333
1.12494004
0.87495333
0.87495333
-0.12499333
-0.49997333
-0.37498000
1.87489998
2.74985337
1.12494004
-3.12483335
-3.74979997
3.37481999
3.49981332
-0.74996001
-3.24982667
-3.62480664
4.74974680
4.62475348
0.37498000
-0.37498000
-1.24993336
3.99978662
4.37476683
1.24993336
0.24998666
1.24993336
1.24993336
1.74990666
0.99994665
-1.12494004
-0.62496668
-0.24998666
0.87495333
-0.24998666
-2.37487340
-1.87489998
0.74996001
1.62491333
1.49992001
-1.37492669
-0.00000000
-1.37492669
0.99994665
0.74996001
2.37487340
0.62496668
-0.24998666
2.37487340
3.99978662
4.49976015
2.99984002
-0.37498000
2.12488675
3.12483335
2.74985337
0.24998666
-0.00000000
-0.24998666
-0.99994665
-0.99994665
-0.87495333
0.62496668
0.74996001
0.99994665
0.12499333
-0.74996001
0.12499333
0.99994665
-0.87495333
-0.74996001
-0.24998666
-0.24998666
-0.37498000
0.99994665
0.49997333
-0.99994665
-0.24998666
0.74996001
-0.37498000
0.12499333
0.37498000
0.62496668
0.49997333
0.62496668
0.24998666
-0.12499333
-0.74996001
-0.00000000
0.62496668
-0.24998666
-0.37498000
-1.12494004
1.12494004
0.24998666
0.87495333
0.99994665
-0.24998666
1.12494004
0.87495333
-0.74996001
0.99994665
1.49992001
-0.00000000
-0.99994665
-0.00000000
0.37498000
0.62496668
0.99994665
-0.49997333
1.24993336
0.24998666
-0.62496668
-0.99994665
-0.99994665
0.99994665
-0.12499333
0.74996001
-1.37492669
-0.74996001
-0.87495333
1.12494004
-0.37498000
-0.37498000
0.74996001
-0.62496668
-0.49997333
0.87495333
0.99994665
0.62496668
-0.12499333
-0.74996001
0.74996001
0.24998666
-0.99994665
-0.62496668
0.12499333
-0.99994665
0.74996001
-0.87495333
-0.87495333
-0.74996001
0.00000000
-0.49997333
0.62496668
0.74996001
0.49997333
-0.99994665
-0.49997333
0.49997333
0.00000000
0.12499333
0.12499333
-0.99994665
-0.37498000
0.49997333
-0.12499333
-1.49992001
-1.99989331
-1.37492669
-0.62496668
2.12488675
-1.74990666
-0.87495333
-0.49997333
0.99994665
1.87489998
-1.37492669
-1.99989331
0.49997333
1.24993336
0.49997333
-1.49992001
-0.74996001
1.74990666
2.24988008
1.62491333
1.37492669
2.12488675
1.24993336
0.49997333
0.24998666
0.99994665
2.12488675
0.12499333
-1.62491333
-0.49997333
2.62486005
1.24993336
-1.62491333
-1.37492669
-1.49992001
1.74990666
0.24998666
-1.37492669
-0.37498000
0.00000000
2.62486005
0.24998666
-1.74990666
-0.24998666
-0.37498000
1.24993336
1.24993336
0.62496668
-1.24993336
0.62496668
0.24998666
1.24993336
1.74990666
0.87495333
2.87484670
0.74996001
-0.12499333
0.62496668
0.49997333
0.49997333
-1.87489998
-1.12494004
-1.62491333
-1.37492669
0.12499333
-1.62491333
-0.87495333
-2.12488675
-0.99994665
-1.24993336
-0.49997333
-1.37492669
-1.12494004
-1.37492669
-0.37498000
-0.24998666
-1.62491333
-1.37492669
-1.12494004
-0.99994665
0.62496668
-1.37492669
-1.37492669
-0.24998666
0.12499333
0.62496668
-1.24993336
0.24998666
0.49997333
0.74996001
0.74996001
0.49997333
0.12499333
1.87489998
3.12483335
1.74990666
2.49986672
3.37481999
2.99984002
2.87484670
-0.74996001
-0.49997333
-0.12499333
0.12499333
0.37498000
0.00000000
-0.87495333
0.62496668
0.24998666
-0.12499333
-0.99994665
0.74996001
-0.87495333
-0.62496668
-0.24998666
0.00000000
-0.24998666
0.49997333
-0.62496668
-0.12499333
-0.87495333
0.24998666
0.99994665
-0.49997333
-0.99994665
-0.49997333
0.49997333
0.99994665
1.74990666
2.74985337
0.00000000
0.62496668
2.37487340
2.62486005
2.12488675
-0.12499333
1.49992001
0.87495333
-0.99994665
-1.62491333
0.74996001
0.24998666
-1.74990666
-1.74990666
-2.12488675
-0.49997333
-1.49992001
-2.37487340
-1.74990666
-1.62491333
0.99994665
0.99994665
2.12488675
2.24988008
1.62491333
-0.24998666
1.74990666
0.12499333
2.49986672
1.37492669
-1.49992001
-0.62496668
-0.99994665
1.99989331
3.12483335
-1.87489998
-0.12499333
-0.62496668
2.74985337
2.74985337
-1.62491333
-1.49992001
-0.87495333
0.49997333
0.49997333
