-0.37498000
0.12499333
-0.49997333
0.12499333
-0.37498000
-0.49997333
0.00000000
0.24998666
0.12499333
0.49997333
0.12499333
-0.12499333
-0.12499333
0.24998666
0.12499333
-0.49997333
-0.24998666
0.24998666
0.12499333
-0.12499333
-0.12499333
0.49997333
-0.37498000
-0.24998666
-0.12499333
-0.37498000
-0.37498000
0.49997333
0.49997333
0.37498000
0.37498000
-0.12499333
-0.37498000
0.00000000
0.49997333
-0.49997333
-0.37498000
-0.24998666
0.49997333
-0.49997333
0.49997333
-0.24998666
0.49997333
-0.12499333
-0.00000000
0.00000000
-0.12499333
0.37498000
0.49997333
-0.24998666
-0.12499333
-0.24998666
-0.24998666
-0.49997333
-0.12499333
-0.37498000
-0.37498000
0.24998666
0.12499333
0.12499333
0.12499333
-0.49997333
0.00000000
0.12499333
0.12499333
-0.12499333
-0.37498000
-0.24998666
0.12499333
0.00000000
-0.37498000
-0.49997333
-0.37498000
0.24998666
-0.62496668
0.24998666
-0.37498000
-0.49997333
0.24998666
-0.24998666
0.12499333
0.49997333
-0.24998666
0.00000000
0.49997333
-0.49997333
-0.24998666
-0.24998666
0.49997333
-0.49997333
0.00000000
-0.49997333
0.00000000
-0.49997333
-0.24998666
0.49997333
0.37498000
-0.12499333
-0.49997333
-0.24998666
0.37498000
0.24998666
0.00000000
0.12499333
-0.37498000
0.00000000
-0.12499333
-0.12499333
0.37498000
-0.37498000
0.12499333
-0.49997333
-0.37498000
0.49997333
0.37498000
0.24998666
-0.12499333
0.12499333
0.24998666
0.00000000
-0.37498000
-0.24998666
-0.24998666
0.37498000
-0.12499333
-0.24998666
0.12499333
0.24998666
0.37498000
0.24998666
0.00000000
0.00000000
0.37498000
-0.12499333
0.49997333
-0.12499333
0.24998666
0.00000000
-0.49997333
-0.24998666
-0.49997333
-0.49997333
0.49997333
0.12499333
-0.37498000
0.12499333
0.49997333
-0.12499333
-0.37498000
-0.24998666
0.00000000
-0.12499333
0.37498000
0.12499333
-0.37498000
0.49997333
0.49997333
-0.12499333
0.00000000
-0.37498000
0.37498000
-0.24998666
0.24998666
-0.37498000
0.37498000
0.49997333
0.62496668
-0.37498000
-0.24998666
-0.12499333
-0.37498000
-0.37498000
-0.12499333
0.12499333
-0.49997333
0.49997333
0.24998666
0.37498000
-0.37498000
0.37498000
-0.37498000
-0.37498000
-0.37498000
-0.24998666
0.24998666
0.12499333
-0.12499333
0.37498000
0.12499333
0.00000000
0.37498000
0.24998666
-0.49997333
-0.24998666
0.37498000
0.12499333
0.49997333
-0.12499333
-0.00000000
-0.49997333
0.12499333
0.37498000
-0.62496668
-0.62496668
0.00000000
-0.37498000
0.12499333
0.12499333
-0.12499333
-0.12499333
-0.12499333
-0.62496668
-0.24998666
0.49997333
-0.12499333
-0.24998666
0.49997333
-0.37498000
-0.24998666
-0.62496668
-0.24998666
0.12499333
0.49997333
-0.49997333
-0.12499333
-0.12499333
-0.12499333
0.62496668
-0.37498000
0.12499333
-0.12499333
-0.00000000
0.12499333
-0.24998666
0.12499333
-0.37498000
0.12499333
0.62496668
0.49997333
0.37498000
-0.12499333
0.00000000
-0.24998666
0.49997333
0.24998666
0.24998666
-0.37498000
-0.24998666
-0.24998666
-0.12499333
-0.49997333
0.37498000
0.12499333
0.00000000
-0.49997333
-0.49997333
0.37498000
0.00000000
-0.62496668
-0.37498000
-0.49997333
-0.24998666
-0.24998666
0.00000000
0.49997333
0.24998666
-0.37498000
-0.24998666
-0.37498000
0.62496668
0.49997333
0.24998666
0.12499333
-0.12499333
0.24998666
-0.49997333
0.37498000
-0.49997333
-0.24998666
0.12499333
0.00000000
0.12499333
0.37498000
0.12499333
-0.37498000
-0.24998666
0.24998666
-0.62496668
-0.37498000
-0.37498000
0.00000000
0.49997333
-0.37498000
0.12499333
-0.24998666
0.37498000
-0.49997333
-0.49997333
-0.37498000
0.49997333
0.49997333
-0.37498000
-0.24998666
0.24998666
-0.12499333
0.12499333
-0.49997333
-0.37498000
0.12499333
-0.24998666
0.49997333
0.24998666
0.37498000
0.12499333
0.37498000
-0.24998666
-0.37498000
0.37498000
0.24998666
0.00000000
-0.12499333
-0.24998666
0.12499333
0.37498000
-0.37498000
-0.24998666
-0.12499333
-0.37498000
0.00000000
0.37498000
0.12499333
-0.49997333
0.24998666
0.12499333
0.37498000
-0.62496668
-0.37498000
0.49997333
-0.12499333
-0.24998666
0.49997333
0.24998666
-0.49997333
-0.24998666
-0.49997333
0.00000000
-0.49997333
-0.49997333
0.24998666
0.24998666
0.12499333
-0.49997333
0.12499333
0.49997333
-0.37498000
-0.12499333
-0.24998666
0.24998666
-0.37498000
-0.24998666
0.00000000
0.12499333
0.12499333
0.62496668
0.37498000
0.12499333
0.62496668
0.49997333
-0.24998666
-0.49997333
0.24998666
0.37498000
0.37498000
0.24998666
-0.62496668
0.12499333
0.12499333
0.00000000
0.24998666
-0.49997333
-0.24998666
0.12499333
0.00000000
-0.37498000
-0.24998666
0.12499333
0.37498000
0.37498000
0.24998666
-0.37498000
0.12499333
0.49997333
0.24998666
-0.24998666
-0.37498000
-0.12499333
-0.37498000
0.24998666
-0.24998666
0.24998666
-0.49997333
0.24998666
-0.49997333
0.49997333
0.37498000
0.00000000
0.49997333
0.12499333
-0.62496668
-0.12499333
-0.49997333
-0.62496668
0.12499333
0.49997333
0.37498000
-0.37498000
-0.12499333
-0.37498000
0.00000000
-0.37498000
0.24998666
-0.12499333
0.37498000
-0.37498000
-0.49997333
0.12499333
-0.24998666
-0.49997333
0.12499333
0.37498000
-0.37498000
0.12499333
0.12499333
0.49997333
0.37498000
-0.24998666
0.24998666
0.37498000
0.37498000
0.00000000
-0.49997333
-0.24998666
0.24998666
-0.12499333
0.49997333
0.49997333
-0.37498000
-0.37498000
-0.49997333
-0.12499333
0.49997333
-0.12499333
0.24998666
0.12499333
-0.49997333
0.24998666
0.49997333
-0.37498000
-0.37498000
0.24998666
0.00000000
-0.49997333
-0.37498000
-0.12499333
0.49997333
0.24998666
-0.49997333
0.12499333
0.12499333
0.00000000
-0.49997333
0.49997333
0.12499333
0.12499333
-0.37498000
0.12499333
-0.37498000
-0.37498000
-0.49997333
-0.12499333
0.49997333
0.37498000
-0.24998666
-0.62496668
0.24998666
-0.24998666
-0.12499333
-0.37498000
-0.37498000
-0.62496668
-0.49997333
-0.49997333
-0.49997333
0.12499333
0.12499333
-0.24998666
-0.37498000
0.24998666
0.37498000
0.12499333
0.12499333
-0.00000000
-0.37498000
-0.12499333
-0.12499333
-0.24998666
-0.49997333
0.37498000
0.00000000
-0.49997333
0.24998666
0.00000000
0.62496668
-0.49997333
0.12499333
0.49997333
0.12499333
-0.12499333
0.00000000
0.49997333
0.12499333
-0.37498000
-0.12499333
0.24998666
0.00000000
-0.49997333
0.37498000
-0.37498000
0.12499333
0.24998666
-0.37498000
0.12499333
0.37498000
0.37498000
-0.49997333
-0.24998666
0.37498000
0.37498000
-0.00000000
0.00000000
-0.12499333
0.49997333
-0.37498000
0.37498000
0.37498000
-0.24998666
-0.37498000
-0.00000000
0.37498000
0.49997333
0.49997333
0.37498000
-0.12499333
-0.12499333
-0.62496668
0.24998666
-0.37498000
-0.37498000
-0.62496668
0.12499333
0.37498000
0.24998666
0.24998666
0.00000000
0.49997333
-0.37498000
-0.00000000
-0.24998666
-0.00000000
0.62496668
0.12499333
-0.24998666
-0.00000000
-0.24998666
-0.49997333
-0.12499333
0.24998666
0.24998666
0.49997333
-0.24998666
-0.24998666
-0.00000000
-0.00000000
-0.37498000
0.24998666
-0.24998666
-0.12499333
0.37498000
-0.37498000
0.00000000
-0.49997333
-0.24998666
-0.12499333
-0.24998666
-0.49997333
-0.49997333
0.49997333
-0.49997333
0.37498000
0.12499333
0.49997333
-0.49997333
-0.37498000
-0.12499333
-0.24998666
-0.37498000
-0.12499333
-0.74996001
-0.37498000
0.12499333
0.12499333
0.12499333
-0.00000000
-0.62496668
0.12499333
-0.12499333
0.12499333
0.49997333
-0.37498000
0.24998666
0.24998666
0.37498000
-0.62496668
-0.62496668
-0.12499333
-0.12499333
-0.00000000
-0.12499333
0.37498000
-0.12499333
-0.37498000
0.49997333
-0.12499333
0.49997333
-0.00000000
0.24998666
0.24998666
0.12499333
0.49997333
0.37498000
-0.00000000
-0.49997333
-0.37498000
-0.00000000
-0.37498000
-0.12499333
-0.24998666
-0.24998666
0.49997333
0.12499333
-0.49997333
0.49997333
0.49997333
-0.12499333
-0.49997333
0.37498000
0.37498000
0.24998666
0.37498000
-0.37498000
-0.12499333
-0.49997333
0.37498000
0.37498000
0.00000000
-0.24998666
0.12499333
-0.37498000
0.24998666
-0.37498000
-0.00000000
-0.49997333
-0.24998666
0.24998666
-0.24998666
0.12499333
-0.37498000
-0.62496668
-0.49997333
-0.62496668
-0.12499333
-0.74996001
-0.49997333
-0.62496668
-0.62496668
-0.12499333
0.37498000
0.12499333
-0.49997333
-0.24998666
0.24998666
0.12499333
0.12499333
0.24998666
-0.37498000
0.37498000
0.37498000
0.74996001
0.62496668
0.12499333
0.24998666
-0.24998666
-0.00000000
-0.37498000
-0.24998666
-0.74996001
-0.74996001
-0.00000000
0.12499333
-0.62496668
0.37498000
0.62496668
-0.12499333
0.37498000
0.12499333
0.62496668
0.74996001
-0.37498000
0.12499333
-0.37498000
0.49997333
0.12499333
-0.24998666
0.12499333
0.49997333
0.24998666
0.37498000
-0.00000000
0.00000000
-0.24998666
-0.24998666
-0.49997333
0.00000000
0.24998666
0.00000000
-0.49997333
-0.37498000
0.37498000
0.37498000
0.37498000
0.49997333
0.49997333
-0.24998666
0.37498000
0.37498000
0.49997333
-0.37498000
0.24998666
-0.37498000
-0.24998666
0.49997333
-0.00000000
-0.49997333
0.12499333
0.12499333
0.49997333
-0.49997333
-0.12499333
-0.37498000
0.24998666
-0.00000000
-0.00000000
-0.00000000
0.49997333
0.62496668
0.49997333
-0.49997333
-0.24998666
-0.24998666
-0.24998666
0.12499333
0.37498000
-0.37498000
-0.49997333
-0.12499333
0.12499333
0.12499333
0.49997333
0.37498000
-0.37498000
-0.49997333
0.12499333
-0.12499333
-0.12499333
-0.00000000
-0.00000000
-0.37498000
0.24998666
-0.12499333
-0.00000000
-0.24998666
-0.24998666
-0.49997333
0.49997333
-0.24998666
-0.24998666
-0.00000000
0.37498000
0.37498000
0.24998666
0.49997333
0.24998666
-0.37498000
0.12499333
0.37498000
0.00000000
0.12499333
0.00000000
0.00000000
-0.24998666
0.49997333
0.24998666
0.12499333
0.49997333
0.62496668
-0.49997333
-0.37498000
0.37498000
0.12499333
0.12499333
-0.24998666
-0.37498000
0.12499333
-0.49997333
-0.62496668
-0.00000000
0.24998666
-0.24998666
0.37498000
0.12499333
-0.00000000
0.24998666
-0.37498000
-0.37498000
-0.37498000
0.62496668
-0.24998666
-0.12499333
-0.49997333
-0.49997333
0.37498000
0.12499333
-0.49997333
-0.49997333
0.24998666
0.24998666
-0.12499333
0.12499333
0.37498000
0.12499333
0.12499333
-0.62496668
0.37498000
-0.49997333
-0.49997333
-0.49997333
-0.12499333
-0.24998666
-0.37498000
0.49997333
0.12499333
-0.00000000
0.37498000
0.37498000
-0.00000000
-0.49997333
0.12499333
-0.24998666
-0.00000000
0.37498000
-0.12499333
0.49997333
0.12499333
0.49997333
-0.00000000
-0.37498000
0.12499333
0.62496668
-0.24998666
-0.24998666
-0.12499333
0.62496668
0.24998666
0.12499333
0.24998666
-0.00000000
-0.00000000
0.49997333
0.24998666
0.37498000
0.37498000
-0.37498000
0.12499333
0.49997333
0.12499333
-0.00000000
-0.12499333
-0.24998666
-0.24998666
0.24998666
-0.37498000
-0.62496668
-0.12499333
0.24998666
0.24998666
-0.24998666
-0.00000000
0.24998666
0.37498000
-0.62496668
0.12499333
0.37498000
0.49997333
-0.12499333
-0.49997333
0.49997333
0.24998666
0.24998666
0.24998666
0.00000000
-0.24998666
-0.24998666
-0.24998666
-0.00000000
-0.49997333
0.49997333
-0.24998666
0.49997333
0.12499333
0.00000000
-0.12499333
-0.37498000
0.00000000
0.49997333
0.00000000
-0.37498000
0.62496668
-0.37498000
-0.37498000
0.12499333
0.37498000
0.00000000
-0.62496668
0.24998666
0.12499333
-0.49997333
-0.37498000
-0.37498000
-0.49997333
-0.37498000
0.24998666
-0.24998666
0.24998666
-0.49997333
0.37498000
0.49997333
0.37498000
-0.37498000
-0.24998666
0.37498000
0.24998666
-0.37498000
-0.62496668
-0.37498000
-0.00000000
0.24998666
-0.00000000
0.37498000
0.12499333
0.49997333
-0.49997333
0.12499333
0.24998666
0.24998666
-0.12499333
-0.00000000
-0.37498000
0.12499333
-0.62496668
0.49997333
-0.00000000
0.24998666
-0.37498000
-0.12499333
0.37498000
-0.49997333
0.37498000
0.37498000
-0.12499333
-0.37498000
0.12499333
-0.37498000
-0.49997333
-0.12499333
-0.49997333
0.62496668
0.12499333
0.62496668
-0.37498000
-0.24998666
0.00000000
0.24998666
0.12499333
-0.12499333
-0.12499333
0.24998666
-0.24998666
-0.00000000
-0.12499333
0.49997333
0.49997333
0.12499333
0.12499333
-0.37498000
-0.49997333
0.12499333
-0.12499333
-0.12499333
0.24998666
0.24998666
0.12499333
-0.49997333
0.12499333
0.49997333
-0.12499333
0.62496668
0.62496668
0.37498000
-0.37498000
-0.49997333
-0.37498000
0.12499333
0.74996001
0.12499333
-0.00000000
-0.12499333
0.74996001
-0.24998666
-0.00000000
-0.49997333
0.49997333
-0.12499333
-0.37498000
-0.37498000
0.12499333
-0.12499333
0.37498000
-0.12499333
0.37498000
0.24998666
-0.24998666
-0.37498000
-0.49997333
-0.24998666
-0.37498000
-0.99994665
-0.74996001
-0.24998666
0.12499333
-0.00000000
-0.49997333
-0.99994665
-0.62496668
-0.24998666
-0.37498000
-0.49997333
-0.87495333
-0.99994665
-0.24998666
0.24998666
-0.24998666
-1.12494004
-0.24998666
0.24998666
-0.12499333
0.37498000
0.49997333
0.37498000
-0.00000000
0.24998666
0.62496668
0.24998666
-0.24998666
-0.12499333
0.24998666
0.49997333
-0.00000000
0.37498000
-0.00000000
-0.12499333
-0.24998666
0.49997333
-0.00000000
-0.12499333
-0.24998666
-0.37498000
-0.00000000
-0.49997333
0.24998666
0.12499333
0.12499333
0.62496668
1.12494004
-0.62496668
-0.99994665
-0.99994665
0.49997333
0.12499333
-0.87495333
-1.74990666
-0.74996001
-0.00000000
0.49997333
-1.24993336
-0.49997333
-0.24998666
0.12499333
-0.00000000
-0.00000000
-0.24998666
0.12499333
0.12499333
0.24998666
-0.00000000
0.49997333
-0.37498000
0.37498000
-0.37498000
-0.62496668
-0.24998666
-0.12499333
-0.49997333
-0.12499333
-0.74996001
0.49997333
0.37498000
0.37498000
-0.49997333
-0.12499333
-0.24998666
-0.37498000
0.49997333
-0.37498000
-0.49997333
-0.00000000
0.24998666
-0.37498000
-0.49997333
0.49997333
-0.00000000
0.49997333
-0.24998666
-0.12499333
-0.49997333
-0.24998666
0.49997333
-0.00000000
0.24998666
-0.24998666
-0.12499333
0.37498000
0.24998666
0.12499333
0.37498000
-0.24998666
-0.00000000
-0.49997333
0.37498000
0.24998666
0.37498000
-0.12499333
0.12499333
0.24998666
0.37498000
0.24998666
-1.62491333
-0.74996001
1.24993336
2.49986672
-1.24993336
-1.62491333
-2.24988008
0.99994665
3.24982667
-1.12494004
-1.24993336
-1.12494004
0.62496668
2.74985337
-0.74996001
-1.37492669
-0.62496668
1.49992001
0.87495333
-0.49997333
-0.99994665
-0.49997333
0.12499333
-0.12499333
-0.49997333
-0.87495333
0.24998666
1.87489998
0.24998666
-1.49992001
-0.99994665
0.24998666
1.37492669
-0.74996001
-1.37492669
-0.87495333
-0.00000000
0.24998666
0.12499333
-0.62496668
-0.62496668
-0.00000000
0.37498000
0.37498000
-0.00000000
-0.24998666
-0.49997333
-0.12499333
-0.24998666
0.49997333
0.12499333
0.00000000
-0.24998666
-0.12499333
0.00000000
-0.12499333
-0.00000000
-0.00000000
0.24998666
-0.12499333
-0.24998666
0.24998666
-0.12499333
-0.49997333
0.49997333
0.24998666
-0.12499333
-0.37498000
-0.37498000
-0.24998666
0.37498000
-0.24998666
-0.37498000
0.62496668
0.24998666
-0.12499333
0.37498000
-0.37498000
0.12499333
-0.12499333
0.37498000
0.37498000
-0.00000000
0.24998666
0.24998666
0.24998666
-0.62496668
-0.12499333
0.12499333
-0.37498000
-0.49997333
-0.00000000
-0.00000000
-0.24998666
0.49997333
0.24998666
-0.62496668
-0.00000000
0.49997333
-0.49997333
0.24998666
0.49997333
-0.62496668
-0.49997333
-0.37498000
-0.37498000
-0.37498000
-0.12499333
-0.37498000
-0.12499333
-0.12499333
-0.37498000
0.24998666
-0.62496668
0.12499333
0.37498000
0.24998666
0.24998666
-0.12499333
0.12499333
-0.37498000
0.24998666
-0.37498000
-0.12499333
-0.24998666
-0.49997333
0.12499333
0.12499333
0.37498000
0.37498000
0.37498000
0.12499333
-0.12499333
0.00000000
-0.62496668
0.00000000
0.49997333
0.37498000
-0.37498000
-0.12499333
-0.12499333
-0.24998666
0.37498000
-0.24998666
0.62496668
0.00000000
-0.24998666
-0.12499333
-0.12499333
0.37498000
0.37498000
-0.12499333
-0.00000000
-0.24998666
-1.12494004
-0.49997333
0.62496668
0.24998666
-1.12494004
-0.74996001
-0.49997333
0.62496668
-0.49997333
-0.74996001
0.37498000
-0.37498000
0.62496668
-0.37498000
-0.74996001
0.24998666
0.12499333
-0.12499333
-0.24998666
0.24998666
-0.49997333
-0.62496668
-0.49997333
0.49997333
0.74996001
-0.00000000
-0.12499333
0.00000000
0.24998666
1.74990666
0.37498000
-0.12499333
-0.62496668
0.37498000
1.37492669
-0.00000000
-0.00000000
-0.00000000
0.24998666
0.99994665
-0.24998666
-0.12499333
-0.00000000
-0.12499333
-0.37498000
0.37498000
-0.74996001
0.24998666
-0.99994665
-0.00000000
-0.12499333
0.00000000
-0.87495333
-0.37498000
-0.99994665
-0.12499333
0.00000000
-0.37498000
-1.12494004
-0.24998666
-0.12499333
-0.00000000
-0.00000000
-0.49997333
0.12499333
-0.49997333
-0.24998666
-0.12499333
0.12499333
-0.49997333
0.37498000
-0.12499333
0.87495333
0.37498000
-1.24993336
-1.49992001
-0.24998666
1.12494004
0.37498000
-1.12494004
-0.12499333
-0.74996001
0.49997333
-0.24998666
-0.99994665
-0.00000000
0.12499333
0.49997333
-1.12494004
-0.12499333
0.49997333
-0.74996001
-0.87495333
-0.24998666
0.37498000
0.12499333
0.49997333
-0.12499333
0.24998666
-0.24998666
0.00000000
-0.37498000
0.24998666
0.00000000
-0.24998666
-0.37498000
0.24998666
0.00000000
-0.12499333
0.49997333
0.24998666
0.12499333
-0.37498000
-0.24998666
0.49997333
-0.37498000
-0.12499333
-0.49997333
-0.12499333
-0.24998666
0.00000000
-0.74996001
-0.99994665
-0.62496668
-0.37498000
-0.12499333
0.00000000
-0.37498000
-0.49997333
-0.00000000
-0.37498000
-0.74996001
-0.12499333
-0.24998666
-0.49997333
-0.87495333
-0.37498000
0.12499333
-0.12499333
-0.37498000
0.12499333
-0.00000000
-0.37498000
0.12499333
-0.37498000
0.37498000
-0.12499333
0.87495333
1.12494004
-0.87495333
-1.24993336
-0.49997333
1.74990666
0.87495333
-1.24993336
-0.87495333
-0.74996001
1.37492669
-0.24998666
-0.37498000
-0.37498000
-0.00000000
0.62496668
-0.12499333
-0.62496668
-0.00000000
0.24998666
-0.00000000
-0.37498000
0.12499333
0.37498000
0.37498000
0.24998666
0.62496668
0.37498000
-0.24998666
0.12499333
-0.49997333
0.00000000
-0.49997333
0.49997333
-0.37498000
-0.12499333
0.24998666
-0.12499333
-0.49997333
-0.24998666
0.49997333
-0.12499333
-0.49997333
0.12499333
-0.24998666
-0.37498000
0.49997333
-0.37498000
0.37498000
0.00000000
-0.24998666
0.12499333
-0.37498000
0.00000000
-0.37498000
0.49997333
-0.37498000
-0.24998666
-0.49997333
0.49997333
-0.24998666
0.49997333
-0.12499333
0.24998666
-0.37498000
-0.49997333
0.12499333
0.12499333
-0.37498000
0.00000000
0.37498000
-0.49997333
-0.37498000
0.00000000
-0.74996001
0.12499333
0.87495333
0.12499333
0.12499333
0.00000000
-0.62496668
0.37498000
0.12499333
0.74996001
0.12499333
-0.99994665
-0.49997333
0.62496668
0.99994665
0.24998666
0.62496668
-0.37498000
-0.37498000
-0.24998666
0.99994665
0.87495333
0.62496668
-0.12499333
-0.62496668
0.00000000
0.37498000
0.00000000
-0.49997333
0.49997333
-0.37498000
-0.24998666
-0.49997333
-0.49997333
0.49997333
-0.49997333
0.49997333
0.00000000
-0.37498000
0.00000000
-0.62496668
-0.37498000
0.12499333
0.12499333
-0.37498000
0.00000000
-0.37498000
-0.49997333
-0.12499333
-0.12499333
0.24998666
0.37498000
0.49997333
-0.49997333
-1.24993336
-0.12499333
0.49997333
0.74996001
0.24998666
-0.37498000
-0.12499333
0.00000000
-0.49997333
0.00000000
0.49997333
-0.37498000
-0.12499333
0.12499333
0.12499333
-0.12499333
0.37498000
0.00000000
-0.24998666
-0.49997333
-0.24998666
0.37498000
0.49997333
-0.37498000
0.00000000
-0.37498000
0.00000000
0.37498000
0.24998666
-0.37498000
0.24998666
-0.49997333
0.37498000
-0.74996001
-0.49997333
-0.37498000
-0.37498000
-0.37498000
0.37498000
0.24998666
-0.49997333
0.12499333
0.00000000
-0.49997333
0.12499333
-0.12499333
-0.37498000
0.00000000
0.12499333
0.62496668
0.49997333
-0.24998666
0.49997333
0.62496668
0.12499333
-0.37498000
-0.24998666
-0.49997333
0.00000000
0.24998666
-0.12499333
0.00000000
-0.24998666
-0.24998666
0.00000000
0.00000000
0.24998666
-0.24998666
0.24998666
-0.49997333
-0.12499333
-0.99994665
-0.12499333
-0.12499333
0.87495333
-1.12494004
-0.74996001
-0.37498000
0.49997333
0.74996001
0.24998666
-1.24993336
-0.87495333
-0.12499333
0.24998666
0.87495333
-0.49997333
-0.62496668
-1.24993336
-0.49997333
0.00000000
-0.37498000
0.00000000
-0.74996001
-0.87495333
-0.24998666
-0.24998666
0.24998666
0.99994665
0.00000000
-1.37492669
-0.74996001
0.37498000
0.99994665
0.62496668
0.12499333
-0.24998666
-0.37498000
0.24998666
1.37492669
0.74996001
-0.74996001
0.24998666
0.00000000
-0.49997333
-0.12499333
0.24998666
0.87495333
-0.99994665
-0.62496668
-0.87495333
-0.37498000
-0.62496668
0.12499333
0.37498000
-0.24998666
0.49997333
-0.49997333
0.37498000
-0.12499333
0.12499333
0.37498000
0.37498000
0.49997333
-0.12499333
0.49997333
0.12499333
-0.12499333
-0.12499333
0.12499333
0.24998666
-0.12499333
-0.00000000
-0.12499333
-0.12499333
0.12499333
-0.62496668
0.00000000
-0.12499333
-0.49997333
-0.24998666
0.49997333
0.12499333
0.24998666
-0.12499333
0.00000000
-0.49997333
0.24998666
-0.37498000
0.74996001
-0.12499333
-0.24998666
0.49997333
-0.37498000
0.00000000
-0.24998666
0.24998666
0.00000000
-0.12499333
-0.00000000
0.24998666
0.00000000
-0.24998666
-0.12499333
0.49997333
0.24998666
-0.37498000
0.37498000
0.49997333
0.37498000
-0.12499333
-0.12499333
0.37498000
0.62496668
0.00000000
0.24998666
-0.49997333
0.37498000
-0.37498000
0.37498000
-0.49997333
0.37498000
-0.37498000
0.24998666
-0.62496668
0.12499333
0.12499333
0.49997333
0.12499333
0.37498000
0.00000000
-0.24998666
-0.24998666
-0.24998666
-0.12499333
-0.12499333
-0.24998666
-0.49997333
-0.12499333
0.24998666
0.37498000
-0.12499333
-0.62496668
0.37498000
-0.49997333
0.62496668
-0.12499333
0.49997333
-0.24998666
-0.24998666
0.62496668
0.49997333
0.12499333
0.00000000
-0.12499333
-0.74996001
0.00000000
0.62496668
0.24998666
-0.12499333
0.24998666
0.12499333
0.37498000
0.12499333
-0.87495333
-0.24998666
0.12499333
-0.37498000
0.49997333
-0.12499333
-0.74996001
0.24998666
-0.24998666
0.00000000
-0.49997333
0.62496668
-0.24998666
-0.62496668
0.24998666
0.00000000
-0.37498000
-0.37498000
0.12499333
0.00000000
-0.12499333
0.37498000
-0.49997333
-0.12499333
0.24998666
-0.49997333
-0.24998666
-0.49997333
-0.49997333
-0.49997333
-0.62496668
0.24998666
-0.49997333
-0.12499333
-0.37498000
0.12499333
0.37498000
0.00000000
-0.74996001
-0.24998666
-0.12499333
0.24998666
0.24998666
-0.37498000
-0.24998666
0.00000000
-0.24998666
0.12499333
0.49997333
0.12499333
0.00000000
-0.24998666
0.12499333
0.49997333
-0.12499333
0.37498000
0.49997333
-0.49997333
-0.74996001
-0.62496668
-0.37498000
0.24998666
0.37498000
0.49997333
-0.12499333
0.24998666
0.12499333
-0.37498000
-0.12499333
0.24998666
0.49997333
0.99994665
0.00000000
-0.87495333
-0.74996001
-0.24998666
0.24998666
-0.37498000
-0.24998666
-0.49997333
-0.62496668
-0.24998666
0.62496668
0.87495333
0.37498000
0.12499333
-0.24998666
-0.37498000
0.12499333
0.49997333
-0.49997333
0.49997333
0.12499333
0.00000000
0.00000000
-0.24998666
-0.49997333
-0.12499333
-0.49997333
0.12499333
0.12499333
-0.49997333
0.00000000
0.00000000
-0.24998666
-0.49997333
0.12499333
-0.37498000
0.49997333
-0.24998666
-0.49997333
0.24998666
-0.12499333
0.24998666
-0.37498000
-0.12499333
0.24998666
0.24998666
0.12499333
-0.87495333
-0.12499333
-0.74996001
-0.49997333
0.49997333
0.37498000
0.00000000
0.37498000
0.62496668
0.00000000
0.24998666
0.87495333
0.37498000
-0.12499333
-0.24998666
0.37498000
0.12499333
-0.24998666
-0.24998666
0.62496668
0.49997333
-0.87495333
0.00000000
0.37498000
0.00000000
0.99994665
-0.24998666
-0.87495333
-0.74996001
-0.24998666
0.24998666
1.24993336
-0.12499333
-0.87495333
0.24998666
-0.62496668
0.37498000
-0.24998666
-0.12499333
-0.49997333
-1.12494004
0.00000000
0.12499333
-0.12499333
-0.12499333
0.00000000
0.37498000
0.24998666
0.12499333
-0.37498000
-0.00000000
0.37498000
-0.24998666
-0.24998666
-0.12499333
0.24998666
0.00000000
0.24998666
-0.12499333
-0.12499333
-0.12499333
0.24998666
-0.00000000
-0.49997333
0.37498000
-0.12499333
-0.00000000
-0.12499333
0.12499333
-0.37498000
0.62496668
0.49997333
0.49997333
0.00000000
-0.62496668
-0.12499333
0.12499333
-0.49997333
-0.00000000
-0.12499333
-0.12499333
-0.12499333
0.24998666
0.49997333
-0.49997333
0.12499333
0.49997333
0.12499333
-0.00000000
-0.12499333
0.49997333
0.24998666
-0.12499333
-0.24998666
0.24998666
0.74996001
0.00000000
-0.62496668
-0.74996001
0.00000000
0.12499333
-0.62496668
-0.87495333
0.37498000
0.24998666
-0.62496668
-0.37498000
-0.00000000
1.24993336
1.49992001
1.37492669
0.62496668
0.87495333
-0.00000000
0.49997333
0.62496668
-0.24998666
-0.37498000
0.12499333
0.12499333
0.12499333
-0.37498000
0.37498000
0.49997333
-0.12499333
-0.37498000
0.24998666
-0.37498000
-0.37498000
0.00000000
0.24998666
0.24998666
-0.49997333
-0.00000000
-0.49997333
-0.00000000
-0.37498000
0.12499333
-0.12499333
-0.12499333
-0.49997333
0.00000000
0.37498000
-0.37498000
0.74996001
0.74996001
0.87495333
0.00000000
-0.99994665
-0.49997333
0.00000000
-0.49997333
-0.74996001
-0.87495333
-1.62491333
-0.99994665
-1.24993336
0.00000000
-0.12499333
-0.12499333
0.49997333
0.24998666
0.00000000
0.62496668
0.49997333
0.24998666
0.74996001
0.12499333
-0.24998666
0.37498000
0.24998666
-0.00000000
-0.24998666
0.49997333
0.49997333
0.24998666
-0.49997333
-0.12499333
-0.49997333
0.24998666
-0.24998666
0.49997333
0.00000000
0.24998666
-0.37498000
-0.37498000
0.74996001
-0.37498000
0.24998666
-0.37498000
0.12499333
-0.49997333
-0.37498000
0.12499333
-0.37498000
-0.37498000
0.00000000
0.24998666
-0.24998666
-0.37498000
-0.37498000
-0.49997333
-0.12499333
-0.37498000
-0.24998666
0.12499333
0.37498000
-0.62496668
-0.00000000
-0.12499333
-0.37498000
0.12499333
-0.12499333
0.12499333
0.24998666
-0.12499333
-0.24998666
0.24998666
-0.49997333
0.24998666
0.49997333
1.12494004
0.00000000
-0.62496668
-0.24998666
-0.24998666
-0.12499333
-0.12499333
0.00000000
-0.37498000
-1.49992001
-1.49992001
-1.24993336
0.24998666
0.62496668
0.12499333
-0.12499333
0.37498000
-0.49997333
0.49997333
0.87495333
0.74996001
0.00000000
0.12499333
0.62496668
0.49997333
0.37498000
-0.49997333
-1.12494004
-1.12494004
-0.24998666
-0.87495333
-0.87495333
-0.49997333
-1.37492669
-1.62491333
-1.12494004
-0.87495333
0.74996001
0.49997333
-0.12499333
0.37498000
0.24998666
0.24998666
1.24993336
0.37498000
-0.24998666
-0.24998666
-0.49997333
0.24998666
0.37498000
0.24998666
-0.12499333
0.49997333
-0.49997333
-0.00000000
-0.00000000
0.12499333
0.24998666
-0.24998666
0.37498000
0.49997333
0.37498000
0.49997333
-0.00000000
-0.24998666
0.12499333
0.24998666
-0.37498000
-0.49997333
-0.62496668
0.49997333
0.37498000
0.00000000
0.37498000
-0.37498000
0.37498000
0.62496668
-0.37498000
-0.24998666
0.37498000
-0.62496668
0.49997333
0.24998666
0.24998666
-0.24998666
-0.62496668
-0.62496668
0.49997333
-0.24998666
0.24998666
0.00000000
0.12499333
-0.00000000
0.49997333
-0.49997333
-0.37498000
-0.37498000
0.12499333
0.24998666
-0.49997333
-0.37498000
-0.49997333
-0.24998666
0.00000000
0.37498000
0.12499333
-0.49997333
0.12499333
0.49997333
0.62496668
0.12499333
-0.49997333
0.37498000
0.24998666
0.37498000
-0.12499333
-0.62496668
0.24998666
-0.49997333
0.12499333
-0.24998666
0.12499333
-0.49997333
0.62496668
-0.12499333
-0.49997333
-0.37498000
-0.12499333
-0.37498000
-0.49997333
0.12499333
0.12499333
-0.12499333
0.00000000
-0.37498000
-0.24998666
0.00000000
-0.37498000
-0.24998666
-0.37498000
0.37498000
-0.12499333
0.37498000
-0.24998666
0.49997333
-0.12499333
0.37498000
0.00000000
0.74996001
0.49997333
0.00000000
-0.37498000
0.00000000
-0.49997333
-0.49997333
-0.12499333
-0.37498000
-0.49997333
-0.37498000
-0.12499333
-0.37498000
0.00000000
0.12499333
-0.24998666
-0.37498000
-0.24998666
0.37498000
0.49997333
-0.49997333
-0.49997333
0.37498000
-0.49997333
0.37498000
0.24998666
-0.12499333
0.24998666
0.24998666
-0.62496668
0.49997333
0.49997333
0.37498000
0.49997333
-0.62496668
-0.37498000
0.12499333
-0.24998666
-0.00000000
-0.24998666
-0.37498000
0.37498000
-0.87495333
-0.62496668
-0.12499333
0.12499333
0.49997333
0.12499333
0.49997333
0.24998666
0.12499333
0.24998666
-0.12499333
0.49997333
0.12499333
0.74996001
0.87495333
-0.12499333
0.49997333
-0.37498000
0.87495333
0.49997333
0.87495333
0.74996001
-0.12499333
-0.62496668
-0.37498000
-0.12499333
0.24998666
0.49997333
-0.12499333
0.12499333
0.24998666
-0.49997333
0.12499333
0.24998666
0.99994665
0.00000000
0.24998666
-0.24998666
-0.74996001
-0.00000000
-1.12494004
-0.99994665
-0.49997333
-0.00000000
-0.00000000
-0.74996001
0.12499333
0.12499333
0.87495333
0.62496668
0.37498000
-0.24998666
-0.00000000
0.12499333
0.37498000
0.62496668
0.12499333
0.12499333
0.00000000
-0.37498000
-0.37498000
0.49997333
-0.24998666
0.00000000
0.12499333
0.12499333
0.37498000
0.00000000
0.24998666
0.00000000
0.12499333
0.12499333
0.37498000
0.00000000
0.49997333
0.00000000
-0.24998666
0.24998666
0.62496668
-0.49997333
0.37498000
0.24998666
-0.62496668
0.00000000
0.00000000
-0.12499333
0.62496668
0.24998666
0.87495333
0.99994665
0.49997333
-0.37498000
-0.24998666
0.74996001
0.49997333
0.00000000
0.49997333
-0.24998666
-1.12494004
-0.62496668
-0.62496668
0.24998666
-0.12499333
-0.37498000
-0.49997333
-0.49997333
-0.00000000
0.62496668
0.49997333
0.49997333
-0.37498000
0.24998666
0.12499333
-0.24998666
0.12499333
-0.49997333
0.12499333
-0.74996001
-1.24993336
-0.74996001
-0.12499333
-0.37498000
-0.37498000
-0.87495333
-0.99994665
-0.37498000
-0.24998666
0.12499333
0.87495333
0.87495333
0.74996001
-0.49997333
0.00000000
-0.24998666
-0.49997333
0.49997333
0.00000000
0.49997333
0.24998666
-0.49997333
0.00000000
-0.37498000
-0.49997333
-0.37498000
0.24998666
-0.49997333
0.37498000
-0.24998666
-0.24998666
0.49997333
0.00000000
0.12499333
-0.37498000
0.49997333
0.49997333
0.00000000
0.37498000
0.24998666
-0.24998666
0.12499333
-0.12499333
0.37498000
-0.00000000
-0.24998666
-0.49997333
-0.37498000
-0.49997333
0.62496668
-0.12499333
-0.62496668
-0.37498000
-0.12499333
0.12499333
0.37498000
0.12499333
-0.24998666
-0.49997333
0.00000000
-0.12499333
-0.00000000
-0.37498000
-0.24998666
0.12499333
-0.24998666
0.12499333
-0.24998666
-0.37498000
-0.12499333
-0.49997333
0.12499333
-0.00000000
-0.49997333
0.49997333
-0.12499333
-0.00000000
-0.12499333
-0.37498000
-0.74996001
-0.49997333
-0.62496668
-0.37498000
0.24998666
-0.00000000
-0.37498000
0.49997333
-0.24998666
-0.12499333
0.24998666
-0.62496668
0.49997333
-0.12499333
-0.12499333
-0.24998666
-0.24998666
-0.37498000
0.62496668
0.00000000
0.37498000
0.24998666
-0.37498000
0.37498000
0.24998666
0.24998666
0.24998666
0.37498000
-0.24998666
0.49997333
0.24998666
0.12499333
-0.37498000
0.24998666
0.37498000
-0.12499333
-0.37498000
-0.37498000
0.00000000
0.24998666
0.49997333
-0.12499333
-0.74996001
-0.12499333
0.24998666
-0.37498000
0.12499333
-0.00000000
0.37498000
0.49997333
-0.24998666
-0.74996001
-0.37498000
0.37498000
0.12499333
0.24998666
-0.24998666
0.24998666
0.12499333
0.24998666
-0.00000000
-0.62496668
-0.12499333
0.12499333
-0.00000000
-0.00000000
0.49997333
-0.12499333
-0.37498000
-0.00000000
0.37498000
0.24998666
-0.00000000
0.37498000
-0.49997333
0.24998666
-0.24998666
-0.00000000
0.37498000
0.37498000
-0.00000000
0.24998666
-0.00000000
-0.12499333
0.12499333
-0.49997333
0.37498000
-0.00000000
-0.37498000
-0.24998666
-0.37498000
0.12499333
-0.00000000
0.24998666
-0.00000000
0.49997333
0.12499333
0.24998666
0.24998666
-0.49997333
0.37498000
0.12499333
-0.00000000
0.12499333
0.49997333
0.12499333
-0.12499333
-0.24998666
0.12499333
-0.00000000
0.24998666
0.62496668
0.24998666
0.24998666
-0.49997333
-0.74996001
0.62496668
0.49997333
-0.49997333
-0.12499333
-0.37498000
-0.24998666
0.12499333
-0.62496668
-0.62496668
-0.12499333
0.12499333
-0.99994665
-0.62496668
-0.24998666
-0.49997333
-0.62496668
0.37498000
0.49997333
0.24998666
0.62496668
-0.24998666
-0.12499333
0.24998666
-0.74996001
-0.12499333
0.24998666
0.24998666
-0.87495333
0.12499333
0.00000000
-0.49997333
-0.12499333
-0.00000000
-0.12499333
0.12499333
-0.49997333
-0.12499333
0.12499333
-0.00000000
0.24998666
0.37498000
0.12499333
-0.49997333
0.62496668
0.12499333
-0.24998666
0.37498000
0.49997333
0.24998666
0.24998666
-0.37498000
0.00000000
0.12499333
-0.49997333
0.12499333
0.37498000
0.49997333
0.37498000
0.12499333
-0.49997333
0.49997333
-0.24998666
-0.24998666
-0.37498000
-0.24998666
-0.62496668
-0.12499333
0.49997333
0.37498000
0.12499333
-0.37498000
-0.37498000
-0.62496668
0.24998666
0.12499333
0.24998666
0.12499333
0.37498000
0.12499333
0.49997333
-0.49997333
0.37498000
0.49997333
-0.49997333
0.24998666
-0.37498000
-0.37498000
-0.12499333
-0.12499333
0.49997333
-0.49997333
-0.24998666
0.37498000
-0.24998666
0.37498000
-0.49997333
-0.00000000
-0.24998666
0.37498000
0.49997333
0.12499333
0.24998666
0.12499333
0.49997333
0.24998666
0.37498000
-0.00000000
-0.00000000
-0.12499333
-0.49997333
-0.37498000
-0.12499333
-0.00000000
-0.24998666
0.12499333
0.37498000
0.49997333
-0.37498000
0.12499333
0.49997333
-0.37498000
-0.24998666
0.12499333
0.49997333
0.00000000
0.24998666
0.49997333
0.12499333
0.12499333
0.37498000
-0.49997333
-0.49997333
-0.62496668
0.62496668
-0.37498000
0.12499333
-0.49997333
0.12499333
-0.49997333
-0.24998666
0.37498000
-0.49997333
0.49997333
0.37498000
-0.24998666
-0.49997333
-0.24998666
0.12499333
-0.12499333
-0.37498000
-0.24998666
-0.37498000
0.49997333
-0.12499333
0.37498000
0.24998666
0.49997333
0.49997333
0.12499333
-0.62496668
0.12499333
-0.37498000
-0.37498000
0.12499333
-0.49997333
-0.12499333
0.24998666
-0.37498000
-0.24998666
0.37498000
0.12499333
-0.12499333
0.12499333
-0.49997333
-0.37498000
0.62496668
0.74996001
0.37498000
0.12499333
-0.24998666
-0.12499333
-0.37498000
0.37498000
-0.24998666
0.49997333
0.37498000
0.00000000
0.37498000
-0.49997333
-0.49997333
-0.37498000
0.37498000
-0.12499333
-0.00000000
0.37498000
-0.24998666
0.49997333
0.37498000
0.49997333
-0.49997333
-0.37498000
0.37498000
0.12499333
-0.00000000
0.12499333
-0.24998666
-0.12499333
-0.37498000
-0.37498000
0.24998666
-0.12499333
-0.37498000
0.00000000
-0.12499333
0.24998666
-0.00000000
0.24998666
0.37498000
0.37498000
-0.12499333
-0.49997333
0.24998666
-0.37498000
-0.49997333
0.62496668
-0.24998666
-0.74996001
0.12499333
-0.62496668
0.37498000
-0.12499333
-0.49997333
0.12499333
-0.24998666
-0.62496668
-0.12499333
-0.00000000
0.24998666
0.24998666
0.37498000
0.37498000
0.49997333
-0.00000000
-0.49997333
-0.37498000
-0.12499333
-0.24998666
-0.37498000
-0.12499333
-0.49997333
0.12499333
-0.37498000
0.49997333
0.24998666
-0.24998666
0.49997333
-0.49997333
0.24998666
-0.49997333
0.00000000
0.49997333
0.62496668
0.24998666
0.37498000
0.37498000
0.00000000
-0.12499333
-0.49997333
-0.12499333
-0.24998666
-0.00000000
0.12499333
-0.12499333
-0.24998666
-0.24998666
-0.37498000
0.12499333
0.12499333
0.37498000
0.37498000
-0.12499333
0.37498000
-0.49997333
0.37498000
0.49997333
-0.37498000
-0.37498000
-0.24998666
0.12499333
-0.49997333
-0.62496668
0.24998666
0.49997333
-0.37498000
0.24998666
-0.12499333
-0.37498000
0.24998666
-0.37498000
-0.37498000
-0.00000000
-0.37498000
-0.12499333
-0.62496668
0.62496668
-0.62496668
-0.37498000
-0.62496668
-0.49997333
0.12499333
-0.00000000
-0.37498000
0.12499333
0.12499333
-0.24998666
-0.12499333
-0.24998666
-0.00000000
0.37498000
0.12499333
0.24998666
0.24998666
-0.24998666
0.62496668
-0.12499333
-0.37498000
-0.49997333
0.00000000
0.12499333
0.49997333
0.49997333
0.12499333
-0.49997333
0.37498000
-0.12499333
0.00000000
-0.49997333
0.37498000
-0.49997333
0.12499333
0.37498000
-0.12499333
0.49997333
-0.12499333
-0.12499333
-0.00000000
0.24998666
0.49997333
0.37498000
-0.24998666
0.00000000
0.12499333
0.37498000
-0.24998666
-0.49997333
-0.37498000
-0.49997333
-0.12499333
0.49997333
0.24998666
-0.24998666
-0.37498000
-0.62496668
0.49997333
-0.12499333
-0.62496668
-0.12499333
-0.37498000
-0.49997333
-0.00000000
-0.49997333
-0.12499333
-0.62496668
-0.00000000
-0.00000000
-0.37498000
0.12499333
-0.62496668
-0.24998666
-0.49997333
0.12499333
-0.00000000
0.37498000
0.49997333
-0.00000000
-0.74996001
0.12499333
-0.49997333
-0.49997333
-0.24998666
-0.12499333
0.24998666
0.37498000
-0.62496668
0.49997333
-0.24998666
-0.00000000
-0.12499333
-0.49997333
0.49997333
-0.12499333
0.37498000
0.24998666
0.49997333
-0.00000000
-0.12499333
-0.49997333
0.12499333
-0.37498000
-0.24998666
0.49997333
-0.49997333
0.49997333
-0.24998666
-0.00000000
0.12499333
-0.49997333
0.37498000
0.00000000
0.62496668
0.37498000
-0.49997333
0.24998666
0.00000000
-0.12499333
0.49997333
-0.12499333
0.49997333
-0.12499333
-0.24998666
-0.74996001
-0.12499333
-0.00000000
-0.24998666
-0.24998666
-0.12499333
0.24998666
-0.37498000
-0.49997333
-0.62496668
-0.24998666
-0.37498000
-0.49997333
-0.37498000
-0.12499333
-0.12499333
-0.62496668
-0.00000000
0.49997333
-0.49997333
-0.24998666
0.24998666
-0.00000000
-0.12499333
-0.24998666
-0.00000000
-0.37498000
-0.37498000
-0.24998666
0.49997333
-0.37498000
0.24998666
-0.49997333
0.24998666
-0.37498000
-0.37498000
0.49997333
-0.37498000
-0.24998666
0.12499333
0.24998666
-0.24998666
0.24998666
-0.37498000
-0.62496668
-0.49997333
0.24998666
-0.24998666
0.49997333
0.49997333
-0.24998666
0.49997333
-0.24998666
0.12499333
0.00000000
0.49997333
0.24998666
-0.00000000
0.49997333
0.49997333
0.37498000
-0.37498000
0.24998666
0.37498000
-0.12499333
0.62496668
0.49997333
-0.00000000
0.24998666
0.37498000
0.37498000
0.37498000
0.37498000
-0.24998666
0.24998666
0.37498000
-0.62496668
-0.49997333
0.12499333
0.87495333
-0.37498000
-0.37498000
-0.49997333
0.24998666
-0.24998666
-0.74996001
-0.62496668
-0.00000000
-0.62496668
0.37498000
0.24998666
0.49997333
-0.24998666
0.24998666
-0.12499333
-0.24998666
-0.12499333
0.24998666
-0.37498000
0.12499333
-0.37498000
-0.24998666
-0.62496668
-0.24998666
0.37498000
-0.00000000
-0.12499333
0.37498000
0.37498000
-0.24998666
-0.12499333
-0.37498000
-0.00000000
-0.24998666
0.37498000
0.24998666
0.37498000
0.62496668
0.12499333
-0.62496668
0.12499333
-0.24998666
-0.00000000
-0.37498000
0.62496668
-0.24998666
0.00000000
0.49997333
0.37498000
-0.00000000
-0.00000000
0.12499333
0.37498000
-0.12499333
-0.37498000
0.62496668
0.24998666
-0.49997333
0.49997333
0.37498000
0.24998666
0.62496668
-0.37498000
0.00000000
0.49997333
0.00000000
0.12499333
-0.24998666
-0.49997333
0.62496668
0.24998666
-0.24998666
-0.24998666
0.37498000
-0.49997333
-0.00000000
0.37498000
-0.00000000
0.62496668
-0.49997333
0.12499333
0.24998666
-0.00000000
-0.49997333
-0.12499333
-0.49997333
0.49997333
0.12499333
-0.49997333
-0.62496668
-0.12499333
-0.00000000
-0.00000000
-0.24998666
-0.49997333
0.24998666
-0.00000000
0.12499333
0.49997333
-0.49997333
-0.12499333
-0.37498000
-0.24998666
0.24998666
-0.37498000
0.12499333
-0.62496668
-0.49997333
-0.62496668
0.49997333
-0.49997333
-0.12499333
0.49997333
0.12499333
0.49997333
-0.37498000
0.49997333
-0.37498000
0.24998666
-0.49997333
-0.12499333
-0.62496668
-0.24998666
0.24998666
0.12499333
0.00000000
-0.37498000
-0.37498000
-0.37498000
-0.12499333
0.00000000
0.37498000
-0.49997333
-0.24998666
0.62496668
0.24998666
0.37498000
0.24998666
0.24998666
-0.24998666
0.49997333
0.12499333
0.49997333
-0.24998666
-0.49997333
-0.37498000
-0.12499333
-0.00000000
-0.12499333
-0.37498000
0.24998666
-0.49997333
-0.24998666
0.00000000
-0.00000000
-0.49997333
-0.00000000
-0.37498000
-0.12499333
0.24998666
0.24998666
0.37498000
0.49997333
0.12499333
0.24998666
0.49997333
-0.24998666
0.12499333
-0.37498000
0.62496668
0.37498000
-0.12499333
-0.24998666
-0.12499333
-0.24998666
-0.37498000
0.24998666
-0.24998666
-0.49997333
0.62496668
-0.00000000
0.49997333
0.12499333
-0.49997333
-0.62496668
0.24998666
0.24998666
0.37498000
-0.00000000
-0.12499333
-0.49997333
0.24998666
-0.49997333
0.37498000
-0.37498000
0.12499333
-0.24998666
-0.37498000
-0.24998666
-0.00000000
-0.00000000
0.37498000
-0.49997333
-0.24998666
0.12499333
-0.24998666
-0.49997333
-0.37498000
-0.12499333
-0.24998666
0.24998666
-0.37498000
-0.49997333
-0.00000000
-0.00000000
0.24998666
-0.49997333
-0.37498000
-0.12499333
0.49997333
-0.49997333
0.37498000
0.12499333
0.37498000
-0.00000000
-0.12499333
0.37498000
-0.12499333
0.12499333
0.12499333
-0.37498000
-0.24998666
-0.00000000
-0.37498000
-0.37498000
-0.24998666
-0.24998666
-0.24998666
-0.12499333
0.00000000
0.24998666
0.37498000
0.49997333
0.24998666
0.00000000
-0.62496668
-0.12499333
-0.24998666
0.00000000
0.00000000
-0.49997333
-0.49997333
-0.49997333
0.24998666
-0.49997333
-0.49997333
0.12499333
-0.49997333
-0.49997333
-0.00000000
-0.37498000
0.12499333
0.49997333
0.12499333
-0.12499333
0.49997333
0.37498000
0.12499333
-0.00000000
0.49997333
0.00000000
-0.37498000
-0.24998666
0.49997333
-0.24998666
0.12499333
-0.37498000
-0.37498000
0.49997333
0.49997333
0.12499333
-0.24998666
0.37498000
0.37498000
-0.00000000
0.49997333
-0.12499333
-0.00000000
0.12499333
-0.37498000
-0.24998666
-0.12499333
-0.62496668
0.00000000
-0.12499333
-0.24998666
-0.12499333
-0.62496668
-0.12499333
-0.37498000
0.37498000
-0.12499333
0.37498000
-0.24998666
-0.12499333
-0.49997333
0.37498000
0.12499333
0.49997333
0.49997333
0.24998666
-0.49997333
0.37498000
-0.49997333
0.12499333
0.37498000
-0.49997333
-0.12499333
-0.12499333
0.12499333
-0.49997333
0.00000000
0.24998666
-0.12499333
-0.37498000
0.37498000
-0.12499333
-0.37498000
0.24998666
-0.49997333
-0.37498000
-0.24998666
0.37498000
-0.49997333
0.49997333
0.12499333
-0.24998666
0.24998666
0.37498000
-0.37498000
-0.24998666
0.24998666
0.49997333
-0.37498000
0.37498000
0.12499333
0.49997333
-0.12499333
0.00000000
0.12499333
0.49997333
0.37498000
0.49997333
-0.74996001
-0.12499333
0.12499333
-0.12499333
0.49997333
-0.00000000
-0.37498000
-0.74996001
-0.99994665
-0.24998666
-0.74996001
-0.37498000
-0.24998666
-0.12499333
0.24998666
0.49997333
0.37498000
-0.00000000
-0.24998666
-0.12499333
0.12499333
0.12499333
0.62496668
0.49997333
0.24998666
-0.24998666
-0.24998666
-0.00000000
-0.12499333
-0.49997333
0.24998666
-0.49997333
0.24998666
-0.24998666
-0.00000000
-0.12499333
-0.37498000
0.24998666
0.24998666
-0.00000000
0.00000000
0.12499333
-0.24998666
-0.12499333
-0.00000000
-0.12499333
-0.37498000
0.62496668
0.37498000
0.12499333
0.12499333
-0.37498000
0.37498000
-0.24998666
-0.12499333
0.24998666
-0.37498000
-0.37498000
-0.62496668
-0.99994665
-0.37498000
0.12499333
-0.49997333
-0.24998666
-0.87495333
-0.49997333
-0.37498000
-0.99994665
0.24998666
-0.00000000
0.74996001
0.24998666
-0.49997333
0.49997333
0.87495333
-0.62496668
0.24998666
0.24998666
0.49997333
0.49997333
-0.24998666
-0.49997333
0.37498000
-0.00000000
0.37498000
-0.12499333
-0.24998666
-0.62496668
-0.24998666
0.49997333
-0.49997333
0.37498000
-0.37498000
0.24998666
-0.37498000
-0.37498000
-0.00000000
-0.12499333
-0.12499333
0.62496668
-0.87495333
-0.49997333
0.37498000
0.49997333
-0.62496668
-0.24998666
0.37498000
0.12499333
-0.37498000
0.24998666
-0.12499333
-0.24998666
-0.49997333
-0.12499333
0.12499333
-0.24998666
0.24998666
0.12499333
-0.37498000
-0.24998666
-0.37498000
0.24998666
0.37498000
-0.12499333
-0.37498000
-0.37498000
-0.62496668
-0.49997333
-0.49997333
-0.37498000
0.24998666
-0.87495333
0.12499333
0.12499333
0.12499333
-0.37498000
0.37498000
-0.24998666
-0.62496668
-1.12494004
0.12499333
-0.00000000
-0.62496668
-0.74996001
-0.24998666
0.12499333
-0.00000000
-0.37498000
-0.24998666
-0.62496668
0.87495333
0.24998666
-0.74996001
0.12499333
1.37492669
2.12488675
0.12499333
0.37498000
-0.12499333
-0.37498000
-0.37498000
-0.37498000
-0.74996001
-1.12494004
-0.62496668
-0.00000000
-0.00000000
-0.49997333
-0.74996001
0.74996001
0.24998666
-0.49997333
-0.00000000
0.74996001
0.74996001
-0.87495333
-0.37498000
-0.00000000
0.49997333
0.99994665
0.24998666
0.00000000
-0.49997333
-0.37498000
0.37498000
0.24998666
-0.37498000
0.24998666
0.24998666
-0.00000000
-0.24998666
-0.12499333
-0.00000000
-0.12499333
-0.24998666
-0.24998666
0.12499333
-0.37498000
-0.49997333
0.24998666
-0.00000000
-0.49997333
-0.37498000
0.24998666
0.37498000
0.00000000
-0.49997333
-0.49997333
0.12499333
-0.37498000
-0.00000000
0.12499333
-0.24998666
0.24998666
-0.12499333
-0.49997333
-0.24998666
0.37498000
-0.62496668
0.37498000
-0.00000000
-0.37498000
0.37498000
-0.24998666
-0.00000000
0.37498000
0.24998666
-0.37498000
0.49997333
0.49997333
0.24998666
-0.00000000
-0.12499333
-0.12499333
0.24998666
-0.12499333
-0.00000000
0.12499333
-0.62496668
-0.62496668
-0.49997333
-0.37498000
-0.49997333
-0.24998666
-0.49997333
0.00000000
-0.37498000
0.24998666
0.37498000
0.37498000
0.49997333
0.37498000
0.37498000
-0.62496668
-0.49997333
-0.37498000
0.00000000
0.00000000
0.00000000
0.12499333
0.49997333
0.24998666
-0.37498000
0.00000000
-0.49997333
0.12499333
-0.24998666
0.12499333
0.00000000
0.00000000
-0.24998666
0.24998666
0.24998666
-0.24998666
-0.62496668
-0.49997333
0.49997333
-0.37498000
0.12499333
0.37498000
-0.24998666
-0.12499333
-0.24998666
-0.74996001
-0.00000000
-0.49997333
0.37498000
-0.37498000
0.24998666
0.37498000
0.12499333
-0.37498000
0.12499333
0.49997333
-0.00000000
-0.12499333
0.24998666
-0.00000000
0.87495333
0.74996001
-0.00000000
0.12499333
0.12499333
-0.00000000
-0.12499333
-1.12494004
0.12499333
-0.24998666
-0.12499333
-0.24998666
0.37498000
-0.49997333
-0.24998666
-0.12499333
0.37498000
-0.24998666
0.49997333
-0.12499333
-0.00000000
0.00000000
0.37498000
-0.49997333
-0.00000000
-0.62496668
-0.62496668
0.74996001
-0.24998666
0.49997333
-0.12499333
0.24998666
0.87495333
0.49997333
0.24998666
-0.37498000
0.62496668
-0.24998666
-0.24998666
-0.12499333
0.37498000
0.24998666
-0.24998666
-0.00000000
-0.24998666
-0.49997333
-0.62496668
-0.49997333
-0.37498000
0.37498000
-0.00000000
-0.87495333
0.00000000
-0.00000000
-0.24998666
-0.24998666
-0.00000000
0.12499333
0.12499333
-0.24998666
-0.99994665
-0.37498000
-0.37498000
-0.49997333
-0.74996001
-0.00000000
-0.00000000
0.74996001
0.24998666
-0.00000000
0.49997333
0.62496668
-0.00000000
0.37498000
-0.00000000
0.37498000
-0.24998666
-1.49992001
-0.12499333
-0.24998666
0.12499333
0.62496668
0.00000000
0.00000000
-0.37498000
0.49997333
0.49997333
0.24998666
0.37498000
0.37498000
0.12499333
-0.37498000
-0.49997333
-0.12499333
0.12499333
-0.24998666
-0.49997333
0.12499333
-0.24998666
0.24998666
0.62496668
-0.37498000
0.37498000
-0.24998666
0.49997333
0.00000000
-0.12499333
-0.24998666
0.37498000
-0.24998666
-0.24998666
0.24998666
-0.12499333
0.62496668
0.49997333
-0.62496668
-0.87495333
-0.87495333
-0.37498000
-0.37498000
-0.62496668
0.12499333
-0.24998666
-0.12499333
0.12499333
-0.87495333
-0.00000000
0.00000000
0.12499333
-0.12499333
-0.62496668
0.24998666
-0.49997333
-0.37498000
-0.37498000
-0.62496668
0.12499333
0.12499333
-0.62496668
0.24998666
-0.99994665
-0.24998666
-0.24998666
-0.62496668
0.12499333
-0.12499333
-0.24998666
0.37498000
-0.49997333
-0.49997333
0.49997333
-0.24998666
-0.87495333
-0.49997333
-0.37498000
0.87495333
-0.00000000
-1.24993336
0.12499333
0.00000000
-0.37498000
-0.37498000
0.24998666
-0.24998666
0.00000000
0.24998666
0.49997333
-0.00000000
-0.12499333
0.37498000
0.12499333
0.24998666
-0.37498000
-0.12499333
0.62496668
0.49997333
-0.24998666
-0.12499333
0.37498000
0.00000000
-0.49997333
0.12499333
0.24998666
0.12499333
-0.74996001
0.12499333
0.24998666
0.37498000
0.12499333
-0.12499333
0.37498000
-0.00000000
-0.62496668
-0.62496668
0.62496668
0.24998666
-0.37498000
-0.49997333
0.49997333
0.24998666
-0.49997333
0.24998666
-0.12499333
-0.24998666
-0.12499333
-0.74996001
0.12499333
-0.49997333
-0.99994665
-0.12499333
-0.62496668
0.12499333
-0.49997333
-0.99994665
-0.24998666
0.24998666
-0.49997333
-0.74996001
-0.99994665
-0.24998666
-0.24998666
-0.87495333
-0.74996001
-0.37498000
-1.24993336
-0.62496668
-0.00000000
0.12499333
-0.12499333
-0.24998666
0.37498000
0.87495333
0.24998666
-0.12499333
0.24998666
0.12499333
0.24998666
-0.24998666
0.24998666
0.49997333
-0.62496668
0.37498000
-0.37498000
0.49997333
-0.00000000
-0.62496668
-0.74996001
-0.24998666
0.62496668
0.37498000
-0.37498000
0.24998666
-0.24998666
0.62496668
0.37498000
0.00000000
-0.49997333
-0.12499333
-1.62491333
-1.99989331
0.12499333
0.49997333
0.49997333
-1.24993336
0.37498000
0.87495333
-0.12499333
-0.62496668
-0.49997333
0.37498000
0.74996001
-0.87495333
-0.99994665
-0.62496668
0.99994665
-0.00000000
-0.62496668
-0.87495333
0.37498000
-0.37498000
-0.62496668
0.12499333
-0.37498000
0.12499333
-0.37498000
0.74996001
-0.12499333
0.24998666
0.24998666
-0.00000000
-0.24998666
-0.62496668
-0.74996001
-0.37498000
0.74996001
-0.49997333
-0.37498000
-0.12499333
-0.24998666
-0.49997333
-0.49997333
0.12499333
0.24998666
-0.37498000
-0.49997333
-0.00000000
-0.12499333
-0.37498000
-0.12499333
-0.12499333
-0.49997333
-0.00000000
0.49997333
0.37498000
-0.62496668
0.12499333
0.37498000
0.37498000
-0.62496668
-0.12499333
-0.74996001
-0.00000000
-0.49997333
0.24998666
-0.49997333
-0.37498000
0.24998666
-0.37498000
0.37498000
0.24998666
0.49997333
0.12499333
-0.24998666
-0.37498000
-2.37487340
-2.62486005
0.24998666
0.37498000
0.74996001
-2.49986672
-0.37498000
1.12494004
-0.00000000
0.12499333
-1.74990666
1.49992001
1.74990666
-0.74996001
-0.87495333
-1.37492669
1.24993336
0.49997333
-1.12494004
-0.49997333
-0.00000000
1.99989331
0.49997333
-0.37498000
-0.74996001
-1.99989331
0.49997333
0.62496668
-0.12499333
-1.62491333
0.12499333
1.12494004
-0.12499333
-1.12494004
-1.37492669
-0.37498000
-0.12499333
-0.24998666
-1.24993336
-0.62496668
-0.00000000
-0.00000000
-0.12499333
-0.12499333
-0.62496668
0.37498000
0.37498000
0.49997333
-0.24998666
-0.49997333
-0.37498000
0.49997333
0.24998666
-0.00000000
0.12499333
-0.37498000
0.00000000
0.37498000
0.24998666
0.24998666
0.37498000
-0.37498000
-0.49997333
0.12499333
0.24998666
0.49997333
0.37498000
0.24998666
0.37498000
0.49997333
-0.62496668
0.62496668
-0.37498000
0.49997333
-0.24998666
-0.37498000
-0.24998666
0.12499333
0.49997333
-0.12499333
-0.24998666
0.12499333
-0.24998666
0.49997333
-0.12499333
0.24998666
-0.37498000
-0.24998666
0.24998666
-0.49997333
0.37498000
-0.00000000
-0.24998666
0.12499333
0.12499333
0.24998666
-0.37498000
0.24998666
-0.37498000
-0.12499333
-0.24998666
-0.49997333
-0.24998666
0.49997333
-0.24998666
0.00000000
-0.24998666
0.12499333
-0.00000000
-0.62496668
0.12499333
-0.12499333
-0.12499333
0.49997333
-0.62496668
0.49997333
-0.37498000
-0.12499333
0.49997333
-0.37498000
-0.62496668
-0.12499333
-0.49997333
0.12499333
0.24998666
0.00000000
-0.49997333
0.49997333
-0.37498000
-0.49997333
-0.37498000
0.37498000
-0.49997333
0.37498000
-0.62496668
0.12499333
0.12499333
-0.24998666
0.62496668
0.12499333
0.24998666
0.24998666
-0.37498000
0.00000000
-0.12499333
0.12499333
-0.49997333
0.62496668
-0.24998666
-0.12499333
-0.24998666
0.62496668
0.24998666
0.37498000
-1.12494004
0.12499333
1.12494004
0.49997333
-0.12499333
-0.62496668
1.24993336
1.12494004
-0.74996001
-0.12499333
-0.12499333
1.12494004
0.12499333
-0.37498000
0.49997333
0.74996001
-0.00000000
-0.37498000
-0.87495333
-0.12499333
0.00000000
0.12499333
-1.12494004
0.00000000
0.00000000
0.62496668
-0.49997333
-0.37498000
0.49997333
0.37498000
0.00000000
-0.24998666
0.62496668
1.12494004
0.37498000
0.37498000
-0.37498000
0.74996001
1.24993336
-0.49997333
-0.24998666
0.49997333
0.87495333
0.00000000
-0.24998666
0.12499333
-0.49997333
-0.37498000
-0.24998666
-0.62496668
-0.24998666
0.00000000
0.00000000
-0.49997333
0.12499333
-0.12499333
-0.12499333
-0.37498000
0.12499333
-0.37498000
0.37498000
-0.87495333
-0.49997333
-0.62496668
-0.12499333
-0.24998666
0.00000000
-0.49997333
-0.00000000
-0.12499333
-0.74996001
-0.12499333
0.87495333
0.37498000
-0.62496668
-1.24993336
0.12499333
0.99994665
-0.37498000
-0.74996001
-0.12499333
0.99994665
-0.12499333
-0.37498000
-0.24998666
0.12499333
0.62496668
-0.12499333
-0.24998666
0.24998666
0.87495333
0.24998666
-0.62496668
0.24998666
-0.37498000
0.37498000
0.49997333
-0.12499333
-0.49997333
0.37498000
0.37498000
-0.37498000
0.24998666
0.37498000
-0.12499333
0.37498000
-0.37498000
-0.49997333
0.37498000
-0.24998666
0.24998666
0.12499333
-0.12499333
-0.12499333
0.12499333
0.24998666
-0.49997333
0.12499333
-0.12499333
-0.49997333
-0.00000000
-0.12499333
-1.12494004
0.37498000
-0.37498000
-0.74996001
-1.12494004
-0.62496668
0.49997333
-0.12499333
-0.00000000
-0.49997333
0.62496668
-0.37498000
-0.37498000
-0.74996001
-0.24998666
-0.00000000
-0.99994665
-0.24998666
-0.87495333
-0.74996001
-0.12499333
-0.37498000
-0.37498000
-2.12488675
-0.87495333
0.49997333
-0.24998666
-0.12499333
-1.62491333
0.74996001
0.74996001
-0.37498000
-0.00000000
-0.62496668
1.37492669
0.12499333
-0.74996001
-0.00000000
-0.12499333
0.37498000
-0.74996001
-0.37498000
-0.74996001
0.12499333
0.49997333
-0.12499333
0.12499333
-0.62496668
-0.12499333
-0.24998666
0.49997333
-0.49997333
-0.62496668
0.12499333
0.00000000
0.62496668
-0.49997333
0.24998666
0.37498000
-0.49997333
-0.37498000
-0.37498000
-0.37498000
0.49997333
0.24998666
-0.37498000
0.12499333
0.00000000
0.62496668
0.12499333
0.00000000
0.12499333
-0.24998666
0.49997333
0.62496668
0.12499333
-0.49997333
0.62496668
-0.24998666
-0.49997333
-0.24998666
-0.24998666
0.49997333
0.24998666
0.00000000
-0.49997333
-0.37498000
0.37498000
0.12499333
0.62496668
0.37498000
-0.49997333
-0.24998666
-0.24998666
-0.37498000
0.37498000
-0.62496668
0.12499333
0.24998666
0.24998666
-0.12499333
0.00000000
0.49997333
0.37498000
-0.49997333
0.00000000
-0.62496668
-0.12499333
-0.37498000
-0.37498000
0.49997333
0.49997333
-0.00000000
0.24998666
0.00000000
0.00000000
-0.12499333
-0.49997333
0.49997333
0.37498000
0.12499333
-0.49997333
-0.49997333
-0.12499333
0.37498000
-0.37498000
0.12499333
-0.00000000
0.49997333
-0.62496668
0.37498000
0.24998666
-0.00000000
-0.24998666
-0.37498000
-0.49997333
-0.00000000
-0.12499333
0.00000000
-0.24998666
-0.37498000
-0.49997333
0.12499333
0.49997333
0.12499333
-0.24998666
-0.12499333
-0.12499333
0.24998666
0.24998666
-0.12499333
-0.37498000
-0.12499333
-0.12499333
-0.24998666
-0.37498000
0.12499333
-0.24998666
0.49997333
-0.12499333
-0.12499333
-0.24998666
-0.37498000
0.00000000
-0.62496668
-0.24998666
-0.74996001
-0.74996001
0.37498000
0.49997333
0.24998666
-0.62496668
-0.62496668
-0.37498000
-0.12499333
0.12499333
0.00000000
-0.24998666
-0.24998666
-0.49997333
0.12499333
0.00000000
0.12499333
0.49997333
-0.12499333
0.49997333
0.37498000
0.24998666
-0.37498000
-0.12499333
-0.00000000
0.62496668
0.62496668
0.62496668
0.00000000
-0.37498000
-0.12499333
-0.12499333
0.49997333
0.49997333
0.24998666
0.24998666
0.12499333
-0.12499333
-0.24998666
-0.37498000
-0.12499333
0.49997333
-0.24998666
0.37498000
-0.62496668
-0.37498000
0.37498000
-0.62496668
0.37498000
0.12499333
0.12499333
0.24998666
0.49997333
0.24998666
-0.49997333
-0.00000000
-0.12499333
0.12499333
-0.12499333
-0.12499333
0.37498000
0.12499333
-0.12499333
0.12499333
-0.12499333
-0.24998666
-0.12499333
0.00000000
-0.49997333
-0.49997333
-0.37498000
-0.74996001
0.00000000
0.12499333
0.24998666
-0.49997333
-0.74996001
-0.49997333
-0.37498000
0.62496668
-0.74996001
0.12499333
-0.49997333
0.62496668
0.49997333
0.37498000
-0.24998666
-0.24998666
-0.24998666
0.00000000
-0.49997333
-0.49997333
-0.24998666
-0.37498000
-0.74996001
0.00000000
0.12499333
-0.37498000
0.49997333
-0.24998666
-0.74996001
-0.37498000
-0.37498000
0.24998666
-0.87495333
-0.37498000
0.00000000
0.37498000
0.37498000
-0.37498000
-0.37498000
0.12499333
0.49997333
0.49997333
-0.37498000
0.49997333
-0.24998666
0.24998666
-0.37498000
0.24998666
0.12499333
-0.24998666
-0.24998666
0.24998666
0.12499333
0.12499333
0.49997333
-0.37498000
-0.00000000
0.12499333
-0.00000000
-0.49997333
0.24998666
-0.24998666
0.00000000
0.37498000
-0.12499333
0.24998666
-0.24998666
-0.62496668
-0.37498000
-0.62496668
-0.24998666
-0.37498000
-0.62496668
0.12499333
-0.49997333
0.24998666
0.37498000
-0.12499333
-0.00000000
-0.00000000
-0.12499333
0.00000000
-0.49997333
-0.24998666
0.49997333
-0.49997333
-0.49997333
-0.49997333
0.00000000
0.24998666
0.62496668
-0.24998666
-0.24998666
-0.37498000
0.12499333
-0.37498000
0.37498000
0.12499333
0.12499333
-0.49997333
-0.49997333
-0.24998666
0.00000000
-0.24998666
-0.37498000
-0.49997333
-0.49997333
0.37498000
0.37498000
-0.12499333
-0.24998666
-0.49997333
-0.24998666
0.12499333
-0.62496668
-0.49997333
-0.12499333
0.00000000
0.37498000
-0.12499333
-0.49997333
0.49997333
-0.49997333
-0.37498000
-0.37498000
0.12499333
-0.24998666
-0.37498000
0.49997333
0.24998666
-0.49997333
-0.12499333
0.49997333
0.00000000
0.49997333
0.00000000
0.49997333
-0.49997333
-0.49997333
0.12499333
0.62496668
0.49997333
-0.00000000
0.00000000
0.49997333
-0.37498000
0.24998666
-0.24998666
0.12499333
-0.00000000
-0.24998666
0.62496668
0.00000000
0.12499333
-0.62496668
0.24998666
0.24998666
-0.12499333
-0.49997333
-0.24998666
0.49997333
0.00000000
-0.37498000
-0.12499333
0.24998666
0.00000000
0.12499333
0.62496668
0.62496668
-0.37498000
0.00000000
-0.24998666
-0.37498000
-0.37498000
0.24998666
0.00000000
0.37498000
-0.12499333
-0.37498000
0.24998666
-0.24998666
-0.12499333
0.74996001
0.24998666
0.49997333
-0.00000000
0.24998666
-0.12499333
-0.00000000
0.00000000
0.24998666
0.37498000
0.74996001
0.74996001
0.49997333
0.24998666
-0.37498000
0.62496668
-0.37498000
-0.24998666
0.00000000
0.12499333
0.62496668
0.37498000
0.37498000
0.12499333
-0.00000000
0.24998666
-0.37498000
0.62496668
0.12499333
0.24998666
0.00000000
-0.00000000
-0.37498000
0.00000000
0.12499333
-0.12499333
0.12499333
-0.24998666
0.37498000
-0.49997333
-0.12499333
-0.49997333
-0.24998666
-0.62496668
0.37498000
0.00000000
-0.74996001
-0.00000000
0.49997333
0.24998666
-0.37498000
-0.87495333
-0.37498000
0.37498000
0.37498000
-0.37498000
0.49997333
-0.37498000
-0.12499333
-0.37498000
0.49997333
0.37498000
-0.12499333
-0.24998666
-0.37498000
0.49997333
-0.62496668
0.49997333
0.24998666
0.24998666
-0.49997333
-0.49997333
-0.37498000
-0.12499333
-0.24998666
-0.12499333
0.12499333
0.49997333
0.37498000
0.49997333
0.62496668
0.74996001
0.24998666
0.12499333
0.37498000
0.49997333
0.12499333
-0.12499333
0.62496668
0.49997333
-0.37498000
0.24998666
0.12499333
0.24998666
0.49997333
0.37498000
-0.12499333
0.00000000
-0.49997333
0.49997333
0.62496668
0.12499333
-0.49997333
-0.12499333
0.62496668
0.24998666
-0.12499333
-0.00000000
-0.24998666
-0.37498000
-0.24998666
0.24998666
0.24998666
-0.37498000
0.00000000
0.12499333
-0.49997333
-0.24998666
0.37498000
0.24998666
0.24998666
0.12499333
-0.74996001
0.74996001
0.37498000
-0.37498000
-0.37498000
-0.00000000
0.24998666
0.00000000
-0.12499333
-0.00000000
0.12499333
0.00000000
-0.12499333
-0.24998666
0.12499333
-0.24998666
0.37498000
-0.37498000
-0.12499333
-0.12499333
0.49997333
0.49997333
0.37498000
-0.37498000
0.00000000
0.12499333
0.49997333
0.24998666
0.00000000
-0.49997333
-0.49997333
0.12499333
-0.00000000
-0.24998666
-0.37498000
0.49997333
-0.62496668
-0.74996001
0.49997333
1.12494004
-0.12499333
-0.00000000
-0.37498000
0.37498000
-0.00000000
-0.49997333
0.74996001
0.24998666
-0.37498000
-0.00000000
-0.24998666
0.12499333
-0.12499333
-0.74996001
0.24998666
-0.12499333
-0.12499333
-0.99994665
-0.74996001
-0.12499333
-0.37498000
-0.62496668
-0.24998666
-0.00000000
0.87495333
0.49997333
-0.99994665
-0.12499333
0.37498000
0.49997333
-0.62496668
0.12499333
-0.49997333
-0.99994665
-0.24998666
0.12499333
-0.24998666
-0.87495333
-0.12499333
0.62496668
0.12499333
-0.00000000
-0.49997333
-0.00000000
-0.49997333
-0.12499333
-0.37498000
-0.62496668
0.24998666
0.62496668
-0.24998666
-0.12499333
-0.37498000
0.24998666
0.24998666
0.37498000
0.49997333
-0.24998666
-0.62496668
-0.24998666
-0.62496668
0.49997333
0.24998666
0.24998666
0.24998666
0.12499333
0.37498000
-0.12499333
-0.99994665
-0.49997333
0.24998666
0.24998666
-0.74996001
-0.12499333
1.37492669
0.49997333
-0.12499333
0.74996001
1.74990666
0.62496668
-0.00000000
0.49997333
1.37492669
1.37492669
-0.12499333
-1.24993336
0.62496668
0.12499333
-0.62496668
-0.49997333
-1.49992001
-0.00000000
-0.87495333
0.24998666
0.12499333
0.49997333
-0.62496668
0.12499333
0.62496668
0.62496668
-0.37498000
0.24998666
0.24998666
-0.37498000
0.12499333
-0.62496668
-0.00000000
0.24998666
0.37498000
-0.37498000
-0.37498000
0.62496668
0.12499333
-0.37498000
-0.49997333
-0.00000000
0.24998666
-0.12499333
0.24998666
-0.49997333
0.24998666
0.37498000
-0.37498000
0.49997333
0.12499333
0.49997333
0.37498000
0.12499333
-0.00000000
-0.12499333
-0.49997333
0.24998666
-0.00000000
0.24998666
-0.49997333
-0.12499333
-0.49997333
0.37498000
0.24998666
0.24998666
0.49997333
-0.87495333
-0.87495333
-0.74996001
-1.12494004
-0.99994665
-0.00000000
-0.87495333
-0.24998666
-1.49992001
0.12499333
-0.24998666
-0.49997333
-0.49997333
0.24998666
1.12494004
-0.24998666
-0.99994665
0.62496668
0.74996001
0.87495333
-0.37498000
0.12499333
1.49992001
0.37498000
-0.74996001
0.12499333
-0.37498000
-1.49992001
-0.49997333
0.99994665
-0.62496668
-0.99994665
0.49997333
1.49992001
0.74996001
-0.49997333
0.37498000
0.87495333
-0.00000000
-1.99989331
0.74996001
0.87495333
0.24998666
-0.37498000
-0.87495333
0.24998666
-0.87495333
0.12499333
-0.74996001
-0.62496668
-0.37498000
-0.24998666
0.12499333
-0.49997333
0.49997333
-0.00000000
0.12499333
-0.12499333
0.24998666
0.12499333
0.12499333
-0.12499333
-0.49997333
-0.12499333
-0.37498000
0.00000000
-0.37498000
0.49997333
0.24998666
-0.37498000
0.49997333
0.49997333
0.49997333
-0.12499333
-0.00000000
-0.24998666
-0.24998666
-0.00000000
-0.12499333
-0.12499333
-0.00000000
0.49997333
-0.00000000
0.12499333
0.62496668
-0.49997333
0.37498000
-0.00000000
0.12499333
-0.00000000
0.37498000
0.37498000
0.49997333
-0.49997333
-0.37498000
-0.12499333
0.37498000
0.49997333
0.24998666
-0.37498000
0.12499333
0.49997333
0.12499333
-0.00000000
0.24998666
-0.12499333
-0.24998666
0.12499333
-0.24998666
-0.00000000
-0.37498000
-0.49997333
-0.12499333
-0.00000000
-0.49997333
-0.00000000
0.12499333
-0.37498000
0.37498000
0.62496668
-0.24998666
0.12499333
0.37498000
0.12499333
0.37498000
-0.37498000
0.12499333
-0.12499333
0.49997333
-0.37498000
0.24998666
-0.12499333
-0.37498000
-0.49997333
0.12499333
-0.12499333
0.12499333
-0.12499333
0.00000000
0.49997333
-0.37498000
0.24998666
0.37498000
0.00000000
0.49997333
0.49997333
0.37498000
0.24998666
-0.24998666
0.12499333
-0.37498000
-0.37498000
-0.87495333
-0.12499333
0.37498000
-0.49997333
-0.00000000
0.37498000
1.24993336
0.49997333
-0.49997333
-0.37498000
0.37498000
1.12494004
-0.74996001
-0.12499333
0.99994665
0.99994665
-0.62496668
-1.12494004
0.74996001
0.49997333
-0.87495333
-1.12494004
-0.62496668
0.24998666
0.24998666
-0.24998666
-0.87495333
-0.87495333
-0.49997333
0.49997333
0.12499333
-1.12494004
-0.49997333
-0.24998666
-0.49997333
-0.49997333
-0.37498000
-0.12499333
-0.24998666
-0.49997333
0.12499333
0.24998666
1.37492669
-0.37498000
0.62496668
0.99994665
0.62496668
-0.37498000
-0.49997333
0.12499333
0.24998666
-0.12499333
0.24998666
-0.49997333
0.49997333
0.37498000
-0.37498000
-0.12499333
-0.12499333
-0.00000000
-0.12499333
-0.62496668
-0.00000000
-0.62496668
-0.37498000
-0.12499333
-0.74996001
0.24998666
-0.00000000
0.12499333
-0.00000000
-0.62496668
-0.74996001
-0.62496668
-0.99994665
-1.49992001
0.24998666
0.99994665
-0.49997333
-0.99994665
1.12494004
0.74996001
0.37498000
-0.37498000
1.12494004
1.12494004
-0.12499333
-1.74990666
0.24998666
0.24998666
0.12499333
-0.74996001
-1.37492669
-0.24998666
-0.24998666
-0.00000000
-0.12499333
-0.87495333
0.49997333
0.24998666
-0.49997333
-0.49997333
-0.12499333
-0.12499333
0.37498000
0.49997333
0.37498000
0.12499333
0.24998666
-0.37498000
-0.49997333
0.37498000
-0.24998666
0.00000000
-0.24998666
-0.24998666
0.00000000
0.49997333
0.49997333
0.37498000
0.37498000
0.49997333
0.49997333
0.24998666
0.24998666
0.74996001
-0.62496668
-0.74996001
-0.37498000
-0.37498000
-0.37498000
-0.12499333
0.87495333
-0.00000000
-0.37498000
-0.62496668
0.99994665
0.99994665
-0.99994665
0.24998666
1.12494004
-0.00000000
-0.37498000
0.12499333
0.62496668
-0.00000000
-0.37498000
-0.12499333
-0.37498000
-0.12499333
-0.37498000
-0.24998666
0.49997333
-0.00000000
-0.99994665
0.24998666
-0.12499333
0.24998666
-0.87495333
-0.12499333
0.37498000
-0.12499333
-0.37498000
-0.00000000
0.24998666
0.74996001
-0.24998666
-1.24993336
0.24998666
0.62496668
0.62496668
-0.37498000
-0.99994665
-0.12499333
0.12499333
-0.49997333
0.62496668
-0.37498000
0.24998666
-0.49997333
0.12499333
0.37498000
-0.37498000
0.24998666
-0.37498000
-0.37498000
0.12499333
0.12499333
0.49997333
0.37498000
-0.12499333
-0.62496668
0.00000000
-0.12499333
-0.24998666
0.00000000
0.24998666
-0.49997333
-0.37498000
0.49997333
-0.24998666
0.12499333
-0.62496668
-0.49997333
-0.37498000
-0.12499333
-0.37498000
-0.24998666
-0.12499333
-0.37498000
-0.24998666
0.49997333
-0.49997333
0.24998666
-0.24998666
0.37498000
-0.24998666
-0.12499333
0.37498000
-0.24998666
-0.00000000
-0.37498000
0.37498000
-0.49997333
0.12499333
-0.24998666
-0.24998666
-0.12499333
-0.24998666
0.12499333
-0.12499333
-0.37498000
-0.49997333
-0.49997333
-0.00000000
0.49997333
-0.49997333
0.49997333
-0.12499333
-0.12499333
0.12499333
-0.37498000
-0.12499333
-0.00000000
0.24998666
-0.24998666
0.37498000
0.49997333
-0.49997333
0.62496668
0.12499333
-0.37498000
0.24998666
-0.37498000
0.24998666
-0.37498000
0.49997333
-0.24998666
0.00000000
-0.49997333
-0.12499333
-0.49997333
0.49997333
-0.12499333
-0.24998666
-0.37498000
-0.49997333
0.49997333
0.37498000
0.37498000
-0.37498000
-0.24998666
0.12499333
-0.12499333
-0.24998666
0.37498000
-0.37498000
-0.24998666
0.49997333
-0.00000000
0.24998666
0.37498000
0.24998666
0.37498000
-0.37498000
-0.37498000
-0.12499333
0.24998666
-0.37498000
0.37498000
0.49997333
-0.12499333
0.24998666
0.12499333
-0.00000000
-0.49997333
-0.24998666
0.12499333
-0.24998666
-0.24998666
0.12499333
0.37498000
0.37498000
-0.37498000
0.62496668
-0.37498000
0.62496668
-0.12499333
-0.24998666
-0.12499333
-0.00000000
-0.24998666
-0.37498000
0.12499333
-0.12499333
-0.24998666
-0.37498000
0.24998666
-0.24998666
-0.49997333
-0.12499333
-0.37498000
0.24998666
0.12499333
-0.49997333
-0.37498000
-0.24998666
0.24998666
-0.24998666
-0.12499333
0.37498000
-0.49997333
-0.00000000
0.24998666
0.12499333
0.00000000
-0.49997333
-0.12499333
-0.12499333
-0.62496668
-0.37498000
-0.37498000
-0.49997333
0.37498000
0.12499333
0.62496668
-0.24998666
0.49997333
-0.12499333
-0.24998666
-0.37498000
-0.00000000
-0.00000000
-0.12499333
0.24998666
0.12499333
-0.24998666
0.24998666
-0.37498000
-0.24998666
-0.37498000
0.49997333
0.24998666
0.49997333
0.24998666
-0.24998666
-0.24998666
-0.12499333
-0.49997333
-0.37498000
-0.49997333
-0.12499333
0.24998666
-0.12499333
0.37498000
-0.49997333
-0.49997333
-0.49997333
-0.24998666
-0.49997333
0.12499333
-0.49997333
-0.49997333
-0.49997333
0.49997333
-0.12499333
-0.24998666
-0.37498000
0.12499333
0.12499333
0.12499333
0.49997333
-0.49997333
0.37498000
0.12499333
0.12499333
0.24998666
0.24998666
-0.37498000
0.12499333
-0.37498000
-0.37498000
-0.49997333
-0.24998666
0.49997333
0.49997333
0.00000000
0.12499333
0.37498000
-0.49997333
0.12499333
-0.37498000
-0.12499333
0.49997333
0.12499333
-0.49997333
0.12499333
-0.12499333
0.37498000
0.49997333
0.37498000
-0.49997333
-0.00000000
-0.49997333
0.37498000
0.37498000
-0.24998666
0.49997333
0.24998666
0.49997333
-0.62496668
0.24998666
0.37498000
0.00000000
-0.12499333
-0.12499333
0.12499333
-0.37498000
0.49997333
-0.24998666
-0.49997333
-0.49997333
-0.12499333
-0.37498000
0.49997333
-0.00000000
0.12499333
-0.12499333
0.00000000
0.37498000
-0.37498000
0.62496668
-0.37498000
-0.24998666
-0.24998666
0.49997333
-0.37498000
0.49997333
0.24998666
0.12499333
-0.00000000
-0.12499333
0.12499333
-0.12499333
0.00000000
-0.49997333
0.12499333
-0.37498000
-0.49997333
0.12499333
-0.49997333
-0.00000000
0.49997333
-0.24998666
0.00000000
0.37498000
-0.49997333
-0.24998666
0.12499333
-0.49997333
-0.49997333
0.49997333
-0.49997333
-0.49997333
-0.49997333
-0.24998666
0.49997333
0.24998666
0.24998666
-0.37498000
-0.12499333
-0.24998666
0.24998666
0.00000000
-0.49997333
-0.37498000
0.49997333
0.37498000
-0.37498000
-0.49997333
-0.24998666
-0.37498000
-0.12499333
-0.12499333
-0.49997333
0.37498000
-0.24998666
0.49997333
0.12499333
0.49997333
0.37498000
0.37498000
-0.62496668
-0.24998666
0.12499333
-0.37498000
0.62496668
0.24998666
-0.49997333
-0.37498000
-0.00000000
0.37498000
-0.49997333
-0.37498000
-0.00000000
0.24998666
-0.49997333
-0.24998666
-0.00000000
-0.37498000
0.37498000
0.24998666
-0.37498000
-0.12499333
0.49997333
-0.49997333
-0.24998666
-0.24998666
0.12499333
-0.12499333
0.00000000
0.12499333
-0.37498000
0.12499333
-0.37498000
0.00000000
0.49997333
-0.49997333
0.49997333
0.12499333
0.37498000
-0.24998666
0.24998666
-0.12499333
-0.37498000
0.24998666
0.12499333
0.37498000
-0.00000000
0.12499333
-0.24998666
-0.24998666
-0.00000000
-0.24998666
0.37498000
-0.37498000
0.37498000
-0.62496668
0.24998666
-0.12499333
-0.00000000
-0.37498000
-0.12499333
0.37498000
0.12499333
-0.49997333
-0.37498000
-0.49997333
0.12499333
0.24998666
-0.00000000
0.00000000
-0.37498000
-0.37498000
0.12499333
-0.37498000
0.24998666
0.24998666
-0.49997333
-0.12499333
0.37498000
0.62496668
-0.12499333
-0.37498000
0.12499333
-0.00000000
-0.37498000
0.12499333
0.49997333
-0.49997333
0.00000000
-0.37498000
-0.12499333
-0.49997333
0.00000000
0.12499333
-0.12499333
-0.49997333
0.12499333
-0.24998666
-0.37498000
-0.12499333
-0.24998666
0.12499333
0.37498000
-0.24998666
0.37498000
0.12499333
-0.62496668
0.12499333
0.49997333
0.37498000
-0.24998666
-0.24998666
-0.37498000
0.12499333
-0.37498000
0.12499333
0.24998666
0.62496668
0.12499333
0.37498000
0.37498000
-0.37498000
0.12499333
-0.24998666
-0.37498000
-0.24998666
-0.24998666
0.49997333
0.12499333
-0.12499333
-0.49997333
-0.37498000
0.49997333
-0.24998666
0.24998666
-0.00000000
0.12499333
0.12499333
0.12499333
0.37498000
0.24998666
-0.49997333
0.37498000
0.37498000
0.37498000
-0.49997333
0.37498000
0.37498000
-0.49997333
0.12499333
-0.24998666
-0.49997333
-0.12499333
0.37498000
-0.24998666
-0.49997333
-0.12499333
0.24998666
-0.24998666
-0.12499333
0.24998666
0.49997333
0.12499333
-0.37498000
0.00000000
-0.37498000
0.62496668
0.37498000
-0.12499333
0.24998666
0.12499333
-0.62496668
0.12499333
-0.12499333
0.12499333
0.49997333
0.24998666
-0.37498000
0.37498000
-0.12499333
0.12499333
0.49997333
0.37498000
0.37498000
0.00000000
-0.24998666
-0.62496668
0.24998666
0.62496668
0.24998666
-0.49997333
-0.37498000
-0.00000000
-0.12499333
-0.12499333
-0.49997333
-0.24998666
-0.24998666
-0.24998666
-0.24998666
-0.24998666
0.00000000
-0.37498000
0.49997333
0.37498000
0.37498000
0.24998666
-0.24998666
-0.49997333
0.49997333
-0.24998666
-0.12499333
-0.62496668
0.49997333
0.62496668
0.00000000
-0.62496668
-0.37498000
-0.24998666
-0.37498000
-0.24998666
0.12499333
-0.12499333
-0.49997333
-0.00000000
-0.62496668
-0.24998666
0.24998666
-0.00000000
0.12499333
-0.12499333
-0.49997333
0.12499333
0.49997333
-0.37498000
0.24998666
0.49997333
0.62496668
0.12499333
-0.49997333
0.49997333
-0.49997333
0.49997333
-0.12499333
0.37498000
-0.24998666
-0.24998666
-0.12499333
-0.49997333
-0.24998666
-0.37498000
0.00000000
-0.24998666
-0.24998666
-0.12499333
-0.12499333
0.49997333
0.37498000
-0.24998666
0.49997333
0.37498000
-0.99994665
0.12499333
0.37498000
0.49997333
-0.00000000
0.37498000
0.12499333
0.62496668
-0.12499333
-0.62496668
-0.24998666
0.12499333
-0.12499333
-0.00000000
0.12499333
-0.49997333
-0.12499333
-0.62496668
-0.24998666
-0.24998666
-0.24998666
-0.12499333
0.49997333
0.49997333
-0.37498000
0.37498000
-0.12499333
0.24998666
-0.12499333
-0.49997333
-0.12499333
0.62496668
0.49997333
-0.49997333
-0.37498000
-0.37498000
-0.12499333
0.12499333
-0.37498000
0.24998666
-0.37498000
-0.62496668
-0.24998666
-0.12499333
-0.62496668
-0.12499333
0.12499333
0.37498000
-0.74996001
-0.00000000
-0.37498000
-0.24998666
-0.37498000
-0.00000000
-0.37498000
0.37498000
0.24998666
0.49997333
-0.37498000
0.62496668
-0.37498000
-0.49997333
0.24998666
-0.00000000
-0.62496668
-0.24998666
0.00000000
0.37498000
-0.37498000
0.12499333
0.00000000
0.49997333
0.62496668
-0.00000000
-0.12499333
-0.99994665
-0.74996001
-0.12499333
-0.24998666
0.49997333
-0.24998666
-0.00000000
-0.24998666
0.12499333
0.37498000
-0.37498000
0.37498000
0.62496668
0.49997333
0.12499333
-0.62496668
0.12499333
0.37498000
0.12499333
0.37498000
-0.24998666
-0.12499333
-0.12499333
-0.12499333
0.12499333
-0.62496668
0.49997333
-0.00000000
0.62496668
0.12499333
-0.49997333
0.24998666
0.24998666
-0.24998666
0.24998666
0.24998666
-0.24998666
0.12499333
-0.49997333
0.37498000
-0.74996001
0.49997333
-0.12499333
0.37498000
-0.00000000
-0.49997333
-0.12499333
0.37498000
0.74996001
0.37498000
0.24998666
-0.12499333
0.37498000
0.24998666
0.24998666
-0.24998666
0.12499333
-0.12499333
0.49997333
0.24998666
0.12499333
0.12499333
-0.37498000
-0.24998666
-0.49997333
0.00000000
0.12499333
-0.49997333
0.37498000
-0.37498000
-0.62496668
-0.12499333
-0.12499333
-0.12499333
0.37498000
-0.49997333
-0.49997333
0.62496668
0.49997333
0.24998666
0.37498000
-0.24998666
0.12499333
-0.00000000
-0.37498000
-0.24998666
0.49997333
0.00000000
-0.37498000
-0.12499333
0.37498000
0.49997333
-0.37498000
-0.00000000
0.37498000
-0.12499333
-0.49997333
0.24998666
0.12499333
0.24998666
-0.37498000
-0.37498000
0.49997333
-0.24998666
-0.37498000
0.12499333
-0.12499333
0.24998666
0.12499333
-0.12499333
-0.37498000
0.49997333
0.49997333
-0.24998666
-0.49997333
0.49997333
-0.24998666
-0.24998666
0.49997333
0.62496668
-0.37498000
0.00000000
0.00000000
-0.37498000
-0.49997333
-0.12499333
-0.37498000
-0.24998666
-0.24998666
-0.62496668
0.00000000
-0.12499333
-0.24998666
-0.12499333
-0.37498000
-0.49997333
0.37498000
0.37498000
0.00000000
-0.12499333
0.24998666
0.62496668
0.49997333
0.24998666
0.24998666
0.49997333
-0.24998666
-0.49997333
0.49997333
0.62496668
-0.12499333
0.37498000
0.49997333
0.24998666
-0.00000000
-0.12499333
0.49997333
0.37498000
0.37498000
-0.24998666
0.37498000
0.24998666
-0.49997333
0.24998666
-0.62496668
0.62496668
-0.49997333
-0.37498000
0.12499333
-0.12499333
0.37498000
-0.00000000
-0.49997333
0.49997333
-0.00000000
-0.12499333
-0.00000000
-0.24998666
0.12499333
-0.12499333
-0.24998666
-0.62496668
-0.49997333
-0.00000000
-0.37498000
-0.74996001
-0.62496668
0.74996001
-0.12499333
-0.12499333
0.12499333
0.37498000
0.62496668
0.37498000
0.62496668
0.24998666
0.12499333
0.49997333
-0.49997333
0.37498000
0.49997333
-0.37498000
0.37498000
0.24998666
-0.49997333
-0.24998666
0.12499333
-0.74996001
0.12499333
0.00000000
-0.49997333
-0.74996001
-0.12499333
0.12499333
-0.49997333
-0.49997333
-0.49997333
-0.62496668
-0.12499333
-0.37498000
-0.24998666
-0.37498000
-0.62496668
0.12499333
-0.62496668
-0.49997333
0.24998666
-0.24998666
0.24998666
-0.24998666
0.37498000
0.24998666
0.49997333
-0.00000000
0.12499333
0.00000000
0.12499333
0.37498000
-0.62496668
-0.12499333
-0.24998666
0.49997333
-0.37498000
-0.00000000
0.24998666
-0.24998666
0.37498000
-0.00000000
0.37498000
-0.24998666
-0.24998666
0.37498000
0.49997333
-0.24998666
0.24998666
0.49997333
-0.49997333
0.37498000
0.37498000
-0.12499333
-0.37498000
0.12499333
-0.37498000
0.00000000
0.49997333
0.49997333
0.37498000
0.12499333
0.24998666
0.49997333
-0.12499333
-0.24998666
0.49997333
0.24998666
-0.12499333
-0.00000000
-0.00000000
-0.00000000
0.12499333
-0.24998666
-0.49997333
0.12499333
0.12499333
0.49997333
-0.12499333
-0.49997333
0.49997333
0.62496668
-0.12499333
-0.49997333
0.24998666
-0.24998666
-0.24998666
0.37498000
-0.00000000
-0.87495333
0.12499333
-0.49997333
-0.37498000
-0.49997333
0.12499333
0.24998666
-0.00000000
-0.62496668
-0.37498000
0.12499333
0.62496668
-0.24998666
0.49997333
-0.24998666
0.37498000
0.62496668
-0.37498000
0.37498000
-0.00000000
0.49997333
0.12499333
0.12499333
-0.24998666
-0.12499333
-0.12499333
-0.37498000
0.49997333
-0.49997333
-0.49997333
-0.49997333
-0.37498000
0.12499333
0.12499333
0.00000000
-0.00000000
0.00000000
0.12499333
-0.37498000
-0.37498000
0.49997333
0.12499333
-0.24998666
0.00000000
-0.00000000
0.49997333
-0.49997333
0.12499333
-0.12499333
0.24998666
0.49997333
0.49997333
-0.24998666
0.37498000
0.49997333
-0.00000000
0.37498000
-0.24998666
0.24998666
-0.49997333
0.37498000
0.12499333
-0.12499333
-0.24998666
0.37498000
-0.12499333
-0.62496668
0.24998666
0.62496668
0.62496668
-0.24998666
-0.24998666
0.12499333
0.49997333
0.62496668
-0.24998666
-0.00000000
-0.00000000
0.37498000
-0.62496668
-0.37498000
-0.12499333
-0.12499333
-0.87495333
0.24998666
0.12499333
-0.49997333
-0.49997333
-0.00000000
0.37498000
-0.24998666
-0.49997333
-0.00000000
-0.12499333
-0.49997333
-0.24998666
0.37498000
-0.49997333
0.24998666
-0.37498000
0.24998666
0.24998666
-0.24998666
-0.37498000
-0.49997333
-0.12499333
-0.24998666
-0.37498000
0.37498000
0.24998666
0.49997333
0.62496668
-0.12499333
-0.37498000
0.12499333
0.49997333
-0.24998666
-0.00000000
-0.24998666
-0.49997333
0.49997333
-0.24998666
0.12499333
0.37498000
0.00000000
0.37498000
-0.24998666
-0.00000000
-0.12499333
0.00000000
-0.12499333
-0.37498000
-1.12494004
-1.37492669
-0.24998666
0.12499333
-0.24998666
-1.62491333
-0.37498000
-0.00000000
0.12499333
-0.62496668
-1.12494004
-0.00000000
1.12494004
-0.00000000
-1.62491333
-0.24998666
0.49997333
0.49997333
-0.74996001
-0.24998666
0.62496668
0.99994665
0.12499333
-0.00000000
0.37498000
-0.12499333
0.12499333
0.24998666
-0.37498000
0.00000000
-0.12499333
0.62496668
0.00000000
0.37498000
-0.37498000
0.37498000
0.24998666
0.00000000
0.00000000
-0.24998666
-0.24998666
0.00000000
0.62496668
-0.24998666
0.49997333
-0.24998666
0.37498000
-0.49997333
-0.37498000
0.12499333
-0.37498000
-0.37498000
-0.00000000
-0.00000000
0.24998666
-0.37498000
0.24998666
-0.00000000
-0.49997333
0.37498000
-0.62496668
-0.62496668
-0.00000000
0.12499333
-0.37498000
-0.00000000
-0.12499333
-0.12499333
-0.00000000
-0.12499333
-0.37498000
0.12499333
-0.24998666
0.74996001
0.37498000
-0.24998666
-1.37492669
-1.12494004
0.49997333
1.49992001
-0.24998666
-1.24993336
-0.37498000
1.37492669
1.87489998
-1.37492669
-1.62491333
0.74996001
0.74996001
1.62491333
-0.99994665
-0.74996001
1.74990666
1.12494004
1.49992001
-1.37492669
0.12499333
2.74985337
0.24998666
-0.87495333
-1.37492669
-1.62491333
-0.49997333
0.87495333
-0.49997333
-0.99994665
-0.74996001
0.74996001
0.62496668
-0.37498000
-1.49992001
0.62496668
0.12499333
0.62496668
-0.99994665
-0.12499333
0.37498000
-0.37498000
-0.12499333
-0.24998666
0.24998666
0.37498000
-0.24998666
-0.00000000
-0.24998666
-0.12499333
-0.24998666
-0.37498000
0.12499333
0.24998666
-0.37498000
0.37498000
0.00000000
0.49997333
-0.12499333
-0.49997333
0.24998666
-0.37498000
-0.37498000
-0.62496668
0.37498000
-0.12499333
0.12499333
0.49997333
-0.62496668
-0.12499333
-0.00000000
0.12499333
-0.12499333
0.12499333
-0.62496668
-0.62496668
0.24998666
0.12499333
0.49997333
-0.24998666
0.12499333
-0.49997333
0.24998666
0.12499333
-0.00000000
0.12499333
-0.24998666
0.37498000
0.37498000
-0.49997333
0.24998666
0.62496668
0.12499333
0.37498000
-0.37498000
-0.24998666
0.62496668
-0.49997333
0.12499333
-0.49997333
-0.37498000
0.24998666
-0.37498000
0.62496668
0.37498000
-0.62496668
-0.00000000
-0.00000000
-0.24998666
-0.12499333
-0.24998666
0.37498000
-0.37498000
-0.49997333
-0.49997333
-0.37498000
-0.62496668
0.00000000
-0.12499333
-0.24998666
-0.49997333
0.12499333
0.00000000
0.24998666
-0.49997333
0.24998666
-0.49997333
0.24998666
0.24998666
-0.12499333
-0.24998666
0.12499333
-0.37498000
0.49997333
0.24998666
0.12499333
0.12499333
-0.37498000
0.00000000
-0.62496668
-0.24998666
0.12499333
0.00000000
0.12499333
-0.24998666
-0.62496668
0.49997333
-0.24998666
-0.87495333
-0.00000000
-0.87495333
-0.24998666
-0.49997333
-0.49997333
-0.37498000
0.12499333
0.49997333
0.62496668
-0.62496668
-0.00000000
0.49997333
0.99994665
0.62496668
-0.99994665
0.74996001
0.37498000
-0.12499333
0.62496668
-0.00000000
1.12494004
0.24998666
0.37498000
0.24998666
-0.12499333
-0.37498000
-0.37498000
-0.24998666
-0.12499333
0.99994665
-0.24998666
-0.74996001
-0.62496668
-0.12499333
0.74996001
0.37498000
-0.62496668
-0.37498000
0.62496668
0.99994665
0.24998666
0.12499333
-0.00000000
0.49997333
0.62496668
-0.00000000
0.74996001
0.87495333
-0.49997333
0.12499333
0.49997333
-0.24998666
0.62496668
-0.37498000
-0.62496668
0.62496668
-0.24998666
-0.12499333
-0.62496668
-0.12499333
0.49997333
-0.12499333
-0.24998666
-0.62496668
0.12499333
-0.24998666
-0.49997333
-0.37498000
-0.74996001
-0.74996001
-0.62496668
-0.62496668
-0.49997333
-0.74996001
-0.24998666
-0.99994665
-0.74996001
-0.37498000
-0.37498000
-1.12494004
-0.49997333
0.49997333
-0.00000000
-0.37498000
-1.12494004
-0.12499333
0.74996001
0.37498000
-0.62496668
-0.74996001
-0.00000000
-0.00000000
-0.37498000
-0.49997333
0.74996001
1.37492669
0.12499333
-0.12499333
-0.49997333
0.37498000
0.12499333
0.24998666
-0.12499333
0.00000000
0.24998666
0.49997333
0.49997333
0.12499333
0.00000000
0.37498000
0.49997333
0.12499333
-0.24998666
-0.49997333
-0.49997333
-0.24998666
-0.24998666
-0.12499333
0.49997333
0.24998666
-0.24998666
-0.12499333
-0.12499333
-0.12499333
-0.37498000
-0.37498000
0.12499333
0.12499333
-0.00000000
-0.00000000
-0.62496668
-0.37498000
-0.37498000
-0.49997333
-0.62496668
0.00000000
-0.87495333
0.24998666
0.24998666
-0.62496668
-0.87495333
-0.12499333
0.74996001
-0.24998666
-0.12499333
-0.99994665
0.49997333
0.62496668
0.12499333
-0.62496668
-1.37492669
-0.74996001
-1.12494004
-0.37498000
-1.24993336
-1.49992001
-0.24998666
-0.37498000
-0.00000000
-1.37492669
-0.87495333
0.49997333
0.49997333
0.24998666
-1.12494004
0.49997333
1.12494004
-0.49997333
0.12499333
-0.49997333
0.24998666
0.62496668
-0.49997333
0.37498000
0.00000000
0.24998666
-0.12499333
-0.37498000
0.37498000
0.00000000
0.24998666
-0.12499333
0.12499333
-0.37498000
0.49997333
0.24998666
0.49997333
0.49997333
0.49997333
-0.24998666
-0.12499333
0.37498000
-0.49997333
0.12499333
-0.49997333
0.00000000
-0.12499333
0.12499333
-0.37498000
-0.37498000
-0.49997333
-0.74996001
0.24998666
0.37498000
-0.12499333
-0.37498000
-0.24998666
-0.24998666
-0.12499333
-0.37498000
0.24998666
-0.12499333
-0.24998666
-0.24998666
0.37498000
0.24998666
0.49997333
-0.24998666
-0.62496668
-0.24998666
-0.62496668
-0.62496668
0.62496668
-0.37498000
-0.12499333
0.99994665
0.87495333
0.12499333
-0.49997333
0.12499333
-0.12499333
-0.12499333
0.12499333
-0.24998666
-0.74996001
-0.87495333
0.12499333
0.12499333
0.24998666
0.37498000
-0.87495333
-0.24998666
0.12499333
0.00000000
-0.49997333
-0.49997333
-0.49997333
0.12499333
0.12499333
-0.62496668
-0.24998666
0.00000000
-0.12499333
0.37498000
-0.24998666
-0.49997333
0.24998666
0.00000000
0.37498000
0.37498000
-0.12499333
-0.12499333
0.12499333
0.12499333
0.37498000
0.12499333
0.62496668
0.24998666
0.62496668
-0.37498000
-0.49997333
-0.24998666
0.12499333
-0.12499333
-0.37498000
0.37498000
-0.24998666
0.62496668
-0.37498000
-0.37498000
0.12499333
0.00000000
0.12499333
-0.74996001
-0.12499333
-0.49997333
-0.49997333
0.49997333
-0.62496668
-0.12499333
-0.99994665
0.24998666
0.74996001
0.00000000
-0.99994665
-1.24993336
0.12499333
0.24998666
0.12499333
0.62496668
0.49997333
0.49997333
0.00000000
0.00000000
0.00000000
-0.49997333
0.00000000
-0.49997333
-0.37498000
0.37498000
-0.12499333
0.62496668
-0.37498000
0.00000000
-0.24998666
0.00000000
0.62496668
-0.12499333
0.49997333
-0.12499333
0.00000000
0.49997333
0.49997333
0.37498000
-0.12499333
-0.24998666
0.00000000
-0.49997333
0.12499333
0.62496668
-0.24998666
0.00000000
0.12499333
0.49997333
-0.12499333
0.00000000
0.49997333
-0.49997333
-0.12499333
-0.12499333
0.37498000
0.49997333
0.24998666
0.24998666
-0.24998666
-0.49997333
0.24998666
0.12499333
0.00000000
0.99994665
0.62496668
0.87495333
0.12499333
-0.00000000
-0.37498000
0.00000000
-0.37498000
0.62496668
-0.12499333
-0.49997333
-1.12494004
-1.24993336
0.24998666
0.12499333
-0.49997333
-1.12494004
-0.37498000
0.87495333
-0.62496668
-0.62496668
-1.24993336
-0.62496668
0.24998666
0.24998666
-0.37498000
0.24998666
-0.12499333
0.62496668
0.24998666
-0.24998666
0.12499333
0.00000000
0.49997333
-0.12499333
-1.12494004
-0.87495333
-0.37498000
0.74996001
-0.74996001
-1.12494004
-1.37492669
0.12499333
0.62496668
-0.62496668
-0.24998666
-1.62491333
-0.62496668
0.49997333
0.37498000
-0.12499333
-0.62496668
0.49997333
-0.00000000
-0.37498000
-0.00000000
-0.49997333
0.49997333
-0.12499333
0.62496668
-0.49997333
-0.12499333
-0.24998666
0.49997333
-0.49997333
-0.24998666
-0.12499333
0.62496668
0.12499333
0.00000000
0.62496668
0.49997333
0.49997333
0.24998666
0.37498000
-0.24998666
-0.24998666
0.24998666
-0.24998666
-0.49997333
-0.24998666
-0.37498000
-0.24998666
-0.49997333
0.37498000
0.12499333
-0.12499333
0.49997333
-0.12499333
-0.49997333
0.24998666
0.49997333
0.49997333
-0.24998666
-0.37498000
-0.12499333
0.00000000
-0.62496668
0.37498000
-0.37498000
0.00000000
0.37498000
-0.49997333
0.37498000
-0.62496668
-0.24998666
0.12499333
-0.24998666
-0.12499333
0.37498000
-0.37498000
0.24998666
-0.12499333
-0.62496668
-0.24998666
0.49997333
0.12499333
0.49997333
-0.37498000
-0.00000000
0.49997333
0.12499333
0.12499333
0.24998666
0.00000000
-0.24998666
0.49997333
0.00000000
-0.49997333
-0.12499333
0.37498000
0.12499333
-0.37498000
0.37498000
-0.24998666
-0.24998666
-0.37498000
0.12499333
0.49997333
0.00000000
0.49997333
-0.37498000
0.00000000
-0.24998666
0.24998666
-0.24998666
0.37498000
-0.37498000
0.49997333
-0.37498000
-0.12499333
0.24998666
-0.37498000
0.12499333
0.12499333
-0.12499333
-0.74996001
0.12499333
-0.49997333
-0.62496668
0.12499333
-0.12499333
-0.24998666
-0.12499333
0.00000000
-0.24998666
0.37498000
0.49997333
-0.12499333
-0.49997333
0.00000000
-0.62496668
0.00000000
0.49997333
0.62496668
0.00000000
0.12499333
0.49997333
0.24998666
0.12499333
0.12499333
0.37498000
-0.24998666
0.24998666
-0.49997333
0.12499333
-0.49997333
-0.87495333
0.74996001
-0.37498000
0.12499333
-0.24998666
0.00000000
-0.24998666
-0.00000000
0.37498000
-0.12499333
-0.37498000
0.00000000
-0.37498000
0.24998666
-0.49997333
-0.87495333
-0.12499333
-0.24998666
0.12499333
0.24998666
0.12499333
0.12499333
0.37498000
-0.24998666
0.49997333
0.37498000
-0.24998666
0.00000000
0.24998666
0.62496668
-0.24998666
-0.74996001
-0.24998666
0.37498000
0.87495333
0.74996001
-0.12499333
0.37498000
0.49997333
0.49997333
0.00000000
0.62496668
-0.12499333
-0.49997333
-0.62496668
-0.37498000
-0.37498000
-0.49997333
-0.12499333
-0.24998666
-0.49997333
-0.49997333
0.12499333
-0.37498000
-0.74996001
0.49997333
0.24998666
-0.49997333
-0.99994665
-0.87495333
-0.37498000
-0.74996001
-0.12499333
-0.37498000
0.12499333
0.37498000
-0.12499333
-0.37498000
0.12499333
-0.37498000
0.49997333
-0.62496668
0.24998666
-0.12499333
-0.37498000
-0.37498000
-0.37498000
0.24998666
-0.24998666
0.00000000
-0.37498000
0.49997333
-0.24998666
0.24998666
-0.12499333
-0.12499333
-0.49997333
0.24998666
0.12499333
-0.37498000
-0.87495333
-0.37498000
0.12499333
-0.12499333
-0.24998666
0.37498000
-0.49997333
-0.37498000
0.24998666
-0.12499333
-0.37498000
0.00000000
-0.00000000
-0.24998666
0.00000000
0.49997333
0.24998666
0.00000000
0.24998666
-0.24998666
0.37498000
-0.24998666
0.00000000
0.62496668
-0.12499333
-0.24998666
-0.24998666
0.24998666
-0.49997333
0.37498000
0.12499333
0.24998666
-0.62496668
-0.74996001
-0.12499333
0.62496668
0.62496668
-0.00000000
-1.12494004
-0.37498000
0.87495333
0.37498000
-0.24998666
0.00000000
-0.62496668
0.49997333
0.87495333
0.12499333
-0.12499333
0.24998666
0.24998666
-0.12499333
-0.12499333
0.12499333
0.37498000
0.37498000
-0.62496668
-0.24998666
-0.12499333
-0.24998666
-0.00000000
0.00000000
0.49997333
-0.37498000
0.49997333
-0.24998666
0.00000000
-0.12499333
-0.12499333
-0.49997333
0.37498000
0.24998666
-0.49997333
-0.62496668
-0.49997333
-0.24998666
0.24998666
-0.00000000
-0.00000000
-0.12499333
-0.49997333
-0.37498000
-0.12499333
0.37498000
0.12499333
-0.00000000
0.00000000
-0.24998666
0.24998666
0.37498000
-0.37498000
-0.37498000
0.49997333
-0.49997333
0.49997333
-0.24998666
-0.24998666
-0.00000000
-0.00000000
0.24998666
-0.00000000
0.62496668
0.24998666
-0.74996001
-0.62496668
0.12499333
0.24998666
-0.00000000
-0.74996001
-0.12499333
-0.37498000
0.74996001
0.37498000
-0.37498000
-0.74996001
-0.62496668
0.12499333
0.00000000
0.74996001
0.12499333
0.00000000
0.37498000
0.12499333
0.49997333
-0.24998666
0.12499333
-0.12499333
0.24998666
0.62496668
-0.24998666
-0.37498000
-0.49997333
-0.12499333
-0.49997333
0.37498000
0.49997333
-0.37498000
-0.37498000
-0.24998666
-0.12499333
0.00000000
0.37498000
0.62496668
-0.37498000
0.12499333
0.00000000
-0.12499333
-0.87495333
-0.24998666
0.24998666
0.99994665
-0.12499333
-0.37498000
-0.74996001
-0.24998666
0.37498000
-0.12499333
-0.37498000
-0.49997333
-0.37498000
-0.37498000
0.00000000
-0.37498000
-0.74996001
-0.87495333
-0.24998666
-0.24998666
-0.12499333
-0.49997333
0.24998666
-0.12499333
0.00000000
-0.24998666
0.37498000
0.62496668
0.62496668
0.00000000
-0.37498000
0.74996001
0.62496668
0.49997333
0.37498000
-0.49997333
0.12499333
0.00000000
-0.37498000
-0.62496668
-0.12499333
0.12499333
0.24998666
0.37498000
-0.62496668
0.24998666
-0.24998666
-0.12499333
0.37498000
-0.37498000
-0.62496668
-0.49997333
-0.37498000
-0.00000000
-0.37498000
-0.00000000
-0.12499333
0.12499333
-0.00000000
0.62496668
0.49997333
0.24998666
0.37498000
0.12499333
0.12499333
0.62496668
-0.49997333
0.24998666
-0.24998666
-0.12499333
-0.00000000
-0.49997333
0.24998666
0.12499333
0.37498000
-0.37498000
-1.24993336
-0.87495333
0.49997333
0.24998666
0.24998666
-0.12499333
-0.99994665
0.62496668
0.87495333
1.24993336
-0.24998666
-0.74996001
1.37492669
1.12494004
1.49992001
0.74996001
-0.74996001
0.87495333
0.99994665
0.74996001
0.49997333
-0.12499333
0.12499333
0.37498000
-0.62496668
-0.74996001
0.37498000
0.12499333
-0.37498000
-0.12499333
-0.99994665
-0.37498000
-0.00000000
-0.87495333
-0.00000000
-0.74996001
-0.00000000
0.62496668
0.12499333
0.49997333
-1.37492669
-0.99994665
-0.12499333
-0.24998666
0.37498000
-0.12499333
-0.62496668
0.74996001
-0.62496668
-0.24998666
-0.49997333
-0.49997333
-0.12499333
0.37498000
-0.37498000
0.49997333
-0.24998666
0.49997333
-0.37498000
0.24998666
-0.49997333
-0.00000000
-0.24998666
-0.24998666
-0.24998666
-0.24998666
-0.37498000
0.24998666
0.49997333
-0.49997333
-0.62496668
-0.12499333
0.37498000
0.12499333
0.12499333
-0.00000000
-0.37498000
0.49997333
0.37498000
-0.49997333
-0.24998666
0.12499333
-0.49997333
0.24998666
-0.12499333
0.37498000
-0.12499333
0.12499333
0.24998666
-0.00000000
-0.49997333
0.12499333
0.62496668
-0.49997333
0.37498000
0.49997333
-0.37498000
0.24998666
0.62496668
0.37498000
-0.49997333
-0.24998666
-0.24998666
0.49997333
-0.12499333
-0.12499333
0.49997333
0.00000000
-0.12499333
0.49997333
0.24998666
-0.62496668
-0.24998666
0.49997333
-0.12499333
-0.49997333
-0.49997333
0.49997333
0.62496668
0.12499333
-0.37498000
0.62496668
-0.37498000
0.12499333
-0.12499333
-0.37498000
0.00000000
0.00000000
0.37498000
0.49997333
0.12499333
-0.24998666
0.00000000
-0.24998666
0.24998666
-0.24998666
-0.24998666
0.12499333
0.49997333
0.49997333
-0.24998666
0.12499333
0.00000000
-0.24998666
0.12499333
-0.12499333
-0.37498000
-0.24998666
-0.37498000
-0.87495333
-0.37498000
0.12499333
-0.12499333
0.24998666
0.12499333
0.12499333
0.74996001
-0.12499333
0.24998666
-0.37498000
-0.12499333
0.49997333
-0.37498000
-0.99994665
-0.24998666
0.24998666
0.62496668
-0.49997333
-0.12499333
-0.12499333
0.49997333
0.00000000
0.37498000
0.00000000
0.62496668
-0.37498000
0.00000000
-0.00000000
-0.12499333
0.37498000
-0.12499333
-0.62496668
-0.12499333
0.49997333
-0.12499333
0.12499333
-0.74996001
0.24998666
0.62496668
0.74996001
0.12499333
0.24998666
-0.37498000
-0.12499333
-0.12499333
-0.24998666
-0.00000000
0.12499333
-0.12499333
-0.12499333
-0.37498000
0.12499333
-0.24998666
-0.37498000
-0.24998666
0.49997333
0.49997333
0.12499333
0.00000000
0.49997333
-0.12499333
0.62496668
-0.00000000
-0.24998666
0.49997333
0.37498000
0.62496668
-0.24998666
-0.37498000
0.49997333
-0.24998666
0.24998666
-0.12499333
0.24998666
-0.99994665
-0.12499333
0.62496668
0.37498000
-0.37498000
-0.24998666
-0.12499333
0.12499333
-0.37498000
-0.62496668
-0.00000000
-0.99994665
0.00000000
0.12499333
-0.12499333
-0.37498000
-0.62496668
-0.12499333
-0.37498000
-0.24998666
-0.12499333
-0.37498000
0.37498000
-0.12499333
-0.62496668
-0.12499333
-0.12499333
-0.12499333
0.00000000
0.12499333
0.24998666
-0.24998666
0.00000000
-0.49997333
0.37498000
-0.24998666
0.24998666
-0.12499333
-0.37498000
0.37498000
0.00000000
-0.37498000
0.12499333
0.62496668
-0.49997333
-0.37498000
-0.37498000
0.49997333
-0.24998666
0.62496668
-0.37498000
-0.62496668
-0.12499333
0.37498000
-0.00000000
0.24998666
-0.62496668
-0.24998666
-0.12499333
-0.24998666
-0.12499333
-0.00000000
0.12499333
-0.62496668
-0.37498000
-0.49997333
-0.00000000
-0.37498000
-0.00000000
0.37498000
0.24998666
-0.37498000
-0.24998666
0.49997333
-0.37498000
-0.49997333
-0.49997333
-0.00000000
-0.62496668
-0.24998666
-0.99994665
-0.00000000
0.24998666
-0.24998666
-0.12499333
-0.74996001
-0.12499333
0.37498000
0.24998666
-0.74996001
-0.62496668
-1.12494004
0.99994665
0.24998666
0.00000000
0.37498000
-0.49997333
0.62496668
0.12499333
-0.37498000
0.24998666
-0.24998666
-0.24998666
0.00000000
0.00000000
0.24998666
0.37498000
-0.24998666
-0.49997333
0.37498000
0.49997333
-0.24998666
-0.49997333
0.12499333
-0.49997333
-0.49997333
0.24998666
0.12499333
-0.37498000
0.12499333
0.49997333
0.12499333
-0.12499333
-0.37498000
-0.24998666
0.37498000
0.37498000
0.24998666
-0.12499333
0.37498000
-0.49997333
0.24998666
-0.49997333
0.37498000
-0.62496668
-0.00000000
-0.00000000
-0.12499333
-0.12499333
0.37498000
-0.24998666
0.24998666
0.49997333
-0.37498000
0.49997333
-0.00000000
-0.37498000
0.49997333
-0.62496668
0.37498000
-0.00000000
-0.74996001
-0.00000000
0.12499333
0.24998666
0.49997333
0.12499333
0.37498000
-0.62496668
-0.87495333
0.62496668
0.74996001
-0.00000000
0.24998666
0.49997333
0.49997333
0.24998666
0.49997333
0.37498000
0.12499333
-0.12499333
0.49997333
-0.37498000
0.37498000
-0.12499333
0.49997333
-0.24998666
-0.62496668
-0.49997333
-0.24998666
0.12499333
0.37498000
-0.12499333
0.49997333
0.49997333
0.37498000
0.12499333
-0.62496668
0.12499333
-0.49997333
-0.00000000
0.62496668
-0.49997333
0.37498000
0.49997333
-0.00000000
0.37498000
-0.12499333
-0.37498000
0.37498000
-0.12499333
-0.12499333
-0.24998666
-0.37498000
0.62496668
-1.12494004
-0.00000000
-0.49997333
-0.00000000
-0.12499333
0.24998666
-0.37498000
-0.12499333
-0.37498000
-0.00000000
-0.12499333
0.87495333
-0.12499333
-0.62496668
0.37498000
0.49997333
0.99994665
0.87495333
-0.24998666
-0.62496668
0.37498000
-0.37498000
0.24998666
-0.24998666
-0.00000000
-0.24998666
-0.24998666
0.62496668
-0.49997333
0.12499333
-0.00000000
0.12499333
0.49997333
0.49997333
0.00000000
0.24998666
0.62496668
0.37498000
0.24998666
0.00000000
-0.37498000
-0.00000000
-0.12499333
0.12499333
-0.12499333
-0.37498000
0.24998666
0.37498000
0.49997333
0.24998666
-0.00000000
-0.49997333
-0.24998666
-0.12499333
-0.12499333
-0.12499333
-0.00000000
0.37498000
-0.12499333
0.00000000
0.12499333
-0.24998666
-0.00000000
0.24998666
-0.62496668
0.12499333
-0.00000000
0.37498000
-0.00000000
-0.37498000
0.24998666
-0.37498000
-0.62496668
-0.74996001
-0.87495333
-0.74996001
-1.12494004
-0.62496668
-1.24993336
-0.87495333
-0.49997333
0.24998666
0.12499333
-0.24998666
-0.87495333
-0.00000000
-0.24998666
0.24998666
0.74996001
0.12499333
-0.49997333
-0.00000000
0.49997333
1.24993336
-0.49997333
-0.62496668
-1.12494004
-0.87495333
-0.99994665
-0.49997333
-0.74996001
-0.62496668
-0.24998666
-0.99994665
-1.12494004
0.12499333
0.49997333
0.12499333
-0.99994665
-0.74996001
0.37498000
-0.00000000
1.12494004
-0.49997333
0.12499333
-0.37498000
0.37498000
0.74996001
-0.00000000
-0.12499333
0.12499333
0.24998666
0.49997333
-0.49997333
0.00000000
0.37498000
-0.12499333
0.37498000
-0.00000000
0.24998666
-0.37498000
-0.12499333
-0.49997333
0.12499333
0.49997333
0.00000000
0.62496668
-0.37498000
-0.24998666
0.37498000
0.62496668
-0.12499333
-0.24998666
0.24998666
-0.00000000
-0.24998666
-0.24998666
0.24998666
-0.49997333
-0.12499333
-0.62496668
-0.37498000
-0.62496668
-0.00000000
-0.62496668
-0.37498000
0.49997333
-0.49997333
-0.49997333
-0.37498000
0.12499333
-0.49997333
0.12499333
-0.49997333
0.37498000
-0.49997333
0.37498000
-0.24998666
-0.24998666
0.12499333
-0.37498000
-0.00000000
0.24998666
-0.12499333
0.00000000
0.37498000
-0.49997333
0.37498000
0.12499333
0.24998666
-0.37498000
-0.49997333
-0.49997333
-0.24998666
0.00000000
-0.24998666
-0.37498000
0.24998666
-0.12499333
-0.12499333
0.12499333
-0.12499333
-0.24998666
-0.00000000
-0.24998666
-0.49997333
0.49997333
-0.37498000
0.49997333
-0.12499333
0.24998666
-0.24998666
0.12499333
0.00000000
-0.12499333
0.24998666
0.12499333
-0.12499333
-0.12499333
0.12499333
-0.37498000
-0.24998666
-0.49997333
0.00000000
0.12499333
-0.12499333
0.37498000
-0.12499333
-0.24998666
0.24998666
0.37498000
-0.37498000
-0.12499333
-0.12499333
0.12499333
-0.00000000
-0.12499333
0.24998666
0.37498000
0.24998666
0.24998666
-0.00000000
0.24998666
0.37498000
0.24998666
0.49997333
-0.12499333
0.24998666
-0.49997333
-0.12499333
-0.00000000
0.37498000
0.24998666
-0.62496668
0.00000000
-0.12499333
-0.12499333
-0.49997333
-0.37498000
-0.12499333
0.24998666
-0.74996001
0.24998666
0.12499333
0.24998666
-0.37498000
-0.62496668
-0.74996001
0.12499333
0.37498000
-0.24998666
-0.12499333
0.24998666
0.62496668
0.24998666
-0.62496668
0.37498000
-0.00000000
0.74996001
0.24998666
0.62496668
0.49997333
0.74996001
0.37498000
0.24998666
0.74996001
-0.24998666
0.62496668
0.24998666
0.74996001
0.37498000
0.24998666
0.24998666
0.12499333
0.87495333
0.74996001
-0.37498000
0.37498000
-0.37498000
0.49997333
0.24998666
0.62496668
0.00000000
-0.00000000
0.00000000
-0.74996001
-0.62496668
-0.37498000
0.00000000
0.49997333
-0.74996001
-0.49997333
-0.74996001
-0.37498000
-0.37498000
-0.24998666
-0.37498000
0.37498000
-0.24998666
0.12499333
0.37498000
-0.12499333
0.37498000
0.24998666
0.00000000
0.37498000
0.24998666
0.37498000
-0.49997333
-0.74996001
-0.24998666
0.12499333
0.49997333
-0.62496668
-0.24998666
-0.37498000
0.24998666
-0.24998666
0.37498000
0.49997333
0.12499333
0.49997333
0.00000000
-0.37498000
0.62496668
0.37498000
0.24998666
0.49997333
-0.24998666
-0.24998666
0.24998666
-0.12499333
-0.37498000
0.00000000
0.12499333
-0.00000000
0.49997333
0.49997333
-0.12499333
-0.12499333
0.24998666
0.12499333
0.12499333
0.62496668
-0.24998666
0.62496668
-0.24998666
-0.37498000
-0.37498000
-0.24998666
0.49997333
-0.24998666
0.12499333
-0.49997333
-0.12499333
0.62496668
0.74996001
0.49997333
-0.24998666
-0.37498000
-0.37498000
-0.24998666
-0.74996001
-0.62496668
-0.37498000
-0.12499333
-0.24998666
-0.87495333
-0.12499333
0.37498000
-0.00000000
-0.00000000
-0.62496668
-0.12499333
0.24998666
-0.00000000
0.62496668
-0.49997333
-0.24998666
-0.74996001
-0.24998666
0.24998666
0.37498000
-0.00000000
-0.37498000
0.49997333
0.12499333
0.49997333
-0.37498000
0.12499333
-0.49997333
-0.49997333
-0.24998666
-0.49997333
0.62496668
0.37498000
0.49997333
-0.12499333
0.24998666
0.00000000
-0.49997333
-0.24998666
0.12499333
-0.49997333
-0.24998666
-0.49997333
0.37498000
0.00000000
0.24998666
-0.49997333
0.62496668
-0.49997333
-0.74996001
0.49997333
0.49997333
-0.12499333
0.24998666
0.62496668
0.24998666
0.37498000
0.00000000
0.24998666
0.49997333
-0.49997333
0.00000000
0.24998666
0.37498000
-0.12499333
0.12499333
-0.12499333
0.00000000
-0.62496668
-0.12499333
-0.62496668
-0.62496668
-0.62496668
-0.62496668
-0.49997333
0.74996001
-0.24998666
0.37498000
0.74996001
0.62496668
0.74996001
0.87495333
-0.37498000
-0.12499333
-0.49997333
-0.74996001
0.37498000
-0.37498000
0.12499333
0.62496668
0.74996001
0.62496668
0.24998666
-0.37498000
0.62496668
0.87495333
-0.37498000
-0.37498000
-0.37498000
-0.24998666
0.49997333
0.24998666
-0.49997333
-0.49997333
0.37498000
-0.62496668
-0.74996001
0.24998666
0.00000000
-0.24998666
-0.12499333
-0.12499333
0.12499333
-0.62496668
-0.37498000
-0.12499333
0.49997333
0.37498000
-0.37498000
-0.24998666
0.00000000
0.49997333
0.74996001
-0.37498000
-0.37498000
0.12499333
-0.37498000
-0.37498000
0.24998666
0.99994665
1.49992001
1.12494004
0.37498000
0.62496668
1.12494004
0.37498000
-0.74996001
0.37498000
0.12499333
-0.62496668
-1.37492669
-0.37498000
-0.62496668
0.00000000
0.24998666
0.00000000
0.00000000
-0.49997333
0.00000000
-0.62496668
0.00000000
-0.24998666
-0.62496668
0.24998666
-0.24998666
0.62496668
-0.49997333
-0.49997333
0.00000000
-0.49997333
-0.87495333
-0.62496668
0.49997333
-0.49997333
-0.12499333
-0.24998666
0.37498000
0.12499333
-0.49997333
-0.24998666
0.49997333
0.49997333
-0.49997333
-0.00000000
0.00000000
0.62496668
-0.12499333
-0.12499333
0.00000000
0.37498000
-0.24998666
0.49997333
0.00000000
0.37498000
-0.12499333
-0.49997333
0.24998666
-0.00000000
